~o
<STREAMINFO> 1 39
<VECSIZE> 39<NULLD><MFCC_E_D_A_Z><DIAGC>
~s "silst"
<MEAN> 39
 -1.735624e+00 6.391020e-03 1.152406e+00 -5.650381e-01 1.592625e+00 -1.090531e-01 3.803673e-01 -1.014184e+00 -5.626840e-01 2.377134e-01 3.815429e-01 4.532323e-01 3.306877e-01 -4.651301e-02 -2.178509e-03 1.550039e-02 5.136549e-03 3.109754e-03 -2.206037e-02 -7.609957e-02 -1.304408e-02 -2.708975e-02 -4.876054e-03 -3.950409e-03 6.524310e-03 -1.768975e-03 1.525444e-02 3.499349e-03 -1.669241e-02 3.749794e-03 -1.321871e-02 7.007082e-03 -5.301555e-03 2.351200e-02 2.928190e-02 8.432406e-03 -1.574487e-03 -4.039263e-03 1.693095e-03
<VARIANCE> 39
 2.335906e+00 4.313375e+00 5.980711e+00 8.437210e+00 1.043416e+01 1.038924e+01 1.297004e+01 1.348951e+01 1.459612e+01 1.262725e+01 1.269417e+01 1.025034e+01 4.815062e-03 1.513040e-01 3.645800e-01 6.816244e-01 9.049069e-01 1.225577e+00 1.081214e+00 1.385328e+00 1.504630e+00 1.918642e+00 1.562670e+00 1.704755e+00 1.153731e+00 1.460655e-04 3.289224e-02 7.797937e-02 1.527711e-01 1.950185e-01 2.639885e-01 2.233146e-01 2.726844e-01 3.131656e-01 4.199063e-01 3.393806e-01 3.944238e-01 2.470159e-01 2.842571e-05
<GCONST> 5.357028e+01
~h "ba"
<BEGINHMM>
<NUMSTATES> 5
<STATE> 2
<MEAN> 39
 -4.460068e-02 6.237214e-01 5.394734e-01 -6.680649e-01 1.414671e+00 -6.417412e-01 -1.087657e-01 -2.038184e-01 -1.776295e-01 2.343471e-01 3.012477e-01 3.435219e-01 4.535443e-01 5.790674e-01 -7.174975e-01 -7.270431e-01 -1.465023e-01 -4.741447e-01 -5.314178e-01 7.538281e-02 1.199249e-01 3.651906e-01 9.256863e-02 -3.936395e-02 6.543272e-02 3.263781e-02 2.015996e-01 -3.847174e-01 -3.961093e-01 1.406509e-02 -2.323421e-01 -8.538732e-02 9.547305e-02 5.034010e-02 1.166165e-01 -5.023360e-02 -8.808292e-02 -6.778980e-02 1.892033e-02
<VARIANCE> 39
 1.079542e+01 1.030778e+01 1.359250e+01 9.879597e+00 1.350142e+01 1.695492e+01 1.596159e+01 1.595217e+01 1.468033e+01 1.235438e+01 1.259062e+01 1.073964e+01 3.531788e-02 2.293856e+00 2.234187e+00 3.265847e+00 1.283672e+00 2.634145e+00 2.993778e+00 2.367736e+00 2.286806e+00 2.261779e+00 1.745117e+00 1.690325e+00 1.485451e+00 8.495197e-03 2.826647e-01 2.801725e-01 3.582728e-01 2.464655e-01 3.859123e-01 4.971929e-01 4.636748e-01 4.643306e-01 4.371922e-01 3.488994e-01 3.456763e-01 3.170193e-01 6.544481e-04
<GCONST> 8.380067e+01
<STATE> 3
<MEAN> 39
 4.660777e+00 -1.020908e+01 -9.363612e+00 -7.460672e-01 -4.317712e+00 -2.947054e+00 2.365233e+00 5.152625e-01 3.052186e+00 -1.009427e+00 -1.583590e+00 -1.185673e+00 9.064823e-01 -3.383198e-01 -1.971439e+00 -1.184974e+00 5.275993e-01 -7.991318e-02 5.436790e-01 5.700629e-01 3.310483e-02 2.231514e-01 -5.239986e-01 -3.629822e-01 -3.348132e-01 5.219818e-02 -4.842303e-01 4.782459e-01 6.548963e-01 1.940031e-01 4.631273e-01 2.896812e-01 -1.449926e-01 -6.106133e-02 -2.352421e-01 1.605496e-02 1.114215e-01 8.474227e-02 -2.838942e-02
<VARIANCE> 39
 1.287180e+01 1.729791e+01 1.915143e+01 1.522146e+01 2.081853e+01 5.752287e+01 3.369311e+01 3.776783e+01 2.307442e+01 2.270719e+01 2.384140e+01 2.903762e+01 5.398431e-03 1.535813e+00 1.931812e+00 3.166918e+00 1.599125e+00 2.803905e+00 3.544275e+00 3.823440e+00 3.328219e+00 2.498243e+00 2.466626e+00 2.465997e+00 2.806651e+00 2.998642e-03 3.073065e-01 2.066062e-01 2.484910e-01 2.205004e-01 4.923470e-01 8.368274e-01 7.118847e-01 5.601241e-01 4.386024e-01 4.720385e-01 4.050572e-01 4.421463e-01 1.923937e-04
<GCONST> 9.074970e+01
<STATE> 4
<MEAN> 39
 2.162495e+00 -1.242600e+01 -8.122791e+00 2.473121e+00 -2.348557e+00 -7.756386e-01 2.637915e+00 1.504448e+00 2.474949e+00 -1.469955e+00 -1.284775e+00 -7.558028e-01 8.702576e-01 -3.192161e-02 2.508306e-01 2.702080e-01 -9.602913e-02 -6.220949e-02 6.537523e-02 -4.350236e-02 -1.740334e-02 -8.015154e-02 6.657600e-02 5.636161e-02 1.084838e-02 -1.098361e-02 2.726987e-02 1.281127e-01 5.207810e-02 -8.736125e-02 -3.473367e-02 -2.291789e-02 -3.350811e-02 -2.171895e-02 -1.472436e-02 2.557770e-02 5.729371e-03 1.994757e-03 -2.177493e-03
<VARIANCE> 39
 1.021200e+01 1.090517e+01 3.177209e+01 1.973249e+01 1.626846e+01 2.995758e+01 2.142822e+01 2.349328e+01 1.990331e+01 2.059515e+01 2.212254e+01 2.322020e+01 1.306025e-02 1.597867e-01 4.648111e-01 5.024917e-01 6.601421e-01 6.163317e-01 6.478044e-01 6.469696e-01 6.738279e-01 6.612786e-01 6.980872e-01 6.386541e-01 5.738244e-01 2.375641e-04 2.706734e-02 5.116780e-02 6.575847e-02 7.789435e-02 9.912991e-02 1.175259e-01 1.265887e-01 1.218805e-01 1.161604e-01 1.212616e-01 1.148691e-01 1.051981e-01 1.861236e-05
<GCONST> 4.753654e+01
<TRANSP> 5
 0.000000e+00 1.000000e+00 0.000000e+00 0.000000e+00 0.000000e+00
 0.000000e+00 8.571289e-01 1.428711e-01 0.000000e+00 0.000000e+00
 0.000000e+00 0.000000e+00 7.623492e-01 2.376508e-01 0.000000e+00
 0.000000e+00 0.000000e+00 0.000000e+00 9.442207e-01 5.577925e-02
 0.000000e+00 0.000000e+00 0.000000e+00 0.000000e+00 0.000000e+00
<ENDHMM>
~h "er"
<BEGINHMM>
<NUMSTATES> 5
<STATE> 2
<MEAN> 39
 1.893548e+00 -1.729246e+00 -1.300723e+00 -8.673815e-01 -3.210654e+00 -2.998945e+00 -1.959812e-01 5.457225e-01 6.529669e-01 1.757353e-01 2.256604e-01 3.788309e-01 5.881830e-01 5.844811e-01 -9.335591e-01 -4.948310e-01 -1.159577e-01 -1.158320e+00 -7.739686e-01 -1.526502e-02 7.279762e-02 8.406804e-02 1.078085e-03 -2.181860e-02 5.974972e-02 3.968152e-02 1.651256e-02 -5.398371e-02 -2.085119e-02 2.946731e-02 -3.247337e-02 1.457990e-02 -2.226625e-02 -3.872220e-02 -4.628548e-02 -2.239508e-02 -4.052789e-02 -2.505974e-02 6.250984e-03
<VARIANCE> 39
 1.235370e+01 2.521535e+01 2.383598e+01 1.827753e+01 4.188766e+01 4.480382e+01 3.791214e+01 3.186157e+01 2.545270e+01 2.003131e+01 2.050018e+01 1.689896e+01 4.073108e-02 1.139895e+00 1.604098e+00 2.032189e+00 1.988070e+00 3.755480e+00 4.103761e+00 3.890513e+00 4.017343e+00 3.184202e+00 2.626717e+00 2.719777e+00 2.298568e+00 4.033410e-03 2.009210e-01 2.771938e-01 3.199157e-01 2.928254e-01 7.110212e-01 6.992674e-01 6.917694e-01 7.392911e-01 6.062258e-01 4.909927e-01 4.992636e-01 4.360344e-01 4.846361e-04
<GCONST> 9.594449e+01
<STATE> 3
<MEAN> 39
 3.724354e+00 -7.896343e+00 -1.095007e+00 -4.657400e+00 -1.037747e+01 -2.150066e+00 -5.293626e-01 -5.440077e-01 -8.029201e-01 -1.725379e+00 -4.009402e+00 -3.395738e+00 9.082942e-01 5.714569e-03 2.233932e-01 4.279036e-01 2.778935e-02 1.764502e-01 1.124795e-01 -2.591160e-01 -6.182269e-02 1.136427e-01 7.637806e-02 1.004194e-01 -2.172547e-02 5.468474e-03 -3.969259e-02 1.401835e-01 5.323978e-02 5.508406e-02 1.750446e-01 5.720893e-02 3.098633e-02 5.381660e-02 6.922629e-02 6.101983e-02 9.733287e-02 9.837056e-02 -6.673318e-03
<VARIANCE> 39
 7.191405e+00 1.811972e+01 3.485818e+01 4.628929e+01 2.583593e+01 3.671053e+01 3.609325e+01 4.120231e+01 4.165613e+01 5.152942e+01 7.372553e+01 8.365060e+01 6.188501e-03 2.113091e-01 6.514821e-01 7.763035e-01 8.837925e-01 1.268192e+00 1.308269e+00 1.556046e+00 1.953369e+00 2.481726e+00 3.434372e+00 4.512598e+00 5.039062e+00 6.706432e-04 4.470196e-02 7.508758e-02 1.103860e-01 1.319858e-01 2.051639e-01 2.323086e-01 2.705229e-01 3.189381e-01 3.887564e-01 5.354574e-01 6.911594e-01 6.926153e-01 6.228265e-05
<GCONST> 7.921478e+01
<STATE> 4
<MEAN> 39
 4.795272e+00 -3.767490e+00 -2.852857e-01 9.152426e-01 -6.448663e+00 -5.978137e+00 -2.139256e+00 1.450141e-01 5.300354e-01 -1.305147e-01 6.628711e-01 1.195626e+00 8.279741e-01 -1.717342e-01 2.991599e-01 2.822976e-01 8.669760e-02 3.068861e-01 2.979696e-01 7.293999e-02 -1.048107e-01 -1.304046e-01 -5.059723e-02 -5.279285e-02 -3.903471e-02 -1.410695e-02 -4.299773e-02 1.853262e-02 -5.693811e-03 -1.113296e-02 5.745265e-02 4.798908e-02 2.354212e-02 -5.339080e-03 -6.528916e-03 -5.966336e-04 -2.328484e-02 -3.925305e-02 -3.002763e-03
<VARIANCE> 39
 6.828094e+00 1.309904e+01 4.107118e+01 3.309524e+01 3.181868e+01 5.152589e+01 3.503407e+01 2.130334e+01 2.735033e+01 2.599406e+01 1.904969e+01 1.674477e+01 2.051412e-02 2.290064e-01 3.653152e-01 6.667263e-01 6.647682e-01 1.005491e+00 1.124452e+00 1.154870e+00 1.033249e+00 1.121727e+00 1.075766e+00 9.569588e-01 1.059247e+00 4.885977e-04 2.980082e-02 4.828307e-02 8.242092e-02 9.444472e-02 1.311902e-01 1.670288e-01 1.720439e-01 1.769207e-01 1.888513e-01 1.850161e-01 1.638935e-01 1.742779e-01 3.238515e-05
<GCONST> 5.947030e+01
<TRANSP> 5
 0.000000e+00 1.000000e+00 0.000000e+00 0.000000e+00 0.000000e+00
 0.000000e+00 8.632851e-01 1.367149e-01 0.000000e+00 0.000000e+00
 0.000000e+00 0.000000e+00 8.499132e-01 1.500868e-01 0.000000e+00
 0.000000e+00 0.000000e+00 0.000000e+00 9.316756e-01 6.832441e-02
 0.000000e+00 0.000000e+00 0.000000e+00 0.000000e+00 0.000000e+00
<ENDHMM>
~h "qi"
<BEGINHMM>
<NUMSTATES> 5
<STATE> 2
<MEAN> 39
 -1.412612e+00 -4.585559e-01 6.977909e-02 2.347193e-01 7.237278e-01 3.833372e-01 2.415150e-01 3.269682e-01 -2.713454e-02 6.177241e-01 2.735249e-01 6.801397e-01 4.229915e-01 -2.424954e-01 -4.120219e-02 -3.601784e-01 1.479203e-01 -1.486320e-01 -1.208316e-02 -1.380688e-01 8.031705e-02 -1.072308e-02 1.059772e-02 -1.187471e-02 3.496512e-02 -4.224543e-03 2.524007e-02 5.450255e-02 -2.182730e-02 7.199694e-02 -6.278433e-02 3.203366e-02 -9.433557e-03 1.401370e-02 2.343161e-02 -2.229112e-02 -4.602834e-03 -3.091898e-02 7.342525e-03
<VARIANCE> 39
 3.767019e+00 6.237554e+00 8.466292e+00 1.023483e+01 1.355197e+01 1.210639e+01 1.433910e+01 1.380193e+01 1.370395e+01 1.284842e+01 1.229771e+01 1.147246e+01 1.419247e-02 3.528457e-01 7.149937e-01 9.433121e-01 1.324385e+00 1.682647e+00 1.464835e+00 1.716220e+00 1.687782e+00 1.723900e+00 1.532994e+00 1.513200e+00 1.388962e+00 1.920235e-03 6.053546e-02 1.240842e-01 1.698205e-01 2.559774e-01 3.164362e-01 2.908517e-01 3.368003e-01 3.489367e-01 3.577529e-01 3.122100e-01 2.998069e-01 2.734368e-01 1.847947e-04
<GCONST> 6.597633e+01
<STATE> 3
<MEAN> 39
 -2.588676e+00 1.944708e+00 -2.408622e+00 2.797493e+00 -1.271935e+00 2.062705e+00 -9.768277e-01 1.380664e+00 4.464687e-01 -3.048348e-01 5.966932e-01 -1.049589e-01 6.179275e-01 3.693563e-02 6.214882e-01 1.517049e-01 5.089557e-02 1.428795e-01 1.393631e-01 -4.686495e-02 -1.134863e-02 -2.455910e-02 -1.847333e-01 4.066893e-03 -1.349079e-01 2.339861e-02 -1.742342e-03 1.977980e-02 4.046172e-02 -5.838369e-02 4.445377e-02 -3.331409e-02 -9.367371e-04 -3.089781e-02 -4.343275e-02 -5.818763e-03 -1.731950e-02 -5.599218e-03 -1.735095e-03
<VARIANCE> 39
 7.187418e+00 1.192299e+01 1.043253e+01 9.266825e+00 1.394464e+01 1.908476e+01 1.743078e+01 2.010592e+01 2.005007e+01 1.939367e+01 1.883829e+01 1.730517e+01 1.425937e-02 5.572047e-01 7.921448e-01 1.149855e+00 1.020209e+00 1.534133e+00 1.742670e+00 1.785440e+00 2.256728e+00 1.889090e+00 2.092940e+00 1.963011e+00 1.906429e+00 7.491770e-04 1.001430e-01 1.417714e-01 2.038784e-01 1.870330e-01 2.912345e-01 3.096202e-01 3.392328e-01 3.882420e-01 3.644827e-01 3.831966e-01 3.497765e-01 3.466094e-01 1.216084e-04
<GCONST> 7.181113e+01
<STATE> 4
<MEAN> 39
 -2.064224e+00 6.087376e+00 -6.119492e-02 2.309881e+00 1.323662e+00 2.233158e+00 -5.748428e-01 1.286320e+00 -4.297092e-01 -3.625994e-01 2.758738e-01 -6.008592e-01 6.918893e-01 3.052607e-02 -1.642249e-01 5.681591e-02 -8.538754e-02 6.533995e-02 -8.270985e-02 7.176182e-02 -4.928577e-02 -1.843799e-02 5.802861e-02 1.012542e-02 4.871624e-02 -9.136045e-03 1.320317e-02 -7.566587e-02 1.173440e-02 -2.263481e-02 -2.638460e-03 -1.333627e-02 6.661989e-03 -6.139600e-03 1.495847e-02 1.043010e-02 7.453093e-03 2.128666e-02 -2.766707e-03
<VARIANCE> 39
 5.077325e+00 8.264553e+00 1.196456e+01 1.006447e+01 1.599299e+01 2.887929e+01 2.042101e+01 3.751468e+01 2.264266e+01 3.036003e+01 3.550691e+01 2.586275e+01 1.708350e-02 1.320373e-01 4.127384e-01 4.409875e-01 6.012192e-01 7.494046e-01 9.406763e-01 1.017460e+00 1.194962e+00 1.176577e+00 1.146144e+00 1.163105e+00 1.009548e+00 3.966647e-04 2.562799e-02 6.672685e-02 9.143879e-02 1.172078e-01 1.510062e-01 1.871803e-01 1.981833e-01 2.333851e-01 2.320471e-01 2.196907e-01 2.345753e-01 2.014787e-01 4.112738e-05
<GCONST> 5.682911e+01
<TRANSP> 5
 0.000000e+00 1.000000e+00 0.000000e+00 0.000000e+00 0.000000e+00
 0.000000e+00 8.943293e-01 1.056707e-01 0.000000e+00 0.000000e+00
 0.000000e+00 0.000000e+00 8.998861e-01 1.001139e-01 0.000000e+00
 0.000000e+00 0.000000e+00 0.000000e+00 9.416475e-01 5.835246e-02
 0.000000e+00 0.000000e+00 0.000000e+00 0.000000e+00 0.000000e+00
<ENDHMM>
~h "si"
<BEGINHMM>
<NUMSTATES> 5
<STATE> 2
<MEAN> 39
 -1.473833e+00 -1.226826e+00 -5.181055e-01 -6.415726e-02 2.720088e-01 7.552845e-01 -3.335441e-01 6.837245e-01 1.695513e-01 7.801046e-03 2.274123e-01 2.895227e-01 4.529789e-01 -8.437358e-03 1.289156e-02 1.307978e-01 8.105699e-02 -4.585697e-02 7.742850e-02 5.522736e-02 -7.541582e-03 1.625778e-03 -1.068598e-02 4.420842e-02 3.267407e-03 4.928977e-03 7.323109e-02 2.924719e-02 9.269826e-02 6.666694e-02 -6.564428e-02 1.978930e-02 2.630995e-02 -5.179464e-02 -9.119812e-03 -2.972384e-02 -3.123991e-02 -3.538391e-02 6.693302e-03
<VARIANCE> 39
 5.325834e+00 6.713020e+00 7.842006e+00 9.083572e+00 1.222191e+01 1.432752e+01 1.613142e+01 1.404863e+01 1.395310e+01 1.320397e+01 1.222481e+01 1.102480e+01 1.214544e-02 4.988925e-01 6.459119e-01 1.014763e+00 1.261422e+00 1.306985e+00 1.586425e+00 2.243063e+00 1.776728e+00 1.734829e+00 1.636088e+00 1.548285e+00 1.395512e+00 1.390074e-03 6.935352e-02 1.063095e-01 1.782131e-01 2.363762e-01 2.737742e-01 3.050852e-01 4.416256e-01 3.655816e-01 3.611340e-01 3.442474e-01 3.254462e-01 2.937024e-01 1.182096e-04
<GCONST> 6.642010e+01
<STATE> 3
<MEAN> 39
 5.352961e-01 5.197767e-01 3.017959e+00 2.873090e-01 -2.970590e+00 5.061944e-01 -3.842335e+00 -1.235843e+00 -3.511518e+00 -3.511026e+00 -2.125903e+00 -2.202809e+00 7.391574e-01 1.693738e-01 2.890931e-01 4.650366e-01 3.083691e-01 -2.178302e-01 2.001397e-01 6.489492e-02 -1.612637e-01 2.645783e-02 -9.474066e-02 -2.590789e-01 -3.936214e-01 2.260480e-02 -6.554201e-02 5.310099e-03 -7.578428e-02 -2.056179e-02 1.210713e-01 5.972574e-02 7.431037e-02 1.040209e-01 1.465897e-01 1.463259e-01 1.137531e-01 1.254549e-01 -6.828085e-03
<VARIANCE> 39
 4.704075e+00 9.300524e+00 9.618788e+00 3.880733e+01 2.201488e+01 2.492382e+01 8.578732e+01 2.452003e+01 4.387928e+01 3.833847e+01 5.013652e+01 5.314811e+01 1.357948e-02 3.109181e-01 4.538590e-01 7.927502e-01 1.566508e+00 1.864253e+00 1.717761e+00 3.651228e+00 2.071175e+00 2.861619e+00 2.770955e+00 3.292000e+00 3.231870e+00 1.217237e-03 5.301625e-02 7.589542e-02 1.235855e-01 2.279135e-01 2.527688e-01 2.654637e-01 4.661561e-01 3.255924e-01 3.816050e-01 3.933226e-01 4.937910e-01 4.945300e-01 6.225344e-05
<GCONST> 7.886025e+01
<STATE> 4
<MEAN> 39
 3.159599e-01 2.111908e+00 5.691827e+00 3.643980e+00 -1.203608e+00 5.267332e+00 3.044816e+00 -9.475958e-01 3.175920e+00 7.472388e-01 2.347165e-01 -2.365928e-01 6.718498e-01 -7.651550e-02 1.362223e-02 -1.727758e-01 -2.005204e-01 2.079658e-01 -6.520489e-02 -1.017473e-01 8.215542e-02 -1.717515e-02 5.352132e-02 9.987717e-02 1.981046e-01 -1.441822e-02 -1.998345e-02 -4.499594e-02 -8.907510e-02 -6.066808e-02 -3.623250e-03 -1.082663e-01 -7.900286e-02 -2.051724e-02 -9.809047e-02 -5.385914e-02 -3.082001e-02 -2.945439e-02 -3.055975e-03
<VARIANCE> 39
 3.845171e+00 7.881851e+00 8.189584e+00 1.529097e+01 2.592115e+01 2.866402e+01 4.523612e+01 3.517538e+01 2.901893e+01 1.945361e+01 1.672819e+01 1.452173e+01 2.314122e-02 1.874364e-01 3.701117e-01 6.330620e-01 8.579890e-01 1.231703e+00 1.663748e+00 1.859664e+00 1.756214e+00 1.752243e+00 1.488874e+00 1.388504e+00 1.299591e+00 6.830221e-04 3.072673e-02 5.762609e-02 1.044382e-01 1.496869e-01 2.205458e-01 2.719780e-01 3.000224e-01 3.070175e-01 2.994264e-01 2.657655e-01 2.492081e-01 2.279748e-01 6.480348e-05
<GCONST> 6.411049e+01
<TRANSP> 5
 0.000000e+00 1.000000e+00 0.000000e+00 0.000000e+00 0.000000e+00
 0.000000e+00 9.144436e-01 8.555643e-02 0.000000e+00 0.000000e+00
 0.000000e+00 0.000000e+00 8.612645e-01 1.387355e-01 0.000000e+00
 0.000000e+00 0.000000e+00 0.000000e+00 9.191482e-01 8.085179e-02
 0.000000e+00 0.000000e+00 0.000000e+00 0.000000e+00 0.000000e+00
<ENDHMM>
~h "sp"
<BEGINHMM>
<NUMSTATES> 3
<STATE> 2
~s "silst"
<TRANSP> 3
 0.000000e+00 3.824036e-01 6.175964e-01
 0.000000e+00 9.252102e-01 7.478980e-02
 0.000000e+00 0.000000e+00 0.000000e+00
<ENDHMM>
~h "wu"
<BEGINHMM>
<NUMSTATES> 5
<STATE> 2
<MEAN> 39
 3.732769e+00 1.622439e+00 -1.610287e+00 -2.111938e+00 -7.870130e-01 -1.516680e+00 -7.621195e-01 -1.176922e+00 -2.054255e+00 -2.331269e+00 -2.755873e+00 -2.269481e+00 6.509708e-01 4.396895e-01 5.501927e-01 2.587507e-01 -2.767393e-01 4.970236e-02 1.504623e-01 3.452973e-01 2.992055e-01 1.680604e-01 5.013841e-02 -5.766818e-02 -1.143774e-01 7.545782e-03 2.454703e-02 4.165488e-02 4.130368e-02 3.395717e-02 -1.313343e-02 4.674251e-02 9.011135e-02 1.388853e-01 1.392804e-01 1.154271e-01 9.652337e-02 7.934339e-02 1.701766e-03
<VARIANCE> 39
 1.905851e+01 2.635085e+01 2.676449e+01 2.453568e+01 2.717580e+01 2.547352e+01 2.782120e+01 2.679548e+01 3.082302e+01 3.984843e+01 4.927615e+01 5.253648e+01 4.237476e-02 1.277976e+00 1.750946e+00 1.734893e+00 1.908907e+00 2.612426e+00 2.524917e+00 2.922753e+00 3.096606e+00 3.264800e+00 3.338305e+00 3.439503e+00 3.202805e+00 2.529751e-03 1.785260e-01 2.324511e-01 2.688983e-01 3.540407e-01 4.499606e-01 4.490105e-01 5.296363e-01 5.508827e-01 5.985610e-01 6.044543e-01 5.965931e-01 5.663040e-01 2.255805e-04
<GCONST> 9.538552e+01
<STATE> 3
<MEAN> 39
 6.091080e+00 4.318687e+00 1.123298e-01 -6.816345e-01 2.125807e+00 2.729959e+00 4.664578e+00 4.263093e+00 2.824352e+00 1.504735e+00 3.482412e-01 1.457785e-02 7.209202e-01 -1.235647e-01 3.487810e-02 2.459933e-01 1.158429e-01 -6.290816e-02 -3.521920e-02 1.343778e-01 2.833174e-01 3.593820e-01 3.080786e-01 2.489742e-01 1.973992e-01 -4.262507e-03 -1.146837e-01 -8.108405e-02 -2.465469e-02 -1.115119e-02 -5.274847e-02 -9.454363e-02 -1.728650e-01 -1.691747e-01 -1.158007e-01 -4.825063e-02 -2.935224e-02 -1.949188e-02 -3.402018e-03
<VARIANCE> 39
 1.112551e+01 1.454088e+01 1.846754e+01 3.198525e+01 3.182331e+01 3.041342e+01 2.958040e+01 2.550040e+01 2.261617e+01 2.037351e+01 1.724121e+01 1.550738e+01 1.573648e-02 7.912686e-01 1.188110e+00 1.912408e+00 2.948483e+00 3.288481e+00 3.185962e+00 3.381959e+00 3.091155e+00 2.673448e+00 2.249863e+00 1.875545e+00 1.740610e+00 9.394287e-04 8.944160e-02 1.938270e-01 3.303167e-01 5.791742e-01 6.241131e-01 6.492658e-01 6.521252e-01 5.710589e-01 5.033237e-01 4.371212e-01 3.629083e-01 3.377943e-01 8.915950e-05
<GCONST> 8.604855e+01
<STATE> 4
<MEAN> 39
 3.757477e+00 4.777487e+00 1.982175e+00 -1.773243e+00 -3.691908e-01 -2.069643e-01 2.111454e+00 2.851696e+00 2.976034e+00 2.743127e+00 1.431067e+00 7.176455e-01 6.116700e-01 -2.130288e-01 -1.797541e-01 -2.338578e-02 4.648636e-02 8.840911e-02 1.986321e-02 -8.675144e-02 -1.584888e-01 -1.354281e-01 -7.670262e-02 -9.928964e-03 2.418416e-02 -9.439500e-03 -1.143959e-02 -3.655535e-02 -4.253842e-02 7.928893e-03 3.679598e-02 2.648676e-02 -1.098341e-02 -3.951076e-02 -5.106809e-02 -4.868670e-02 -3.161116e-02 -1.860380e-02 -6.535468e-04
<VARIANCE> 39
 1.031972e+01 8.883073e+00 8.505224e+00 1.141586e+01 1.544475e+01 1.758782e+01 1.959643e+01 1.998721e+01 1.716698e+01 1.727487e+01 1.597719e+01 1.294375e+01 1.872622e-02 2.973433e-01 4.189065e-01 5.827491e-01 8.993604e-01 1.191861e+00 1.331180e+00 1.526335e+00 1.647344e+00 1.728817e+00 1.557666e+00 1.474821e+00 1.231144e+00 4.144258e-04 4.234890e-02 7.042127e-02 1.127806e-01 1.716911e-01 2.250267e-01 2.434002e-01 3.079503e-01 3.221033e-01 3.455129e-01 2.978810e-01 2.946173e-01 2.438112e-01 4.005199e-05
<GCONST> 6.183797e+01
<TRANSP> 5
 0.000000e+00 1.000000e+00 0.000000e+00 0.000000e+00 0.000000e+00
 0.000000e+00 8.490164e-01 1.509835e-01 0.000000e+00 0.000000e+00
 0.000000e+00 0.000000e+00 8.563488e-01 1.436513e-01 0.000000e+00
 0.000000e+00 0.000000e+00 0.000000e+00 9.345902e-01 6.540982e-02
 0.000000e+00 0.000000e+00 0.000000e+00 0.000000e+00 0.000000e+00
<ENDHMM>
~h "yi"
<BEGINHMM>
<NUMSTATES> 5
<STATE> 2
<MEAN> 39
 -5.902231e-01 2.406121e+00 1.120654e+00 9.236776e-01 1.128539e+00 1.533917e+00 5.306016e-01 6.295948e-01 2.351378e-01 4.217312e-01 6.057889e-01 9.408098e-02 5.429577e-01 -3.395640e-01 7.976402e-01 -1.916418e-01 3.772138e-01 1.350422e-01 3.442065e-01 -2.254387e-01 2.809356e-01 -8.584379e-02 1.011924e-01 -7.005780e-03 4.958962e-02 6.757757e-03 2.282729e-02 -6.224352e-02 -1.375294e-01 3.093852e-02 -1.186116e-01 -7.266089e-02 -7.830739e-02 1.013137e-02 -6.962954e-02 -5.153904e-02 -7.327155e-02 -3.220470e-02 4.518575e-03
<VARIANCE> 39
 5.027653e+00 1.934798e+01 1.254309e+01 2.073527e+01 2.466162e+01 2.045242e+01 2.041736e+01 2.228781e+01 2.163569e+01 1.925888e+01 1.838518e+01 1.536461e+01 2.884659e-02 5.184203e-01 1.920886e+00 1.620911e+00 2.249682e+00 2.988871e+00 2.706480e+00 2.811710e+00 3.094139e+00 2.899201e+00 2.522280e+00 2.237445e+00 1.851812e+00 2.647992e-03 7.947581e-02 3.189197e-01 2.702129e-01 4.155911e-01 5.034912e-01 4.819928e-01 5.211459e-01 5.511767e-01 5.555510e-01 4.676237e-01 4.306799e-01 3.332995e-01 1.971108e-04
<GCONST> 8.496438e+01
<STATE> 3
<MEAN> 39
 -2.190426e+00 6.238070e+00 -2.472999e+00 3.571397e+00 -1.868372e+00 2.893432e+00 -3.144476e+00 1.468867e+00 -1.628526e+00 -7.726682e-01 7.089687e-02 -8.490481e-01 7.177851e-01 -3.384100e-02 -6.333293e-03 -7.602203e-02 -4.398463e-02 -3.947246e-02 -3.826718e-02 -5.612749e-02 -1.695682e-02 -7.356141e-02 -2.165593e-03 -8.258307e-02 -2.435331e-02 4.184245e-03 3.399858e-02 -8.023008e-02 8.597473e-02 -5.922910e-02 6.435061e-02 -4.084339e-02 8.008095e-02 -2.636759e-02 4.151431e-02 1.946731e-02 1.596030e-02 3.506139e-02 -3.524890e-03
<VARIANCE> 39
 5.784781e+00 6.373781e+00 1.233848e+01 1.067396e+01 1.923177e+01 2.879012e+01 2.515591e+01 4.201534e+01 2.760714e+01 4.231347e+01 3.595274e+01 3.998419e+01 1.054988e-02 1.546452e-01 3.923644e-01 5.705274e-01 6.870733e-01 8.981082e-01 9.815102e-01 1.320191e+00 1.398728e+00 1.401335e+00 1.473295e+00 1.417383e+00 1.482450e+00 4.571838e-04 2.815775e-02 7.190794e-02 1.073236e-01 1.338068e-01 1.710985e-01 1.998714e-01 2.446922e-01 2.827513e-01 2.615384e-01 2.792833e-01 2.741421e-01 2.720604e-01 4.038302e-05
<GCONST> 6.193092e+01
<STATE> 4
<MEAN> 39
 -1.756475e+00 4.315044e+00 -1.116314e-01 1.993312e+00 1.235798e+00 2.107747e+00 -2.168646e-01 1.861744e+00 -1.229790e+00 1.151032e+00 -5.685529e-01 9.537483e-03 6.088083e-01 2.156735e-02 -1.406431e-01 5.635564e-02 -9.465792e-02 5.263393e-02 -7.588903e-02 7.863294e-02 -7.223535e-02 6.466825e-02 -2.368663e-03 5.277465e-02 1.495762e-02 -7.445227e-03 8.088652e-04 -1.467721e-02 1.094312e-02 -1.292597e-02 -3.143665e-03 -9.887046e-03 -8.391549e-03 -1.590810e-02 1.179898e-02 -1.561591e-02 1.556745e-02 -3.183932e-03 -1.038194e-03
<VARIANCE> 39
 3.377588e+00 8.098414e+00 7.134715e+00 9.735277e+00 1.322190e+01 1.424194e+01 1.798084e+01 2.235177e+01 1.876344e+01 2.022735e+01 1.493809e+01 1.582119e+01 1.533425e-02 1.355982e-01 3.983030e-01 4.890369e-01 7.049106e-01 9.015161e-01 1.008248e+00 1.210039e+00 1.347743e+00 1.396848e+00 1.268530e+00 1.152329e+00 1.137263e+00 4.226191e-04 2.514419e-02 6.888802e-02 9.984984e-02 1.386140e-01 1.804606e-01 1.913621e-01 2.379647e-01 2.592151e-01 2.820006e-01 2.435011e-01 2.290581e-01 2.307442e-01 4.023930e-05
<GCONST> 5.464158e+01
<TRANSP> 5
 0.000000e+00 1.000000e+00 0.000000e+00 0.000000e+00 0.000000e+00
 0.000000e+00 8.252571e-01 1.747428e-01 0.000000e+00 0.000000e+00
 0.000000e+00 0.000000e+00 8.809142e-01 1.190858e-01 0.000000e+00
 0.000000e+00 0.000000e+00 0.000000e+00 9.312064e-01 6.879355e-02
 0.000000e+00 0.000000e+00 0.000000e+00 0.000000e+00 0.000000e+00
<ENDHMM>
~h "ling"
<BEGINHMM>
<NUMSTATES> 5
<STATE> 2
<MEAN> 39
 -1.628646e-01 1.771867e+00 2.997989e+00 5.709450e-01 3.255326e-01 2.031787e+00 -9.167269e-02 -2.289198e-01 3.063345e-01 -4.931356e-01 -2.322083e-01 6.966517e-02 6.025615e-01 -1.907737e-01 1.126689e+00 2.059614e-01 -7.353350e-04 4.154734e-01 3.585532e-01 -2.924238e-01 1.549571e-01 8.831093e-02 -3.277035e-01 -7.755851e-02 -2.360085e-01 2.316927e-02 2.250270e-02 2.064149e-01 -1.607748e-01 1.380187e-01 4.104222e-02 -8.167764e-02 -1.142766e-02 7.222083e-02 -2.530924e-02 -3.614553e-02 8.882481e-03 -7.548167e-02 7.159702e-03
<VARIANCE> 39
 5.552221e+00 1.650787e+01 1.630986e+01 1.515526e+01 2.308554e+01 2.596594e+01 2.447069e+01 2.105546e+01 2.646054e+01 2.105181e+01 2.095844e+01 1.874739e+01 2.584906e-02 6.063353e-01 1.964856e+00 1.904945e+00 2.056875e+00 2.421355e+00 3.566895e+00 2.762545e+00 2.941744e+00 3.147741e+00 2.593065e+00 2.523363e+00 2.033843e+00 3.454717e-03 9.150913e-02 2.762713e-01 3.329153e-01 3.794555e-01 4.585817e-01 6.267483e-01 5.850601e-01 5.294003e-01 6.287563e-01 5.148104e-01 4.590852e-01 3.703274e-01 4.162932e-04
<GCONST> 8.799628e+01
<STATE> 3
<MEAN> 39
 -5.210165e-01 9.238942e+00 3.981674e-01 4.241591e+00 1.629852e+00 3.089046e+00 -4.729940e-02 1.625416e+00 1.042123e-01 -1.646758e+00 -4.961529e-01 -2.251610e+00 7.753363e-01 1.175327e-02 2.069599e-02 -2.887556e-01 2.656014e-01 -1.339570e-02 3.443170e-02 2.087085e-01 2.157299e-01 1.552735e-02 2.540663e-01 1.214779e-01 8.072122e-02 -5.882395e-03 2.421783e-02 -3.125520e-01 5.625908e-02 -1.413230e-01 -4.264757e-02 -5.656103e-02 5.848506e-03 -6.644806e-02 -4.885697e-03 6.907619e-02 -6.689791e-03 1.088697e-01 -8.481591e-03
<VARIANCE> 39
 6.171013e+00 9.080834e+00 1.681086e+01 1.864078e+01 2.492095e+01 2.976027e+01 3.265300e+01 3.860338e+01 3.266895e+01 3.402665e+01 3.439020e+01 2.968691e+01 8.620589e-03 2.133250e-01 1.225121e+00 9.222289e-01 1.469902e+00 1.345571e+00 1.831579e+00 2.128154e+00 2.196111e+00 2.213705e+00 2.059072e+00 1.984708e+00 1.735256e+00 7.967423e-04 3.643488e-02 1.309865e-01 1.676751e-01 2.286133e-01 2.506624e-01 3.504513e-01 3.836588e-01 3.984854e-01 3.972284e-01 3.886873e-01 3.878790e-01 3.106836e-01 9.914798e-05
<GCONST> 7.529233e+01
<STATE> 4
<MEAN> 39
 -4.695324e-01 3.993709e+00 1.012020e+00 1.499214e+00 2.380934e+00 1.611022e+00 1.247708e+00 1.440977e+00 3.933291e-01 5.636156e-01 5.636733e-01 1.334220e-01 5.782838e-01 -4.142304e-03 -4.421521e-01 5.555354e-04 -2.544779e-01 -2.920614e-02 -2.223214e-01 8.512559e-03 -1.806714e-01 -6.120500e-02 1.021492e-02 -5.016205e-02 7.248218e-02 -1.583730e-02 -8.756500e-03 2.830980e-02 -3.861997e-03 7.444357e-03 -1.499162e-02 6.301179e-03 -2.236547e-02 -7.672348e-03 3.448023e-03 -2.789693e-02 -4.528421e-03 -2.113834e-02 8.851994e-04
<VARIANCE> 39
 4.368349e+00 1.454743e+01 8.243766e+00 1.403825e+01 1.285828e+01 1.696317e+01 1.722483e+01 1.988886e+01 1.871809e+01 1.663798e+01 1.639068e+01 1.419020e+01 1.519979e-02 1.871158e-01 5.476389e-01 6.316233e-01 9.010187e-01 1.051500e+00 1.255946e+00 1.383952e+00 1.574330e+00 1.519978e+00 1.310656e+00 1.348427e+00 1.188520e+00 3.663940e-04 3.131150e-02 9.293839e-02 1.117162e-01 1.645647e-01 1.981608e-01 2.344330e-01 2.634777e-01 2.989480e-01 2.882110e-01 2.554463e-01 2.598869e-01 2.267015e-01 5.305409e-05
<GCONST> 5.953884e+01
<TRANSP> 5
 0.000000e+00 1.000000e+00 0.000000e+00 0.000000e+00 0.000000e+00
 0.000000e+00 8.368530e-01 1.631470e-01 0.000000e+00 0.000000e+00
 0.000000e+00 0.000000e+00 8.690743e-01 1.309257e-01 0.000000e+00
 0.000000e+00 0.000000e+00 0.000000e+00 9.281861e-01 7.181392e-02
 0.000000e+00 0.000000e+00 0.000000e+00 0.000000e+00 0.000000e+00
<ENDHMM>
~h "jiu"
<BEGINHMM>
<NUMSTATES> 5
<STATE> 2
<MEAN> 39
 -2.408656e+00 2.958935e+00 6.319414e-01 1.285903e+00 5.457782e-01 2.377659e+00 -1.446773e-01 1.156654e+00 3.239204e-02 -2.697415e-01 4.233934e-02 -1.033635e-01 5.744311e-01 3.979779e-02 4.347827e-01 5.809574e-01 -1.690512e-02 6.705359e-02 1.341040e-01 -1.699090e-01 -1.188107e-01 -2.917436e-02 -1.923599e-01 -1.713485e-01 -1.279499e-01 2.360164e-02 1.436317e-01 -1.490009e-01 5.255346e-02 -8.575396e-03 -1.423718e-01 -1.724395e-01 -2.464466e-02 -1.189993e-01 -6.360759e-02 -2.731229e-02 -3.348803e-02 -4.646644e-03 2.366427e-03
<VARIANCE> 39
 8.553126e+00 1.701143e+01 2.437823e+01 1.442201e+01 1.939984e+01 1.763907e+01 1.748020e+01 1.878827e+01 1.994893e+01 1.806306e+01 1.712950e+01 1.534648e+01 3.285764e-02 1.104310e+00 1.582931e+00 3.242380e+00 1.963745e+00 2.751205e+00 2.367319e+00 2.168436e+00 2.763431e+00 2.550437e+00 2.502998e+00 2.439335e+00 2.052662e+00 3.067606e-03 1.385718e-01 3.407260e-01 6.126215e-01 3.886507e-01 6.688582e-01 5.453263e-01 4.403821e-01 5.312808e-01 5.430827e-01 4.896596e-01 4.785608e-01 4.204021e-01 3.064557e-04
<GCONST> 8.797663e+01
<STATE> 3
<MEAN> 39
 4.556388e+00 -1.505526e+00 6.713727e-01 3.020905e+00 -5.020116e+00 -4.714603e+00 -2.299501e+00 -4.188945e-01 -3.344054e-01 -6.856878e-01 -6.654185e-01 5.106825e-03 8.422638e-01 9.483529e-01 -1.048800e+00 -1.733091e+00 2.898202e-01 -1.008431e-01 -1.186468e+00 -5.412415e-01 1.040736e-01 2.497364e-01 3.969205e-01 1.830439e-01 3.261647e-01 -1.004702e-03 -1.316277e-01 2.342537e-01 -2.592726e-01 -1.588937e-01 4.309033e-01 3.419162e-01 -2.988153e-02 3.001156e-02 1.218687e-01 1.029813e-01 4.638033e-02 -1.227009e-02 -6.315956e-03
<VARIANCE> 39
 1.021317e+01 2.111126e+01 5.111522e+01 2.095881e+01 3.677253e+01 5.089780e+01 4.011033e+01 3.667092e+01 3.864491e+01 3.089161e+01 3.985191e+01 3.189368e+01 9.555416e-03 5.697291e-01 1.891059e+00 3.174907e+00 2.493212e+00 6.056825e+00 5.843979e+00 5.219953e+00 5.189592e+00 4.949373e+00 3.700917e+00 3.301388e+00 3.142762e+00 4.436115e-04 5.992544e-02 2.632959e-01 7.594252e-01 4.868729e-01 8.143519e-01 1.124761e+00 1.066028e+00 1.149446e+00 9.850606e-01 8.478497e-01 6.664675e-01 6.239185e-01 5.867891e-05
<GCONST> 9.914354e+01
<STATE> 4
<MEAN> 39
 6.378739e+00 -4.255359e-01 -6.322972e+00 -8.414707e-01 1.551750e+00 -1.659848e+00 -3.020424e+00 -1.919410e+00 -4.451800e-01 8.734603e-01 -1.441323e-02 4.661987e-01 6.890847e-01 -4.628448e-01 2.564092e-01 5.467871e-01 -1.839328e-01 1.103775e-01 5.233868e-01 5.159540e-01 -3.229670e-02 -1.443258e-01 -8.371934e-02 3.973748e-02 -9.577610e-02 -2.241224e-02 -1.001778e-01 -2.884538e-02 1.865426e-01 8.167320e-02 -1.232274e-01 -6.278832e-02 9.922461e-02 1.020894e-01 -8.505221e-03 -4.823344e-02 4.844225e-03 1.354032e-02 -1.071189e-03
<VARIANCE> 39
 1.257171e+01 1.540548e+01 3.181419e+01 3.046743e+01 1.991664e+01 3.305013e+01 3.482109e+01 3.432724e+01 3.217270e+01 2.199056e+01 1.716697e+01 1.517951e+01 2.667929e-02 5.688545e-01 6.065331e-01 1.679502e+00 1.720351e+00 1.584034e+00 2.393673e+00 2.585576e+00 2.608301e+00 2.278867e+00 1.921276e+00 1.573333e+00 1.305582e+00 4.024618e-04 6.611256e-02 8.721165e-02 2.449073e-01 2.447369e-01 2.778061e-01 3.784846e-01 4.797833e-01 4.480873e-01 4.431054e-01 3.746965e-01 3.085149e-01 2.595496e-01 5.279416e-05
<GCONST> 7.758409e+01
<TRANSP> 5
 0.000000e+00 1.000000e+00 0.000000e+00 0.000000e+00 0.000000e+00
 0.000000e+00 9.155650e-01 8.443499e-02 0.000000e+00 0.000000e+00
 0.000000e+00 0.000000e+00 8.691952e-01 1.308048e-01 0.000000e+00
 0.000000e+00 0.000000e+00 0.000000e+00 9.155855e-01 8.441452e-02
 0.000000e+00 0.000000e+00 0.000000e+00 0.000000e+00 0.000000e+00
<ENDHMM>
~h "liu"
<BEGINHMM>
<NUMSTATES> 5
<STATE> 2
<MEAN> 39
 -7.789761e-01 4.258667e+00 4.038857e+00 -4.378046e-01 5.108381e-01 2.014607e+00 -1.063964e+00 -2.793215e-01 1.160319e-01 -1.757049e+00 -6.528436e-01 -6.599357e-01 7.426493e-01 4.755953e-02 2.414308e-01 2.522783e-01 -2.441395e-01 -3.289014e-01 -2.040866e-01 -3.975491e-01 -2.659612e-01 -1.770994e-01 -1.319538e-01 -1.813662e-01 -3.183425e-03 2.515025e-02 8.136971e-02 -1.521388e-01 -8.875360e-02 4.591142e-02 -1.575827e-01 -1.660859e-01 1.736033e-02 -4.623132e-02 -7.229200e-02 5.641211e-02 -9.159504e-03 8.836525e-03 2.560392e-04
<VARIANCE> 39
 5.555609e+00 1.896178e+01 2.392037e+01 1.613689e+01 2.503193e+01 2.912964e+01 3.011834e+01 2.671110e+01 3.398912e+01 2.659873e+01 3.202379e+01 2.660939e+01 3.104847e-02 4.642734e-01 1.853183e+00 1.478671e+00 1.429508e+00 2.603744e+00 2.702807e+00 2.394222e+00 2.643789e+00 3.157044e+00 2.433249e+00 2.707071e+00 2.112750e+00 2.111260e-03 7.131529e-02 2.362130e-01 2.800917e-01 2.945240e-01 3.790602e-01 4.544310e-01 4.590679e-01 4.662123e-01 5.269557e-01 4.369239e-01 4.836562e-01 3.734028e-01 3.165310e-04
<GCONST> 8.655435e+01
<STATE> 3
<MEAN> 39
 3.866459e+00 -2.120880e+00 -1.989647e+00 7.141790e-01 -7.331877e+00 -5.635250e+00 -3.267277e+00 -1.624772e+00 -2.343450e+00 -1.396996e+00 -2.552120e+00 -1.535089e+00 9.019822e-01 7.599905e-01 -6.863764e-01 -1.262273e+00 6.699228e-01 3.528040e-01 -5.717716e-01 -2.457366e-02 4.019545e-01 3.372633e-01 3.336598e-01 1.663550e-01 7.593621e-02 -5.006773e-03 -6.095651e-02 2.446792e-01 -1.853159e-02 -1.332207e-01 4.080100e-01 3.137254e-01 -4.974441e-02 1.011769e-02 1.548467e-01 -4.646417e-03 4.611265e-02 2.789205e-02 -3.739184e-03
<VARIANCE> 39
 1.237969e+01 2.386210e+01 4.346370e+01 3.114261e+01 4.236879e+01 4.329123e+01 4.627343e+01 4.750278e+01 5.399860e+01 5.047640e+01 6.397131e+01 6.803791e+01 4.950983e-03 5.184765e-01 1.843726e+00 2.953638e+00 2.320514e+00 4.778060e+00 5.598197e+00 4.823646e+00 4.151923e+00 4.592921e+00 3.718385e+00 4.335965e+00 4.656395e+00 3.326204e-04 5.930483e-02 1.980293e-01 4.324951e-01 4.274045e-01 6.839401e-01 9.132183e-01 8.807562e-01 8.506854e-01 8.645568e-01 6.454903e-01 7.274476e-01 6.950834e-01 4.329642e-05
<GCONST> 9.855976e+01
<STATE> 4
<MEAN> 39
 6.090546e+00 -5.080087e-01 -5.320205e+00 7.037640e-01 1.741696e+00 -2.098614e+00 -2.347097e+00 -1.170147e+00 1.596831e-01 1.000821e+00 -2.261882e-01 5.801602e-01 7.102222e-01 -5.794557e-01 3.095146e-01 6.566947e-01 -2.703259e-01 2.294204e-01 7.098408e-01 5.288715e-01 -3.873599e-02 -1.077927e-01 -7.730104e-02 9.107898e-02 -2.621372e-02 -3.078916e-02 -1.309534e-01 -3.961670e-02 1.527193e-01 1.471346e-02 -1.595566e-01 -5.181161e-02 8.204120e-02 7.230671e-02 -4.454783e-02 -5.881356e-02 -1.758972e-02 -1.329783e-02 -1.737053e-03
<VARIANCE> 39
 1.360875e+01 1.384599e+01 3.349266e+01 2.894195e+01 2.720334e+01 3.502060e+01 3.501571e+01 3.545808e+01 2.722575e+01 2.035721e+01 1.913190e+01 1.611875e+01 2.758067e-02 7.241333e-01 7.040387e-01 1.740835e+00 1.712551e+00 1.943289e+00 2.723648e+00 2.711518e+00 2.714887e+00 2.158897e+00 1.935388e+00 1.750154e+00 1.499990e+00 5.587265e-04 8.967856e-02 9.666818e-02 3.128792e-01 2.791170e-01 3.181984e-01 4.411177e-01 4.982937e-01 4.989898e-01 4.444023e-01 3.749540e-01 3.277226e-01 2.763609e-01 7.699988e-05
<GCONST> 8.101410e+01
<TRANSP> 5
 0.000000e+00 1.000000e+00 0.000000e+00 0.000000e+00 0.000000e+00
 0.000000e+00 9.179786e-01 8.202137e-02 0.000000e+00 0.000000e+00
 0.000000e+00 0.000000e+00 8.843125e-01 1.156875e-01 0.000000e+00
 0.000000e+00 0.000000e+00 0.000000e+00 8.944830e-01 1.055170e-01
 0.000000e+00 0.000000e+00 0.000000e+00 0.000000e+00 0.000000e+00
<ENDHMM>
~h "san"
<BEGINHMM>
<NUMSTATES> 5
<STATE> 2
<MEAN> 39
 -1.102717e-01 -2.830620e-01 7.882836e-01 4.330623e-01 -2.213770e-01 3.866438e-01 -3.810474e-02 -2.414765e-01 1.880233e-01 7.973086e-02 2.434312e-01 2.407773e-01 4.931401e-01 5.257596e-01 -8.427610e-02 1.043140e-01 -1.488212e-01 -9.353163e-01 -2.899303e-01 -2.080283e-01 -2.167430e-01 4.915201e-02 -4.660324e-02 1.586471e-01 -5.654654e-03 3.678329e-02 1.180148e-01 -1.791231e-01 -1.444866e-01 -1.704452e-01 -3.600343e-01 -4.779401e-02 -2.823227e-02 2.371329e-02 4.534613e-02 -3.329293e-02 -9.645653e-03 -6.882675e-02 1.307020e-02
<VARIANCE> 39
 9.243684e+00 7.940036e+00 8.513701e+00 1.113308e+01 1.923021e+01 1.657246e+01 1.570841e+01 1.608500e+01 1.321467e+01 1.318199e+01 1.285576e+01 1.117212e+01 2.927303e-02 1.499793e+00 1.020198e+00 1.159485e+00 2.043874e+00 4.084827e+00 2.687507e+00 2.621356e+00 2.216242e+00 1.862129e+00 1.855586e+00 1.836429e+00 1.619056e+00 5.479148e-03 2.117871e-01 1.887673e-01 2.737415e-01 3.893294e-01 4.883885e-01 4.518003e-01 4.376854e-01 4.616508e-01 3.954344e-01 4.013186e-01 4.043338e-01 3.458803e-01 4.047255e-04
<GCONST> 8.079466e+01
<STATE> 3
<MEAN> 39
 2.917951e+00 -5.953656e+00 -3.045270e+00 -4.400041e+00 -9.608265e+00 -4.576353e-01 -4.945218e-01 6.109863e-01 1.127581e+00 -1.021596e+00 -1.405365e-01 -1.898728e+00 8.867376e-01 -3.772299e-01 -1.281404e+00 -9.598163e-01 -6.212611e-01 9.271532e-02 6.262875e-01 6.431893e-01 6.012590e-01 2.291398e-02 -8.823052e-02 -2.819960e-01 -3.036902e-01 2.277167e-02 -2.378436e-01 1.105214e-01 1.444117e-01 3.127429e-01 6.834338e-01 1.349974e-01 1.272191e-01 -2.492384e-02 -9.363828e-02 6.250658e-02 6.167601e-03 1.187959e-01 -1.852340e-02
<VARIANCE> 39
 9.264235e+00 2.039672e+01 2.020974e+01 3.109166e+01 3.697319e+01 5.397462e+01 5.042859e+01 3.438895e+01 2.959700e+01 3.093684e+01 3.997702e+01 3.766686e+01 7.315574e-03 7.379391e-01 1.811931e+00 2.229480e+00 2.832866e+00 4.864387e+00 2.715413e+00 2.951464e+00 3.538342e+00 2.819434e+00 2.926782e+00 3.490794e+00 3.490605e+00 2.123277e-03 2.004965e-01 2.665502e-01 4.134006e-01 4.877833e-01 7.375833e-01 5.575202e-01 6.221527e-01 7.949269e-01 5.252364e-01 5.387871e-01 6.386020e-01 5.820587e-01 1.497312e-04
<GCONST> 9.597232e+01
<STATE> 4
<MEAN> 39
 8.994647e-01 -5.203794e+00 -1.192383e+00 -2.958455e+00 -3.889718e+00 2.046531e+00 6.649235e-01 6.334779e-01 7.952328e-01 -2.879808e-01 -5.267128e-01 -1.303175e+00 7.574823e-01 -9.524073e-02 5.530005e-01 3.895785e-01 2.353860e-01 4.266984e-01 -9.874264e-02 -1.129449e-01 -1.544566e-01 -4.120860e-02 4.212506e-02 -5.520376e-03 1.076001e-01 -2.296453e-02 1.540679e-02 6.675373e-02 1.133985e-03 -9.275115e-03 -3.707835e-02 -4.867797e-02 -3.758571e-02 -2.299282e-03 -2.313947e-04 -7.626575e-03 6.179678e-03 -9.159602e-04 -1.355255e-03
<VARIANCE> 39
 6.458687e+00 2.860066e+01 1.744251e+01 1.931013e+01 3.903637e+01 3.459650e+01 3.655667e+01 2.242456e+01 2.348269e+01 2.058313e+01 2.215663e+01 2.556039e+01 2.583328e-02 2.630702e-01 6.788113e-01 6.866776e-01 8.860942e-01 1.561091e+00 1.247870e+00 1.411830e+00 1.395609e+00 1.294869e+00 1.126952e+00 1.060495e+00 9.978326e-01 4.554416e-04 3.995730e-02 1.015803e-01 1.211889e-01 1.466330e-01 2.759616e-01 1.883545e-01 2.426879e-01 2.642344e-01 2.407454e-01 2.159249e-01 2.058172e-01 1.848897e-01 6.051028e-05
<GCONST> 6.618323e+01
<TRANSP> 5
 0.000000e+00 1.000000e+00 0.000000e+00 0.000000e+00 0.000000e+00
 0.000000e+00 8.684418e-01 1.315582e-01 0.000000e+00 0.000000e+00
 0.000000e+00 0.000000e+00 8.224534e-01 1.775466e-01 0.000000e+00
 0.000000e+00 0.000000e+00 0.000000e+00 9.327248e-01 6.727515e-02
 0.000000e+00 0.000000e+00 0.000000e+00 0.000000e+00 0.000000e+00
<ENDHMM>
~h "sil"
<BEGINHMM>
<NUMSTATES> 5
<STATE> 2
<MEAN> 39
 -1.374176e+00 -3.142513e-01 7.085997e-01 -7.474374e-01 1.531013e+00 -3.426835e-01 -5.348763e-02 -5.112274e-01 -2.932581e-01 3.407700e-01 3.073915e-01 5.016266e-01 3.094547e-01 1.331225e-02 -6.516124e-04 -6.249699e-03 4.484667e-02 6.307124e-03 3.531332e-02 3.316344e-02 1.931445e-02 2.492289e-02 7.970344e-03 -6.645901e-03 2.242084e-02 -1.018750e-03 -2.181936e-03 -4.954468e-03 2.582785e-04 -8.136536e-03 -5.498763e-05 1.295772e-05 8.261277e-03 -9.488948e-03 -1.667619e-02 -1.417996e-02 -4.070234e-03 -3.108135e-04 2.474417e-04
<VARIANCE> 39
 2.086779e+00 4.390912e+00 4.973733e+00 7.060935e+00 8.327015e+00 1.153441e+01 1.216580e+01 1.308253e+01 1.389366e+01 1.197392e+01 1.134863e+01 1.001188e+01 7.014753e-03 1.111753e-01 2.350473e-01 4.562431e-01 7.581431e-01 8.171095e-01 1.168355e+00 1.197075e+00 1.419740e+00 1.613449e+00 1.247025e+00 1.241874e+00 1.145332e+00 5.484808e-05 2.274760e-02 4.725086e-02 9.386292e-02 1.619921e-01 1.643417e-01 2.399876e-01 2.392583e-01 2.930110e-01 3.452951e-01 2.515594e-01 2.610772e-01 2.358637e-01 8.690616e-06
<GCONST> 4.519481e+01
<STATE> 3
~s "silst"
<STATE> 4
<MEAN> 39
 -1.506807e+00 -7.359139e-01 7.240469e-01 -1.193208e+00 1.840039e+00 -5.818812e-01 6.748884e-01 -5.717145e-01 -6.831781e-01 -3.549373e-01 3.790361e-01 2.250076e-01 3.399153e-01 -4.484925e-02 3.336709e-02 -4.822570e-02 -1.274752e-01 -6.996520e-02 -4.065211e-02 2.953513e-02 1.247267e-03 1.812142e-03 1.435157e-02 6.967346e-02 -7.529432e-02 6.439323e-03 3.243830e-02 5.236736e-02 3.478482e-02 6.629332e-02 -2.570382e-02 2.634471e-02 -1.388878e-02 3.297205e-02 1.780790e-02 3.525906e-02 1.956616e-02 -3.746216e-03 1.660442e-03
<VARIANCE> 39
 4.054390e+00 6.679935e+00 5.921846e+00 8.222760e+00 1.204935e+01 1.071128e+01 1.407445e+01 1.270976e+01 1.472422e+01 1.210928e+01 1.018016e+01 9.825326e+00 1.294295e-02 2.432144e-01 5.650697e-01 5.822015e-01 9.493943e-01 1.290689e+00 1.080688e+00 1.431962e+00 1.558036e+00 1.700885e+00 1.419773e+00 1.133052e+00 1.011256e+00 5.067461e-04 5.441064e-02 1.238351e-01 1.245451e-01 1.715389e-01 2.819431e-01 2.203653e-01 2.884814e-01 3.244740e-01 3.403161e-01 2.835408e-01 2.245087e-01 1.994660e-01 1.151543e-04
<GCONST> 5.783170e+01
<TRANSP> 5
 0.000000e+00 1.000000e+00 0.000000e+00 0.000000e+00 0.000000e+00
 0.000000e+00 9.299933e-01 2.271657e-02 4.729013e-02 0.000000e+00
 0.000000e+00 0.000000e+00 9.371431e-01 6.285691e-02 0.000000e+00
 0.000000e+00 1.610893e-01 0.000000e+00 7.311827e-01 1.077280e-01
 0.000000e+00 0.000000e+00 0.000000e+00 0.000000e+00 0.000000e+00
<ENDHMM>
