~o
<STREAMINFO> 1 39
<VECSIZE> 39<NULLD><MFCC_E_D_A_Z><DIAGC>
~s "silst"
<MEAN> 39
 -1.641908e+00 2.899588e-01 1.092919e+00 -2.717780e-01 1.650597e+00 3.818790e-01 7.478086e-01 -6.055243e-01 -3.907097e-01 2.841051e-01 2.984696e-01 4.487922e-01 3.557822e-01 -9.857656e-02 -3.620394e-02 3.897576e-03 -1.240539e-02 2.745086e-02 -4.112881e-02 -8.306878e-02 -4.595712e-02 -7.564711e-02 -4.261561e-02 -6.062768e-03 7.492050e-03 -4.463798e-03 2.543406e-02 5.942822e-03 -2.534320e-02 -1.232015e-02 -2.258490e-02 -1.336865e-02 -3.061609e-02 1.981045e-02 2.867029e-02 8.418461e-03 5.904987e-03 -6.521743e-03 2.739150e-03
<VARIANCE> 39
 2.622748e+00 4.895082e+00 6.580297e+00 8.043075e+00 1.066654e+01 1.096781e+01 1.323543e+01 1.380869e+01 1.481774e+01 1.251704e+01 1.277764e+01 9.990848e+00 4.953554e-03 1.794787e-01 4.091692e-01 7.417664e-01 8.618871e-01 1.205932e+00 1.143034e+00 1.391836e+00 1.569279e+00 1.893891e+00 1.515888e+00 1.679072e+00 1.103153e+00 2.491763e-04 3.868014e-02 8.519728e-02 1.623035e-01 1.831520e-01 2.570115e-01 2.351955e-01 2.754647e-01 3.223553e-01 4.079985e-01 3.207651e-01 3.845194e-01 2.347779e-01 4.151009e-05
<GCONST> 5.536438e+01
~h "ba"
<BEGINHMM>
<NUMSTATES> 5
<STATE> 2
<MEAN> 39
 -3.882161e-01 7.390716e-01 7.996964e-01 -6.803712e-01 1.571324e+00 -5.129337e-01 -3.411176e-03 -3.441119e-01 -3.196765e-01 1.130671e-01 2.849949e-01 3.250198e-01 4.358968e-01 4.599518e-01 -5.987935e-01 -5.816004e-01 -1.343453e-01 -3.725719e-01 -4.685276e-01 4.288771e-02 7.626366e-02 3.093537e-01 1.070245e-01 -9.779617e-03 7.510667e-02 2.399812e-02 2.357235e-01 -3.552429e-01 -3.868259e-01 9.614547e-03 -2.417250e-01 -9.432770e-02 7.889517e-02 5.656599e-02 1.212090e-01 -3.589832e-02 -8.224719e-02 -6.163624e-02 1.979822e-02
<VARIANCE> 39
 8.659432e+00 9.901890e+00 1.212991e+01 9.905913e+00 1.281743e+01 1.559171e+01 1.484494e+01 1.596184e+01 1.433135e+01 1.229944e+01 1.283195e+01 1.070900e+01 3.105578e-02 2.177152e+00 2.038770e+00 2.913013e+00 1.283087e+00 2.507848e+00 2.728422e+00 2.261291e+00 2.214193e+00 2.176303e+00 1.698017e+00 1.659721e+00 1.422102e+00 7.921519e-03 2.380917e-01 2.926061e-01 3.574696e-01 2.474517e-01 3.716545e-01 4.697989e-01 4.364098e-01 4.563163e-01 4.317634e-01 3.396122e-01 3.443371e-01 3.086781e-01 5.879516e-04
<GCONST> 8.192784e+01
<STATE> 3
<MEAN> 39
 4.782478e+00 -9.771416e+00 -9.113183e+00 -7.415209e-01 -4.078169e+00 -3.104550e+00 2.199976e+00 6.795695e-01 3.058963e+00 -7.587963e-01 -1.400175e+00 -9.493489e-01 8.990847e-01 -1.909859e-01 -2.071851e+00 -1.352757e+00 4.954698e-01 -1.720300e-01 4.197019e-01 5.635680e-01 7.245700e-02 2.994074e-01 -4.968017e-01 -3.879241e-01 -3.419864e-01 5.947866e-02 -5.024605e-01 4.326220e-01 6.203722e-01 1.886897e-01 4.490318e-01 3.046437e-01 -1.224541e-01 -7.003766e-02 -2.353364e-01 -1.136575e-02 9.277477e-02 6.489730e-02 -2.811556e-02
<VARIANCE> 39
 1.218689e+01 1.895782e+01 1.914731e+01 1.469014e+01 2.031788e+01 5.604205e+01 3.378994e+01 3.637837e+01 2.233150e+01 2.219100e+01 2.279112e+01 2.696266e+01 6.255548e-03 1.862802e+00 1.763280e+00 3.200483e+00 1.602940e+00 2.915800e+00 3.966543e+00 3.788038e+00 3.375639e+00 2.598801e+00 2.452671e+00 2.418263e+00 2.731436e+00 3.396793e-03 2.979958e-01 2.403646e-01 2.612459e-01 2.166395e-01 4.650420e-01 8.148753e-01 7.331743e-01 5.599315e-01 4.379040e-01 4.687609e-01 4.008854e-01 4.335113e-01 1.866409e-04
<GCONST> 9.105074e+01
<STATE> 4
<MEAN> 39
 2.160451e+00 -1.264523e+01 -8.278254e+00 2.618591e+00 -2.316148e+00 -8.195227e-01 2.623451e+00 1.506155e+00 2.513133e+00 -1.546052e+00 -1.337462e+00 -7.908874e-01 8.783368e-01 -2.151950e-02 1.911148e-01 2.350197e-01 -6.697562e-02 -6.474955e-02 5.691047e-02 -2.780320e-02 -6.600500e-03 -7.199890e-02 5.930134e-02 5.520472e-02 1.068424e-02 -9.819361e-03 3.267257e-02 1.239274e-01 4.581439e-02 -9.912597e-02 -4.479624e-02 -2.092709e-02 -2.426704e-02 -1.894739e-02 -1.293871e-02 2.887211e-02 8.725412e-03 1.698977e-03 -2.072746e-03
<VARIANCE> 39
 1.037661e+01 9.606956e+00 3.197821e+01 1.945818e+01 1.592707e+01 2.941364e+01 2.134116e+01 2.373554e+01 1.997896e+01 2.066523e+01 2.234108e+01 2.366109e+01 1.083763e-02 1.366129e-01 3.577509e-01 4.115179e-01 5.920813e-01 5.591201e-01 6.053408e-01 5.951427e-01 6.156649e-01 5.983340e-01 6.526428e-01 6.006517e-01 5.450403e-01 1.897399e-04 2.412681e-02 4.375212e-02 5.886455e-02 6.902641e-02 8.939917e-02 1.055402e-01 1.164306e-01 1.122900e-01 1.089558e-01 1.139566e-01 1.077822e-01 9.993704e-02 1.436253e-05
<GCONST> 4.428327e+01
<TRANSP> 5
 0.000000e+00 1.000000e+00 0.000000e+00 0.000000e+00 0.000000e+00
 0.000000e+00 8.608970e-01 1.391030e-01 0.000000e+00 0.000000e+00
 0.000000e+00 0.000000e+00 7.746484e-01 2.253516e-01 0.000000e+00
 0.000000e+00 0.000000e+00 0.000000e+00 9.417054e-01 5.829454e-02
 0.000000e+00 0.000000e+00 0.000000e+00 0.000000e+00 0.000000e+00
<ENDHMM>
~h "er"
<BEGINHMM>
<NUMSTATES> 5
<STATE> 2
<MEAN> 39
 1.966668e+00 -1.809660e+00 -1.440059e+00 -8.531862e-01 -3.240107e+00 -3.165837e+00 -1.825781e-01 6.190708e-01 6.664060e-01 2.113865e-01 2.650424e-01 4.048333e-01 5.906923e-01 5.534625e-01 -9.064249e-01 -4.671603e-01 -1.105108e-01 -1.120972e+00 -7.402081e-01 -2.267311e-02 7.478989e-02 8.211792e-02 -3.490774e-03 -1.899768e-02 5.707939e-02 3.875477e-02 1.306268e-02 -4.715418e-02 -1.199764e-02 2.645373e-02 -2.710276e-02 2.450306e-02 -2.626587e-02 -4.095843e-02 -4.583474e-02 -2.499365e-02 -4.617915e-02 -2.906948e-02 6.039727e-03
<VARIANCE> 39
 1.237132e+01 2.528075e+01 2.376758e+01 1.827749e+01 4.192450e+01 4.492282e+01 3.729790e+01 3.191219e+01 2.551484e+01 1.980728e+01 2.012097e+01 1.653222e+01 4.041532e-02 1.148576e+00 1.595644e+00 2.017448e+00 1.953276e+00 3.701585e+00 4.058921e+00 3.812064e+00 3.953688e+00 3.150701e+00 2.589605e+00 2.661690e+00 2.268554e+00 4.014269e-03 1.997491e-01 2.722570e-01 3.130923e-01 2.864438e-01 6.955714e-01 6.867457e-01 6.746098e-01 7.230058e-01 5.959548e-01 4.842899e-01 4.859316e-01 4.258230e-01 4.777444e-04
<GCONST> 9.547771e+01
<STATE> 3
<MEAN> 39
 3.526431e+00 -8.019277e+00 -1.060241e+00 -5.096079e+00 -1.040702e+01 -1.798493e+00 -2.162315e-01 -8.519157e-01 -6.102383e-01 -1.581801e+00 -4.197268e+00 -3.489253e+00 9.121484e-01 1.217850e-02 2.395891e-01 4.397171e-01 3.234778e-03 1.877277e-01 1.073309e-01 -2.677665e-01 -4.252883e-02 1.443169e-01 9.426131e-02 1.170627e-01 3.238000e-03 5.258859e-03 -3.119814e-02 1.419044e-01 5.372703e-02 6.047325e-02 1.738762e-01 5.228395e-02 2.835212e-02 6.004673e-02 6.313886e-02 5.545424e-02 9.945145e-02 9.924190e-02 -6.569128e-03
<VARIANCE> 39
 6.929516e+00 1.752231e+01 3.465692e+01 4.500951e+01 2.522536e+01 3.480482e+01 3.556713e+01 3.917773e+01 4.242765e+01 5.336805e+01 7.382658e+01 8.510480e+01 5.523032e-03 2.004371e-01 6.262744e-01 7.346569e-01 8.430717e-01 1.178713e+00 1.267792e+00 1.528176e+00 1.940946e+00 2.472286e+00 3.448191e+00 4.564934e+00 5.119766e+00 6.015440e-04 4.214336e-02 7.271938e-02 1.043198e-01 1.272591e-01 2.006598e-01 2.229353e-01 2.684570e-01 3.183833e-01 3.879912e-01 5.353771e-01 7.013323e-01 6.974216e-01 6.060629e-05
<GCONST> 7.825690e+01
<STATE> 4
<MEAN> 39
 5.026867e+00 -3.957883e+00 -4.369222e-01 1.058075e+00 -6.671972e+00 -6.318872e+00 -2.397298e+00 3.044645e-01 4.433289e-01 -2.323291e-01 6.896389e-01 1.211764e+00 8.407022e-01 -1.517982e-01 2.959447e-01 3.065779e-01 9.370198e-02 2.676729e-01 2.861944e-01 6.508682e-02 -1.203814e-01 -1.523711e-01 -6.425893e-02 -6.509839e-02 -5.058095e-02 -1.322781e-02 -4.789002e-02 2.489492e-02 -3.475786e-03 -1.126261e-02 6.373109e-02 5.465022e-02 3.165345e-02 -8.902860e-03 -3.310142e-03 4.023799e-03 -2.262806e-02 -3.932479e-02 -3.322944e-03
<VARIANCE> 39
 6.186346e+00 1.267774e+01 4.156914e+01 3.282916e+01 3.189466e+01 5.034225e+01 3.507265e+01 2.226628e+01 2.748290e+01 2.628650e+01 1.958439e+01 1.706553e+01 1.648260e-02 2.087452e-01 3.588134e-01 6.283817e-01 6.279474e-01 9.627817e-01 1.061858e+00 1.121936e+00 9.948862e-01 1.075385e+00 1.049395e+00 9.510973e-01 1.051495e+00 4.557955e-04 2.764829e-02 4.492162e-02 7.776944e-02 8.945355e-02 1.247972e-01 1.585776e-01 1.651697e-01 1.699699e-01 1.818946e-01 1.815333e-01 1.608953e-01 1.747218e-01 2.683937e-05
<GCONST> 5.796442e+01
<TRANSP> 5
 0.000000e+00 1.000000e+00 0.000000e+00 0.000000e+00 0.000000e+00
 0.000000e+00 8.676981e-01 1.323019e-01 0.000000e+00 0.000000e+00
 0.000000e+00 0.000000e+00 8.444585e-01 1.555415e-01 0.000000e+00
 0.000000e+00 0.000000e+00 0.000000e+00 9.288954e-01 7.110457e-02
 0.000000e+00 0.000000e+00 0.000000e+00 0.000000e+00 0.000000e+00
<ENDHMM>
~h "qi"
<BEGINHMM>
<NUMSTATES> 5
<STATE> 2
<MEAN> 39
 -1.302431e+00 -4.699012e-01 9.861752e-02 2.646104e-01 5.796686e-01 4.529629e-01 2.169141e-01 3.618810e-01 2.829444e-02 6.151876e-01 2.614956e-01 6.418108e-01 4.369862e-01 -2.543563e-01 -6.785209e-03 -3.320680e-01 1.461948e-01 -1.093013e-01 6.441751e-03 -1.247113e-01 9.286074e-02 -1.709445e-02 2.235321e-02 -1.291764e-02 3.720048e-02 -5.403623e-03 2.382244e-02 4.763476e-02 -3.334389e-02 6.809044e-02 -6.162372e-02 1.898225e-02 -1.408704e-02 1.356511e-02 1.815755e-02 -2.869468e-02 -6.166650e-03 -2.794753e-02 6.823292e-03
<VARIANCE> 39
 4.308846e+00 7.169184e+00 9.475198e+00 1.074992e+01 1.534118e+01 1.295027e+01 1.517466e+01 1.410540e+01 1.395101e+01 1.317497e+01 1.285821e+01 1.209378e+01 1.695154e-02 3.803116e-01 7.974880e-01 1.053187e+00 1.442181e+00 1.856583e+00 1.577339e+00 1.781848e+00 1.738397e+00 1.780737e+00 1.570414e+00 1.561172e+00 1.438306e+00 2.093040e-03 6.182825e-02 1.337148e-01 1.858886e-01 2.654634e-01 3.395218e-01 3.096521e-01 3.489185e-01 3.549183e-01 3.637845e-01 3.169768e-01 3.062171e-01 2.821229e-01 2.023585e-04
<GCONST> 6.841029e+01
<STATE> 3
<MEAN> 39
 -2.565110e+00 2.124426e+00 -2.327498e+00 2.789356e+00 -1.176381e+00 2.092380e+00 -9.865579e-01 1.382768e+00 4.452681e-01 -3.545888e-01 6.130659e-01 -1.777292e-01 6.251051e-01 2.971854e-02 6.247258e-01 1.527857e-01 3.795299e-02 1.478938e-01 1.325299e-01 -5.371079e-02 -1.636114e-02 -3.769266e-02 -1.780516e-01 -3.345278e-03 -1.366469e-01 2.319919e-02 -4.067022e-03 8.612487e-03 3.189849e-02 -5.602618e-02 3.722365e-02 -3.484725e-02 -3.426694e-04 -2.868220e-02 -4.398085e-02 2.829448e-04 -1.650805e-02 -3.307393e-04 -2.060940e-03
<VARIANCE> 39
 7.233381e+00 1.230271e+01 1.077495e+01 9.354376e+00 1.398519e+01 1.950337e+01 1.748369e+01 2.059625e+01 2.036194e+01 1.940822e+01 1.932770e+01 1.722691e+01 1.422352e-02 5.526587e-01 7.738853e-01 1.142174e+00 1.013652e+00 1.512306e+00 1.735860e+00 1.764436e+00 2.244574e+00 1.879358e+00 2.072387e+00 1.956114e+00 1.898053e+00 7.305106e-04 9.973541e-02 1.423982e-01 2.049898e-01 1.860162e-01 2.884641e-01 3.063584e-01 3.333792e-01 3.875710e-01 3.611597e-01 3.777391e-01 3.487999e-01 3.439003e-01 1.208172e-04
<GCONST> 7.176910e+01
<STATE> 4
<MEAN> 39
 -2.148075e+00 6.536628e+00 -1.771122e-01 2.460910e+00 1.204353e+00 2.308610e+00 -7.543620e-01 1.306778e+00 -4.796297e-01 -4.617465e-01 2.432672e-01 -6.728275e-01 7.135602e-01 4.282449e-02 -1.368330e-01 6.472754e-02 -5.037221e-02 8.076363e-02 -5.530981e-02 8.676679e-02 -2.535923e-02 -1.305801e-02 6.794365e-02 1.025514e-02 4.386929e-02 -7.587231e-03 1.725969e-02 -9.066606e-02 2.337636e-02 -2.958699e-02 4.201401e-03 -1.314348e-02 1.539493e-02 -7.773099e-03 1.832278e-02 1.248713e-02 1.096608e-02 2.161890e-02 -3.322769e-03
<VARIANCE> 39
 5.248789e+00 6.316289e+00 1.236862e+01 9.907850e+00 1.676905e+01 3.082210e+01 2.104446e+01 3.993606e+01 2.357258e+01 3.260788e+01 3.807505e+01 2.778129e+01 1.218543e-02 1.193492e-01 3.490382e-01 3.953441e-01 5.499486e-01 6.899385e-01 8.660770e-01 9.515684e-01 1.102188e+00 1.118066e+00 1.090449e+00 1.089704e+00 9.637630e-01 2.600474e-04 2.295451e-02 5.628738e-02 8.283503e-02 1.108225e-01 1.409802e-01 1.799876e-01 1.876280e-01 2.210742e-01 2.223061e-01 2.147709e-01 2.270119e-01 1.932452e-01 2.471562e-05
<GCONST> 5.401527e+01
<TRANSP> 5
 0.000000e+00 1.000000e+00 0.000000e+00 0.000000e+00 0.000000e+00
 0.000000e+00 8.928443e-01 1.071558e-01 0.000000e+00 0.000000e+00
 0.000000e+00 0.000000e+00 9.017883e-01 9.821165e-02 0.000000e+00
 0.000000e+00 0.000000e+00 0.000000e+00 9.338102e-01 6.618975e-02
 0.000000e+00 0.000000e+00 0.000000e+00 0.000000e+00 0.000000e+00
<ENDHMM>
~h "si"
<BEGINHMM>
<NUMSTATES> 5
<STATE> 2
<MEAN> 39
 -1.258328e+00 -1.347946e+00 -5.405067e-01 6.562746e-02 5.188776e-02 8.532159e-01 -2.963893e-01 7.233551e-01 3.383357e-01 3.021510e-02 2.382393e-01 3.053121e-01 4.758341e-01 8.870619e-03 4.019592e-02 1.865480e-01 9.143411e-02 -5.597850e-02 9.953719e-02 7.406115e-02 -2.133970e-02 1.167882e-02 -1.227160e-02 3.416513e-02 -9.460608e-03 6.611824e-03 5.997521e-02 3.032785e-02 9.197251e-02 6.616275e-02 -7.140246e-02 1.404160e-02 1.447959e-02 -5.548383e-02 -1.854036e-02 -3.753623e-02 -3.519368e-02 -3.560001e-02 6.238614e-03
<VARIANCE> 39
 6.504597e+00 7.973109e+00 8.618143e+00 9.468287e+00 1.311447e+01 1.561168e+01 1.670116e+01 1.435672e+01 1.399752e+01 1.371749e+01 1.264960e+01 1.134781e+01 1.469997e-02 5.594984e-01 7.213535e-01 1.112596e+00 1.366630e+00 1.389533e+00 1.683944e+00 2.452272e+00 1.833741e+00 1.778166e+00 1.707411e+00 1.583406e+00 1.467284e+00 1.615536e-03 7.722012e-02 1.128090e-01 1.849256e-01 2.420339e-01 2.847392e-01 3.180594e-01 4.568699e-01 3.716721e-01 3.620015e-01 3.510062e-01 3.310894e-01 3.029481e-01 1.318623e-04
<GCONST> 6.890318e+01
<STATE> 3
<MEAN> 39
 4.765573e-01 7.176655e-01 3.012453e+00 -2.646117e-01 -2.960294e+00 3.129029e-01 -4.879374e+00 -1.335856e+00 -4.244537e+00 -4.041736e+00 -2.646393e+00 -2.419548e+00 7.424976e-01 1.711546e-01 3.014254e-01 4.473958e-01 3.232543e-01 -1.650954e-01 1.954341e-01 5.903824e-02 -1.087478e-01 -8.174192e-03 -9.005183e-02 -2.499233e-01 -4.126220e-01 2.093717e-02 -5.687397e-02 3.334885e-03 -7.030292e-02 6.440829e-03 1.374391e-01 8.139170e-02 1.341455e-01 1.328665e-01 1.877653e-01 1.875267e-01 1.467489e-01 1.382381e-01 -7.015622e-03
<VARIANCE> 39
 4.573531e+00 1.001996e+01 9.397062e+00 3.579357e+01 2.185386e+01 2.460011e+01 7.741496e+01 2.430098e+01 4.050300e+01 3.669904e+01 5.012486e+01 5.544725e+01 1.252143e-02 2.797359e-01 4.397188e-01 7.507008e-01 1.470989e+00 1.835121e+00 1.641539e+00 3.421611e+00 2.056178e+00 2.816424e+00 2.774652e+00 3.340496e+00 3.271679e+00 1.085147e-03 5.213880e-02 7.751691e-02 1.233891e-01 2.143477e-01 2.373735e-01 2.497877e-01 4.195044e-01 3.113680e-01 3.597773e-01 3.737144e-01 4.881138e-01 4.972968e-01 5.745009e-05
<GCONST> 7.748827e+01
<STATE> 4
<MEAN> 39
 5.226690e-01 2.162426e+00 6.192125e+00 4.259146e+00 -1.553583e+00 5.717926e+00 3.561687e+00 -1.008628e+00 3.658100e+00 8.979039e-01 3.991384e-01 -2.562118e-01 7.038501e-01 -6.338901e-02 4.197228e-02 -1.417252e-01 -1.944856e-01 2.096886e-01 -4.435532e-02 -7.845897e-02 8.152641e-02 1.754221e-02 6.228017e-02 9.588262e-02 2.138028e-01 -1.299274e-02 -3.479757e-02 -5.986153e-02 -1.254337e-01 -9.810475e-02 3.224586e-04 -1.430135e-01 -1.108124e-01 -3.280370e-02 -1.257291e-01 -7.045662e-02 -4.361777e-02 -3.091727e-02 -4.737479e-03
<VARIANCE> 39
 3.810532e+00 8.239835e+00 6.279514e+00 1.537999e+01 2.737546e+01 2.792333e+01 4.834468e+01 3.763179e+01 2.809257e+01 2.013433e+01 1.738446e+01 1.500327e+01 1.699128e-02 1.901540e-01 3.583539e-01 6.195648e-01 8.830182e-01 1.287985e+00 1.692550e+00 1.941810e+00 1.787893e+00 1.757306e+00 1.542911e+00 1.426970e+00 1.351691e+00 7.007180e-04 3.037282e-02 5.472679e-02 9.664979e-02 1.521913e-01 2.237598e-01 2.665464e-01 3.083586e-01 3.074425e-01 2.836710e-01 2.729805e-01 2.511736e-01 2.335873e-01 4.513370e-05
<GCONST> 6.359774e+01
<TRANSP> 5
 0.000000e+00 1.000000e+00 0.000000e+00 0.000000e+00 0.000000e+00
 0.000000e+00 9.107964e-01 8.920362e-02 0.000000e+00 0.000000e+00
 0.000000e+00 0.000000e+00 8.515028e-01 1.484973e-01 0.000000e+00
 0.000000e+00 0.000000e+00 0.000000e+00 9.127854e-01 8.721466e-02
 0.000000e+00 0.000000e+00 0.000000e+00 0.000000e+00 0.000000e+00
<ENDHMM>
~h "sp"
<BEGINHMM>
<NUMSTATES> 3
<STATE> 2
~s "silst"
<TRANSP> 3
 0.000000e+00 4.638591e-01 5.361408e-01
 0.000000e+00 9.241279e-01 7.587209e-02
 0.000000e+00 0.000000e+00 0.000000e+00
<ENDHMM>
~h "wu"
<BEGINHMM>
<NUMSTATES> 5
<STATE> 2
<MEAN> 39
 3.685477e+00 1.535097e+00 -1.488824e+00 -1.952306e+00 -6.993957e-01 -1.564266e+00 -5.568327e-01 -9.054901e-01 -1.777022e+00 -2.145140e+00 -2.514949e+00 -2.123515e+00 6.440847e-01 4.276560e-01 5.612451e-01 2.407203e-01 -2.603147e-01 7.245386e-02 1.440608e-01 2.989291e-01 2.937836e-01 2.009066e-01 9.286032e-02 -4.144835e-03 -7.949518e-02 7.118719e-03 2.039826e-02 4.147397e-02 3.631842e-02 2.959308e-02 -1.459980e-02 5.942375e-02 8.514627e-02 1.161980e-01 1.224122e-01 1.042931e-01 8.603062e-02 7.816291e-02 1.775509e-03
<VARIANCE> 39
 1.841225e+01 2.640477e+01 2.624816e+01 2.501934e+01 2.711347e+01 2.502122e+01 2.694513e+01 2.721991e+01 3.079310e+01 3.899782e+01 4.713805e+01 5.011497e+01 4.194668e-02 1.283588e+00 1.734056e+00 1.748483e+00 1.969370e+00 2.709731e+00 2.588951e+00 2.966571e+00 3.137086e+00 3.238407e+00 3.356816e+00 3.356559e+00 3.144532e+00 2.519763e-03 1.780506e-01 2.337847e-01 2.718089e-01 3.601769e-01 4.701253e-01 4.699424e-01 5.370496e-01 5.684395e-01 5.947948e-01 6.011682e-01 5.813130e-01 5.517146e-01 2.240833e-04
<GCONST> 9.536143e+01
<STATE> 3
<MEAN> 39
 6.212986e+00 4.467528e+00 9.581305e-02 -6.895677e-01 2.446624e+00 3.138513e+00 5.042365e+00 4.478041e+00 2.895138e+00 1.475870e+00 3.446223e-01 9.906628e-02 7.230002e-01 -9.262984e-02 7.389653e-02 2.631518e-01 1.041249e-01 -1.088879e-01 -2.937361e-02 1.532674e-01 3.304959e-01 4.104045e-01 3.398907e-01 2.436125e-01 1.941751e-01 -2.376986e-03 -1.235671e-01 -9.172347e-02 -2.481419e-02 -6.271501e-03 -6.161797e-02 -1.320581e-01 -2.040967e-01 -1.861586e-01 -1.241265e-01 -4.667748e-02 -3.381355e-02 -3.392990e-02 -3.788533e-03
<VARIANCE> 39
 1.059367e+01 1.273571e+01 1.804750e+01 3.095955e+01 3.130681e+01 2.957238e+01 2.854043e+01 2.525299e+01 2.156639e+01 1.925066e+01 1.616088e+01 1.506124e+01 1.525519e-02 7.290465e-01 1.068456e+00 1.824032e+00 2.866299e+00 3.179981e+00 3.036417e+00 3.281566e+00 3.021099e+00 2.555040e+00 2.063529e+00 1.734573e+00 1.705881e+00 8.412331e-04 8.071030e-02 1.757063e-01 3.202083e-01 5.707772e-01 5.895389e-01 5.999721e-01 6.246897e-01 5.696017e-01 4.844233e-01 4.123186e-01 3.414268e-01 3.332245e-01 8.085558e-05
<GCONST> 8.405638e+01
<STATE> 4
<MEAN> 39
 4.405161e+00 5.343080e+00 2.068981e+00 -2.076272e+00 -7.891402e-01 -4.529748e-01 2.181355e+00 3.182514e+00 3.380973e+00 3.102872e+00 1.557454e+00 7.162051e-01 6.403573e-01 -2.028878e-01 -1.851473e-01 -2.284286e-02 5.919765e-02 1.064621e-01 3.798413e-02 -6.745773e-02 -1.497084e-01 -1.391221e-01 -8.290680e-02 -1.634164e-02 2.739797e-02 -9.166201e-03 -2.635415e-02 -5.831323e-02 -5.383437e-02 8.688672e-03 5.798036e-02 4.823146e-02 -5.601566e-03 -5.657137e-02 -7.238898e-02 -6.832382e-02 -3.397438e-02 -1.714659e-02 -1.453492e-03
<VARIANCE> 39
 8.539718e+00 7.011045e+00 8.791393e+00 1.127963e+01 1.465220e+01 1.759469e+01 2.034732e+01 1.992900e+01 1.672380e+01 1.700309e+01 1.637322e+01 1.325275e+01 1.529662e-02 2.680562e-01 3.860374e-01 5.837117e-01 8.441518e-01 1.144642e+00 1.302094e+00 1.506460e+00 1.598538e+00 1.702896e+00 1.574218e+00 1.484700e+00 1.233177e+00 3.680831e-04 3.545313e-02 6.099324e-02 1.081381e-01 1.621485e-01 2.165282e-01 2.321232e-01 2.994264e-01 3.087703e-01 3.400841e-01 2.972899e-01 2.921241e-01 2.432223e-01 2.736058e-05
<GCONST> 5.976487e+01
<TRANSP> 5
 0.000000e+00 1.000000e+00 0.000000e+00 0.000000e+00 0.000000e+00
 0.000000e+00 8.602164e-01 1.397837e-01 0.000000e+00 0.000000e+00
 0.000000e+00 0.000000e+00 8.325188e-01 1.674812e-01 0.000000e+00
 0.000000e+00 0.000000e+00 0.000000e+00 9.267358e-01 7.326424e-02
 0.000000e+00 0.000000e+00 0.000000e+00 0.000000e+00 0.000000e+00
<ENDHMM>
~h "yi"
<BEGINHMM>
<NUMSTATES> 5
<STATE> 2
<MEAN> 39
 -5.396939e-01 2.524619e+00 8.497313e-01 1.215392e+00 7.650028e-01 1.586033e+00 4.304028e-01 7.554947e-01 3.252175e-02 3.939733e-01 5.426307e-01 8.232081e-02 5.630058e-01 -3.749547e-01 8.286878e-01 -1.859654e-01 3.157893e-01 7.781165e-02 3.796473e-01 -2.679733e-01 2.304296e-01 -1.134028e-01 9.137528e-02 -5.609011e-02 -3.139181e-02 8.564623e-03 2.502822e-02 -6.737847e-02 -1.256464e-01 5.742955e-03 -8.123723e-02 -8.351631e-02 -7.950120e-02 4.113381e-03 -4.670385e-02 -4.175517e-02 -6.277049e-02 -2.299958e-02 3.140338e-03
<VARIANCE> 39
 6.168007e+00 2.142443e+01 1.412966e+01 2.120920e+01 2.639632e+01 2.222883e+01 2.244886e+01 2.402416e+01 2.188364e+01 2.028582e+01 1.875455e+01 1.627246e+01 2.868796e-02 5.358072e-01 1.855766e+00 1.693198e+00 2.281126e+00 3.004499e+00 2.786963e+00 2.851699e+00 3.136331e+00 2.878944e+00 2.603098e+00 2.242218e+00 1.942660e+00 2.497331e-03 7.913779e-02 3.166867e-01 2.885935e-01 4.085027e-01 5.101827e-01 4.910580e-01 5.414355e-01 5.686850e-01 5.481240e-01 4.710524e-01 4.239838e-01 3.362866e-01 1.922752e-04
<GCONST> 8.610377e+01
<STATE> 3
<MEAN> 39
 -2.328864e+00 5.957873e+00 -2.703976e+00 3.106580e+00 -2.098579e+00 2.310722e+00 -3.631110e+00 1.017954e+00 -2.522702e+00 -1.138184e+00 -6.760826e-01 -1.430728e+00 7.190213e-01 -1.223789e-02 1.240523e-02 -3.425936e-02 -2.637648e-02 -6.859254e-03 -2.173583e-02 -2.319892e-02 -1.384507e-03 -2.699020e-02 6.792489e-03 -2.580263e-02 -5.984539e-03 3.935995e-03 2.918231e-02 -4.811125e-02 7.812488e-02 -3.074513e-02 7.050292e-02 -1.632619e-02 8.541365e-02 -1.301249e-04 5.556682e-02 2.978183e-02 2.909623e-02 4.084519e-02 -2.775676e-03
<VARIANCE> 39
 4.924439e+00 5.871715e+00 9.601480e+00 1.001196e+01 1.548773e+01 2.564761e+01 1.973537e+01 3.995874e+01 2.326498e+01 3.766261e+01 3.235091e+01 3.535131e+01 9.960219e-03 1.170646e-01 2.752830e-01 4.626080e-01 5.831633e-01 7.809084e-01 8.600768e-01 1.116137e+00 1.128262e+00 1.150649e+00 1.203077e+00 1.180138e+00 1.255931e+00 2.242736e-04 2.240935e-02 5.459043e-02 9.470160e-02 1.190454e-01 1.540079e-01 1.746038e-01 2.213152e-01 2.370788e-01 2.237922e-01 2.455968e-01 2.373136e-01 2.500138e-01 2.437230e-05
<GCONST> 5.477118e+01
<STATE> 4
<MEAN> 39
 -1.549243e+00 4.700789e+00 3.973127e-01 2.366868e+00 2.091472e+00 2.661545e+00 6.925526e-01 2.601535e+00 -5.226634e-01 1.892621e+00 -1.016390e-01 5.843585e-01 6.165609e-01 3.444200e-02 -1.927750e-01 8.726879e-02 -1.059484e-01 8.754283e-02 -8.813816e-02 1.185383e-01 -8.319921e-02 9.751799e-02 1.166473e-02 5.757600e-02 3.131994e-02 -9.660616e-03 -4.876181e-03 -4.378799e-02 2.720305e-03 -3.391445e-02 -2.179954e-02 -2.951710e-02 -2.754208e-02 -4.169437e-02 -3.224724e-03 -3.396216e-02 4.993599e-03 -9.355917e-03 -2.248898e-03
<VARIANCE> 39
 3.601021e+00 7.607948e+00 6.303117e+00 1.035435e+01 1.191428e+01 1.438930e+01 1.776810e+01 2.043808e+01 1.968622e+01 1.896564e+01 1.489401e+01 1.476505e+01 1.021815e-02 1.536444e-01 4.639622e-01 5.245344e-01 7.561001e-01 9.383783e-01 1.053399e+00 1.318293e+00 1.493090e+00 1.512979e+00 1.362499e+00 1.248210e+00 1.197385e+00 5.032194e-04 2.711074e-02 7.639855e-02 1.034852e-01 1.452283e-01 1.840075e-01 1.991522e-01 2.493604e-01 2.744906e-01 3.009988e-01 2.514785e-01 2.415702e-01 2.324555e-01 3.788453e-05
<GCONST> 5.556055e+01
<TRANSP> 5
 0.000000e+00 1.000000e+00 0.000000e+00 0.000000e+00 0.000000e+00
 0.000000e+00 8.377435e-01 1.622566e-01 0.000000e+00 0.000000e+00
 0.000000e+00 0.000000e+00 8.977505e-01 1.022495e-01 0.000000e+00
 0.000000e+00 0.000000e+00 0.000000e+00 9.124905e-01 8.750951e-02
 0.000000e+00 0.000000e+00 0.000000e+00 0.000000e+00 0.000000e+00
<ENDHMM>
~h "ling"
<BEGINHMM>
<NUMSTATES> 5
<STATE> 2
<MEAN> 39
 -3.664193e-03 1.936616e+00 3.030234e+00 8.248564e-01 4.625710e-01 2.153209e+00 1.528274e-01 5.357823e-02 4.052767e-01 -4.129134e-01 -1.343248e-01 1.884054e-02 6.152918e-01 -2.083875e-01 1.123369e+00 2.062806e-01 2.736892e-02 4.154159e-01 3.825000e-01 -2.260785e-01 1.636451e-01 8.461182e-02 -2.658924e-01 -5.188733e-02 -2.116785e-01 2.247130e-02 1.598678e-02 1.805230e-01 -1.708623e-01 1.226158e-01 2.683174e-02 -8.846942e-02 -1.709587e-02 5.421531e-02 -1.915222e-02 -2.527942e-02 9.480602e-03 -6.460612e-02 5.795306e-03
<VARIANCE> 39
 6.079862e+00 1.887054e+01 1.701720e+01 1.642939e+01 2.466101e+01 2.631896e+01 2.581657e+01 2.156636e+01 2.636015e+01 2.103228e+01 1.977496e+01 1.755056e+01 2.567058e-02 6.192799e-01 1.977891e+00 1.943266e+00 2.197375e+00 2.483212e+00 3.611304e+00 3.006059e+00 2.937538e+00 3.141519e+00 2.574739e+00 2.462924e+00 2.001962e+00 3.333252e-03 9.140023e-02 2.855802e-01 3.393317e-01 4.052924e-01 4.758891e-01 6.308443e-01 6.229571e-01 5.271438e-01 6.231245e-01 5.106803e-01 4.402234e-01 3.620843e-01 4.128753e-04
<GCONST> 8.864395e+01
<STATE> 3
<MEAN> 39
 -7.632071e-01 9.676892e+00 1.518571e-01 4.488456e+00 1.708643e+00 3.292056e+00 6.006561e-02 1.993773e+00 2.024495e-01 -1.357359e+00 -2.776312e-01 -2.209796e+00 7.802410e-01 9.754079e-03 -1.247521e-02 -3.238100e-01 2.852072e-01 -9.182960e-02 4.680368e-02 1.776550e-01 1.791920e-01 4.393843e-05 2.164032e-01 9.201409e-02 6.044661e-02 -7.614470e-03 3.577499e-02 -3.102528e-01 8.234474e-02 -1.588074e-01 -3.111473e-02 -6.178938e-02 -6.932676e-03 -7.403970e-02 -6.786027e-03 5.072729e-02 -1.396033e-02 1.041029e-01 -8.048829e-03
<VARIANCE> 39
 6.111586e+00 6.713400e+00 1.543033e+01 1.760515e+01 2.350832e+01 2.750196e+01 3.078054e+01 3.762901e+01 3.181185e+01 3.371749e+01 3.324893e+01 2.856317e+01 7.273515e-03 1.817751e-01 8.863547e-01 7.654828e-01 1.224312e+00 1.158198e+00 1.588375e+00 1.854196e+00 2.019472e+00 1.996756e+00 1.908042e+00 1.779741e+00 1.571464e+00 5.643661e-04 3.111599e-02 1.131980e-01 1.431862e-01 1.947436e-01 2.236250e-01 3.066097e-01 3.345107e-01 3.659485e-01 3.561413e-01 3.521514e-01 3.543729e-01 2.840806e-01 8.270991e-05
<GCONST> 7.057758e+01
<STATE> 4
<MEAN> 39
 -2.027825e-01 3.862258e+00 1.050293e+00 1.514323e+00 2.313656e+00 1.447556e+00 1.238948e+00 1.280450e+00 3.049381e-01 4.311452e-01 4.267568e-01 1.008115e-01 5.872586e-01 1.031791e-02 -5.606887e-01 5.564985e-02 -3.525581e-01 5.970850e-05 -2.813739e-01 2.401326e-02 -2.342905e-01 -6.921116e-02 1.500541e-02 -5.815694e-02 9.945456e-02 -1.786264e-02 -2.051856e-02 3.745778e-02 -1.479403e-02 1.681012e-02 -1.178127e-02 1.448360e-02 -1.947246e-02 -1.983704e-03 8.840243e-03 -2.776572e-02 -1.389446e-03 -2.592094e-02 5.610741e-04
<VARIANCE> 39
 4.303364e+00 1.171404e+01 8.728976e+00 1.369877e+01 1.366455e+01 1.744879e+01 1.815945e+01 2.008043e+01 1.947781e+01 1.787877e+01 1.814636e+01 1.551068e+01 1.014870e-02 2.056981e-01 5.860064e-01 6.893457e-01 9.546701e-01 1.119403e+00 1.308731e+00 1.441148e+00 1.584596e+00 1.577017e+00 1.387020e+00 1.449989e+00 1.271065e+00 3.683557e-04 3.191676e-02 9.075379e-02 1.163143e-01 1.667125e-01 2.030468e-01 2.429807e-01 2.744518e-01 2.990869e-01 2.946638e-01 2.670821e-01 2.748512e-01 2.369796e-01 4.495426e-05
<GCONST> 6.023838e+01
<TRANSP> 5
 0.000000e+00 1.000000e+00 0.000000e+00 0.000000e+00 0.000000e+00
 0.000000e+00 8.525834e-01 1.474166e-01 0.000000e+00 0.000000e+00
 0.000000e+00 0.000000e+00 8.762426e-01 1.237574e-01 0.000000e+00
 0.000000e+00 0.000000e+00 0.000000e+00 9.121493e-01 8.785076e-02
 0.000000e+00 0.000000e+00 0.000000e+00 0.000000e+00 0.000000e+00
<ENDHMM>
~h "jiu"
<BEGINHMM>
<NUMSTATES> 5
<STATE> 2
<MEAN> 39
 -2.361992e+00 2.902861e+00 7.429435e-01 1.241110e+00 5.434304e-01 2.393397e+00 -1.041114e-01 1.124133e+00 8.142527e-02 -2.573371e-01 2.680218e-02 -5.234648e-02 5.766647e-01 5.610573e-02 4.111342e-01 5.837946e-01 -1.969278e-02 5.440515e-02 1.086314e-01 -1.682037e-01 -1.264959e-01 -5.207608e-02 -1.837691e-01 -1.740809e-01 -1.230483e-01 2.282267e-02 1.427500e-01 -1.501251e-01 3.370339e-02 -1.126982e-03 -1.474652e-01 -1.870313e-01 -3.255288e-02 -1.179084e-01 -7.063179e-02 -3.218882e-02 -3.121087e-02 -1.032538e-02 2.218089e-03
<VARIANCE> 39
 8.578268e+00 1.742911e+01 2.531278e+01 1.438788e+01 1.933590e+01 1.800432e+01 1.733363e+01 1.879418e+01 1.955999e+01 1.779812e+01 1.703312e+01 1.530115e+01 3.337211e-02 1.121971e+00 1.618357e+00 3.204937e+00 2.006285e+00 2.788353e+00 2.402342e+00 2.164864e+00 2.810820e+00 2.613234e+00 2.489394e+00 2.439804e+00 2.062100e+00 3.102393e-03 1.378227e-01 3.387316e-01 6.360122e-01 3.894258e-01 6.690009e-01 5.561817e-01 4.368988e-01 5.281884e-01 5.363770e-01 4.856071e-01 4.715336e-01 4.205702e-01 3.048329e-04
<GCONST> 8.814068e+01
<STATE> 3
<MEAN> 39
 4.292059e+00 -1.490247e+00 1.204409e+00 2.961375e+00 -5.641499e+00 -4.680777e+00 -1.853268e+00 -3.906745e-01 -5.221327e-01 -9.002280e-01 -6.063405e-01 -1.677870e-01 8.494191e-01 1.068204e+00 -1.258725e+00 -2.002141e+00 4.436212e-01 -1.767975e-01 -1.511247e+00 -6.175807e-01 2.913837e-01 3.565792e-01 3.908029e-01 2.379201e-01 4.119492e-01 8.133126e-04 -1.208436e-01 2.552681e-01 -3.203512e-01 -1.734601e-01 5.341865e-01 3.680056e-01 -1.063961e-01 3.792381e-02 1.838430e-01 1.348254e-01 2.200327e-02 -7.966765e-03 -6.537509e-03
<VARIANCE> 39
 9.277174e+00 2.215434e+01 4.535179e+01 2.092809e+01 3.440518e+01 5.002719e+01 3.807752e+01 3.698413e+01 3.887248e+01 3.141855e+01 4.091265e+01 3.249936e+01 8.922562e-03 3.924240e-01 1.607752e+00 2.447107e+00 2.296671e+00 6.311548e+00 5.108714e+00 5.366196e+00 5.036364e+00 5.015423e+00 3.796830e+00 3.355523e+00 3.207231e+00 3.796720e-04 5.840611e-02 2.748806e-01 6.729528e-01 5.145326e-01 7.435191e-01 1.129095e+00 1.039626e+00 1.181476e+00 9.862323e-01 8.784017e-01 6.937663e-01 6.412851e-01 6.020642e-05
<GCONST> 9.779002e+01
<STATE> 4
<MEAN> 39
 7.069516e+00 -6.219139e-01 -7.001737e+00 -5.324755e-01 1.433958e+00 -2.216627e+00 -3.644215e+00 -1.930986e+00 -3.410973e-01 9.302991e-01 -7.744715e-02 5.240580e-01 7.215025e-01 -3.982047e-01 3.162012e-01 5.269418e-01 -2.670788e-01 1.307184e-01 6.228303e-01 5.279082e-01 -1.193978e-01 -1.926052e-01 -8.138925e-02 2.506464e-02 -1.275069e-01 -2.126651e-02 -1.440504e-01 -2.170221e-02 2.599935e-01 7.985935e-02 -1.548405e-01 -2.538322e-02 1.665422e-01 1.040227e-01 -2.505337e-02 -5.393902e-02 1.768075e-02 1.175476e-02 -2.075202e-03
<VARIANCE> 39
 8.724127e+00 1.587759e+01 2.852943e+01 3.243630e+01 2.193493e+01 3.632835e+01 3.579615e+01 3.621296e+01 3.417003e+01 2.313672e+01 1.897516e+01 1.676470e+01 2.053123e-02 5.612206e-01 5.909987e-01 1.912870e+00 1.778144e+00 1.683585e+00 2.517666e+00 2.700526e+00 2.817534e+00 2.302598e+00 2.010157e+00 1.628488e+00 1.358958e+00 3.686189e-04 5.124902e-02 8.620743e-02 2.405880e-01 2.400541e-01 2.910520e-01 4.138524e-01 5.168114e-01 4.772644e-01 4.715357e-01 3.916014e-01 3.167331e-01 2.754912e-01 4.021987e-05
<GCONST> 7.781156e+01
<TRANSP> 5
 0.000000e+00 1.000000e+00 0.000000e+00 0.000000e+00 0.000000e+00
 0.000000e+00 9.173369e-01 8.266303e-02 0.000000e+00 0.000000e+00
 0.000000e+00 0.000000e+00 8.510695e-01 1.489305e-01 0.000000e+00
 0.000000e+00 0.000000e+00 0.000000e+00 9.137290e-01 8.627110e-02
 0.000000e+00 0.000000e+00 0.000000e+00 0.000000e+00 0.000000e+00
<ENDHMM>
~h "liu"
<BEGINHMM>
<NUMSTATES> 5
<STATE> 2
<MEAN> 39
 -7.217559e-01 4.121574e+00 4.066196e+00 -1.616231e-01 7.233321e-01 2.242349e+00 -6.635725e-01 -6.412662e-03 4.279705e-01 -1.450000e+00 -3.163153e-01 -4.786634e-01 7.315002e-01 1.261559e-02 2.965945e-01 2.697298e-01 -2.535646e-01 -2.573153e-01 -1.494435e-01 -4.084728e-01 -2.450209e-01 -1.485236e-01 -1.490114e-01 -1.786626e-01 6.793438e-03 2.437635e-02 7.728356e-02 -1.352210e-01 -8.178779e-02 2.572782e-02 -1.629085e-01 -1.721213e-01 -4.700581e-03 -6.575856e-02 -8.569926e-02 3.957021e-02 -2.940753e-02 7.569636e-03 6.918944e-04
<VARIANCE> 39
 5.763022e+00 1.999836e+01 2.292765e+01 1.603878e+01 2.457793e+01 2.769191e+01 2.847564e+01 2.534160e+01 3.102777e+01 2.467692e+01 2.762633e+01 2.353160e+01 3.066325e-02 4.683603e-01 1.787673e+00 1.489244e+00 1.473507e+00 2.549535e+00 2.677370e+00 2.408384e+00 2.630352e+00 3.091903e+00 2.411407e+00 2.666142e+00 2.080436e+00 2.197741e-03 7.379597e-02 2.445442e-01 2.737838e-01 2.968795e-01 3.860431e-01 4.527211e-01 4.627649e-01 4.554816e-01 5.202103e-01 4.333012e-01 4.641320e-01 3.614049e-01 3.191391e-04
<GCONST> 8.589543e+01
<STATE> 3
<MEAN> 39
 3.337140e+00 -1.787334e+00 -1.422911e+00 2.412381e-01 -7.707215e+00 -5.474542e+00 -3.208329e+00 -1.921806e+00 -2.717861e+00 -1.810029e+00 -2.842507e+00 -1.732094e+00 9.065805e-01 8.090522e-01 -8.461968e-01 -1.315043e+00 7.688332e-01 1.846676e-01 -7.911297e-01 -4.068363e-02 4.531625e-01 3.067639e-01 3.172119e-01 1.177123e-01 7.625045e-02 -2.500015e-03 -2.970686e-02 2.290959e-01 -7.391315e-02 -9.592880e-02 4.451827e-01 2.955852e-01 -8.768176e-02 2.851379e-02 1.940331e-01 1.633071e-02 5.724862e-02 2.026984e-02 -3.630273e-03
<VARIANCE> 39
 1.214427e+01 2.671907e+01 4.290741e+01 3.024141e+01 3.666445e+01 4.268026e+01 4.561970e+01 4.664760e+01 5.526839e+01 5.127768e+01 6.574918e+01 6.972474e+01 4.382766e-03 4.434297e-01 1.635863e+00 2.622713e+00 2.072137e+00 4.910647e+00 5.056577e+00 4.618767e+00 3.899529e+00 4.634252e+00 3.618079e+00 4.213326e+00 4.571505e+00 2.988945e-04 5.544342e-02 2.077945e-01 3.850176e-01 4.348167e-01 6.195649e-01 9.058737e-01 8.166376e-01 8.291730e-01 8.268425e-01 6.232577e-01 7.249965e-01 6.917647e-01 4.195072e-05
<GCONST> 9.708248e+01
<STATE> 4
<MEAN> 39
 6.649494e+00 -5.309528e-01 -5.822070e+00 8.487703e-01 1.697104e+00 -2.449733e+00 -2.844191e+00 -1.333196e+00 1.134472e-01 9.272303e-01 -4.713278e-01 4.510829e-01 7.370816e-01 -5.358092e-01 3.705866e-01 6.631920e-01 -3.268192e-01 2.812101e-01 8.189592e-01 5.581374e-01 -8.459586e-02 -9.693459e-02 -4.463754e-02 1.293098e-01 -3.962345e-02 -3.061007e-02 -1.734149e-01 -4.367481e-02 2.084523e-01 4.367007e-03 -1.878559e-01 -3.044945e-02 1.471018e-01 8.425777e-02 -6.626026e-02 -5.831262e-02 2.208401e-03 -2.900636e-03 -2.933932e-03
<VARIANCE> 39
 1.085436e+01 1.412151e+01 3.226127e+01 3.002511e+01 2.857693e+01 3.749084e+01 3.610818e+01 3.667717e+01 2.895178e+01 2.198450e+01 2.158798e+01 1.767892e+01 2.258379e-02 7.558655e-01 7.120714e-01 1.932161e+00 1.738739e+00 2.075403e+00 2.882542e+00 2.835927e+00 2.921583e+00 2.305158e+00 2.082093e+00 1.919445e+00 1.627405e+00 5.374273e-04 7.719478e-02 9.668402e-02 3.308678e-01 2.849951e-01 3.417930e-01 4.798965e-01 5.314940e-01 5.222400e-01 4.852229e-01 4.051391e-01 3.582129e-01 2.966485e-01 6.536026e-05
<GCONST> 8.218262e+01
<TRANSP> 5
 0.000000e+00 1.000000e+00 0.000000e+00 0.000000e+00 0.000000e+00
 0.000000e+00 9.179016e-01 8.209839e-02 0.000000e+00 0.000000e+00
 0.000000e+00 0.000000e+00 8.821337e-01 1.178663e-01 0.000000e+00
 0.000000e+00 0.000000e+00 0.000000e+00 8.946215e-01 1.053785e-01
 0.000000e+00 0.000000e+00 0.000000e+00 0.000000e+00 0.000000e+00
<ENDHMM>
~h "san"
<BEGINHMM>
<NUMSTATES> 5
<STATE> 2
<MEAN> 39
 -2.813627e-01 -3.636375e-01 6.137567e-01 3.833175e-01 9.701858e-02 5.340530e-01 3.467862e-03 -4.026869e-02 2.154393e-01 1.126456e-01 2.111020e-01 2.293814e-01 4.859370e-01 4.832391e-01 -2.759877e-02 1.512995e-01 -1.002506e-01 -7.896323e-01 -2.502479e-01 -1.935356e-01 -2.029101e-01 2.869202e-02 -2.970449e-02 1.538249e-01 1.308269e-02 3.221072e-02 1.486391e-01 -1.517064e-01 -1.098315e-01 -1.441070e-01 -3.891428e-01 -7.231115e-02 -4.687992e-02 -1.109830e-02 4.083670e-02 -3.762152e-02 -3.690531e-03 -6.435785e-02 1.414477e-02
<VARIANCE> 39
 8.421095e+00 8.607349e+00 9.128633e+00 1.063585e+01 1.702917e+01 1.640349e+01 1.559513e+01 1.521762e+01 1.322385e+01 1.326181e+01 1.298581e+01 1.137645e+01 2.709122e-02 1.501634e+00 1.012570e+00 1.165163e+00 1.937524e+00 3.784177e+00 2.555940e+00 2.555969e+00 2.187490e+00 1.802784e+00 1.823831e+00 1.809509e+00 1.584311e+00 5.432014e-03 1.874263e-01 1.834957e-01 2.600770e-01 3.819566e-01 4.716274e-01 4.454861e-01 4.319126e-01 4.297830e-01 3.883941e-01 3.958715e-01 3.985720e-01 3.443029e-01 3.710877e-04
<GCONST> 7.976272e+01
<STATE> 3
<MEAN> 39
 3.335437e+00 -5.038309e+00 -2.456916e+00 -4.237333e+00 -1.003092e+01 -6.269382e-01 -8.745778e-01 3.513768e-01 1.204000e+00 -8.484814e-01 3.421430e-01 -1.470503e+00 8.849838e-01 -3.016774e-01 -1.651739e+00 -1.326046e+00 -9.542578e-01 -3.323359e-01 6.174964e-01 6.676191e-01 7.793059e-01 1.080028e-01 -1.655802e-01 -3.226894e-01 -4.304676e-01 4.029479e-02 -3.349833e-01 1.111206e-02 6.167341e-02 3.070496e-01 8.354617e-01 2.169595e-01 2.130767e-01 5.670562e-02 -9.667362e-02 6.894828e-02 -2.691110e-02 1.046249e-01 -2.161852e-02
<VARIANCE> 39
 8.714724e+00 2.075854e+01 2.112033e+01 3.438609e+01 3.381366e+01 5.290133e+01 4.780735e+01 3.613695e+01 2.949075e+01 3.116792e+01 3.721775e+01 3.419795e+01 6.097038e-03 9.768463e-01 1.091006e+00 1.631481e+00 2.821243e+00 5.924264e+00 3.140057e+00 3.353026e+00 3.619950e+00 3.035542e+00 3.174967e+00 3.811821e+00 3.746057e+00 2.070433e-03 2.083464e-01 3.081647e-01 4.915814e-01 5.884185e-01 6.185905e-01 5.703891e-01 6.459819e-01 8.752372e-01 5.717103e-01 5.875931e-01 6.971197e-01 6.302626e-01 1.215308e-04
<GCONST> 9.650706e+01
<STATE> 4
<MEAN> 39
 1.086719e+00 -5.993131e+00 -1.693659e+00 -3.373502e+00 -4.651157e+00 2.001014e+00 5.742933e-01 7.242334e-01 8.216038e-01 -4.016317e-01 -5.886856e-01 -1.488587e+00 7.923825e-01 -8.381946e-02 5.701961e-01 4.607071e-01 2.796093e-01 4.381673e-01 -7.883450e-02 -8.694985e-02 -1.913163e-01 -4.304599e-02 6.279963e-02 -4.386572e-03 1.168494e-01 -2.255220e-02 7.808750e-03 1.065627e-01 2.406142e-02 1.031335e-02 -7.222263e-03 -5.779416e-02 -4.360655e-02 -1.352151e-02 -5.407286e-03 -6.267331e-03 1.160800e-02 1.135142e-02 -2.677291e-03
<VARIANCE> 39
 6.862670e+00 2.622899e+01 1.783658e+01 1.921809e+01 3.892613e+01 3.763761e+01 4.046799e+01 2.345119e+01 2.460225e+01 2.231523e+01 2.587077e+01 2.993146e+01 1.892838e-02 2.817132e-01 7.486718e-01 7.017431e-01 9.004659e-01 1.659941e+00 1.315802e+00 1.473755e+00 1.440004e+00 1.316145e+00 1.160224e+00 1.115065e+00 1.069564e+00 4.918223e-04 4.095748e-02 1.005016e-01 1.329168e-01 1.481828e-01 2.827592e-01 1.955186e-01 2.516100e-01 2.809209e-01 2.402925e-01 2.212333e-01 2.124214e-01 1.963676e-01 4.760902e-05
<GCONST> 6.731699e+01
<TRANSP> 5
 0.000000e+00 1.000000e+00 0.000000e+00 0.000000e+00 0.000000e+00
 0.000000e+00 8.647077e-01 1.352923e-01 0.000000e+00 0.000000e+00
 0.000000e+00 0.000000e+00 7.915565e-01 2.084435e-01 0.000000e+00
 0.000000e+00 0.000000e+00 0.000000e+00 9.321936e-01 6.780631e-02
 0.000000e+00 0.000000e+00 0.000000e+00 0.000000e+00 0.000000e+00
<ENDHMM>
~h "sil"
<BEGINHMM>
<NUMSTATES> 5
<STATE> 2
<MEAN> 39
 -1.391640e+00 -3.768801e-01 7.864786e-01 -8.065016e-01 1.500003e+00 -4.815369e-01 -1.867313e-01 -7.091635e-01 -2.850204e-01 4.136561e-01 3.799022e-01 5.025592e-01 3.002623e-01 2.476427e-02 1.557553e-02 -8.685679e-05 5.717846e-02 1.376412e-02 5.505599e-02 6.320894e-02 2.683943e-02 3.320036e-02 2.319643e-02 -1.126270e-02 4.057927e-02 -7.100864e-04 -6.123233e-03 -8.208933e-03 -2.144400e-03 -6.111240e-03 -8.845494e-04 3.341156e-03 1.218035e-02 -1.347601e-02 -3.015258e-02 -2.800169e-02 -1.369310e-02 1.373285e-03 1.379685e-04
<VARIANCE> 39
 2.037638e+00 3.959109e+00 4.869979e+00 7.254158e+00 8.373158e+00 1.082336e+01 1.161357e+01 1.314844e+01 1.370504e+01 1.184205e+01 1.157929e+01 1.058242e+01 6.318063e-03 1.031158e-01 2.243916e-01 4.409189e-01 8.045108e-01 8.442039e-01 1.130180e+00 1.164253e+00 1.382470e+00 1.621212e+00 1.279624e+00 1.290994e+00 1.221148e+00 4.417962e-05 2.150314e-02 4.531147e-02 9.052137e-02 1.690604e-01 1.695684e-01 2.310525e-01 2.325283e-01 2.881141e-01 3.487069e-01 2.597986e-01 2.745675e-01 2.553486e-01 7.139417e-06
<GCONST> 4.451726e+01
<STATE> 3
~s "silst"
<STATE> 4
<MEAN> 39
 -1.546580e+00 -1.019683e+00 6.061627e-01 -1.572860e+00 1.690799e+00 -1.110400e+00 2.594460e-01 -7.883438e-01 -1.021979e+00 -6.244109e-01 2.994973e-01 1.967801e-01 3.278327e-01 -1.845408e-02 2.300120e-02 -6.437300e-02 -1.371308e-01 -1.366626e-01 -9.044541e-02 -8.830269e-02 3.020611e-02 7.791941e-02 5.636267e-02 9.409647e-02 -1.128443e-01 5.631592e-03 3.838381e-02 6.934445e-02 6.361659e-02 1.074753e-01 -9.076068e-03 7.210046e-02 3.365357e-02 5.897582e-02 6.841700e-02 8.284304e-02 2.941245e-02 -6.505346e-03 1.146980e-03
<VARIANCE> 39
 3.696874e+00 5.887627e+00 5.326345e+00 8.223578e+00 1.180696e+01 1.091978e+01 1.498116e+01 1.290019e+01 1.478951e+01 1.251736e+01 9.721088e+00 8.995393e+00 1.265463e-02 2.290751e-01 5.415826e-01 5.508898e-01 9.628959e-01 1.309166e+00 1.155999e+00 1.585913e+00 1.596465e+00 1.761305e+00 1.460443e+00 1.096553e+00 9.255037e-01 4.449103e-04 4.799546e-02 1.137564e-01 1.143129e-01 1.830868e-01 2.915439e-01 2.333236e-01 3.160830e-01 3.295211e-01 3.573506e-01 3.007582e-01 2.123943e-01 1.782039e-01 9.609792e-05
<GCONST> 5.706557e+01
<TRANSP> 5
 0.000000e+00 1.000000e+00 0.000000e+00 0.000000e+00 0.000000e+00
 0.000000e+00 9.330099e-01 3.609699e-02 3.089311e-02 0.000000e+00
 0.000000e+00 0.000000e+00 8.810293e-01 1.189708e-01 0.000000e+00
 0.000000e+00 1.342676e-01 0.000000e+00 7.729273e-01 9.280508e-02
 0.000000e+00 0.000000e+00 0.000000e+00 0.000000e+00 0.000000e+00
<ENDHMM>
