~o
<STREAMINFO> 1 39
<VECSIZE> 39<NULLD><MFCC_E_D_A_Z><DIAGC>
~s "silst"
<NUMMIXES> 2
<MIXTURE> 1 5.000000e-01
<MEAN> 39
 -6.274393e-01 -2.505543e-01 1.216326e+00 4.073655e-01 1.014922e+00 1.135324e+00 4.347841e-01 5.917065e-01 2.120441e-01 5.611643e-01 4.036860e-01 3.710825e-01 2.881078e-01 -4.168262e-01 -3.946182e-01 -5.114304e-02 -1.122881e-01 -1.201603e-01 -1.249875e-01 -9.965477e-02 -9.308047e-02 -4.608507e-02 -7.800952e-02 -3.880550e-02 1.923136e-03 -1.738387e-02 8.187728e-03 1.314461e-02 -7.484049e-02 -9.841037e-03 -2.984534e-02 -2.430859e-02 -2.045497e-02 -1.391462e-02 6.134113e-03 3.277618e-03 1.455069e-03 7.727050e-03 1.697256e-03
<VARIANCE> 39
 2.178617e+01 2.752240e+01 2.282851e+01 2.014491e+01 2.325015e+01 2.453155e+01 2.421408e+01 2.358813e+01 1.989760e+01 1.794933e+01 1.467469e+01 1.222149e+01 6.823274e-02 1.839611e+00 1.952744e+00 2.075163e+00 2.075778e+00 2.224863e+00 2.432641e+00 2.526824e+00 2.428746e+00 2.163677e+00 1.927078e+00 1.555731e+00 1.357623e+00 4.231566e-03 2.804852e-01 3.026670e-01 3.575617e-01 3.780541e-01 4.049688e-01 4.598356e-01 4.766621e-01 4.684705e-01 4.214385e-01 3.810268e-01 3.073869e-01 2.712822e-01 5.474267e-04
<GCONST> 8.876246e+01
<MIXTURE> 2 5.000000e-01
<MEAN> 39
 -6.274393e-01 -2.505543e-01 1.216326e+00 4.073655e-01 1.014922e+00 1.135324e+00 4.347841e-01 5.917065e-01 2.120441e-01 5.611643e-01 4.036860e-01 3.710825e-01 2.881078e-01 -4.168262e-01 -3.946182e-01 -5.114304e-02 -1.122881e-01 -1.201603e-01 -1.249875e-01 -9.965477e-02 -9.308047e-02 -4.608507e-02 -7.800952e-02 -3.880550e-02 1.923136e-03 -1.738387e-02 8.187728e-03 1.314461e-02 -7.484049e-02 -9.841037e-03 -2.984534e-02 -2.430859e-02 -2.045497e-02 -1.391462e-02 6.134113e-03 3.277618e-03 1.455069e-03 7.727050e-03 1.697256e-03
<VARIANCE> 39
 2.178617e+01 2.752240e+01 2.282851e+01 2.014491e+01 2.325015e+01 2.453155e+01 2.421408e+01 2.358813e+01 1.989760e+01 1.794933e+01 1.467469e+01 1.222149e+01 6.823274e-02 1.839611e+00 1.952744e+00 2.075163e+00 2.075778e+00 2.224863e+00 2.432641e+00 2.526824e+00 2.428746e+00 2.163677e+00 1.927078e+00 1.555731e+00 1.357623e+00 4.231566e-03 2.804852e-01 3.026670e-01 3.575617e-01 3.780541e-01 4.049688e-01 4.598356e-01 4.766621e-01 4.684705e-01 4.214385e-01 3.810268e-01 3.073869e-01 2.712822e-01 5.474267e-04
<GCONST> 8.876246e+01
~h "ba"
<BEGINHMM>
<NUMSTATES> 5
<STATE> 2
<NUMMIXES> 2
<MIXTURE> 1 5.000000e-01
<MEAN> 39
 -1.273415e+00 -9.264616e-01 7.151596e-01 -1.125567e-01 7.792332e-01 -4.641259e-01 -4.039970e-01 3.297374e-01 2.774868e-01 4.359969e-01 5.230300e-01 5.875816e-01 2.194681e-01 6.351561e-01 -4.482986e-01 -4.864978e-01 -2.357243e-01 -2.685917e-01 -5.652152e-01 5.980317e-02 -9.208010e-02 1.844905e-01 2.639234e-02 -1.232863e-02 5.690861e-02 5.222133e-02 3.643531e-01 -1.942226e-01 -3.567139e-01 -7.499813e-02 -1.031297e-01 -1.970236e-01 1.538326e-01 -3.596801e-02 6.982574e-02 -3.659286e-02 -8.841527e-02 -4.918632e-02 3.235732e-02
<VARIANCE> 39
 1.820478e+01 1.001368e+01 1.042597e+01 1.098875e+01 1.324125e+01 1.761720e+01 1.766470e+01 1.545067e+01 1.512558e+01 1.447373e+01 1.285729e+01 1.009241e+01 7.920741e-02 4.335524e+00 1.298863e+00 2.182448e+00 1.447130e+00 2.013617e+00 3.458869e+00 2.489236e+00 1.999894e+00 1.935374e+00 1.779550e+00 1.627497e+00 1.287718e+00 1.816365e-02 4.691085e-01 3.154773e-01 3.614975e-01 2.928949e-01 3.816195e-01 5.895950e-01 4.690196e-01 4.651521e-01 4.131416e-01 3.908368e-01 3.606149e-01 3.192851e-01 1.521350e-03
<GCONST> 8.715334e+01
<MIXTURE> 2 5.000000e-01
<MEAN> 39
 -1.273415e+00 -9.264616e-01 7.151596e-01 -1.125567e-01 7.792332e-01 -4.641259e-01 -4.039970e-01 3.297374e-01 2.774868e-01 4.359969e-01 5.230300e-01 5.875816e-01 2.194681e-01 6.351561e-01 -4.482986e-01 -4.864978e-01 -2.357243e-01 -2.685917e-01 -5.652152e-01 5.980317e-02 -9.208010e-02 1.844905e-01 2.639234e-02 -1.232863e-02 5.690861e-02 5.222133e-02 3.643531e-01 -1.942226e-01 -3.567139e-01 -7.499813e-02 -1.031297e-01 -1.970236e-01 1.538326e-01 -3.596801e-02 6.982574e-02 -3.659286e-02 -8.841527e-02 -4.918632e-02 3.235732e-02
<VARIANCE> 39
 1.820478e+01 1.001368e+01 1.042597e+01 1.098875e+01 1.324125e+01 1.761720e+01 1.766470e+01 1.545067e+01 1.512558e+01 1.447373e+01 1.285729e+01 1.009241e+01 7.920741e-02 4.335524e+00 1.298863e+00 2.182448e+00 1.447130e+00 2.013617e+00 3.458869e+00 2.489236e+00 1.999894e+00 1.935374e+00 1.779550e+00 1.627497e+00 1.287718e+00 1.816365e-02 4.691085e-01 3.154773e-01 3.614975e-01 2.928949e-01 3.816195e-01 5.895950e-01 4.690196e-01 4.651521e-01 4.131416e-01 3.908368e-01 3.606149e-01 3.192851e-01 1.521350e-03
<GCONST> 8.715334e+01
<STATE> 3
<NUMMIXES> 2
<MIXTURE> 1 5.000000e-01
<MEAN> 39
 4.258277e+00 -8.988322e+00 -7.661177e+00 -1.892205e+00 -1.614612e+00 -4.215323e+00 2.810599e+00 -9.762255e-01 1.827208e+00 -9.384456e-01 -1.458440e+00 -7.906941e-01 8.981920e-01 -4.514859e-01 -1.664847e+00 -1.133049e+00 1.741676e-01 1.201394e-01 1.599958e-01 5.042762e-01 -6.696572e-02 7.216180e-02 -4.572714e-01 -4.279439e-01 -3.172322e-01 5.689727e-02 -4.354493e-01 2.260935e-01 4.433718e-01 2.436509e-01 1.753980e-01 3.135392e-01 -1.625199e-01 6.270780e-02 -1.108349e-01 -6.404767e-04 8.871002e-02 4.651984e-02 -3.286685e-02
<VARIANCE> 39
 1.788678e+01 2.288842e+01 2.179442e+01 1.728602e+01 2.280456e+01 5.524942e+01 3.715231e+01 3.937296e+01 2.622327e+01 2.729170e+01 2.989894e+01 3.490950e+01 7.210902e-03 1.995735e+00 1.390726e+00 2.887324e+00 1.881456e+00 2.137735e+00 4.221273e+00 4.021710e+00 3.400893e+00 2.598375e+00 2.696679e+00 2.716192e+00 3.023718e+00 5.532522e-03 5.225189e-01 2.601762e-01 2.767119e-01 2.487096e-01 4.192398e-01 8.197831e-01 7.058583e-01 5.597267e-01 4.231651e-01 4.758545e-01 4.514567e-01 4.755616e-01 5.577019e-04
<GCONST> 9.572512e+01
<MIXTURE> 2 5.000000e-01
<MEAN> 39
 4.258277e+00 -8.988322e+00 -7.661177e+00 -1.892205e+00 -1.614612e+00 -4.215323e+00 2.810599e+00 -9.762255e-01 1.827208e+00 -9.384456e-01 -1.458440e+00 -7.906941e-01 8.981920e-01 -4.514859e-01 -1.664847e+00 -1.133049e+00 1.741676e-01 1.201394e-01 1.599958e-01 5.042762e-01 -6.696572e-02 7.216180e-02 -4.572714e-01 -4.279439e-01 -3.172322e-01 5.689727e-02 -4.354493e-01 2.260935e-01 4.433718e-01 2.436509e-01 1.753980e-01 3.135392e-01 -1.625199e-01 6.270780e-02 -1.108349e-01 -6.404767e-04 8.871002e-02 4.651984e-02 -3.286685e-02
<VARIANCE> 39
 1.788678e+01 2.288842e+01 2.179442e+01 1.728602e+01 2.280456e+01 5.524942e+01 3.715231e+01 3.937296e+01 2.622327e+01 2.729170e+01 2.989894e+01 3.490950e+01 7.210902e-03 1.995735e+00 1.390726e+00 2.887324e+00 1.881456e+00 2.137735e+00 4.221273e+00 4.021710e+00 3.400893e+00 2.598375e+00 2.696679e+00 2.716192e+00 3.023718e+00 5.532522e-03 5.225189e-01 2.601762e-01 2.767119e-01 2.487096e-01 4.192398e-01 8.197831e-01 7.058583e-01 5.597267e-01 4.231651e-01 4.758545e-01 4.514567e-01 4.755616e-01 5.577019e-04
<GCONST> 9.572512e+01
<STATE> 4
<NUMMIXES> 2
<MIXTURE> 1 5.000000e-01
<MEAN> 39
 1.686448e+00 -1.217344e+01 -7.620650e+00 1.094571e+00 -2.151107e-01 -2.162755e+00 3.196865e+00 2.999889e-01 1.493960e+00 -1.863357e+00 -1.373637e+00 -6.242090e-01 8.912690e-01 3.009216e-02 7.264559e-03 1.510633e-01 4.754381e-02 -1.114156e-01 6.618346e-02 -2.683338e-02 -2.721299e-03 -4.475694e-02 7.063063e-03 5.639882e-02 -1.454158e-02 -6.787324e-03 5.346452e-02 7.325621e-02 1.767592e-02 -8.612676e-02 -5.780990e-02 -2.239904e-02 -1.065644e-02 -2.311027e-02 -6.935174e-03 2.313322e-02 5.306731e-04 -1.135963e-02 -1.327676e-03
<VARIANCE> 39
 1.483362e+01 1.091562e+01 3.353557e+01 2.148870e+01 1.818114e+01 3.221298e+01 2.469676e+01 2.562755e+01 2.540576e+01 2.696265e+01 3.194431e+01 3.225949e+01 7.807014e-03 1.039465e-01 1.202141e-01 2.150852e-01 3.028967e-01 2.994077e-01 3.536148e-01 3.653100e-01 3.951202e-01 3.838436e-01 4.212026e-01 4.111421e-01 3.431273e-01 7.595846e-05 1.567085e-02 1.991208e-02 3.355967e-02 4.097489e-02 4.920487e-02 5.821891e-02 6.633174e-02 6.340963e-02 6.579990e-02 7.533474e-02 6.990760e-02 6.283743e-02 7.494673e-06
<GCONST> 3.169737e+01
<MIXTURE> 2 5.000000e-01
<MEAN> 39
 1.686448e+00 -1.217344e+01 -7.620650e+00 1.094571e+00 -2.151107e-01 -2.162755e+00 3.196865e+00 2.999889e-01 1.493960e+00 -1.863357e+00 -1.373637e+00 -6.242090e-01 8.912690e-01 3.009216e-02 7.264559e-03 1.510633e-01 4.754381e-02 -1.114156e-01 6.618346e-02 -2.683338e-02 -2.721299e-03 -4.475694e-02 7.063063e-03 5.639882e-02 -1.454158e-02 -6.787324e-03 5.346452e-02 7.325621e-02 1.767592e-02 -8.612676e-02 -5.780990e-02 -2.239904e-02 -1.065644e-02 -2.311027e-02 -6.935174e-03 2.313322e-02 5.306731e-04 -1.135963e-02 -1.327676e-03
<VARIANCE> 39
 1.483362e+01 1.091562e+01 3.353557e+01 2.148870e+01 1.818114e+01 3.221298e+01 2.469676e+01 2.562755e+01 2.540576e+01 2.696265e+01 3.194431e+01 3.225949e+01 7.807014e-03 1.039465e-01 1.202141e-01 2.150852e-01 3.028967e-01 2.994077e-01 3.536148e-01 3.653100e-01 3.951202e-01 3.838436e-01 4.212026e-01 4.111421e-01 3.431273e-01 7.595846e-05 1.567085e-02 1.991208e-02 3.355967e-02 4.097489e-02 4.920487e-02 5.821891e-02 6.633174e-02 6.340963e-02 6.579990e-02 7.533474e-02 6.990760e-02 6.283743e-02 7.494673e-06
<GCONST> 3.169737e+01
<TRANSP> 5
 0.000000e+00 1.000000e+00 0.000000e+00 0.000000e+00 0.000000e+00
 0.000000e+00 8.491110e-01 1.508890e-01 0.000000e+00 0.000000e+00
 0.000000e+00 0.000000e+00 8.095668e-01 1.904332e-01 0.000000e+00
 0.000000e+00 0.000000e+00 0.000000e+00 9.277201e-01 7.227990e-02
 0.000000e+00 0.000000e+00 0.000000e+00 0.000000e+00 0.000000e+00
<ENDHMM>
~h "er"
<BEGINHMM>
<NUMSTATES> 5
<STATE> 2
<NUMMIXES> 2
<MIXTURE> 1 5.000000e-01
<MEAN> 39
 2.599460e+00 -2.283336e+00 -1.207363e+00 -1.027800e+00 -3.312948e+00 -3.873637e+00 -3.351347e-01 -4.517710e-01 6.241065e-02 1.794692e-01 4.896230e-01 5.740007e-01 4.596311e-01 4.557823e-01 -8.343646e-01 -2.641591e-01 -2.704941e-01 -8.424269e-01 -8.246359e-01 1.147676e-01 -3.809495e-02 -9.517916e-02 -2.249131e-02 -4.070097e-02 1.714640e-02 5.372061e-02 -2.881183e-02 4.099869e-03 -2.269901e-02 -3.919458e-03 1.079091e-02 6.892909e-03 -2.293627e-02 -2.345847e-02 -5.150274e-02 -3.652225e-02 -6.287724e-02 -2.370293e-02 7.112804e-03
<VARIANCE> 39
 2.508126e+01 3.379249e+01 3.374403e+01 2.606977e+01 4.405188e+01 6.123048e+01 5.567418e+01 4.420960e+01 3.755971e+01 2.770807e+01 2.600772e+01 2.005017e+01 1.048286e-01 2.428361e+00 1.698883e+00 2.529505e+00 2.514424e+00 3.749627e+00 5.004331e+00 5.780917e+00 5.253066e+00 4.308566e+00 3.462553e+00 3.415973e+00 2.756507e+00 9.871798e-03 4.011761e-01 2.619265e-01 3.814244e-01 3.884799e-01 7.030303e-01 8.913047e-01 1.104495e+00 9.690313e-01 8.450705e-01 6.629750e-01 6.431534e-01 5.407997e-01 1.333743e-03
<GCONST> 1.089789e+02
<MIXTURE> 2 5.000000e-01
<MEAN> 39
 2.599460e+00 -2.283336e+00 -1.207363e+00 -1.027800e+00 -3.312948e+00 -3.873637e+00 -3.351347e-01 -4.517710e-01 6.241065e-02 1.794692e-01 4.896230e-01 5.740007e-01 4.596311e-01 4.557823e-01 -8.343646e-01 -2.641591e-01 -2.704941e-01 -8.424269e-01 -8.246359e-01 1.147676e-01 -3.809495e-02 -9.517916e-02 -2.249131e-02 -4.070097e-02 1.714640e-02 5.372061e-02 -2.881183e-02 4.099869e-03 -2.269901e-02 -3.919458e-03 1.079091e-02 6.892909e-03 -2.293627e-02 -2.345847e-02 -5.150274e-02 -3.652225e-02 -6.287724e-02 -2.370293e-02 7.112804e-03
<VARIANCE> 39
 2.508126e+01 3.379249e+01 3.374403e+01 2.606977e+01 4.405188e+01 6.123048e+01 5.567418e+01 4.420960e+01 3.755971e+01 2.770807e+01 2.600772e+01 2.005017e+01 1.048286e-01 2.428361e+00 1.698883e+00 2.529505e+00 2.514424e+00 3.749627e+00 5.004331e+00 5.780917e+00 5.253066e+00 4.308566e+00 3.462553e+00 3.415973e+00 2.756507e+00 9.871798e-03 4.011761e-01 2.619265e-01 3.814244e-01 3.884799e-01 7.030303e-01 8.913047e-01 1.104495e+00 9.690313e-01 8.450705e-01 6.629750e-01 6.431534e-01 5.407997e-01 1.333743e-03
<GCONST> 1.089789e+02
<STATE> 3
<NUMMIXES> 2
<MIXTURE> 1 5.000000e-01
<MEAN> 39
 3.097331e+00 -7.691163e+00 -9.988846e-02 -7.320810e+00 -8.561302e+00 -3.956614e+00 2.054995e-01 -2.508904e+00 -2.399266e+00 -2.164327e+00 -4.764261e+00 -3.739776e+00 9.097074e-01 -1.694536e-02 2.050857e-01 4.650691e-01 -9.761538e-02 1.746849e-01 7.409987e-02 -2.720760e-01 2.359400e-02 1.324309e-01 1.333421e-01 7.416678e-02 -3.926493e-02 8.312066e-03 1.411595e-02 1.180996e-01 7.043226e-02 9.248859e-02 1.268567e-01 1.088273e-01 2.505638e-02 8.458585e-02 1.071275e-01 7.692160e-02 1.140594e-01 1.094543e-01 -6.888397e-03
<VARIANCE> 39
 1.126373e+01 1.980403e+01 4.152555e+01 6.120553e+01 3.186394e+01 3.746857e+01 3.590207e+01 4.440046e+01 5.004416e+01 6.381094e+01 8.790658e+01 1.054734e+02 6.059572e-03 2.973946e-01 5.513626e-01 8.416943e-01 8.470656e-01 1.048437e+00 1.347250e+00 1.570642e+00 2.050852e+00 2.887503e+00 4.116839e+00 5.665504e+00 6.199044e+00 6.391618e-04 4.880452e-02 6.018912e-02 1.018515e-01 1.176326e-01 1.680504e-01 2.096228e-01 2.543906e-01 3.094233e-01 4.218503e-01 5.961027e-01 8.410619e-01 8.053092e-01 7.766690e-05
<GCONST> 8.215370e+01
<MIXTURE> 2 5.000000e-01
<MEAN> 39
 3.097331e+00 -7.691163e+00 -9.988846e-02 -7.320810e+00 -8.561302e+00 -3.956614e+00 2.054995e-01 -2.508904e+00 -2.399266e+00 -2.164327e+00 -4.764261e+00 -3.739776e+00 9.097074e-01 -1.694536e-02 2.050857e-01 4.650691e-01 -9.761538e-02 1.746849e-01 7.409987e-02 -2.720760e-01 2.359400e-02 1.324309e-01 1.333421e-01 7.416678e-02 -3.926493e-02 8.312066e-03 1.411595e-02 1.180996e-01 7.043226e-02 9.248859e-02 1.268567e-01 1.088273e-01 2.505638e-02 8.458585e-02 1.071275e-01 7.692160e-02 1.140594e-01 1.094543e-01 -6.888397e-03
<VARIANCE> 39
 1.126373e+01 1.980403e+01 4.152555e+01 6.120553e+01 3.186394e+01 3.746857e+01 3.590207e+01 4.440046e+01 5.004416e+01 6.381094e+01 8.790658e+01 1.054734e+02 6.059572e-03 2.973946e-01 5.513626e-01 8.416943e-01 8.470656e-01 1.048437e+00 1.347250e+00 1.570642e+00 2.050852e+00 2.887503e+00 4.116839e+00 5.665504e+00 6.199044e+00 6.391618e-04 4.880452e-02 6.018912e-02 1.018515e-01 1.176326e-01 1.680504e-01 2.096228e-01 2.543906e-01 3.094233e-01 4.218503e-01 5.961027e-01 8.410619e-01 8.053092e-01 7.766690e-05
<GCONST> 8.215370e+01
<STATE> 4
<NUMMIXES> 2
<MIXTURE> 1 5.000000e-01
<MEAN> 39
 5.525130e+00 -3.717410e+00 5.704794e-01 -2.186431e-01 -5.110208e+00 -7.596419e+00 -2.314446e+00 -4.744489e-01 -6.118602e-01 1.217305e-01 7.482595e-01 1.680868e+00 8.633612e-01 -1.489648e-03 1.868601e-01 3.288952e-01 1.292193e-01 8.577929e-02 2.339819e-01 -2.988816e-02 -1.183654e-01 -1.637284e-01 -9.392124e-02 -4.826303e-02 -2.051779e-02 -8.268400e-03 -7.779450e-03 2.519811e-02 1.332329e-02 1.474397e-02 1.621133e-02 4.379829e-02 3.017677e-02 -2.521723e-02 -1.210328e-02 -1.358688e-02 -2.223673e-02 -5.262047e-02 -3.320540e-03
<VARIANCE> 39
 6.988812e+00 1.502720e+01 5.116964e+01 3.938398e+01 3.619228e+01 5.703734e+01 4.068985e+01 2.743818e+01 3.136825e+01 3.036180e+01 2.177902e+01 1.807104e+01 1.189142e-02 1.731276e-01 2.718891e-01 4.595395e-01 4.166770e-01 6.270106e-01 7.187997e-01 8.791270e-01 8.110533e-01 8.654562e-01 8.351091e-01 7.518380e-01 9.573422e-01 4.113202e-04 2.704002e-02 3.334470e-02 5.558702e-02 6.044270e-02 8.005885e-02 1.113040e-01 1.187261e-01 1.260907e-01 1.414363e-01 1.344929e-01 1.253615e-01 1.443591e-01 2.183422e-05
<GCONST> 5.236322e+01
<MIXTURE> 2 5.000000e-01
<MEAN> 39
 5.525130e+00 -3.717410e+00 5.704794e-01 -2.186431e-01 -5.110208e+00 -7.596419e+00 -2.314446e+00 -4.744489e-01 -6.118602e-01 1.217305e-01 7.482595e-01 1.680868e+00 8.633612e-01 -1.489648e-03 1.868601e-01 3.288952e-01 1.292193e-01 8.577929e-02 2.339819e-01 -2.988816e-02 -1.183654e-01 -1.637284e-01 -9.392124e-02 -4.826303e-02 -2.051779e-02 -8.268400e-03 -7.779450e-03 2.519811e-02 1.332329e-02 1.474397e-02 1.621133e-02 4.379829e-02 3.017677e-02 -2.521723e-02 -1.210328e-02 -1.358688e-02 -2.223673e-02 -5.262047e-02 -3.320540e-03
<VARIANCE> 39
 6.988812e+00 1.502720e+01 5.116964e+01 3.938398e+01 3.619228e+01 5.703734e+01 4.068985e+01 2.743818e+01 3.136825e+01 3.036180e+01 2.177902e+01 1.807104e+01 1.189142e-02 1.731276e-01 2.718891e-01 4.595395e-01 4.166770e-01 6.270106e-01 7.187997e-01 8.791270e-01 8.110533e-01 8.654562e-01 8.351091e-01 7.518380e-01 9.573422e-01 4.113202e-04 2.704002e-02 3.334470e-02 5.558702e-02 6.044270e-02 8.005885e-02 1.113040e-01 1.187261e-01 1.260907e-01 1.414363e-01 1.344929e-01 1.253615e-01 1.443591e-01 2.183422e-05
<GCONST> 5.236322e+01
<TRANSP> 5
 0.000000e+00 1.000000e+00 0.000000e+00 0.000000e+00 0.000000e+00
 0.000000e+00 8.606490e-01 1.393510e-01 0.000000e+00 0.000000e+00
 0.000000e+00 0.000000e+00 8.251988e-01 1.748012e-01 0.000000e+00
 0.000000e+00 0.000000e+00 0.000000e+00 9.212089e-01 7.879118e-02
 0.000000e+00 0.000000e+00 0.000000e+00 0.000000e+00 0.000000e+00
<ENDHMM>
~h "qi"
<BEGINHMM>
<NUMSTATES> 5
<STATE> 2
<NUMMIXES> 2
<MIXTURE> 1 5.000000e-01
<MEAN> 39
 -3.675810e+00 -1.428768e+00 -1.777408e+00 6.499714e-01 -3.566201e-01 -5.204917e-02 -2.751205e-01 6.609752e-01 3.149731e-02 1.051540e+00 5.898914e-01 9.893984e-01 4.094822e-01 -1.569296e-01 2.297481e-01 -2.923946e-01 1.053348e-01 -5.168715e-02 -1.316598e-02 -4.882205e-02 -1.569611e-02 -4.504867e-02 -9.624191e-04 6.823496e-03 -2.975293e-03 2.216364e-02 1.043411e-01 1.708579e-01 1.057005e-01 6.436516e-02 8.423729e-02 5.205794e-02 6.153736e-02 -2.279934e-03 1.471784e-03 -4.370952e-02 -1.816709e-02 -3.732297e-02 6.080166e-03
<VARIANCE> 39
 7.412660e+00 8.479180e+00 9.160261e+00 9.440881e+00 1.092871e+01 1.318581e+01 1.611603e+01 1.423709e+01 1.534798e+01 1.405735e+01 1.227363e+01 1.214609e+01 4.337587e-02 6.198083e-01 8.383525e-01 8.840028e-01 9.734256e-01 1.173854e+00 1.349765e+00 1.557029e+00 1.499335e+00 1.580160e+00 1.426342e+00 1.356368e+00 1.208271e+00 2.522760e-03 1.091310e-01 1.722985e-01 1.600711e-01 2.076289e-01 2.393193e-01 2.866694e-01 3.203413e-01 3.235678e-01 3.382019e-01 3.020087e-01 2.965859e-01 2.667255e-01 4.493314e-04
<GCONST> 6.890215e+01
<MIXTURE> 2 5.000000e-01
<MEAN> 39
 -3.675810e+00 -1.428768e+00 -1.777408e+00 6.499714e-01 -3.566201e-01 -5.204917e-02 -2.751205e-01 6.609752e-01 3.149731e-02 1.051540e+00 5.898914e-01 9.893984e-01 4.094822e-01 -1.569296e-01 2.297481e-01 -2.923946e-01 1.053348e-01 -5.168715e-02 -1.316598e-02 -4.882205e-02 -1.569611e-02 -4.504867e-02 -9.624191e-04 6.823496e-03 -2.975293e-03 2.216364e-02 1.043411e-01 1.708579e-01 1.057005e-01 6.436516e-02 8.423729e-02 5.205794e-02 6.153736e-02 -2.279934e-03 1.471784e-03 -4.370952e-02 -1.816709e-02 -3.732297e-02 6.080166e-03
<VARIANCE> 39
 7.412660e+00 8.479180e+00 9.160261e+00 9.440881e+00 1.092871e+01 1.318581e+01 1.611603e+01 1.423709e+01 1.534798e+01 1.405735e+01 1.227363e+01 1.214609e+01 4.337587e-02 6.198083e-01 8.383525e-01 8.840028e-01 9.734256e-01 1.173854e+00 1.349765e+00 1.557029e+00 1.499335e+00 1.580160e+00 1.426342e+00 1.356368e+00 1.208271e+00 2.522760e-03 1.091310e-01 1.722985e-01 1.600711e-01 2.076289e-01 2.393193e-01 2.866694e-01 3.203413e-01 3.235678e-01 3.382019e-01 3.020087e-01 2.965859e-01 2.667255e-01 4.493314e-04
<GCONST> 6.890215e+01
<STATE> 3
<NUMMIXES> 2
<MIXTURE> 1 5.000000e-01
<MEAN> 39
 -2.792090e+00 5.958497e+00 -1.357440e+00 2.366401e+00 1.591463e+00 1.053096e+00 1.036270e-01 1.366851e-01 5.450520e-02 -9.489388e-01 6.441285e-01 -3.527946e-01 7.016814e-01 5.940385e-02 1.025218e+00 3.234298e-01 -6.418666e-02 3.212788e-01 2.297310e-02 -7.666555e-02 -1.296301e-01 -9.133171e-02 -2.852141e-01 -1.326295e-01 -1.695112e-01 2.048544e-02 -7.799808e-02 -9.918630e-02 -4.893483e-02 -5.398508e-02 -6.151783e-02 -3.306495e-02 -4.555283e-02 2.688225e-02 -7.006686e-03 4.717694e-02 9.773887e-03 3.942106e-02 -3.380492e-03
<VARIANCE> 39
 1.172889e+01 1.659398e+01 1.751099e+01 1.385673e+01 1.885126e+01 3.217771e+01 2.336276e+01 3.528518e+01 2.827825e+01 3.150579e+01 3.555313e+01 3.158795e+01 1.403510e-02 8.718718e-01 1.140231e+00 1.673951e+00 1.308062e+00 1.889078e+00 2.403523e+00 2.150426e+00 2.988242e+00 2.180566e+00 2.888293e+00 2.807161e+00 2.861289e+00 7.587720e-04 1.474050e-01 1.996147e-01 2.833405e-01 2.367734e-01 3.227119e-01 4.006070e-01 3.877539e-01 4.771568e-01 3.970949e-01 4.643485e-01 4.553202e-01 4.394711e-01 1.291263e-04
<GCONST> 8.378825e+01
<MIXTURE> 2 5.000000e-01
<MEAN> 39
 -2.792090e+00 5.958497e+00 -1.357440e+00 2.366401e+00 1.591463e+00 1.053096e+00 1.036270e-01 1.366851e-01 5.450520e-02 -9.489388e-01 6.441285e-01 -3.527946e-01 7.016814e-01 5.940385e-02 1.025218e+00 3.234298e-01 -6.418666e-02 3.212788e-01 2.297310e-02 -7.666555e-02 -1.296301e-01 -9.133171e-02 -2.852141e-01 -1.326295e-01 -1.695112e-01 2.048544e-02 -7.799808e-02 -9.918630e-02 -4.893483e-02 -5.398508e-02 -6.151783e-02 -3.306495e-02 -4.555283e-02 2.688225e-02 -7.006686e-03 4.717694e-02 9.773887e-03 3.942106e-02 -3.380492e-03
<VARIANCE> 39
 1.172889e+01 1.659398e+01 1.751099e+01 1.385673e+01 1.885126e+01 3.217771e+01 2.336276e+01 3.528518e+01 2.827825e+01 3.150579e+01 3.555313e+01 3.158795e+01 1.403510e-02 8.718718e-01 1.140231e+00 1.673951e+00 1.308062e+00 1.889078e+00 2.403523e+00 2.150426e+00 2.988242e+00 2.180566e+00 2.888293e+00 2.807161e+00 2.861289e+00 7.587720e-04 1.474050e-01 1.996147e-01 2.833405e-01 2.367734e-01 3.227119e-01 4.006070e-01 3.877539e-01 4.771568e-01 3.970949e-01 4.643485e-01 4.553202e-01 4.394711e-01 1.291263e-04
<GCONST> 8.378825e+01
<STATE> 4
<NUMMIXES> 2
<MIXTURE> 1 5.000000e-01
<MEAN> 39
 -3.124249e+00 1.073671e+01 2.852409e-01 1.864898e+00 3.427992e+00 1.464564e+00 -3.342434e-01 1.072279e+00 -8.253004e-01 -6.271030e-01 -3.785514e-02 -7.983505e-01 7.442787e-01 6.594021e-02 3.788927e-02 -1.453876e-02 4.105133e-02 5.473247e-02 1.243157e-02 8.843721e-02 2.687311e-02 3.750621e-04 4.281266e-02 1.890251e-02 2.011340e-02 -5.144169e-03 3.988222e-02 -6.585781e-02 2.815074e-02 -1.097486e-02 9.844461e-03 3.575485e-03 3.089490e-02 -8.060229e-03 9.049182e-03 -9.573694e-03 -1.074861e-03 -6.244321e-03 -2.025269e-03
<VARIANCE> 39
 9.935238e+00 7.553637e+00 1.826711e+01 1.606008e+01 2.390169e+01 4.502576e+01 2.949433e+01 6.101022e+01 3.265308e+01 5.329197e+01 6.398790e+01 4.848260e+01 1.087986e-02 9.002859e-02 1.379391e-01 1.721538e-01 2.443310e-01 2.979694e-01 3.698665e-01 4.483927e-01 4.973678e-01 5.359197e-01 5.630537e-01 5.866556e-01 5.057565e-01 8.099257e-05 1.754899e-02 3.256083e-02 3.807177e-02 4.897588e-02 6.177944e-02 7.653410e-02 8.511326e-02 1.043350e-01 1.045243e-01 1.173813e-01 1.194751e-01 1.057479e-01 1.151050e-05
<GCONST> 4.006210e+01
<MIXTURE> 2 5.000000e-01
<MEAN> 39
 -3.124249e+00 1.073671e+01 2.852409e-01 1.864898e+00 3.427992e+00 1.464564e+00 -3.342434e-01 1.072279e+00 -8.253004e-01 -6.271030e-01 -3.785514e-02 -7.983505e-01 7.442787e-01 6.594021e-02 3.788927e-02 -1.453876e-02 4.105133e-02 5.473247e-02 1.243157e-02 8.843721e-02 2.687311e-02 3.750621e-04 4.281266e-02 1.890251e-02 2.011340e-02 -5.144169e-03 3.988222e-02 -6.585781e-02 2.815074e-02 -1.097486e-02 9.844461e-03 3.575485e-03 3.089490e-02 -8.060229e-03 9.049182e-03 -9.573694e-03 -1.074861e-03 -6.244321e-03 -2.025269e-03
<VARIANCE> 39
 9.935238e+00 7.553637e+00 1.826711e+01 1.606008e+01 2.390169e+01 4.502576e+01 2.949433e+01 6.101022e+01 3.265308e+01 5.329197e+01 6.398790e+01 4.848260e+01 1.087986e-02 9.002859e-02 1.379391e-01 1.721538e-01 2.443310e-01 2.979694e-01 3.698665e-01 4.483927e-01 4.973678e-01 5.359197e-01 5.630537e-01 5.866556e-01 5.057565e-01 8.099257e-05 1.754899e-02 3.256083e-02 3.807177e-02 4.897588e-02 6.177944e-02 7.653410e-02 8.511326e-02 1.043350e-01 1.045243e-01 1.173813e-01 1.194751e-01 1.057479e-01 1.151050e-05
<GCONST> 4.006210e+01
<TRANSP> 5
 0.000000e+00 1.000000e+00 0.000000e+00 0.000000e+00 0.000000e+00
 0.000000e+00 9.122767e-01 8.772330e-02 0.000000e+00 0.000000e+00
 0.000000e+00 0.000000e+00 8.790715e-01 1.209285e-01 0.000000e+00
 0.000000e+00 0.000000e+00 0.000000e+00 9.158206e-01 8.417937e-02
 0.000000e+00 0.000000e+00 0.000000e+00 0.000000e+00 0.000000e+00
<ENDHMM>
~h "si"
<BEGINHMM>
<NUMSTATES> 5
<STATE> 2
<NUMMIXES> 2
<MIXTURE> 1 5.000000e-01
<MEAN> 39
 -3.608879e+00 -2.269400e+00 -1.164892e+00 -1.129977e+00 6.479433e-01 2.813460e-01 -1.055091e+00 7.693645e-01 3.397250e-02 2.455369e-01 6.886907e-01 4.202048e-01 3.972388e-01 1.284493e-01 9.672543e-02 1.989884e-01 1.541094e-01 1.898747e-02 1.155270e-01 1.217938e-01 -4.137324e-02 1.656832e-02 -2.055008e-02 4.627375e-03 -1.419809e-02 6.805710e-03 1.487097e-01 1.004513e-01 1.842523e-01 1.013645e-01 -2.184703e-02 6.761216e-02 8.298134e-02 -5.008225e-02 2.798826e-03 -3.397300e-02 -2.481158e-02 -3.149467e-02 7.288310e-03
<VARIANCE> 39
 6.753411e+00 7.499482e+00 8.303251e+00 9.948487e+00 1.241463e+01 1.675149e+01 1.805634e+01 1.591879e+01 1.420933e+01 1.511286e+01 1.266600e+01 1.067688e+01 2.362535e-02 5.695595e-01 5.683397e-01 1.090306e+00 1.236643e+00 1.098056e+00 1.615895e+00 2.000387e+00 1.717563e+00 1.640468e+00 1.631198e+00 1.423756e+00 1.205464e+00 1.283948e-03 8.008951e-02 1.010097e-01 1.866485e-01 2.585906e-01 2.499382e-01 3.307356e-01 4.560400e-01 3.840914e-01 3.688299e-01 3.786063e-01 3.248414e-01 2.841840e-01 1.687216e-04
<GCONST> 6.826908e+01
<MIXTURE> 2 5.000000e-01
<MEAN> 39
 -3.608879e+00 -2.269400e+00 -1.164892e+00 -1.129977e+00 6.479433e-01 2.813460e-01 -1.055091e+00 7.693645e-01 3.397250e-02 2.455369e-01 6.886907e-01 4.202048e-01 3.972388e-01 1.284493e-01 9.672543e-02 1.989884e-01 1.541094e-01 1.898747e-02 1.155270e-01 1.217938e-01 -4.137324e-02 1.656832e-02 -2.055008e-02 4.627375e-03 -1.419809e-02 6.805710e-03 1.487097e-01 1.004513e-01 1.842523e-01 1.013645e-01 -2.184703e-02 6.761216e-02 8.298134e-02 -5.008225e-02 2.798826e-03 -3.397300e-02 -2.481158e-02 -3.149467e-02 7.288310e-03
<VARIANCE> 39
 6.753411e+00 7.499482e+00 8.303251e+00 9.948487e+00 1.241463e+01 1.675149e+01 1.805634e+01 1.591879e+01 1.420933e+01 1.511286e+01 1.266600e+01 1.067688e+01 2.362535e-02 5.695595e-01 5.683397e-01 1.090306e+00 1.236643e+00 1.098056e+00 1.615895e+00 2.000387e+00 1.717563e+00 1.640468e+00 1.631198e+00 1.423756e+00 1.205464e+00 1.283948e-03 8.008951e-02 1.010097e-01 1.866485e-01 2.585906e-01 2.499382e-01 3.307356e-01 4.560400e-01 3.840914e-01 3.688299e-01 3.786063e-01 3.248414e-01 2.841840e-01 1.687216e-04
<GCONST> 6.826908e+01
<STATE> 3
<NUMMIXES> 2
<MIXTURE> 1 5.000000e-01
<MEAN> 39
 -6.593557e-02 1.704279e+00 4.772901e+00 -2.029909e+00 -1.207250e+00 6.032386e-01 -6.150368e+00 -1.284222e+00 -5.502379e+00 -4.140399e+00 -2.936736e+00 -1.997488e+00 7.207660e-01 3.223426e-01 4.416792e-01 6.996935e-01 3.122601e-01 -2.093379e-01 1.363039e-01 1.701575e-03 -2.810904e-01 -1.743947e-01 -2.481888e-01 -3.385969e-01 -4.950367e-01 2.951206e-02 -1.296997e-01 -5.113739e-02 -1.413018e-01 -2.823976e-02 5.850301e-02 8.917466e-04 8.765045e-02 1.141268e-01 1.798040e-01 1.867330e-01 1.465053e-01 1.268193e-01 -6.468656e-03
<VARIANCE> 39
 8.347117e+00 1.305661e+01 1.069289e+01 4.268871e+01 2.937649e+01 3.418956e+01 9.161752e+01 3.225821e+01 6.199011e+01 5.357603e+01 7.161401e+01 8.572136e+01 1.559225e-02 7.172428e-01 6.821647e-01 1.258812e+00 2.337872e+00 2.437129e+00 2.553259e+00 5.647863e+00 2.851932e+00 3.926905e+00 4.233719e+00 5.041558e+00 5.331019e+00 1.311492e-03 1.165009e-01 1.136742e-01 1.758826e-01 2.956798e-01 3.334486e-01 3.711755e-01 6.012886e-01 3.836580e-01 4.733104e-01 5.571039e-01 7.196409e-01 7.686908e-01 7.782332e-05
<GCONST> 9.227974e+01
<MIXTURE> 2 5.000000e-01
<MEAN> 39
 -6.593557e-02 1.704279e+00 4.772901e+00 -2.029909e+00 -1.207250e+00 6.032386e-01 -6.150368e+00 -1.284222e+00 -5.502379e+00 -4.140399e+00 -2.936736e+00 -1.997488e+00 7.207660e-01 3.223426e-01 4.416792e-01 6.996935e-01 3.122601e-01 -2.093379e-01 1.363039e-01 1.701575e-03 -2.810904e-01 -1.743947e-01 -2.481888e-01 -3.385969e-01 -4.950367e-01 2.951206e-02 -1.296997e-01 -5.113739e-02 -1.413018e-01 -2.823976e-02 5.850301e-02 8.917466e-04 8.765045e-02 1.141268e-01 1.798040e-01 1.867330e-01 1.465053e-01 1.268193e-01 -6.468656e-03
<VARIANCE> 39
 8.347117e+00 1.305661e+01 1.069289e+01 4.268871e+01 2.937649e+01 3.418956e+01 9.161752e+01 3.225821e+01 6.199011e+01 5.357603e+01 7.161401e+01 8.572136e+01 1.559225e-02 7.172428e-01 6.821647e-01 1.258812e+00 2.337872e+00 2.437129e+00 2.553259e+00 5.647863e+00 2.851932e+00 3.926905e+00 4.233719e+00 5.041558e+00 5.331019e+00 1.311492e-03 1.165009e-01 1.136742e-01 1.758826e-01 2.956798e-01 3.334486e-01 3.711755e-01 6.012886e-01 3.836580e-01 4.733104e-01 5.571039e-01 7.196409e-01 7.686908e-01 7.782332e-05
<GCONST> 9.227974e+01
<STATE> 4
<NUMMIXES> 2
<MIXTURE> 1 5.000000e-01
<MEAN> 39
 8.595089e-01 3.321519e+00 8.202043e+00 4.430685e+00 -1.327220e+00 5.814795e+00 4.380477e+00 -2.451462e+00 3.906900e+00 3.166568e-01 8.165911e-01 -4.916689e-01 7.278334e-01 5.454344e-02 1.581491e-01 6.235218e-02 -7.522730e-02 8.912712e-02 1.896057e-01 -4.334918e-02 1.027470e-01 1.364463e-01 5.507922e-02 7.566059e-02 1.813103e-01 -8.039895e-03 -2.168865e-02 -5.500437e-02 -1.125813e-01 -6.997470e-02 8.828510e-03 -8.176921e-02 -1.079728e-01 5.967644e-03 -1.070401e-01 -6.674320e-02 -5.820879e-02 -3.167070e-02 -4.934984e-03
<VARIANCE> 39
 6.089414e+00 1.258312e+01 9.156886e+00 2.034273e+01 2.959848e+01 4.084636e+01 6.998605e+01 5.269481e+01 3.700863e+01 2.231089e+01 1.961343e+01 1.564821e+01 1.599442e-02 2.122089e-01 2.898992e-01 4.536545e-01 6.896452e-01 9.468336e-01 1.203059e+00 1.584782e+00 1.489452e+00 1.403234e+00 1.276020e+00 1.258596e+00 1.163216e+00 4.827748e-04 4.073806e-02 5.412057e-02 9.117905e-02 1.287724e-01 1.642207e-01 2.238842e-01 2.803307e-01 2.610900e-01 2.261799e-01 2.120073e-01 2.052888e-01 1.929552e-01 3.673177e-05
<GCONST> 6.226976e+01
<MIXTURE> 2 5.000000e-01
<MEAN> 39
 8.595089e-01 3.321519e+00 8.202043e+00 4.430685e+00 -1.327220e+00 5.814795e+00 4.380477e+00 -2.451462e+00 3.906900e+00 3.166568e-01 8.165911e-01 -4.916689e-01 7.278334e-01 5.454344e-02 1.581491e-01 6.235218e-02 -7.522730e-02 8.912712e-02 1.896057e-01 -4.334918e-02 1.027470e-01 1.364463e-01 5.507922e-02 7.566059e-02 1.813103e-01 -8.039895e-03 -2.168865e-02 -5.500437e-02 -1.125813e-01 -6.997470e-02 8.828510e-03 -8.176921e-02 -1.079728e-01 5.967644e-03 -1.070401e-01 -6.674320e-02 -5.820879e-02 -3.167070e-02 -4.934984e-03
<VARIANCE> 39
 6.089414e+00 1.258312e+01 9.156886e+00 2.034273e+01 2.959848e+01 4.084636e+01 6.998605e+01 5.269481e+01 3.700863e+01 2.231089e+01 1.961343e+01 1.564821e+01 1.599442e-02 2.122089e-01 2.898992e-01 4.536545e-01 6.896452e-01 9.468336e-01 1.203059e+00 1.584782e+00 1.489452e+00 1.403234e+00 1.276020e+00 1.258596e+00 1.163216e+00 4.827748e-04 4.073806e-02 5.412057e-02 9.117905e-02 1.287724e-01 1.642207e-01 2.238842e-01 2.803307e-01 2.610900e-01 2.261799e-01 2.120073e-01 2.052888e-01 1.929552e-01 3.673177e-05
<GCONST> 6.226976e+01
<TRANSP> 5
 0.000000e+00 1.000000e+00 0.000000e+00 0.000000e+00 0.000000e+00
 0.000000e+00 9.160773e-01 8.392268e-02 0.000000e+00 0.000000e+00
 0.000000e+00 0.000000e+00 8.521832e-01 1.478168e-01 0.000000e+00
 0.000000e+00 0.000000e+00 0.000000e+00 9.116312e-01 8.836883e-02
 0.000000e+00 0.000000e+00 0.000000e+00 0.000000e+00 0.000000e+00
<ENDHMM>
~h "sp"
<BEGINHMM>
<NUMSTATES> 5
<STATE> 2
~s "silst"
<STATE> 3
<NUMMIXES> 2
<MIXTURE> 1 5.000000e-01
<MEAN> 39
 2.531640e+00 1.327443e+00 5.774961e-01 2.939746e-01 -3.156269e-01 -2.105931e-01 1.987707e-01 -1.310735e+00 -1.020609e+00 -1.592021e+00 -1.032642e+00 -8.317012e-01 6.094255e-01 -3.464713e-01 -1.690424e-01 3.553421e-01 6.478033e-02 2.384613e-01 2.333945e-01 2.325940e-01 1.714479e-01 1.480111e-01 1.926430e-01 1.655753e-01 1.768560e-01 -3.353947e-02 -1.155818e-01 -7.735184e-02 -8.213798e-02 -6.634947e-03 1.979016e-02 7.203029e-05 -2.415472e-02 8.297369e-02 7.204738e-02 1.027727e-01 6.254784e-02 4.332835e-02 -3.549408e-03
<VARIANCE> 39
 2.105458e+01 4.424877e+01 3.792582e+01 3.740502e+01 4.308382e+01 4.482696e+01 4.361313e+01 4.000208e+01 3.889166e+01 4.143819e+01 4.402638e+01 4.331958e+01 4.144761e-02 1.145936e+00 2.073336e+00 2.363220e+00 2.529787e+00 3.166968e+00 3.316666e+00 3.432369e+00 3.323755e+00 3.151598e+00 3.171622e+00 3.063025e+00 2.854417e+00 1.269104e-03 1.521050e-01 2.481757e-01 3.718856e-01 4.057116e-01 5.134639e-01 5.803285e-01 5.961732e-01 5.826707e-01 5.506155e-01 5.412315e-01 5.194674e-01 4.793679e-01 1.637852e-04
<GCONST> 9.904350e+01
<MIXTURE> 2 5.000000e-01
<MEAN> 39
 2.531640e+00 1.327443e+00 5.774961e-01 2.939746e-01 -3.156269e-01 -2.105931e-01 1.987707e-01 -1.310735e+00 -1.020609e+00 -1.592021e+00 -1.032642e+00 -8.317012e-01 6.094255e-01 -3.464713e-01 -1.690424e-01 3.553421e-01 6.478033e-02 2.384613e-01 2.333945e-01 2.325940e-01 1.714479e-01 1.480111e-01 1.926430e-01 1.655753e-01 1.768560e-01 -3.353947e-02 -1.155818e-01 -7.735184e-02 -8.213798e-02 -6.634947e-03 1.979016e-02 7.203029e-05 -2.415472e-02 8.297369e-02 7.204738e-02 1.027727e-01 6.254784e-02 4.332835e-02 -3.549408e-03
<VARIANCE> 39
 2.105458e+01 4.424877e+01 3.792582e+01 3.740502e+01 4.308382e+01 4.482696e+01 4.361313e+01 4.000208e+01 3.889166e+01 4.143819e+01 4.402638e+01 4.331958e+01 4.144761e-02 1.145936e+00 2.073336e+00 2.363220e+00 2.529787e+00 3.166968e+00 3.316666e+00 3.432369e+00 3.323755e+00 3.151598e+00 3.171622e+00 3.063025e+00 2.854417e+00 1.269104e-03 1.521050e-01 2.481757e-01 3.718856e-01 4.057116e-01 5.134639e-01 5.803285e-01 5.961732e-01 5.826707e-01 5.506155e-01 5.412315e-01 5.194674e-01 4.793679e-01 1.637852e-04
<GCONST> 9.904350e+01
<STATE> 4
<NUMMIXES> 2
<MIXTURE> 1 5.000000e-01
<MEAN> 39
 5.874520e-01 -3.157299e-01 8.696570e-01 6.091702e-01 6.432548e-01 9.262415e-01 1.377687e+00 3.832747e-01 4.946087e-01 4.890701e-01 3.424573e-01 2.801253e-01 3.820618e-01 -2.896450e-01 -1.173416e-01 5.250806e-03 -1.909456e-02 2.946879e-02 1.557682e-02 -6.943738e-02 5.780982e-02 3.007124e-02 8.025933e-02 4.567597e-02 2.682382e-02 -1.784776e-02 3.809979e-03 3.317183e-02 -4.244705e-03 -1.807114e-02 -1.671817e-02 -1.246789e-02 -6.410363e-02 -3.496755e-02 -1.981176e-02 -2.322945e-02 -1.262825e-02 -1.421615e-02 2.535685e-03
<VARIANCE> 39
 1.741177e+01 2.483372e+01 2.229841e+01 1.773580e+01 2.282059e+01 2.704837e+01 2.632413e+01 2.304035e+01 2.086337e+01 1.916440e+01 1.744228e+01 1.575399e+01 6.754443e-02 5.792537e-01 9.227759e-01 1.226055e+00 1.193626e+00 1.542151e+00 1.825538e+00 1.935318e+00 1.938852e+00 1.851093e+00 1.716477e+00 1.592491e+00 1.430609e+00 1.123332e-03 9.258218e-02 1.382169e-01 1.795062e-01 2.150972e-01 2.821039e-01 3.278130e-01 3.565617e-01 3.595298e-01 3.562697e-01 3.294152e-01 3.089158e-01 2.753987e-01 1.476200e-04
<GCONST> 7.729620e+01
<MIXTURE> 2 5.000000e-01
<MEAN> 39
 5.874520e-01 -3.157299e-01 8.696570e-01 6.091702e-01 6.432548e-01 9.262415e-01 1.377687e+00 3.832747e-01 4.946087e-01 4.890701e-01 3.424573e-01 2.801253e-01 3.820618e-01 -2.896450e-01 -1.173416e-01 5.250806e-03 -1.909456e-02 2.946879e-02 1.557682e-02 -6.943738e-02 5.780982e-02 3.007124e-02 8.025933e-02 4.567597e-02 2.682382e-02 -1.784776e-02 3.809979e-03 3.317183e-02 -4.244705e-03 -1.807114e-02 -1.671817e-02 -1.246789e-02 -6.410363e-02 -3.496755e-02 -1.981176e-02 -2.322945e-02 -1.262825e-02 -1.421615e-02 2.535685e-03
<VARIANCE> 39
 1.741177e+01 2.483372e+01 2.229841e+01 1.773580e+01 2.282059e+01 2.704837e+01 2.632413e+01 2.304035e+01 2.086337e+01 1.916440e+01 1.744228e+01 1.575399e+01 6.754443e-02 5.792537e-01 9.227759e-01 1.226055e+00 1.193626e+00 1.542151e+00 1.825538e+00 1.935318e+00 1.938852e+00 1.851093e+00 1.716477e+00 1.592491e+00 1.430609e+00 1.123332e-03 9.258218e-02 1.382169e-01 1.795062e-01 2.150972e-01 2.821039e-01 3.278130e-01 3.565617e-01 3.595298e-01 3.562697e-01 3.294152e-01 3.089158e-01 2.753987e-01 1.476200e-04
<GCONST> 7.729620e+01
<TRANSP> 5
 0.000000e+00 1.823558e-01 8.176442e-01 0.000000e+00 0.000000e+00
 0.000000e+00 8.839444e-01 1.160556e-01 0.000000e+00 0.000000e+00
 0.000000e+00 0.000000e+00 7.049953e-01 2.950047e-01 0.000000e+00
 0.000000e+00 0.000000e+00 0.000000e+00 7.795687e-01 2.204312e-01
 0.000000e+00 0.000000e+00 0.000000e+00 0.000000e+00 0.000000e+00
<ENDHMM>
~h "wu"
<BEGINHMM>
<NUMSTATES> 5
<STATE> 2
<NUMMIXES> 2
<MIXTURE> 1 5.000000e-01
<MEAN> 39
 5.540230e+00 1.917740e+00 -1.816886e+00 -1.095486e+00 -1.469468e+00 -1.801119e+00 -1.613871e+00 -1.536645e+00 -2.446168e+00 -2.398007e+00 -3.025509e+00 -2.388057e+00 5.039467e-01 9.646266e-01 7.384226e-01 1.951389e-01 -8.215371e-02 6.374285e-02 2.322229e-01 2.849812e-01 2.556708e-01 1.421901e-01 5.429008e-02 -4.188256e-02 -1.053083e-01 1.625273e-02 1.803546e-01 1.632741e-01 -2.360694e-03 8.403805e-03 1.140441e-02 8.774336e-02 1.620230e-01 1.379757e-01 1.140374e-01 9.738819e-02 9.146778e-02 8.550215e-02 7.417975e-03
<VARIANCE> 39
 5.602150e+01 4.152900e+01 3.522605e+01 2.784565e+01 3.660717e+01 3.450969e+01 3.530012e+01 3.895934e+01 4.756956e+01 5.460914e+01 6.908803e+01 6.997822e+01 1.113673e-01 3.819680e+00 3.695290e+00 2.540748e+00 2.499226e+00 3.287865e+00 3.405201e+00 3.609187e+00 4.041768e+00 4.437626e+00 4.401040e+00 4.443336e+00 4.510392e+00 5.970981e-03 6.257246e-01 5.196902e-01 4.172601e-01 4.618874e-01 5.842725e-01 6.096380e-01 6.552386e-01 7.402665e-01 8.104025e-01 7.432573e-01 7.438302e-01 7.785510e-01 6.809667e-04
<GCONST> 1.124062e+02
<MIXTURE> 2 5.000000e-01
<MEAN> 39
 5.540230e+00 1.917740e+00 -1.816886e+00 -1.095486e+00 -1.469468e+00 -1.801119e+00 -1.613871e+00 -1.536645e+00 -2.446168e+00 -2.398007e+00 -3.025509e+00 -2.388057e+00 5.039467e-01 9.646266e-01 7.384226e-01 1.951389e-01 -8.215371e-02 6.374285e-02 2.322229e-01 2.849812e-01 2.556708e-01 1.421901e-01 5.429008e-02 -4.188256e-02 -1.053083e-01 1.625273e-02 1.803546e-01 1.632741e-01 -2.360694e-03 8.403805e-03 1.140441e-02 8.774336e-02 1.620230e-01 1.379757e-01 1.140374e-01 9.738819e-02 9.146778e-02 8.550215e-02 7.417975e-03
<VARIANCE> 39
 5.602150e+01 4.152900e+01 3.522605e+01 2.784565e+01 3.660717e+01 3.450969e+01 3.530012e+01 3.895934e+01 4.756956e+01 5.460914e+01 6.908803e+01 6.997822e+01 1.113673e-01 3.819680e+00 3.695290e+00 2.540748e+00 2.499226e+00 3.287865e+00 3.405201e+00 3.609187e+00 4.041768e+00 4.437626e+00 4.401040e+00 4.443336e+00 4.510392e+00 5.970981e-03 6.257246e-01 5.196902e-01 4.172601e-01 4.618874e-01 5.842725e-01 6.096380e-01 6.552386e-01 7.402665e-01 8.104025e-01 7.432573e-01 7.438302e-01 7.785510e-01 6.809667e-04
<GCONST> 1.124062e+02
<STATE> 3
<NUMMIXES> 2
<MIXTURE> 1 5.000000e-01
<MEAN> 39
 1.008437e+01 5.927823e+00 -8.291833e-01 5.726827e-01 2.655841e+00 2.891863e+00 4.343715e+00 2.876842e+00 1.703315e+00 8.820809e-01 3.757124e-01 3.274716e-01 6.460233e-01 6.688417e-01 6.440861e-01 -5.380758e-02 -2.536699e-01 -2.432028e-01 2.069947e-01 5.020227e-01 5.821829e-01 4.999915e-01 3.533928e-01 2.459627e-01 2.555276e-01 1.876063e-02 -2.905025e-01 -1.514663e-01 1.499260e-02 -1.526988e-02 -1.232676e-01 -1.496067e-01 -2.037592e-01 -1.173915e-01 -4.140931e-02 -2.188061e-02 -3.031128e-02 -4.561902e-02 -5.263071e-03
<VARIANCE> 39
 2.469021e+01 2.567668e+01 3.461802e+01 4.147784e+01 4.025853e+01 3.868862e+01 3.126913e+01 3.319842e+01 2.682662e+01 2.344011e+01 1.958600e+01 1.598036e+01 2.801490e-02 2.364996e+00 2.655252e+00 3.397685e+00 4.020732e+00 3.991565e+00 4.297956e+00 4.028886e+00 3.695040e+00 2.713294e+00 2.499736e+00 1.974961e+00 1.858016e+00 2.782427e-03 2.580434e-01 4.282182e-01 5.905703e-01 7.776357e-01 7.505763e-01 8.197736e-01 7.784226e-01 6.969311e-01 5.254829e-01 4.954562e-01 3.745713e-01 3.630831e-01 2.817117e-04
<GCONST> 1.000408e+02
<MIXTURE> 2 5.000000e-01
<MEAN> 39
 1.008437e+01 5.927823e+00 -8.291833e-01 5.726827e-01 2.655841e+00 2.891863e+00 4.343715e+00 2.876842e+00 1.703315e+00 8.820809e-01 3.757124e-01 3.274716e-01 6.460233e-01 6.688417e-01 6.440861e-01 -5.380758e-02 -2.536699e-01 -2.432028e-01 2.069947e-01 5.020227e-01 5.821829e-01 4.999915e-01 3.533928e-01 2.459627e-01 2.555276e-01 1.876063e-02 -2.905025e-01 -1.514663e-01 1.499260e-02 -1.526988e-02 -1.232676e-01 -1.496067e-01 -2.037592e-01 -1.173915e-01 -4.140931e-02 -2.188061e-02 -3.031128e-02 -4.561902e-02 -5.263071e-03
<VARIANCE> 39
 2.469021e+01 2.567668e+01 3.461802e+01 4.147784e+01 4.025853e+01 3.868862e+01 3.126913e+01 3.319842e+01 2.682662e+01 2.344011e+01 1.958600e+01 1.598036e+01 2.801490e-02 2.364996e+00 2.655252e+00 3.397685e+00 4.020732e+00 3.991565e+00 4.297956e+00 4.028886e+00 3.695040e+00 2.713294e+00 2.499736e+00 1.974961e+00 1.858016e+00 2.782427e-03 2.580434e-01 4.282182e-01 5.905703e-01 7.776357e-01 7.505763e-01 8.197736e-01 7.784226e-01 6.969311e-01 5.254829e-01 4.954562e-01 3.745713e-01 3.630831e-01 2.817117e-04
<GCONST> 1.000408e+02
<STATE> 4
<NUMMIXES> 2
<MIXTURE> 1 5.000000e-01
<MEAN> 39
 1.144261e+01 9.542907e+00 1.447581e-01 -2.076702e+00 -1.848107e+00 -6.231561e-02 2.853843e+00 3.927360e+00 3.313299e+00 3.153879e+00 1.121736e+00 9.943634e-01 6.739730e-01 -1.209086e-01 -1.006270e-01 9.216319e-02 4.644053e-02 1.876171e-03 1.465748e-02 -3.200595e-02 -1.789466e-02 -1.512141e-02 4.103344e-03 2.009233e-02 1.127337e-02 -5.874412e-03 -4.661601e-02 -9.091191e-02 -5.150253e-02 1.532555e-02 9.369805e-02 6.518849e-02 -2.708344e-03 -7.224697e-02 -8.721665e-02 -7.637986e-02 -3.917036e-02 -2.005106e-02 -2.142821e-03
<VARIANCE> 39
 9.728376e+00 1.452406e+01 2.049900e+01 1.573274e+01 1.874976e+01 2.953706e+01 2.836585e+01 2.653276e+01 2.053044e+01 2.482014e+01 1.988370e+01 1.558699e+01 1.805553e-02 1.998619e-01 5.295303e-01 7.786902e-01 8.404393e-01 1.172136e+00 1.458834e+00 1.571018e+00 1.553484e+00 1.521104e+00 1.513121e+00 1.356933e+00 1.189919e+00 3.144082e-04 3.342747e-02 8.215602e-02 1.264953e-01 1.553213e-01 2.210416e-01 2.552921e-01 2.869339e-01 3.064614e-01 2.798846e-01 2.762849e-01 2.473338e-01 2.260148e-01 2.356383e-05
<GCONST> 6.407397e+01
<MIXTURE> 2 5.000000e-01
<MEAN> 39
 1.144261e+01 9.542907e+00 1.447581e-01 -2.076702e+00 -1.848107e+00 -6.231561e-02 2.853843e+00 3.927360e+00 3.313299e+00 3.153879e+00 1.121736e+00 9.943634e-01 6.739730e-01 -1.209086e-01 -1.006270e-01 9.216319e-02 4.644053e-02 1.876171e-03 1.465748e-02 -3.200595e-02 -1.789466e-02 -1.512141e-02 4.103344e-03 2.009233e-02 1.127337e-02 -5.874412e-03 -4.661601e-02 -9.091191e-02 -5.150253e-02 1.532555e-02 9.369805e-02 6.518849e-02 -2.708344e-03 -7.224697e-02 -8.721665e-02 -7.637986e-02 -3.917036e-02 -2.005106e-02 -2.142821e-03
<VARIANCE> 39
 9.728376e+00 1.452406e+01 2.049900e+01 1.573274e+01 1.874976e+01 2.953706e+01 2.836585e+01 2.653276e+01 2.053044e+01 2.482014e+01 1.988370e+01 1.558699e+01 1.805553e-02 1.998619e-01 5.295303e-01 7.786902e-01 8.404393e-01 1.172136e+00 1.458834e+00 1.571018e+00 1.553484e+00 1.521104e+00 1.513121e+00 1.356933e+00 1.189919e+00 3.144082e-04 3.342747e-02 8.215602e-02 1.264953e-01 1.553213e-01 2.210416e-01 2.552921e-01 2.869339e-01 3.064614e-01 2.798846e-01 2.762849e-01 2.473338e-01 2.260148e-01 2.356383e-05
<GCONST> 6.407397e+01
<TRANSP> 5
 0.000000e+00 1.000000e+00 0.000000e+00 0.000000e+00 0.000000e+00
 0.000000e+00 8.147804e-01 1.852196e-01 0.000000e+00 0.000000e+00
 0.000000e+00 0.000000e+00 7.934138e-01 2.065862e-01 0.000000e+00
 0.000000e+00 0.000000e+00 0.000000e+00 9.305544e-01 6.944556e-02
 0.000000e+00 0.000000e+00 0.000000e+00 0.000000e+00 0.000000e+00
<ENDHMM>
~h "yi"
<BEGINHMM>
<NUMSTATES> 5
<STATE> 2
<NUMMIXES> 2
<MIXTURE> 1 5.000000e-01
<MEAN> 39
 -1.050591e-01 3.830970e+00 2.222276e+00 2.120951e+00 2.257826e+00 9.936894e-01 7.898006e-01 8.266142e-01 7.241810e-01 7.354609e-01 7.660303e-01 3.427808e-01 4.242299e-01 -4.511464e-01 1.759937e+00 1.217480e-01 5.028255e-01 4.207430e-01 4.418923e-01 -7.306681e-03 4.215694e-01 9.398974e-02 1.844369e-01 1.383211e-01 3.162131e-02 2.329252e-02 1.752077e-02 5.484528e-02 -2.390609e-01 -1.299124e-02 -1.000029e-01 -5.960168e-02 -8.194572e-02 6.281197e-03 -9.276420e-02 -6.478625e-02 -6.781676e-02 -3.424159e-02 8.309950e-03
<VARIANCE> 39
 1.853548e+01 4.469290e+01 2.312915e+01 3.768811e+01 3.889631e+01 3.315457e+01 3.023104e+01 3.164957e+01 2.788545e+01 2.282042e+01 2.055053e+01 1.700010e+01 7.935137e-02 1.803868e+00 4.358348e+00 3.079780e+00 3.711931e+00 4.028578e+00 4.031854e+00 4.160429e+00 4.192339e+00 3.392281e+00 3.231010e+00 2.471009e+00 2.168559e+00 6.653974e-03 2.483454e-01 9.203359e-01 5.146633e-01 7.136599e-01 7.652041e-01 7.465487e-01 8.058204e-01 7.572027e-01 6.895988e-01 6.227896e-01 4.827037e-01 4.364726e-01 6.217028e-04
<GCONST> 1.048591e+02
<MIXTURE> 2 5.000000e-01
<MEAN> 39
 -1.050591e-01 3.830970e+00 2.222276e+00 2.120951e+00 2.257826e+00 9.936894e-01 7.898006e-01 8.266142e-01 7.241810e-01 7.354609e-01 7.660303e-01 3.427808e-01 4.242299e-01 -4.511464e-01 1.759937e+00 1.217480e-01 5.028255e-01 4.207430e-01 4.418923e-01 -7.306681e-03 4.215694e-01 9.398974e-02 1.844369e-01 1.383211e-01 3.162131e-02 2.329252e-02 1.752077e-02 5.484528e-02 -2.390609e-01 -1.299124e-02 -1.000029e-01 -5.960168e-02 -8.194572e-02 6.281197e-03 -9.276420e-02 -6.478625e-02 -6.781676e-02 -3.424159e-02 8.309950e-03
<VARIANCE> 39
 1.853548e+01 4.469290e+01 2.312915e+01 3.768811e+01 3.889631e+01 3.315457e+01 3.023104e+01 3.164957e+01 2.788545e+01 2.282042e+01 2.055053e+01 1.700010e+01 7.935137e-02 1.803868e+00 4.358348e+00 3.079780e+00 3.711931e+00 4.028578e+00 4.031854e+00 4.160429e+00 4.192339e+00 3.392281e+00 3.231010e+00 2.471009e+00 2.168559e+00 6.653974e-03 2.483454e-01 9.203359e-01 5.146633e-01 7.136599e-01 7.652041e-01 7.465487e-01 8.058204e-01 7.572027e-01 6.895988e-01 6.227896e-01 4.827037e-01 4.364726e-01 6.217028e-04
<GCONST> 1.048591e+02
<STATE> 3
<NUMMIXES> 2
<MIXTURE> 1 5.000000e-01
<MEAN> 39
 -1.806385e+00 1.023923e+01 -1.139801e+00 4.311270e+00 1.157105e+00 1.566154e+00 -9.196150e-01 6.512451e-01 -7.072755e-01 -7.269735e-01 6.921571e-02 -7.441653e-01 6.393344e-01 -3.023661e-01 2.768434e-02 -5.904121e-01 -1.549111e-01 -4.283384e-01 -2.008446e-01 -5.637252e-01 -2.663565e-01 -5.577854e-01 -3.465455e-01 -4.469293e-01 -3.011446e-01 2.739639e-02 3.591500e-02 -2.486387e-01 1.144517e-01 -7.315245e-02 6.040996e-03 -2.297432e-02 3.378868e-02 -3.658445e-02 2.021484e-02 1.583322e-02 7.743380e-03 3.312235e-02 -5.843527e-03
<VARIANCE> 39
 9.088651e+00 1.034103e+01 2.030116e+01 2.011250e+01 3.182148e+01 3.188216e+01 3.343024e+01 5.096132e+01 3.798272e+01 5.330941e+01 4.386399e+01 4.834208e+01 1.703463e-02 4.337678e-01 7.998437e-01 7.789090e-01 1.029073e+00 1.204806e+00 1.532676e+00 1.788212e+00 2.256626e+00 2.452626e+00 2.818218e+00 2.847410e+00 3.146098e+00 8.155401e-04 8.454238e-02 2.135368e-01 1.388677e-01 1.836015e-01 2.357012e-01 2.565129e-01 3.112063e-01 3.770820e-01 3.931965e-01 4.365893e-01 4.438471e-01 4.398734e-01 1.605336e-04
<GCONST> 8.077325e+01
<MIXTURE> 2 5.000000e-01
<MEAN> 39
 -1.806385e+00 1.023923e+01 -1.139801e+00 4.311270e+00 1.157105e+00 1.566154e+00 -9.196150e-01 6.512451e-01 -7.072755e-01 -7.269735e-01 6.921571e-02 -7.441653e-01 6.393344e-01 -3.023661e-01 2.768434e-02 -5.904121e-01 -1.549111e-01 -4.283384e-01 -2.008446e-01 -5.637252e-01 -2.663565e-01 -5.577854e-01 -3.465455e-01 -4.469293e-01 -3.011446e-01 2.739639e-02 3.591500e-02 -2.486387e-01 1.144517e-01 -7.315245e-02 6.040996e-03 -2.297432e-02 3.378868e-02 -3.658445e-02 2.021484e-02 1.583322e-02 7.743380e-03 3.312235e-02 -5.843527e-03
<VARIANCE> 39
 9.088651e+00 1.034103e+01 2.030116e+01 2.011250e+01 3.182148e+01 3.188216e+01 3.343024e+01 5.096132e+01 3.798272e+01 5.330941e+01 4.386399e+01 4.834208e+01 1.703463e-02 4.337678e-01 7.998437e-01 7.789090e-01 1.029073e+00 1.204806e+00 1.532676e+00 1.788212e+00 2.256626e+00 2.452626e+00 2.818218e+00 2.847410e+00 3.146098e+00 8.155401e-04 8.454238e-02 2.135368e-01 1.388677e-01 1.836015e-01 2.357012e-01 2.565129e-01 3.112063e-01 3.770820e-01 3.931965e-01 4.365893e-01 4.438471e-01 4.398734e-01 1.605336e-04
<GCONST> 8.077325e+01
<STATE> 4
<NUMMIXES> 2
<MIXTURE> 1 5.000000e-01
<MEAN> 39
 -2.647595e+00 1.000537e+01 -1.513838e+00 2.931137e+00 1.348941e+00 1.947599e+00 -1.673795e+00 1.856436e+00 -2.222294e+00 -2.242863e-03 -1.314471e+00 -1.154116e+00 7.154884e-01 2.938586e-02 -2.604749e-02 -1.561611e-02 -1.495862e-02 1.683716e-02 1.041693e-02 5.229469e-02 3.030996e-03 1.550036e-02 -2.856017e-03 8.653088e-03 -5.662459e-03 -3.538359e-04 1.881723e-02 -5.010285e-03 2.937489e-02 -2.516462e-03 2.775276e-02 -7.401058e-03 3.949053e-02 -6.472396e-03 2.832591e-02 -8.845037e-03 1.907107e-02 2.584117e-03 -1.951995e-03
<VARIANCE> 39
 9.533803e+00 8.117824e+00 1.661741e+01 1.808199e+01 3.077772e+01 3.163957e+01 3.602396e+01 5.613231e+01 3.303807e+01 5.446434e+01 4.044890e+01 4.938223e+01 9.628451e-03 9.690422e-02 1.502379e-01 1.946862e-01 2.557509e-01 3.302189e-01 4.194697e-01 4.872715e-01 5.224623e-01 5.569987e-01 5.745329e-01 5.688109e-01 5.487304e-01 1.199237e-04 1.563415e-02 3.101794e-02 3.846380e-02 5.152683e-02 6.537786e-02 7.979799e-02 9.129892e-02 1.020793e-01 1.083157e-01 1.105022e-01 1.043683e-01 1.054161e-01 1.063099e-05
<GCONST> 4.059612e+01
<MIXTURE> 2 5.000000e-01
<MEAN> 39
 -2.647595e+00 1.000537e+01 -1.513838e+00 2.931137e+00 1.348941e+00 1.947599e+00 -1.673795e+00 1.856436e+00 -2.222294e+00 -2.242863e-03 -1.314471e+00 -1.154116e+00 7.154884e-01 2.938586e-02 -2.604749e-02 -1.561611e-02 -1.495862e-02 1.683716e-02 1.041693e-02 5.229469e-02 3.030996e-03 1.550036e-02 -2.856017e-03 8.653088e-03 -5.662459e-03 -3.538359e-04 1.881723e-02 -5.010285e-03 2.937489e-02 -2.516462e-03 2.775276e-02 -7.401058e-03 3.949053e-02 -6.472396e-03 2.832591e-02 -8.845037e-03 1.907107e-02 2.584117e-03 -1.951995e-03
<VARIANCE> 39
 9.533803e+00 8.117824e+00 1.661741e+01 1.808199e+01 3.077772e+01 3.163957e+01 3.602396e+01 5.613231e+01 3.303807e+01 5.446434e+01 4.044890e+01 4.938223e+01 9.628451e-03 9.690422e-02 1.502379e-01 1.946862e-01 2.557509e-01 3.302189e-01 4.194697e-01 4.872715e-01 5.224623e-01 5.569987e-01 5.745329e-01 5.688109e-01 5.487304e-01 1.199237e-04 1.563415e-02 3.101794e-02 3.846380e-02 5.152683e-02 6.537786e-02 7.979799e-02 9.129892e-02 1.020793e-01 1.083157e-01 1.105022e-01 1.043683e-01 1.054161e-01 1.063099e-05
<GCONST> 4.059612e+01
<TRANSP> 5
 0.000000e+00 1.000000e+00 0.000000e+00 0.000000e+00 0.000000e+00
 0.000000e+00 8.034920e-01 1.965080e-01 0.000000e+00 0.000000e+00
 0.000000e+00 0.000000e+00 7.748752e-01 2.251248e-01 0.000000e+00
 0.000000e+00 0.000000e+00 0.000000e+00 9.301796e-01 6.982040e-02
 0.000000e+00 0.000000e+00 0.000000e+00 0.000000e+00 0.000000e+00
<ENDHMM>
~h "ling"
<BEGINHMM>
<NUMSTATES> 5
<STATE> 2
<NUMMIXES> 2
<MIXTURE> 1 5.000000e-01
<MEAN> 39
 6.934840e-01 1.995088e+00 5.953136e+00 2.043426e+00 1.461972e+00 3.874646e+00 1.484204e+00 -3.413749e-02 1.791642e+00 3.534275e-01 5.170513e-01 3.797024e-01 5.771679e-01 -4.065271e-01 1.271999e+00 5.050243e-01 -3.249074e-01 6.133459e-01 3.586546e-01 -4.225655e-01 1.578826e-01 3.503188e-03 -3.346300e-01 2.124477e-02 -1.962725e-01 2.778010e-02 -1.138833e-02 3.309345e-01 -2.784685e-01 -6.316451e-02 1.135912e-01 -2.772355e-01 -1.015709e-01 3.925613e-02 -1.858450e-01 -7.982931e-02 -3.552144e-02 -8.523516e-02 8.008674e-03
<VARIANCE> 39
 1.395840e+01 2.547338e+01 2.925817e+01 3.206934e+01 3.630114e+01 3.881066e+01 4.200506e+01 3.788924e+01 3.381580e+01 3.098105e+01 2.864848e+01 2.259548e+01 3.463936e-02 1.248062e+00 3.172890e+00 3.638012e+00 3.565663e+00 4.399610e+00 5.655743e+00 4.919892e+00 3.759089e+00 4.489739e+00 3.459305e+00 3.188752e+00 2.333876e+00 3.582293e-03 1.759952e-01 4.337077e-01 6.253179e-01 6.749820e-01 8.383632e-01 9.963241e-01 9.964066e-01 8.051817e-01 8.467914e-01 7.181776e-01 6.003090e-01 4.447586e-01 4.300507e-04
<GCONST> 1.048663e+02
<MIXTURE> 2 5.000000e-01
<MEAN> 39
 6.934840e-01 1.995088e+00 5.953136e+00 2.043426e+00 1.461972e+00 3.874646e+00 1.484204e+00 -3.413749e-02 1.791642e+00 3.534275e-01 5.170513e-01 3.797024e-01 5.771679e-01 -4.065271e-01 1.271999e+00 5.050243e-01 -3.249074e-01 6.133459e-01 3.586546e-01 -4.225655e-01 1.578826e-01 3.503188e-03 -3.346300e-01 2.124477e-02 -1.962725e-01 2.778010e-02 -1.138833e-02 3.309345e-01 -2.784685e-01 -6.316451e-02 1.135912e-01 -2.772355e-01 -1.015709e-01 3.925613e-02 -1.858450e-01 -7.982931e-02 -3.552144e-02 -8.523516e-02 8.008674e-03
<VARIANCE> 39
 1.395840e+01 2.547338e+01 2.925817e+01 3.206934e+01 3.630114e+01 3.881066e+01 4.200506e+01 3.788924e+01 3.381580e+01 3.098105e+01 2.864848e+01 2.259548e+01 3.463936e-02 1.248062e+00 3.172890e+00 3.638012e+00 3.565663e+00 4.399610e+00 5.655743e+00 4.919892e+00 3.759089e+00 4.489739e+00 3.459305e+00 3.188752e+00 2.333876e+00 3.582293e-03 1.759952e-01 4.337077e-01 6.253179e-01 6.749820e-01 8.383632e-01 9.963241e-01 9.964066e-01 8.051817e-01 8.467914e-01 7.181776e-01 6.003090e-01 4.447586e-01 4.300507e-04
<GCONST> 1.048663e+02
<STATE> 3
<NUMMIXES> 2
<MIXTURE> 1 5.000000e-01
<MEAN> 39
 -5.182269e-01 1.138163e+01 1.734491e+00 1.432485e+00 3.176984e+00 -2.816667e-01 -1.478046e+00 -1.838807e+00 -2.747373e+00 -3.911057e+00 -3.063169e+00 -3.441061e+00 7.681523e-01 -7.105058e-02 8.765476e-01 -7.479259e-01 6.720391e-01 4.485921e-02 -1.836093e-01 5.076317e-01 6.257215e-02 1.070932e-01 9.221479e-02 7.291988e-02 -3.468905e-02 1.229876e-02 6.580698e-02 -3.655433e-01 8.840485e-03 1.632595e-01 -2.139845e-01 2.047061e-01 1.316466e-01 4.599493e-02 2.148373e-01 1.346117e-01 1.003620e-01 1.390539e-01 -1.005388e-02
<VARIANCE> 39
 6.800557e+00 1.495231e+01 2.763787e+01 2.721168e+01 3.949398e+01 3.819944e+01 4.388499e+01 5.054853e+01 4.088312e+01 5.061444e+01 5.256739e+01 5.242055e+01 1.024973e-02 3.146529e-01 1.785969e+00 1.319501e+00 2.182002e+00 2.267905e+00 3.277406e+00 3.421936e+00 3.756349e+00 3.783020e+00 3.499649e+00 3.415690e+00 3.006481e+00 1.081299e-03 5.166016e-02 1.990677e-01 2.205431e-01 4.364988e-01 4.094898e-01 5.740951e-01 5.962995e-01 5.499120e-01 6.221465e-01 6.181608e-01 5.634313e-01 4.556522e-01 1.358117e-04
<GCONST> 9.134451e+01
<MIXTURE> 2 5.000000e-01
<MEAN> 39
 -5.182269e-01 1.138163e+01 1.734491e+00 1.432485e+00 3.176984e+00 -2.816667e-01 -1.478046e+00 -1.838807e+00 -2.747373e+00 -3.911057e+00 -3.063169e+00 -3.441061e+00 7.681523e-01 -7.105058e-02 8.765476e-01 -7.479259e-01 6.720391e-01 4.485921e-02 -1.836093e-01 5.076317e-01 6.257215e-02 1.070932e-01 9.221479e-02 7.291988e-02 -3.468905e-02 1.229876e-02 6.580698e-02 -3.655433e-01 8.840485e-03 1.632595e-01 -2.139845e-01 2.047061e-01 1.316466e-01 4.599493e-02 2.148373e-01 1.346117e-01 1.003620e-01 1.390539e-01 -1.005388e-02
<VARIANCE> 39
 6.800557e+00 1.495231e+01 2.763787e+01 2.721168e+01 3.949398e+01 3.819944e+01 4.388499e+01 5.054853e+01 4.088312e+01 5.061444e+01 5.256739e+01 5.242055e+01 1.024973e-02 3.146529e-01 1.785969e+00 1.319501e+00 2.182002e+00 2.267905e+00 3.277406e+00 3.421936e+00 3.756349e+00 3.783020e+00 3.499649e+00 3.415690e+00 3.006481e+00 1.081299e-03 5.166016e-02 1.990677e-01 2.205431e-01 4.364988e-01 4.094898e-01 5.740951e-01 5.962995e-01 5.499120e-01 6.221465e-01 6.181608e-01 5.634313e-01 4.556522e-01 1.358117e-04
<GCONST> 9.134451e+01
<STATE> 4
<NUMMIXES> 2
<MIXTURE> 1 5.000000e-01
<MEAN> 39
 8.145923e-02 1.036804e+01 9.058862e-01 3.742808e+00 4.434939e+00 2.763293e+00 2.530959e+00 2.330804e+00 1.449069e+00 6.577026e-01 1.538175e+00 1.889664e-01 6.692323e-01 1.381871e-01 -3.985727e-01 -9.271605e-02 -7.551771e-02 -1.069884e-01 -1.333914e-01 9.232277e-03 -5.782078e-02 -8.681346e-02 -1.890167e-02 -7.347236e-02 8.408783e-03 -1.336823e-02 1.845139e-02 -1.051418e-01 6.137824e-02 -9.000059e-02 -3.465559e-03 -5.519443e-02 -3.031964e-02 -6.842234e-02 -3.640867e-02 -4.474799e-02 -5.615579e-02 -2.181446e-02 -1.433717e-03
<VARIANCE> 39
 1.084251e+01 2.391286e+01 2.112193e+01 3.112247e+01 2.418829e+01 2.777507e+01 3.085120e+01 2.800171e+01 3.045009e+01 2.515272e+01 2.132207e+01 2.035878e+01 1.976775e-02 2.221932e-01 7.642658e-01 1.007796e+00 1.015614e+00 1.070168e+00 1.305432e+00 1.302025e+00 1.374742e+00 1.323382e+00 1.283989e+00 1.133435e+00 9.762974e-01 2.227362e-04 3.673499e-02 1.157918e-01 1.616193e-01 1.691934e-01 1.698117e-01 2.065095e-01 2.247356e-01 2.196774e-01 2.293529e-01 2.163108e-01 1.884983e-01 1.696741e-01 2.887873e-05
<GCONST> 6.485748e+01
<MIXTURE> 2 5.000000e-01
<MEAN> 39
 8.145923e-02 1.036804e+01 9.058862e-01 3.742808e+00 4.434939e+00 2.763293e+00 2.530959e+00 2.330804e+00 1.449069e+00 6.577026e-01 1.538175e+00 1.889664e-01 6.692323e-01 1.381871e-01 -3.985727e-01 -9.271605e-02 -7.551771e-02 -1.069884e-01 -1.333914e-01 9.232277e-03 -5.782078e-02 -8.681346e-02 -1.890167e-02 -7.347236e-02 8.408783e-03 -1.336823e-02 1.845139e-02 -1.051418e-01 6.137824e-02 -9.000059e-02 -3.465559e-03 -5.519443e-02 -3.031964e-02 -6.842234e-02 -3.640867e-02 -4.474799e-02 -5.615579e-02 -2.181446e-02 -1.433717e-03
<VARIANCE> 39
 1.084251e+01 2.391286e+01 2.112193e+01 3.112247e+01 2.418829e+01 2.777507e+01 3.085120e+01 2.800171e+01 3.045009e+01 2.515272e+01 2.132207e+01 2.035878e+01 1.976775e-02 2.221932e-01 7.642658e-01 1.007796e+00 1.015614e+00 1.070168e+00 1.305432e+00 1.302025e+00 1.374742e+00 1.323382e+00 1.283989e+00 1.133435e+00 9.762974e-01 2.227362e-04 3.673499e-02 1.157918e-01 1.616193e-01 1.691934e-01 1.698117e-01 2.065095e-01 2.247356e-01 2.196774e-01 2.293529e-01 2.163108e-01 1.884983e-01 1.696741e-01 2.887873e-05
<GCONST> 6.485748e+01
<TRANSP> 5
 0.000000e+00 1.000000e+00 0.000000e+00 0.000000e+00 0.000000e+00
 0.000000e+00 8.131344e-01 1.868656e-01 0.000000e+00 0.000000e+00
 0.000000e+00 0.000000e+00 8.020911e-01 1.979090e-01 0.000000e+00
 0.000000e+00 0.000000e+00 0.000000e+00 9.232379e-01 7.676216e-02
 0.000000e+00 0.000000e+00 0.000000e+00 0.000000e+00 0.000000e+00
<ENDHMM>
~h "jiu"
<BEGINHMM>
<NUMSTATES> 5
<STATE> 2
<NUMMIXES> 2
<MIXTURE> 1 5.000000e-01
<MEAN> 39
 -5.007118e+00 3.789776e+00 -8.549147e-01 1.343109e+00 1.048693e+00 1.710216e+00 -4.756421e-02 1.576092e+00 4.406014e-01 2.351507e-01 5.667333e-01 2.991304e-01 4.998606e-01 -7.829362e-03 1.033781e+00 7.245995e-01 -1.458517e-01 6.125402e-01 1.714625e-01 -4.308922e-02 -1.160933e-02 -6.899530e-02 -1.753146e-01 -1.447060e-01 -1.076534e-01 4.220523e-02 2.334423e-01 -6.822153e-02 3.083270e-01 -7.808616e-02 -2.432153e-02 -8.510230e-02 -1.565880e-02 -1.504310e-01 -8.256272e-02 -8.668973e-02 -9.460752e-02 -4.974335e-02 4.624874e-03
<VARIANCE> 39
 1.656905e+01 3.175623e+01 2.823497e+01 1.353456e+01 2.180628e+01 1.779576e+01 1.758455e+01 1.917017e+01 2.012481e+01 1.774977e+01 1.533047e+01 1.347268e+01 5.475574e-02 2.220397e+00 2.360856e+00 5.192299e+00 1.738113e+00 2.408828e+00 2.302365e+00 2.063381e+00 2.393497e+00 2.394432e+00 2.394914e+00 2.087664e+00 1.806482e+00 4.501691e-03 2.942169e-01 5.657657e-01 6.878890e-01 3.695520e-01 6.118203e-01 5.190356e-01 4.463774e-01 5.405090e-01 5.439281e-01 5.001390e-01 4.448104e-01 3.862950e-01 6.738696e-04
<GCONST> 9.271454e+01
<MIXTURE> 2 5.000000e-01
<MEAN> 39
 -5.007118e+00 3.789776e+00 -8.549147e-01 1.343109e+00 1.048693e+00 1.710216e+00 -4.756421e-02 1.576092e+00 4.406014e-01 2.351507e-01 5.667333e-01 2.991304e-01 4.998606e-01 -7.829362e-03 1.033781e+00 7.245995e-01 -1.458517e-01 6.125402e-01 1.714625e-01 -4.308922e-02 -1.160933e-02 -6.899530e-02 -1.753146e-01 -1.447060e-01 -1.076534e-01 4.220523e-02 2.334423e-01 -6.822153e-02 3.083270e-01 -7.808616e-02 -2.432153e-02 -8.510230e-02 -1.565880e-02 -1.504310e-01 -8.256272e-02 -8.668973e-02 -9.460752e-02 -4.974335e-02 4.624874e-03
<VARIANCE> 39
 1.656905e+01 3.175623e+01 2.823497e+01 1.353456e+01 2.180628e+01 1.779576e+01 1.758455e+01 1.917017e+01 2.012481e+01 1.774977e+01 1.533047e+01 1.347268e+01 5.475574e-02 2.220397e+00 2.360856e+00 5.192299e+00 1.738113e+00 2.408828e+00 2.302365e+00 2.063381e+00 2.393497e+00 2.394432e+00 2.394914e+00 2.087664e+00 1.806482e+00 4.501691e-03 2.942169e-01 5.657657e-01 6.878890e-01 3.695520e-01 6.118203e-01 5.190356e-01 4.463774e-01 5.405090e-01 5.439281e-01 5.001390e-01 4.448104e-01 3.862950e-01 6.738696e-04
<GCONST> 9.271454e+01
<STATE> 3
<NUMMIXES> 2
<MIXTURE> 1 5.000000e-01
<MEAN> 39
 2.238625e+00 2.591496e+00 5.929886e+00 5.725824e-01 -1.579478e+00 -3.172149e+00 -5.322475e-01 -1.763601e+00 -1.913928e+00 -1.185887e+00 -9.801084e-01 -5.201335e-01 8.354392e-01 1.379792e+00 -1.694605e+00 -1.356003e+00 6.374127e-01 -1.016282e+00 -1.693031e+00 -4.194038e-01 -5.601687e-02 -1.019778e-02 1.515926e-01 1.695670e-01 3.253959e-01 9.322608e-03 -3.692308e-02 1.847933e-02 -7.396243e-01 9.528766e-02 2.593054e-01 3.916385e-02 -1.602639e-01 1.405635e-01 2.189829e-01 1.245818e-01 8.157902e-02 8.559389e-02 -7.689642e-03
<VARIANCE> 39
 1.481930e+01 3.554840e+01 3.910925e+01 2.487640e+01 4.947776e+01 5.786918e+01 3.438870e+01 3.411800e+01 4.140952e+01 3.351882e+01 4.236221e+01 3.318042e+01 9.796537e-03 5.222903e-01 1.441153e+00 5.586713e+00 2.872128e+00 5.722844e+00 4.705363e+00 5.302819e+00 5.695558e+00 6.110887e+00 4.410805e+00 4.248205e+00 3.757537e+00 6.023961e-04 9.168380e-02 5.546160e-01 6.581815e-01 6.031665e-01 1.293664e+00 1.277820e+00 9.800063e-01 1.077288e+00 1.069200e+00 9.613694e-01 7.719402e-01 7.244719e-01 6.405276e-05
<GCONST> 1.039966e+02
<MIXTURE> 2 5.000000e-01
<MEAN> 39
 2.238625e+00 2.591496e+00 5.929886e+00 5.725824e-01 -1.579478e+00 -3.172149e+00 -5.322475e-01 -1.763601e+00 -1.913928e+00 -1.185887e+00 -9.801084e-01 -5.201335e-01 8.354392e-01 1.379792e+00 -1.694605e+00 -1.356003e+00 6.374127e-01 -1.016282e+00 -1.693031e+00 -4.194038e-01 -5.601687e-02 -1.019778e-02 1.515926e-01 1.695670e-01 3.253959e-01 9.322608e-03 -3.692308e-02 1.847933e-02 -7.396243e-01 9.528766e-02 2.593054e-01 3.916385e-02 -1.602639e-01 1.405635e-01 2.189829e-01 1.245818e-01 8.157902e-02 8.559389e-02 -7.689642e-03
<VARIANCE> 39
 1.481930e+01 3.554840e+01 3.910925e+01 2.487640e+01 4.947776e+01 5.786918e+01 3.438870e+01 3.411800e+01 4.140952e+01 3.351882e+01 4.236221e+01 3.318042e+01 9.796537e-03 5.222903e-01 1.441153e+00 5.586713e+00 2.872128e+00 5.722844e+00 4.705363e+00 5.302819e+00 5.695558e+00 6.110887e+00 4.410805e+00 4.248205e+00 3.757537e+00 6.023961e-04 9.168380e-02 5.546160e-01 6.581815e-01 6.031665e-01 1.293664e+00 1.277820e+00 9.800063e-01 1.077288e+00 1.069200e+00 9.613694e-01 7.719402e-01 7.244719e-01 6.405276e-05
<GCONST> 1.039966e+02
<STATE> 4
<NUMMIXES> 2
<MIXTURE> 1 5.000000e-01
<MEAN> 39
 1.060178e+01 -5.681954e-02 -9.719061e+00 1.046452e+00 2.400991e+00 -3.462886e+00 -3.839864e+00 -3.150319e+00 -6.735946e-01 1.194197e+00 -8.006259e-02 1.401182e+00 7.566758e-01 2.557236e-01 3.616849e-01 -3.358614e-01 -2.260962e-01 3.117507e-01 7.027454e-01 9.248907e-02 -2.778111e-01 -8.226115e-02 -4.826978e-02 -4.686646e-02 -1.263972e-01 -1.613208e-02 -1.865266e-01 1.286481e-02 4.334798e-01 7.125144e-03 -2.014799e-01 3.803311e-02 2.294747e-01 7.338053e-02 -8.556128e-02 -5.511835e-02 9.903678e-03 -4.410608e-02 -1.821183e-03
<VARIANCE> 39
 9.030538e+00 2.400413e+01 2.147513e+01 3.377385e+01 2.982091e+01 4.556598e+01 3.865353e+01 4.674096e+01 4.322928e+01 2.350871e+01 2.561346e+01 1.780218e+01 1.830083e-02 5.065633e-01 5.880564e-01 2.424273e+00 1.303609e+00 1.521207e+00 2.229777e+00 2.786924e+00 2.555831e+00 2.171223e+00 1.948171e+00 1.479715e+00 1.258161e+00 2.233358e-04 5.163186e-02 1.050967e-01 1.486308e-01 1.833299e-01 2.102774e-01 4.401180e-01 4.605366e-01 4.481721e-01 3.973276e-01 3.508298e-01 2.746324e-01 2.470128e-01 2.330507e-05
<GCONST> 7.607784e+01
<MIXTURE> 2 5.000000e-01
<MEAN> 39
 1.060178e+01 -5.681954e-02 -9.719061e+00 1.046452e+00 2.400991e+00 -3.462886e+00 -3.839864e+00 -3.150319e+00 -6.735946e-01 1.194197e+00 -8.006259e-02 1.401182e+00 7.566758e-01 2.557236e-01 3.616849e-01 -3.358614e-01 -2.260962e-01 3.117507e-01 7.027454e-01 9.248907e-02 -2.778111e-01 -8.226115e-02 -4.826978e-02 -4.686646e-02 -1.263972e-01 -1.613208e-02 -1.865266e-01 1.286481e-02 4.334798e-01 7.125144e-03 -2.014799e-01 3.803311e-02 2.294747e-01 7.338053e-02 -8.556128e-02 -5.511835e-02 9.903678e-03 -4.410608e-02 -1.821183e-03
<VARIANCE> 39
 9.030538e+00 2.400413e+01 2.147513e+01 3.377385e+01 2.982091e+01 4.556598e+01 3.865353e+01 4.674096e+01 4.322928e+01 2.350871e+01 2.561346e+01 1.780218e+01 1.830083e-02 5.065633e-01 5.880564e-01 2.424273e+00 1.303609e+00 1.521207e+00 2.229777e+00 2.786924e+00 2.555831e+00 2.171223e+00 1.948171e+00 1.479715e+00 1.258161e+00 2.233358e-04 5.163186e-02 1.050967e-01 1.486308e-01 1.833299e-01 2.102774e-01 4.401180e-01 4.605366e-01 4.481721e-01 3.973276e-01 3.508298e-01 2.746324e-01 2.470128e-01 2.330507e-05
<GCONST> 7.607784e+01
<TRANSP> 5
 0.000000e+00 1.000000e+00 0.000000e+00 0.000000e+00 0.000000e+00
 0.000000e+00 8.912283e-01 1.087718e-01 0.000000e+00 0.000000e+00
 0.000000e+00 0.000000e+00 8.596225e-01 1.403775e-01 0.000000e+00
 0.000000e+00 0.000000e+00 0.000000e+00 9.043012e-01 9.569884e-02
 0.000000e+00 0.000000e+00 0.000000e+00 0.000000e+00 0.000000e+00
<ENDHMM>
~h "liu"
<BEGINHMM>
<NUMSTATES> 5
<STATE> 2
<NUMMIXES> 2
<MIXTURE> 1 5.000000e-01
<MEAN> 39
 -1.143521e+00 6.322222e+00 7.093775e+00 -9.886385e-01 3.441437e+00 3.052603e+00 2.162818e-01 1.831420e-01 1.015415e+00 -1.091873e+00 2.660579e-01 -1.811197e-01 7.358826e-01 -6.406368e-02 4.529930e-01 2.814526e-01 -5.437803e-01 -7.953372e-02 -3.559881e-01 -5.648515e-01 -3.743227e-01 -3.771244e-01 -2.550884e-01 -2.627235e-01 -1.538450e-02 3.271399e-02 8.551231e-02 -1.711017e-01 -1.327013e-01 3.902369e-02 -2.275035e-01 -2.574081e-01 -1.114788e-02 -1.412545e-01 -1.539301e-01 1.683912e-02 -7.962327e-02 3.202555e-03 -1.167019e-04
<VARIANCE> 39
 9.123986e+00 2.685419e+01 2.538367e+01 2.424171e+01 3.115609e+01 3.116244e+01 3.636843e+01 2.964681e+01 3.289442e+01 2.580658e+01 2.765489e+01 2.354533e+01 3.348431e-02 7.015095e-01 2.554641e+00 1.994717e+00 2.037312e+00 3.265375e+00 3.820019e+00 3.031059e+00 3.278461e+00 3.660942e+00 2.828404e+00 3.138239e+00 2.339595e+00 2.022968e-03 1.076092e-01 3.445747e-01 3.548007e-01 4.300697e-01 4.990788e-01 6.005462e-01 6.082016e-01 5.656072e-01 6.088650e-01 5.407002e-01 5.419888e-01 4.248933e-01 3.178398e-04
<GCONST> 9.414114e+01
<MIXTURE> 2 5.000000e-01
<MEAN> 39
 -1.143521e+00 6.322222e+00 7.093775e+00 -9.886385e-01 3.441437e+00 3.052603e+00 2.162818e-01 1.831420e-01 1.015415e+00 -1.091873e+00 2.660579e-01 -1.811197e-01 7.358826e-01 -6.406368e-02 4.529930e-01 2.814526e-01 -5.437803e-01 -7.953372e-02 -3.559881e-01 -5.648515e-01 -3.743227e-01 -3.771244e-01 -2.550884e-01 -2.627235e-01 -1.538450e-02 3.271399e-02 8.551231e-02 -1.711017e-01 -1.327013e-01 3.902369e-02 -2.275035e-01 -2.574081e-01 -1.114788e-02 -1.412545e-01 -1.539301e-01 1.683912e-02 -7.962327e-02 3.202555e-03 -1.167019e-04
<VARIANCE> 39
 9.123986e+00 2.685419e+01 2.538367e+01 2.424171e+01 3.115609e+01 3.116244e+01 3.636843e+01 2.964681e+01 3.289442e+01 2.580658e+01 2.765489e+01 2.354533e+01 3.348431e-02 7.015095e-01 2.554641e+00 1.994717e+00 2.037312e+00 3.265375e+00 3.820019e+00 3.031059e+00 3.278461e+00 3.660942e+00 2.828404e+00 3.138239e+00 2.339595e+00 2.022968e-03 1.076092e-01 3.445747e-01 3.548007e-01 4.300697e-01 4.990788e-01 6.005462e-01 6.082016e-01 5.656072e-01 6.088650e-01 5.407002e-01 5.419888e-01 4.248933e-01 3.178398e-04
<GCONST> 9.414114e+01
<STATE> 3
<NUMMIXES> 2
<MIXTURE> 1 5.000000e-01
<MEAN> 39
 1.517579e+00 1.046762e+00 1.023294e+00 -2.545524e+00 -5.738085e+00 -6.180802e+00 -3.433287e+00 -4.554671e+00 -5.272382e+00 -3.127811e+00 -3.818050e+00 -2.360633e+00 8.992094e-01 8.696780e-01 -1.113230e+00 -1.270730e+00 9.463515e-01 -3.715512e-01 -9.327590e-01 1.788622e-01 4.477922e-01 1.449033e-01 2.356737e-01 1.530311e-01 5.706094e-02 1.357643e-03 6.315310e-02 1.448094e-01 -1.815621e-01 5.258590e-02 4.383472e-01 2.205839e-01 -1.110043e-01 1.737568e-01 2.906993e-01 3.918126e-02 1.073841e-01 7.790539e-02 -3.461260e-03
<VARIANCE> 39
 1.527690e+01 3.883001e+01 4.405032e+01 3.497110e+01 4.039032e+01 4.601571e+01 5.251295e+01 4.869931e+01 6.484418e+01 6.580927e+01 8.346146e+01 8.903774e+01 5.295661e-03 6.586026e-01 1.639401e+00 2.702563e+00 2.648193e+00 4.741417e+00 5.231863e+00 4.496002e+00 4.212881e+00 5.336029e+00 4.140309e+00 5.014894e+00 5.368059e+00 3.161592e-04 5.708315e-02 2.736092e-01 3.705001e-01 4.602777e-01 6.628895e-01 8.985177e-01 8.065096e-01 7.949908e-01 8.421353e-01 6.979319e-01 8.092500e-01 7.752395e-01 4.515771e-05
<GCONST> 1.014405e+02
<MIXTURE> 2 5.000000e-01
<MEAN> 39
 1.517579e+00 1.046762e+00 1.023294e+00 -2.545524e+00 -5.738085e+00 -6.180802e+00 -3.433287e+00 -4.554671e+00 -5.272382e+00 -3.127811e+00 -3.818050e+00 -2.360633e+00 8.992094e-01 8.696780e-01 -1.113230e+00 -1.270730e+00 9.463515e-01 -3.715512e-01 -9.327590e-01 1.788622e-01 4.477922e-01 1.449033e-01 2.356737e-01 1.530311e-01 5.706094e-02 1.357643e-03 6.315310e-02 1.448094e-01 -1.815621e-01 5.258590e-02 4.383472e-01 2.205839e-01 -1.110043e-01 1.737568e-01 2.906993e-01 3.918126e-02 1.073841e-01 7.790539e-02 -3.461260e-03
<VARIANCE> 39
 1.527690e+01 3.883001e+01 4.405032e+01 3.497110e+01 4.039032e+01 4.601571e+01 5.251295e+01 4.869931e+01 6.484418e+01 6.580927e+01 8.346146e+01 8.903774e+01 5.295661e-03 6.586026e-01 1.639401e+00 2.702563e+00 2.648193e+00 4.741417e+00 5.231863e+00 4.496002e+00 4.212881e+00 5.336029e+00 4.140309e+00 5.014894e+00 5.368059e+00 3.161592e-04 5.708315e-02 2.736092e-01 3.705001e-01 4.602777e-01 6.628895e-01 8.985177e-01 8.065096e-01 7.949908e-01 8.421353e-01 6.979319e-01 8.092500e-01 7.752395e-01 4.515771e-05
<GCONST> 1.014405e+02
<STATE> 4
<NUMMIXES> 2
<MIXTURE> 1 5.000000e-01
<MEAN> 39
 9.896238e+00 -2.583146e-01 -8.694299e+00 2.202565e+00 2.833329e+00 -4.691516e+00 -3.512620e+00 -2.862625e+00 -4.430822e-01 1.219971e+00 -6.800174e-01 1.314340e+00 7.911226e-01 2.434516e-01 4.369614e-01 -1.054199e-01 -1.263707e-01 5.039505e-01 8.660162e-01 1.659338e-01 -1.840122e-01 3.155558e-02 5.886853e-03 5.882901e-02 -9.734050e-03 -2.196318e-02 -2.361837e-01 6.317145e-03 4.554998e-01 -9.404710e-02 -2.685654e-01 1.055045e-01 2.672685e-01 5.100785e-02 -1.320783e-01 -6.887083e-02 -3.090844e-03 -8.479794e-02 -2.749380e-03
<VARIANCE> 39
 9.093657e+00 2.222959e+01 2.380040e+01 2.942625e+01 4.254033e+01 4.435366e+01 3.481893e+01 4.520610e+01 3.422163e+01 2.387942e+01 2.866112e+01 1.824602e+01 1.697808e-02 7.161939e-01 7.217776e-01 2.824920e+00 1.356056e+00 2.030402e+00 2.465879e+00 3.129020e+00 3.022388e+00 2.169085e+00 2.201265e+00 1.818883e+00 1.679950e+00 2.541184e-04 6.500039e-02 1.171890e-01 1.692330e-01 2.305986e-01 2.670642e-01 4.897340e-01 4.639174e-01 5.361301e-01 4.190032e-01 3.927583e-01 3.476566e-01 2.910786e-01 2.687958e-05
<GCONST> 8.010902e+01
<MIXTURE> 2 5.000000e-01
<MEAN> 39
 9.896238e+00 -2.583146e-01 -8.694299e+00 2.202565e+00 2.833329e+00 -4.691516e+00 -3.512620e+00 -2.862625e+00 -4.430822e-01 1.219971e+00 -6.800174e-01 1.314340e+00 7.911226e-01 2.434516e-01 4.369614e-01 -1.054199e-01 -1.263707e-01 5.039505e-01 8.660162e-01 1.659338e-01 -1.840122e-01 3.155558e-02 5.886853e-03 5.882901e-02 -9.734050e-03 -2.196318e-02 -2.361837e-01 6.317145e-03 4.554998e-01 -9.404710e-02 -2.685654e-01 1.055045e-01 2.672685e-01 5.100785e-02 -1.320783e-01 -6.887083e-02 -3.090844e-03 -8.479794e-02 -2.749380e-03
<VARIANCE> 39
 9.093657e+00 2.222959e+01 2.380040e+01 2.942625e+01 4.254033e+01 4.435366e+01 3.481893e+01 4.520610e+01 3.422163e+01 2.387942e+01 2.866112e+01 1.824602e+01 1.697808e-02 7.161939e-01 7.217776e-01 2.824920e+00 1.356056e+00 2.030402e+00 2.465879e+00 3.129020e+00 3.022388e+00 2.169085e+00 2.201265e+00 1.818883e+00 1.679950e+00 2.541184e-04 6.500039e-02 1.171890e-01 1.692330e-01 2.305986e-01 2.670642e-01 4.897340e-01 4.639174e-01 5.361301e-01 4.190032e-01 3.927583e-01 3.476566e-01 2.910786e-01 2.687958e-05
<GCONST> 8.010902e+01
<TRANSP> 5
 0.000000e+00 1.000000e+00 0.000000e+00 0.000000e+00 0.000000e+00
 0.000000e+00 8.951923e-01 1.048078e-01 0.000000e+00 0.000000e+00
 0.000000e+00 0.000000e+00 8.794900e-01 1.205100e-01 0.000000e+00
 0.000000e+00 0.000000e+00 0.000000e+00 8.782431e-01 1.217569e-01
 0.000000e+00 0.000000e+00 0.000000e+00 0.000000e+00 0.000000e+00
<ENDHMM>
~h "san"
<BEGINHMM>
<NUMSTATES> 5
<STATE> 2
<NUMMIXES> 2
<MIXTURE> 1 5.000000e-01
<MEAN> 39
 -2.818501e+00 -1.313604e+00 -7.536149e-02 -1.574755e-01 6.937553e-01 5.326330e-01 -7.361819e-01 5.586908e-01 2.071141e-01 3.840044e-01 6.799257e-01 4.835222e-01 3.871858e-01 6.640923e-01 2.227126e-01 3.533581e-01 -6.360245e-02 -5.430824e-01 -1.960322e-01 -1.387501e-01 -2.987590e-01 -6.777031e-02 -9.483267e-02 1.176515e-01 5.345225e-04 3.917979e-02 3.070903e-01 1.901998e-02 6.463856e-02 -1.226866e-01 -3.224151e-01 -9.743515e-02 -1.297921e-02 -1.153544e-01 -1.740825e-02 -6.145632e-02 -6.065240e-03 -5.753770e-02 1.794196e-02
<VARIANCE> 39
 1.059202e+01 7.857044e+00 8.755160e+00 9.891815e+00 1.260198e+01 1.478798e+01 1.612361e+01 1.645614e+01 1.374350e+01 1.364333e+01 1.205696e+01 1.011204e+01 3.640465e-02 2.050027e+00 8.604694e-01 1.324342e+00 1.558724e+00 2.041599e+00 2.382775e+00 2.477671e+00 2.082541e+00 1.665827e+00 1.578257e+00 1.438197e+00 1.243766e+00 5.061236e-03 2.274275e-01 1.962121e-01 2.781360e-01 3.538531e-01 3.773541e-01 4.459924e-01 4.898024e-01 4.070119e-01 3.885716e-01 3.778172e-01 3.611846e-01 2.935812e-01 4.674554e-04
<GCONST> 7.821665e+01
<MIXTURE> 2 5.000000e-01
<MEAN> 39
 -2.818501e+00 -1.313604e+00 -7.536149e-02 -1.574755e-01 6.937553e-01 5.326330e-01 -7.361819e-01 5.586908e-01 2.071141e-01 3.840044e-01 6.799257e-01 4.835222e-01 3.871858e-01 6.640923e-01 2.227126e-01 3.533581e-01 -6.360245e-02 -5.430824e-01 -1.960322e-01 -1.387501e-01 -2.987590e-01 -6.777031e-02 -9.483267e-02 1.176515e-01 5.345225e-04 3.917979e-02 3.070903e-01 1.901998e-02 6.463856e-02 -1.226866e-01 -3.224151e-01 -9.743515e-02 -1.297921e-02 -1.153544e-01 -1.740825e-02 -6.145632e-02 -6.065240e-03 -5.753770e-02 1.794196e-02
<VARIANCE> 39
 1.059202e+01 7.857044e+00 8.755160e+00 9.891815e+00 1.260198e+01 1.478798e+01 1.612361e+01 1.645614e+01 1.374350e+01 1.364333e+01 1.205696e+01 1.011204e+01 3.640465e-02 2.050027e+00 8.604694e-01 1.324342e+00 1.558724e+00 2.041599e+00 2.382775e+00 2.477671e+00 2.082541e+00 1.665827e+00 1.578257e+00 1.438197e+00 1.243766e+00 5.061236e-03 2.274275e-01 1.962121e-01 2.781360e-01 3.538531e-01 3.773541e-01 4.459924e-01 4.898024e-01 4.070119e-01 3.885716e-01 3.778172e-01 3.611846e-01 2.935812e-01 4.674554e-04
<GCONST> 7.821665e+01
<STATE> 3
<NUMMIXES> 2
<MIXTURE> 1 5.000000e-01
<MEAN> 39
 3.260831e+00 -2.725655e+00 -1.418152e-01 -5.131933e+00 -7.560605e+00 -1.584798e+00 -1.342576e+00 -1.350803e+00 -3.144335e-01 -1.025879e+00 4.981633e-01 -1.079288e+00 8.649991e-01 -2.452565e-01 -1.582669e+00 -1.366855e+00 -1.399777e+00 -6.459644e-01 9.554115e-02 5.670618e-01 4.635282e-01 -5.134505e-02 -1.833546e-01 -4.135328e-01 -5.036561e-01 5.183271e-02 -4.681109e-01 -2.336646e-01 -1.884830e-01 2.188067e-01 7.215129e-01 2.831733e-01 2.544511e-01 2.406244e-01 2.482524e-03 8.542597e-02 -5.010324e-02 6.588943e-02 -2.158583e-02
<VARIANCE> 39
 1.129042e+01 2.323395e+01 2.460703e+01 4.551019e+01 3.489059e+01 4.868058e+01 4.903666e+01 3.908116e+01 3.228146e+01 3.203365e+01 3.867414e+01 3.579140e+01 8.056697e-03 1.844425e+00 1.224313e+00 1.857504e+00 3.337080e+00 5.823023e+00 3.922523e+00 4.470827e+00 4.480538e+00 3.494373e+00 3.838310e+00 4.480064e+00 4.293442e+00 2.373182e-03 3.314333e-01 4.196437e-01 7.108936e-01 8.163094e-01 6.096888e-01 5.379254e-01 6.990860e-01 8.926370e-01 6.200153e-01 6.562634e-01 7.827685e-01 7.275778e-01 1.500697e-04
<GCONST> 1.025207e+02
<MIXTURE> 2 5.000000e-01
<MEAN> 39
 3.260831e+00 -2.725655e+00 -1.418152e-01 -5.131933e+00 -7.560605e+00 -1.584798e+00 -1.342576e+00 -1.350803e+00 -3.144335e-01 -1.025879e+00 4.981633e-01 -1.079288e+00 8.649991e-01 -2.452565e-01 -1.582669e+00 -1.366855e+00 -1.399777e+00 -6.459644e-01 9.554115e-02 5.670618e-01 4.635282e-01 -5.134505e-02 -1.833546e-01 -4.135328e-01 -5.036561e-01 5.183271e-02 -4.681109e-01 -2.336646e-01 -1.884830e-01 2.188067e-01 7.215129e-01 2.831733e-01 2.544511e-01 2.406244e-01 2.482524e-03 8.542597e-02 -5.010324e-02 6.588943e-02 -2.158583e-02
<VARIANCE> 39
 1.129042e+01 2.323395e+01 2.460703e+01 4.551019e+01 3.489059e+01 4.868058e+01 4.903666e+01 3.908116e+01 3.228146e+01 3.203365e+01 3.867414e+01 3.579140e+01 8.056697e-03 1.844425e+00 1.224313e+00 1.857504e+00 3.337080e+00 5.823023e+00 3.922523e+00 4.470827e+00 4.480538e+00 3.494373e+00 3.838310e+00 4.480064e+00 4.293442e+00 2.373182e-03 3.314333e-01 4.196437e-01 7.108936e-01 8.163094e-01 6.096888e-01 5.379254e-01 6.990860e-01 8.926370e-01 6.200153e-01 6.562634e-01 7.827685e-01 7.275778e-01 1.500697e-04
<GCONST> 1.025207e+02
<STATE> 4
<NUMMIXES> 2
<MIXTURE> 1 5.000000e-01
<MEAN> 39
 4.727959e-01 -7.042064e+00 -1.935411e+00 -6.303169e+00 -3.413052e+00 1.129294e+00 5.780899e-01 2.750371e-01 -6.043025e-01 -6.306169e-01 -9.536188e-01 -1.843071e+00 8.481179e-01 7.859683e-02 3.593671e-01 5.131682e-01 1.396240e-01 1.278560e-01 2.967519e-02 -2.286529e-01 -1.991324e-01 -5.620372e-03 6.215446e-02 -1.844810e-02 7.402641e-02 -1.371767e-02 8.177471e-02 1.956058e-01 1.421395e-01 6.404593e-02 -5.978050e-02 -5.880289e-02 -8.716150e-02 -7.673431e-02 -3.734259e-04 -2.536105e-02 4.537161e-03 7.033747e-03 -3.344871e-03
<VARIANCE> 39
 1.099864e+01 1.802666e+01 1.667004e+01 2.127982e+01 4.116242e+01 4.685632e+01 5.323528e+01 2.829619e+01 3.426158e+01 3.206621e+01 4.008224e+01 4.605502e+01 1.089507e-02 2.192451e-01 6.865176e-01 6.574791e-01 7.636629e-01 9.939792e-01 1.041210e+00 1.290991e+00 1.277250e+00 1.083487e+00 9.869620e-01 9.190647e-01 9.672548e-01 1.613989e-04 2.697771e-02 6.605427e-02 1.061198e-01 1.294565e-01 1.958055e-01 1.591555e-01 2.244100e-01 2.475100e-01 1.916422e-01 1.892263e-01 1.833365e-01 1.764605e-01 1.957067e-05
<GCONST> 6.232676e+01
<MIXTURE> 2 5.000000e-01
<MEAN> 39
 4.727959e-01 -7.042064e+00 -1.935411e+00 -6.303169e+00 -3.413052e+00 1.129294e+00 5.780899e-01 2.750371e-01 -6.043025e-01 -6.306169e-01 -9.536188e-01 -1.843071e+00 8.481179e-01 7.859683e-02 3.593671e-01 5.131682e-01 1.396240e-01 1.278560e-01 2.967519e-02 -2.286529e-01 -1.991324e-01 -5.620372e-03 6.215446e-02 -1.844810e-02 7.402641e-02 -1.371767e-02 8.177471e-02 1.956058e-01 1.421395e-01 6.404593e-02 -5.978050e-02 -5.880289e-02 -8.716150e-02 -7.673431e-02 -3.734259e-04 -2.536105e-02 4.537161e-03 7.033747e-03 -3.344871e-03
<VARIANCE> 39
 1.099864e+01 1.802666e+01 1.667004e+01 2.127982e+01 4.116242e+01 4.685632e+01 5.323528e+01 2.829619e+01 3.426158e+01 3.206621e+01 4.008224e+01 4.605502e+01 1.089507e-02 2.192451e-01 6.865176e-01 6.574791e-01 7.636629e-01 9.939792e-01 1.041210e+00 1.290991e+00 1.277250e+00 1.083487e+00 9.869620e-01 9.190647e-01 9.672548e-01 1.613989e-04 2.697771e-02 6.605427e-02 1.061198e-01 1.294565e-01 1.958055e-01 1.591555e-01 2.244100e-01 2.475100e-01 1.916422e-01 1.892263e-01 1.833365e-01 1.764605e-01 1.957067e-05
<GCONST> 6.232676e+01
<TRANSP> 5
 0.000000e+00 1.000000e+00 0.000000e+00 0.000000e+00 0.000000e+00
 0.000000e+00 8.634676e-01 1.365324e-01 0.000000e+00 0.000000e+00
 0.000000e+00 0.000000e+00 7.919737e-01 2.080263e-01 0.000000e+00
 0.000000e+00 0.000000e+00 0.000000e+00 9.132072e-01 8.679282e-02
 0.000000e+00 0.000000e+00 0.000000e+00 0.000000e+00 0.000000e+00
<ENDHMM>
~h "sil"
<BEGINHMM>
<NUMSTATES> 5
<STATE> 2
<NUMMIXES> 2
<MIXTURE> 1 5.000000e-01
<MEAN> 39
 -3.143534e+00 -3.109632e+00 3.963538e-02 -7.259240e-01 -1.547762e-01 1.912445e-01 -5.543767e-01 -1.383454e-01 7.589098e-02 3.247479e-01 4.146233e-01 3.423871e-01 1.513638e-02 -1.254543e-02 1.246296e-03 -6.893158e-03 6.976197e-03 1.308252e-02 -8.783835e-03 -4.498304e-03 6.452276e-03 5.156051e-03 2.956069e-03 2.598884e-03 -2.634617e-03 -2.132753e-03 2.533432e-03 7.936783e-03 3.708848e-03 5.796990e-03 4.662035e-03 4.626378e-03 5.709516e-03 7.205739e-03 1.275671e-03 5.301934e-03 2.311368e-03 3.324511e-03 9.236545e-04
<VARIANCE> 39
 3.755941e+00 6.925053e+00 7.454173e+00 8.962765e+00 1.214757e+01 1.400967e+01 1.481791e+01 1.454193e+01 1.480061e+01 1.430753e+01 1.237794e+01 1.112463e+01 1.732067e-02 1.315577e-01 3.047980e-01 5.357660e-01 7.643281e-01 1.031286e+00 1.247647e+00 1.426908e+00 1.490065e+00 1.544809e+00 1.475715e+00 1.317160e+00 1.187004e+00 1.982308e-04 2.624667e-02 6.137471e-02 1.098639e-01 1.576367e-01 2.129926e-01 2.579700e-01 3.002383e-01 3.096097e-01 3.237362e-01 3.101578e-01 2.755632e-01 2.500425e-01 3.755706e-05
<GCONST> 5.458682e+01
<MIXTURE> 2 5.000000e-01
<MEAN> 39
 -3.143534e+00 -3.109632e+00 3.963538e-02 -7.259240e-01 -1.547762e-01 1.912445e-01 -5.543767e-01 -1.383454e-01 7.589098e-02 3.247479e-01 4.146233e-01 3.423871e-01 1.513638e-02 -1.254543e-02 1.246296e-03 -6.893158e-03 6.976197e-03 1.308252e-02 -8.783835e-03 -4.498304e-03 6.452276e-03 5.156051e-03 2.956069e-03 2.598884e-03 -2.634617e-03 -2.132753e-03 2.533432e-03 7.936783e-03 3.708848e-03 5.796990e-03 4.662035e-03 4.626378e-03 5.709516e-03 7.205739e-03 1.275671e-03 5.301934e-03 2.311368e-03 3.324511e-03 9.236545e-04
<VARIANCE> 39
 3.755941e+00 6.925053e+00 7.454173e+00 8.962765e+00 1.214757e+01 1.400967e+01 1.481791e+01 1.454193e+01 1.480061e+01 1.430753e+01 1.237794e+01 1.112463e+01 1.732067e-02 1.315577e-01 3.047980e-01 5.357660e-01 7.643281e-01 1.031286e+00 1.247647e+00 1.426908e+00 1.490065e+00 1.544809e+00 1.475715e+00 1.317160e+00 1.187004e+00 1.982308e-04 2.624667e-02 6.137471e-02 1.098639e-01 1.576367e-01 2.129926e-01 2.579700e-01 3.002383e-01 3.096097e-01 3.237362e-01 3.101578e-01 2.755632e-01 2.500425e-01 3.755706e-05
<GCONST> 5.458682e+01
<STATE> 3
~s "silst"
<STATE> 4
<NUMMIXES> 2
<MIXTURE> 1 5.000000e-01
<MEAN> 39
 -2.406648e+00 -2.122906e+00 4.167518e-01 -1.336772e-01 7.131298e-01 3.868769e-01 1.470662e-01 5.751144e-01 3.975060e-01 8.435472e-01 7.215465e-01 6.646708e-01 2.212433e-01 -3.629637e-02 2.358322e-02 7.445518e-04 5.002236e-03 -1.482470e-02 1.168453e-02 -1.744066e-02 1.849761e-02 -1.109003e-02 -6.281313e-03 1.782127e-03 4.713551e-03 1.253142e-03 1.388378e-02 1.123152e-02 2.678422e-03 3.718834e-04 -8.708731e-03 1.692350e-03 -3.940018e-03 -9.767699e-03 -6.976234e-03 -1.624685e-02 -1.253835e-02 -1.087399e-02 4.603365e-04
<VARIANCE> 39
 6.517086e+00 9.836877e+00 1.007524e+01 1.114867e+01 1.390660e+01 1.584558e+01 1.680989e+01 1.589505e+01 1.523972e+01 1.428848e+01 1.320425e+01 1.140325e+01 3.812537e-02 2.578180e-01 4.501157e-01 6.586902e-01 8.950067e-01 1.137267e+00 1.405026e+00 1.536469e+00 1.617213e+00 1.572813e+00 1.465431e+00 1.380140e+00 1.203883e+00 1.401844e-03 5.240899e-02 9.230231e-02 1.325551e-01 1.830409e-01 2.341796e-01 2.907365e-01 3.188320e-01 3.375353e-01 3.284498e-01 3.025362e-01 2.848392e-01 2.504144e-01 2.532585e-04
<GCONST> 6.494598e+01
<MIXTURE> 2 5.000000e-01
<MEAN> 39
 -2.406648e+00 -2.122906e+00 4.167518e-01 -1.336772e-01 7.131298e-01 3.868769e-01 1.470662e-01 5.751144e-01 3.975060e-01 8.435472e-01 7.215465e-01 6.646708e-01 2.212433e-01 -3.629637e-02 2.358322e-02 7.445518e-04 5.002236e-03 -1.482470e-02 1.168453e-02 -1.744066e-02 1.849761e-02 -1.109003e-02 -6.281313e-03 1.782127e-03 4.713551e-03 1.253142e-03 1.388378e-02 1.123152e-02 2.678422e-03 3.718834e-04 -8.708731e-03 1.692350e-03 -3.940018e-03 -9.767699e-03 -6.976234e-03 -1.624685e-02 -1.253835e-02 -1.087399e-02 4.603365e-04
<VARIANCE> 39
 6.517086e+00 9.836877e+00 1.007524e+01 1.114867e+01 1.390660e+01 1.584558e+01 1.680989e+01 1.589505e+01 1.523972e+01 1.428848e+01 1.320425e+01 1.140325e+01 3.812537e-02 2.578180e-01 4.501157e-01 6.586902e-01 8.950067e-01 1.137267e+00 1.405026e+00 1.536469e+00 1.617213e+00 1.572813e+00 1.465431e+00 1.380140e+00 1.203883e+00 1.401844e-03 5.240899e-02 9.230231e-02 1.325551e-01 1.830409e-01 2.341796e-01 2.907365e-01 3.188320e-01 3.375353e-01 3.284498e-01 3.025362e-01 2.848392e-01 2.504144e-01 2.532585e-04
<GCONST> 6.494598e+01
<TRANSP> 5
 0.000000e+00 1.000000e+00 0.000000e+00 0.000000e+00 0.000000e+00
 0.000000e+00 9.441203e-01 8.034506e-03 4.784521e-02 0.000000e+00
 0.000000e+00 0.000000e+00 8.787802e-01 1.212199e-01 0.000000e+00
 0.000000e+00 6.352212e-02 0.000000e+00 8.770227e-01 5.945516e-02
 0.000000e+00 0.000000e+00 0.000000e+00 0.000000e+00 0.000000e+00
<ENDHMM>
