~o
<STREAMINFO> 1 39
<VECSIZE> 39<NULLD><MFCC_E_D_A_Z><DIAGC>
~s "silst"
<MEAN> 39
 -1.722826e+00 -2.564625e-01 1.192067e+00 -8.015894e-01 1.645013e+00 -3.961506e-01 3.190227e-01 -1.110222e+00 -6.778247e-01 1.279785e-01 5.581281e-01 3.763478e-01 3.151260e-01 -5.351659e-03 6.186675e-03 6.816446e-03 -1.494513e-02 4.333247e-04 -8.000168e-03 -2.352834e-02 -5.682854e-03 -1.296564e-03 -2.009266e-03 6.678702e-03 -6.749324e-03 3.166764e-04 7.701386e-04 -2.763031e-03 -9.066695e-03 -1.769099e-03 -2.515265e-03 5.121582e-04 -3.062563e-03 8.089307e-03 1.149700e-02 3.327037e-03 -1.712744e-03 2.190719e-04 1.821319e-04
<VARIANCE> 39
 2.426093e+00 4.252296e+00 5.524850e+00 8.522307e+00 1.034667e+01 9.960597e+00 1.247254e+01 1.279907e+01 1.461490e+01 1.254008e+01 1.214164e+01 1.052468e+01 6.231824e-03 1.474726e-01 3.613761e-01 6.163391e-01 9.273699e-01 1.207798e+00 1.036406e+00 1.318371e+00 1.475918e+00 1.870439e+00 1.564030e+00 1.601583e+00 1.162098e+00 1.428293e-04 3.115719e-02 7.697242e-02 1.391189e-01 1.935212e-01 2.594462e-01 2.144998e-01 2.669477e-01 3.143490e-01 4.089018e-01 3.376521e-01 3.636458e-01 2.475387e-01 2.488173e-05
<GCONST> 5.279051e+01
~h "ba"
<BEGINHMM>
<NUMSTATES> 5
<STATE> 2
<MEAN> 39
 3.660950e-01 3.205674e-01 1.021577e-01 -7.161114e-01 1.058147e+00 -8.335684e-01 -4.269700e-02 -2.032320e-01 3.051065e-02 3.149565e-01 2.342304e-01 2.872721e-01 4.764628e-01 6.069001e-01 -8.223528e-01 -8.501533e-01 -1.598547e-01 -5.414861e-01 -5.219488e-01 1.191958e-01 1.141109e-01 3.935158e-01 5.332995e-02 -8.914369e-02 1.556874e-02 3.819032e-02 1.303914e-01 -3.621042e-01 -3.459227e-01 2.442659e-02 -1.781755e-01 -4.910056e-02 9.586570e-02 4.324685e-02 8.611021e-02 -7.098200e-02 -8.857602e-02 -6.625301e-02 1.545055e-02
<VARIANCE> 39
 1.349500e+01 1.299281e+01 1.682699e+01 1.006269e+01 1.581216e+01 1.906057e+01 1.763138e+01 1.622279e+01 1.561866e+01 1.287427e+01 1.354810e+01 1.169347e+01 4.289309e-02 2.274665e+00 2.490433e+00 3.470439e+00 1.290731e+00 2.754491e+00 3.098608e+00 2.422239e+00 2.410671e+00 2.367368e+00 1.843717e+00 1.839465e+00 1.716888e+00 8.467163e-03 3.490767e-01 2.784227e-01 3.850282e-01 2.444553e-01 4.255396e-01 5.242168e-01 5.011820e-01 4.727342e-01 4.520769e-01 3.650595e-01 3.621373e-01 3.339598e-01 7.649960e-04
<GCONST> 8.683051e+01
<STATE> 3
<MEAN> 39
 4.064513e+00 -1.050796e+01 -9.244931e+00 -4.700020e-01 -4.395407e+00 -2.508112e+00 2.283446e+00 3.111545e-01 2.735711e+00 -1.404153e+00 -1.893797e+00 -1.560033e+00 9.055486e-01 -4.490350e-01 -1.670006e+00 -8.703202e-01 5.646467e-01 8.587763e-02 6.013679e-01 5.084974e-01 6.275298e-02 1.455195e-01 -4.566168e-01 -2.810858e-01 -2.433419e-01 3.979229e-02 -4.105128e-01 4.920768e-01 6.311694e-01 1.758631e-01 4.288359e-01 2.487269e-01 -1.421337e-01 -3.565095e-02 -2.017942e-01 6.312896e-02 1.408147e-01 1.117079e-01 -2.632898e-02
<VARIANCE> 39
 1.483710e+01 2.034052e+01 2.182469e+01 1.717072e+01 2.058042e+01 5.686871e+01 3.325307e+01 3.871169e+01 2.516478e+01 2.302613e+01 2.453358e+01 3.228239e+01 7.331430e-03 1.311150e+00 2.432522e+00 3.037400e+00 1.644019e+00 2.472568e+00 3.230930e+00 3.961201e+00 3.171416e+00 2.327113e+00 2.511068e+00 2.325026e+00 2.645441e+00 2.701218e-03 3.051451e-01 2.177593e-01 3.006587e-01 2.402194e-01 5.149484e-01 8.207592e-01 6.735712e-01 5.537466e-01 4.458199e-01 4.603636e-01 3.795652e-01 4.295242e-01 2.411258e-04
<GCONST> 9.178990e+01
<STATE> 4
<MEAN> 39
 2.101913e+00 -1.183778e+01 -7.751984e+00 2.241701e+00 -2.283507e+00 -7.730938e-01 2.650758e+00 1.479204e+00 2.412681e+00 -1.317004e+00 -1.178375e+00 -6.830318e-01 8.505114e-01 -5.947785e-02 3.077992e-01 3.095375e-01 -1.063718e-01 -4.703051e-02 7.766151e-02 -6.703962e-02 -3.974402e-02 -9.420452e-02 6.292740e-02 5.654809e-02 9.646386e-03 -1.196273e-02 2.388824e-02 1.218929e-01 5.175219e-02 -7.070111e-02 -2.216967e-02 -2.169357e-02 -4.301313e-02 -2.205439e-02 -1.586999e-02 1.914789e-02 3.620645e-03 2.045915e-03 -2.120567e-03
<VARIANCE> 39
 1.035576e+01 1.625511e+01 3.337224e+01 1.981590e+01 1.690740e+01 3.015274e+01 2.117817e+01 2.304024e+01 1.965839e+01 2.039016e+01 2.135167e+01 2.185497e+01 2.062708e-02 1.957328e-01 5.857769e-01 6.063061e-01 7.192869e-01 6.859077e-01 7.352731e-01 7.289602e-01 7.570835e-01 7.364238e-01 7.455052e-01 6.821128e-01 5.988703e-01 2.915246e-04 3.135050e-02 6.297532e-02 7.745985e-02 9.066182e-02 1.187889e-01 1.335949e-01 1.410741e-01 1.337855e-01 1.306682e-01 1.318985e-01 1.245909e-01 1.091830e-01 2.790068e-05
<GCONST> 5.192499e+01
<TRANSP> 5
 0.000000e+00 1.000000e+00 0.000000e+00 0.000000e+00 0.000000e+00
 0.000000e+00 8.658374e-01 1.341626e-01 0.000000e+00 0.000000e+00
 0.000000e+00 0.000000e+00 7.499515e-01 2.500485e-01 0.000000e+00
 0.000000e+00 0.000000e+00 0.000000e+00 9.476642e-01 5.233574e-02
 0.000000e+00 0.000000e+00 0.000000e+00 0.000000e+00 0.000000e+00
<ENDHMM>
~h "er"
<BEGINHMM>
<NUMSTATES> 5
<STATE> 2
<MEAN> 39
 1.929286e+00 -1.834168e+00 -1.407467e+00 -9.072934e-01 -3.589570e+00 -3.011214e+00 -4.188662e-01 3.928299e-01 5.071799e-01 1.424035e-02 1.314483e-01 3.424615e-01 6.053198e-01 6.200526e-01 -9.514268e-01 -5.072474e-01 -1.329259e-01 -1.217541e+00 -8.225466e-01 -4.151796e-02 6.432208e-02 6.668680e-02 -1.198975e-02 -5.457332e-02 4.153708e-02 4.208684e-02 1.211668e-02 -4.183759e-02 -1.369053e-02 3.172597e-02 -1.661933e-02 1.906119e-02 -1.440262e-02 -3.238092e-02 -4.635748e-02 -1.879203e-02 -3.499165e-02 -2.708800e-02 5.630282e-03
<VARIANCE> 39
 1.224776e+01 2.731782e+01 2.442934e+01 1.927736e+01 4.226982e+01 4.436924e+01 3.989649e+01 3.287331e+01 2.703910e+01 2.218212e+01 2.549024e+01 2.150429e+01 4.262599e-02 1.100557e+00 1.620605e+00 2.005658e+00 1.986043e+00 3.724846e+00 4.098063e+00 3.970862e+00 4.075693e+00 3.269046e+00 2.764065e+00 2.969766e+00 2.544424e+00 3.897288e-03 1.978409e-01 2.817996e-01 3.174919e-01 2.916593e-01 7.106485e-01 6.911627e-01 6.888574e-01 7.435586e-01 6.178039e-01 5.130514e-01 5.324059e-01 4.667823e-01 4.943948e-04
<GCONST> 9.725494e+01
<STATE> 3
<MEAN> 39
 3.862804e+00 -7.447662e+00 -1.286236e+00 -4.083422e+00 -1.005770e+01 -2.763052e+00 -9.188687e-01 -4.643979e-01 -1.046288e+00 -2.002141e+00 -3.909015e+00 -3.245916e+00 8.994430e-01 1.351737e-02 2.062583e-01 3.880041e-01 5.863321e-02 1.851092e-01 9.181338e-02 -2.001589e-01 -5.024122e-02 1.116838e-01 7.208097e-02 9.573755e-02 -2.366044e-02 5.005294e-03 -4.923797e-02 1.227639e-01 5.158763e-02 4.024479e-02 1.637214e-01 7.218526e-02 3.485317e-02 4.416677e-02 7.847150e-02 7.397595e-02 9.807585e-02 9.785475e-02 -6.483328e-03
<VARIANCE> 39
 7.402993e+00 1.993832e+01 3.366872e+01 4.865692e+01 2.889606e+01 4.017278e+01 3.910342e+01 4.223606e+01 4.117490e+01 4.901334e+01 7.296841e+01 8.327358e+01 8.404796e-03 2.429268e-01 6.841821e-01 8.684736e-01 9.359459e-01 1.441663e+00 1.439620e+00 1.661032e+00 1.967721e+00 2.497885e+00 3.377072e+00 4.409894e+00 4.899163e+00 8.402964e-04 4.850256e-02 8.111700e-02 1.208527e-01 1.378361e-01 2.243048e-01 2.546767e-01 2.767724e-01 3.195890e-01 3.982055e-01 5.279470e-01 6.808836e-01 6.793412e-01 6.859924e-05
<GCONST> 8.128053e+01
<STATE> 4
<MEAN> 39
 4.156808e+00 -3.414008e+00 -9.656744e-03 5.831700e-01 -5.746551e+00 -5.143283e+00 -1.764878e+00 1.852388e-02 5.037906e-01 -2.089846e-02 5.735099e-01 1.033689e+00 7.865236e-01 -1.719874e-01 2.778508e-01 2.426139e-01 8.045252e-02 3.112396e-01 3.026343e-01 6.110732e-02 -8.540367e-02 -8.813724e-02 -3.142986e-02 -3.741911e-02 -1.642180e-02 -1.320335e-02 -3.241764e-02 1.683770e-02 -8.311733e-03 -5.174866e-03 4.242451e-02 3.871510e-02 1.583265e-02 1.259597e-03 -8.327293e-03 -6.889545e-03 -2.143675e-02 -3.545886e-02 -2.332469e-03
<VARIANCE> 39
 9.713746e+00 1.429614e+01 3.842621e+01 3.141603e+01 3.447364e+01 5.164627e+01 3.302110e+01 2.034061e+01 2.639263e+01 2.484838e+01 1.809929e+01 1.619515e+01 3.726865e-02 2.349521e-01 3.718071e-01 6.612499e-01 6.686829e-01 1.029188e+00 1.162969e+00 1.148190e+00 1.091004e+00 1.193867e+00 1.089252e+00 1.025214e+00 1.081062e+00 5.047989e-04 3.242984e-02 5.079470e-02 8.855360e-02 1.011230e-01 1.432057e-01 1.764842e-01 1.816752e-01 1.948140e-01 2.042873e-01 1.922656e-01 1.789182e-01 1.788023e-01 4.057227e-05
<GCONST> 6.156816e+01
<TRANSP> 5
 0.000000e+00 1.000000e+00 0.000000e+00 0.000000e+00 0.000000e+00
 0.000000e+00 8.567845e-01 1.432155e-01 0.000000e+00 0.000000e+00
 0.000000e+00 0.000000e+00 8.545039e-01 1.454961e-01 0.000000e+00
 0.000000e+00 0.000000e+00 0.000000e+00 9.387163e-01 6.128370e-02
 0.000000e+00 0.000000e+00 0.000000e+00 0.000000e+00 0.000000e+00
<ENDHMM>
~h "qi"
<BEGINHMM>
<NUMSTATES> 5
<STATE> 2
<MEAN> 39
 -1.393042e+00 -4.095973e-01 2.182790e-02 2.140074e-01 7.132880e-01 3.426090e-01 2.362167e-01 2.416118e-01 -6.601245e-02 4.782288e-01 2.823894e-01 6.205852e-01 4.135836e-01 -2.134078e-01 -4.208598e-02 -3.140820e-01 1.533101e-01 -1.522405e-01 8.216153e-04 -1.172749e-01 5.651439e-02 -1.125744e-02 1.580158e-03 -7.924213e-04 3.145769e-02 -2.330350e-03 2.771998e-02 5.280918e-02 -6.641622e-03 4.823735e-02 -4.324948e-02 3.089427e-02 -3.895587e-03 7.669393e-03 2.294989e-02 -1.265337e-02 -4.213162e-03 -2.643170e-02 6.359264e-03
<VARIANCE> 39
 3.802874e+00 6.142201e+00 8.459050e+00 1.035752e+01 1.326379e+01 1.193622e+01 1.412027e+01 1.434778e+01 1.371382e+01 1.289007e+01 1.229394e+01 1.117095e+01 1.478248e-02 3.545356e-01 6.561779e-01 8.858949e-01 1.256038e+00 1.563642e+00 1.416767e+00 1.667854e+00 1.728948e+00 1.710552e+00 1.532100e+00 1.501489e+00 1.356853e+00 1.692192e-03 6.258695e-02 1.206767e-01 1.681836e-01 2.511788e-01 3.050139e-01 2.806125e-01 3.354113e-01 3.544473e-01 3.548491e-01 3.172261e-01 3.030252e-01 2.709647e-01 1.718913e-04
<GCONST> 6.536577e+01
<STATE> 3
<MEAN> 39
 -2.672316e+00 1.802435e+00 -2.299196e+00 2.675818e+00 -1.170180e+00 1.961589e+00 -9.348428e-01 1.312621e+00 4.366807e-01 -1.622508e-01 6.732765e-01 5.387307e-02 6.039422e-01 3.300811e-02 5.941419e-01 1.442990e-01 5.631381e-02 1.387884e-01 1.452010e-01 -5.879408e-02 1.488677e-04 -7.766658e-03 -1.668407e-01 9.100402e-03 -1.105577e-01 2.191212e-02 2.364529e-03 2.366792e-02 3.693845e-02 -5.224207e-02 3.588314e-02 -2.428134e-02 -4.202779e-03 -2.194306e-02 -4.008163e-02 -1.387191e-02 -2.618235e-02 -1.712342e-02 -1.221906e-03
<VARIANCE> 39
 6.563784e+00 1.120558e+01 1.039184e+01 9.603036e+00 1.403622e+01 1.886086e+01 1.734143e+01 1.968770e+01 2.011737e+01 1.924355e+01 1.847822e+01 1.740318e+01 1.590886e-02 5.251174e-01 7.883750e-01 1.136624e+00 1.014423e+00 1.538071e+00 1.759394e+00 1.747705e+00 2.261014e+00 1.882270e+00 2.152693e+00 1.995434e+00 1.941260e+00 7.340508e-04 9.335555e-02 1.369655e-01 2.001264e-01 1.881561e-01 2.902017e-01 3.142783e-01 3.351298e-01 3.952309e-01 3.622841e-01 3.917697e-01 3.579869e-01 3.522041e-01 1.199243e-04
<GCONST> 7.164108e+01
<STATE> 4
<MEAN> 39
 -2.060319e+00 4.958160e+00 3.175084e-02 1.823315e+00 1.223565e+00 2.015156e+00 -5.353428e-01 1.101261e+00 -4.221545e-01 -3.373659e-01 2.787712e-01 -5.167382e-01 6.357669e-01 1.710157e-02 -1.098605e-01 4.769304e-02 -7.420286e-02 4.734093e-02 -6.222526e-02 4.659109e-02 -3.049513e-02 -1.096415e-02 2.955459e-02 4.313462e-03 2.625266e-02 -6.344228e-03 1.283467e-02 -4.576007e-02 7.282327e-03 -1.112213e-02 -6.301062e-03 -8.644557e-03 7.141273e-03 -3.283612e-03 9.527600e-03 7.938824e-03 6.511199e-03 1.326778e-02 -1.295157e-03
<VARIANCE> 39
 4.683263e+00 1.307757e+01 1.102743e+01 1.029115e+01 1.473467e+01 2.638679e+01 1.890367e+01 3.307725e+01 2.077006e+01 2.634852e+01 3.070624e+01 2.280886e+01 2.992425e-02 1.528150e-01 4.755997e-01 5.133911e-01 6.490394e-01 8.232147e-01 9.986767e-01 1.100875e+00 1.313773e+00 1.250219e+00 1.214224e+00 1.241364e+00 1.073896e+00 4.986637e-04 3.050257e-02 7.882898e-02 1.034601e-01 1.285360e-01 1.674256e-01 1.977389e-01 2.157188e-01 2.575453e-01 2.459449e-01 2.346248e-01 2.509421e-01 2.140101e-01 6.160067e-05
<GCONST> 5.970590e+01
<TRANSP> 5
 0.000000e+00 1.000000e+00 0.000000e+00 0.000000e+00 0.000000e+00
 0.000000e+00 9.085508e-01 9.144924e-02 0.000000e+00 0.000000e+00
 0.000000e+00 0.000000e+00 8.864164e-01 1.135836e-01 0.000000e+00
 0.000000e+00 0.000000e+00 0.000000e+00 9.527633e-01 4.723672e-02
 0.000000e+00 0.000000e+00 0.000000e+00 0.000000e+00 0.000000e+00
<ENDHMM>
~h "si"
<BEGINHMM>
<NUMSTATES> 5
<STATE> 2
<MEAN> 39
 -1.380307e+00 -8.668280e-01 -1.018519e-01 -1.763640e-01 5.641636e-01 5.661269e-01 -3.021819e-01 3.506115e-01 -1.039990e-01 -1.094054e-01 1.543467e-01 2.858285e-01 4.299715e-01 -3.552991e-02 -1.964517e-02 6.947840e-02 6.302831e-02 -5.522060e-02 3.744160e-02 1.667831e-02 -3.149509e-02 -8.252948e-03 -8.251701e-03 3.655249e-02 1.623371e-02 1.812626e-03 5.687937e-02 1.871138e-02 5.713481e-02 4.700291e-02 -5.631623e-02 1.465400e-02 1.670001e-02 -2.672366e-02 8.120034e-03 -1.563341e-02 -1.925058e-02 -2.667036e-02 5.270130e-03
<VARIANCE> 39
 4.857044e+00 6.037054e+00 7.840070e+00 1.000947e+01 1.207524e+01 1.398489e+01 1.650710e+01 1.429345e+01 1.468015e+01 1.369154e+01 1.280746e+01 1.171997e+01 1.466904e-02 4.202477e-01 5.297804e-01 9.130487e-01 1.262725e+00 1.314230e+00 1.523692e+00 2.124370e+00 1.732303e+00 1.763771e+00 1.626516e+00 1.569673e+00 1.428217e+00 1.158374e-03 6.125009e-02 9.606169e-02 1.714516e-01 2.346153e-01 2.662714e-01 2.973715e-01 4.095084e-01 3.540516e-01 3.655362e-01 3.359874e-01 3.244289e-01 2.936843e-01 1.022323e-04
<GCONST> 6.538929e+01
<STATE> 3
<MEAN> 39
 2.530035e-01 2.629217e-01 2.759415e+00 3.483784e-01 -2.803399e+00 4.614905e-01 -3.203950e+00 -1.080671e+00 -3.100366e+00 -2.945196e+00 -1.509225e+00 -1.627851e+00 7.155332e-01 1.396471e-01 2.570570e-01 4.336506e-01 2.650365e-01 -2.364960e-01 1.732671e-01 6.040713e-02 -1.950032e-01 4.833681e-03 -1.511932e-01 -2.954948e-01 -4.233678e-01 2.067065e-02 -5.085188e-02 1.980668e-02 -5.779633e-02 -1.986953e-02 1.122919e-01 4.963837e-02 4.734125e-02 8.327656e-02 1.105928e-01 1.116500e-01 7.890660e-02 8.668488e-02 -5.801604e-03
<VARIANCE> 39
 4.712073e+00 8.507116e+00 9.640177e+00 4.039101e+01 2.179541e+01 2.444503e+01 8.922348e+01 2.390739e+01 4.428727e+01 4.164697e+01 5.081971e+01 5.351283e+01 1.877753e-02 3.016936e-01 4.363749e-01 8.152646e-01 1.604267e+00 1.810936e+00 1.713930e+00 3.679785e+00 2.006971e+00 2.747082e+00 2.747506e+00 3.189625e+00 3.176102e+00 1.313821e-03 5.150046e-02 7.112958e-02 1.257809e-01 2.399387e-01 2.582875e-01 2.797735e-01 4.981935e-01 3.310129e-01 3.862817e-01 4.101175e-01 5.001842e-01 5.013745e-01 8.113780e-05
<GCONST> 7.961931e+01
<STATE> 4
<MEAN> 39
 -1.525252e-01 1.656286e+00 4.402874e+00 2.627993e+00 -7.517453e-01 4.008159e+00 2.162000e+00 -9.190401e-01 2.166312e+00 4.318815e-01 7.192302e-02 -1.800095e-01 5.968978e-01 -5.495531e-02 2.963293e-02 -1.146351e-01 -1.194518e-01 1.545172e-01 -3.865734e-02 -8.844271e-02 8.517464e-02 -9.554880e-03 4.693189e-02 6.404851e-02 1.337742e-01 -8.992330e-03 -5.222653e-03 -1.970196e-02 -5.066957e-02 -2.906752e-02 2.608290e-03 -5.569543e-02 -3.965725e-02 1.399989e-03 -4.860025e-02 -2.360447e-02 -1.498030e-02 -1.129385e-02 -1.082491e-03
<VARIANCE> 39
 4.014985e+00 7.608262e+00 1.254212e+01 1.622807e+01 2.264306e+01 2.950920e+01 4.039104e+01 2.907435e+01 2.884888e+01 1.833195e+01 1.625774e+01 1.438722e+01 3.745486e-02 1.779553e-01 3.717676e-01 6.530186e-01 8.322946e-01 1.184963e+00 1.537718e+00 1.703101e+00 1.701707e+00 1.741538e+00 1.399643e+00 1.395771e+00 1.238502e+00 6.715902e-04 3.157345e-02 6.338955e-02 1.140744e-01 1.484721e-01 2.189690e-01 2.658638e-01 2.895366e-01 3.110003e-01 3.185371e-01 2.588009e-01 2.670704e-01 2.294528e-01 7.440496e-05
<GCONST> 6.456029e+01
<TRANSP> 5
 0.000000e+00 1.000000e+00 0.000000e+00 0.000000e+00 0.000000e+00
 0.000000e+00 9.326637e-01 6.733634e-02 0.000000e+00 0.000000e+00
 0.000000e+00 0.000000e+00 8.464859e-01 1.535141e-01 0.000000e+00
 0.000000e+00 0.000000e+00 0.000000e+00 9.389914e-01 6.100858e-02
 0.000000e+00 0.000000e+00 0.000000e+00 0.000000e+00 0.000000e+00
<ENDHMM>
~h "sp"
<BEGINHMM>
<NUMSTATES> 3
<STATE> 2
~s "silst"
<TRANSP> 3
 0.000000e+00 7.000000e-01 3.000000e-01
 0.000000e+00 9.712237e-01 2.877628e-02
 0.000000e+00 0.000000e+00 0.000000e+00
<ENDHMM>
~h "wu"
<BEGINHMM>
<NUMSTATES> 5
<STATE> 2
<MEAN> 39
 3.765088e+00 1.921735e+00 -1.603053e+00 -2.126476e+00 -7.070212e-01 -1.283135e+00 -6.762862e-01 -1.289563e+00 -2.206042e+00 -2.496753e+00 -2.843764e+00 -2.267568e+00 6.544198e-01 4.488514e-01 5.295610e-01 2.803008e-01 -3.083697e-01 1.591565e-02 1.916678e-01 3.986841e-01 3.234400e-01 1.613977e-01 3.970435e-02 -1.056098e-01 -1.477248e-01 7.613119e-03 3.443116e-02 2.940254e-02 3.243872e-02 3.915480e-02 -2.521721e-02 2.628035e-02 8.295720e-02 1.391422e-01 1.416221e-01 1.039418e-01 8.381388e-02 5.916887e-02 1.943246e-03
<VARIANCE> 39
 1.971900e+01 2.231626e+01 2.663241e+01 2.507573e+01 2.748826e+01 2.638089e+01 2.895914e+01 2.752167e+01 3.032207e+01 3.863748e+01 4.948421e+01 5.255952e+01 4.313377e-02 1.249993e+00 1.692441e+00 1.724798e+00 1.815577e+00 2.466472e+00 2.511754e+00 2.768955e+00 2.986292e+00 3.036151e+00 3.107839e+00 3.353621e+00 3.137085e+00 2.460389e-03 1.753879e-01 2.230130e-01 2.634495e-01 3.406009e-01 4.136443e-01 4.413164e-01 5.023044e-01 5.302702e-01 5.395471e-01 5.696721e-01 5.882452e-01 5.584918e-01 2.192856e-04
<GCONST> 9.434529e+01
<STATE> 3
<MEAN> 39
 6.032303e+00 4.173929e+00 -3.405828e-02 -8.958812e-01 1.727400e+00 2.404765e+00 4.304170e+00 3.769147e+00 2.501938e+00 1.164948e+00 3.897905e-02 -2.941815e-01 7.174811e-01 -1.092888e-01 6.624802e-02 2.585732e-01 1.197012e-01 -3.960953e-02 -1.802391e-02 1.694253e-01 3.130040e-01 3.898568e-01 3.387369e-01 2.573586e-01 2.040560e-01 -4.282832e-03 -1.135761e-01 -8.075888e-02 -2.590894e-02 1.010922e-02 -3.602083e-02 -8.211360e-02 -1.561021e-01 -1.452685e-01 -9.664501e-02 -2.484127e-02 -3.154163e-03 5.860833e-03 -2.998518e-03
<VARIANCE> 39
 1.233864e+01 1.462434e+01 1.847985e+01 3.370335e+01 3.319976e+01 3.132160e+01 2.988165e+01 2.624747e+01 2.554046e+01 2.284480e+01 2.074680e+01 1.800206e+01 1.811448e-02 8.852090e-01 1.239250e+00 1.912928e+00 2.974855e+00 3.345783e+00 3.192108e+00 3.397203e+00 3.099006e+00 2.829809e+00 2.511105e+00 2.079329e+00 1.950479e+00 1.082720e-03 1.012820e-01 2.043252e-01 3.283931e-01 5.812016e-01 6.416889e-01 6.502024e-01 6.572465e-01 5.790565e-01 5.308315e-01 4.918692e-01 3.986285e-01 3.716644e-01 1.057338e-04
<GCONST> 8.850481e+01
<STATE> 4
<MEAN> 39
 2.726543e+00 3.896008e+00 1.687927e+00 -1.504437e+00 2.168987e-01 7.015057e-02 1.924130e+00 2.272363e+00 2.245145e+00 2.155729e+00 1.098654e+00 5.733335e-01 5.612704e-01 -1.786834e-01 -1.356783e-01 -1.126190e-02 5.993518e-02 6.273489e-02 7.968488e-05 -9.028582e-02 -1.156033e-01 -9.952208e-02 -4.327032e-02 2.282406e-04 1.913663e-02 -6.965876e-03 -2.736688e-03 -2.456602e-02 -3.075156e-02 7.406462e-03 1.498062e-02 1.291626e-02 -1.620555e-02 -3.078223e-02 -3.528957e-02 -3.585461e-02 -2.035930e-02 -1.493544e-02 6.847142e-05
<VARIANCE> 39
 1.411319e+01 1.132740e+01 8.437870e+00 1.134064e+01 1.565979e+01 1.729969e+01 2.005821e+01 2.153710e+01 1.898653e+01 1.713629e+01 1.542119e+01 1.254819e+01 2.928273e-02 3.067652e-01 4.542727e-01 6.065524e-01 9.521670e-01 1.244611e+00 1.334409e+00 1.594769e+00 1.714410e+00 1.770117e+00 1.522939e+00 1.479703e+00 1.259323e+00 4.348848e-04 4.591077e-02 7.766002e-02 1.194224e-01 1.850018e-01 2.387500e-01 2.527345e-01 3.261313e-01 3.410821e-01 3.554030e-01 2.969109e-01 2.995905e-01 2.544463e-01 4.909241e-05
<GCONST> 6.417203e+01
<TRANSP> 5
 0.000000e+00 1.000000e+00 0.000000e+00 0.000000e+00 0.000000e+00
 0.000000e+00 8.342695e-01 1.657305e-01 0.000000e+00 0.000000e+00
 0.000000e+00 0.000000e+00 8.381944e-01 1.618056e-01 0.000000e+00
 0.000000e+00 0.000000e+00 0.000000e+00 9.515430e-01 4.845706e-02
 0.000000e+00 0.000000e+00 0.000000e+00 0.000000e+00 0.000000e+00
<ENDHMM>
~h "yi"
<BEGINHMM>
<NUMSTATES> 5
<STATE> 2
<MEAN> 39
 -7.769713e-01 2.762947e+00 9.687217e-01 9.008482e-01 1.340230e+00 1.604014e+00 1.623695e-01 6.765551e-01 4.944921e-02 1.861012e-01 5.691635e-01 -7.246251e-02 5.318004e-01 -2.548123e-01 6.639659e-01 -2.345398e-01 4.335597e-01 9.486139e-02 2.465910e-01 -2.105239e-01 2.883047e-01 -1.133350e-01 9.342653e-02 1.471850e-02 4.059677e-02 7.842093e-03 2.662407e-02 -7.172142e-02 -8.754087e-02 2.091925e-02 -1.336369e-01 -5.106209e-02 -3.546699e-02 -1.137481e-02 -5.242685e-02 -2.003218e-02 -7.256821e-02 -2.230204e-02 4.701490e-03
<VARIANCE> 39
 4.253668e+00 1.661101e+01 1.184246e+01 1.956911e+01 2.140717e+01 1.995252e+01 1.959074e+01 2.322936e+01 2.117984e+01 2.056328e+01 1.922030e+01 1.622309e+01 2.850191e-02 3.979996e-01 1.807397e+00 1.386679e+00 1.985088e+00 2.656287e+00 2.407138e+00 2.655535e+00 2.935729e+00 2.750365e+00 2.495878e+00 2.206465e+00 1.812704e+00 2.542576e-03 6.967801e-02 2.922270e-01 2.364637e-01 3.888893e-01 4.571088e-01 4.450036e-01 4.770840e-01 5.275002e-01 5.383293e-01 4.698839e-01 4.289441e-01 3.268235e-01 2.073560e-04
<GCONST> 8.267651e+01
<STATE> 3
<MEAN> 39
 -1.853470e+00 5.940076e+00 -1.862973e+00 3.436897e+00 -1.105802e+00 3.004412e+00 -2.374540e+00 1.835693e+00 -1.154830e+00 -1.510919e-01 2.350765e-01 -3.931749e-01 6.931760e-01 -7.254075e-02 -5.615472e-03 -1.430548e-01 -4.284777e-02 -1.050968e-01 -5.070863e-02 -1.306603e-01 -2.410142e-02 -1.148637e-01 1.961216e-02 -1.206472e-01 -3.613733e-02 4.566871e-03 3.664749e-02 -8.358870e-02 7.862139e-02 -6.421771e-02 4.341450e-02 -4.858192e-02 6.336982e-02 -4.480416e-02 2.827868e-02 -2.733296e-03 1.881110e-02 2.432854e-02 -3.172904e-03
<VARIANCE> 39
 5.771184e+00 8.544491e+00 1.457760e+01 1.220815e+01 2.221630e+01 2.922913e+01 2.721920e+01 4.018685e+01 2.999987e+01 4.612310e+01 3.581561e+01 4.189322e+01 1.555995e-02 1.812071e-01 5.386792e-01 6.400855e-01 8.265029e-01 1.046503e+00 1.156972e+00 1.518901e+00 1.654760e+00 1.611105e+00 1.673027e+00 1.597948e+00 1.636467e+00 6.849210e-04 3.316615e-02 9.632198e-02 1.233689e-01 1.588622e-01 2.076716e-01 2.236446e-01 2.856718e-01 3.281534e-01 3.041013e-01 3.082602e-01 3.043028e-01 2.874305e-01 6.524532e-05
<GCONST> 6.787309e+01
<STATE> 4
<MEAN> 39
 -1.799755e+00 3.606954e+00 -2.496519e-01 1.566153e+00 8.291652e-01 1.676598e+00 -5.580459e-01 1.183226e+00 -1.161480e+00 5.229594e-01 -3.700102e-01 -1.599293e-01 5.569667e-01 7.558718e-03 -8.050840e-02 2.856878e-02 -5.140430e-02 2.258443e-02 -4.954522e-02 4.372589e-02 -4.483315e-02 3.538602e-02 -7.292873e-03 3.335439e-02 9.174919e-03 -4.088424e-03 6.057512e-03 -4.163987e-03 1.109096e-02 -5.101961e-03 2.554524e-03 -2.790755e-03 2.820058e-03 -3.123045e-03 1.442940e-02 -6.389348e-03 8.424648e-03 9.681050e-04 -1.552764e-04
<VARIANCE> 39
 3.586403e+00 1.098701e+01 8.301920e+00 1.102816e+01 1.430053e+01 1.575942e+01 1.869484e+01 2.384217e+01 1.779782e+01 2.091660e+01 1.630091e+01 1.709640e+01 3.062084e-02 1.405231e-01 3.898023e-01 5.061235e-01 7.095304e-01 9.214629e-01 9.951133e-01 1.209469e+00 1.363755e+00 1.404459e+00 1.276621e+00 1.185191e+00 1.145563e+00 4.099004e-04 2.684446e-02 6.829316e-02 1.040217e-01 1.408460e-01 1.854077e-01 1.945819e-01 2.391987e-01 2.683056e-01 2.851247e-01 2.510911e-01 2.421594e-01 2.317333e-01 4.434203e-05
<GCONST> 5.689049e+01
<TRANSP> 5
 0.000000e+00 1.000000e+00 0.000000e+00 0.000000e+00 0.000000e+00
 0.000000e+00 8.091249e-01 1.908751e-01 0.000000e+00 0.000000e+00
 0.000000e+00 0.000000e+00 8.047233e-01 1.952767e-01 0.000000e+00
 0.000000e+00 0.000000e+00 0.000000e+00 9.596307e-01 4.036932e-02
 0.000000e+00 0.000000e+00 0.000000e+00 0.000000e+00 0.000000e+00
<ENDHMM>
~h "ling"
<BEGINHMM>
<NUMSTATES> 5
<STATE> 2
<MEAN> 39
 -3.189573e-01 2.500211e+00 2.593306e+00 3.443687e-01 5.199102e-01 1.616660e+00 -6.165594e-01 -4.837190e-01 -1.892799e-01 -9.466124e-01 -6.117322e-01 -3.266890e-01 6.034862e-01 -1.253131e-01 1.043092e+00 8.333721e-02 1.131712e-01 4.146068e-01 2.366984e-01 -2.101335e-01 1.785661e-01 8.409043e-02 -3.090535e-01 -5.765311e-02 -2.229654e-01 2.300524e-02 2.371901e-02 1.368866e-01 -1.094281e-01 1.396817e-01 5.099128e-03 -4.139434e-02 3.626829e-02 8.581123e-02 -8.853456e-03 -1.755206e-03 2.956342e-02 -5.399241e-02 6.172331e-03
<VARIANCE> 39
 4.904550e+00 1.711073e+01 1.572831e+01 1.436819e+01 2.027567e+01 2.624831e+01 2.448451e+01 2.303404e+01 2.759146e+01 2.388525e+01 2.607687e+01 2.288407e+01 3.024511e-02 5.070320e-01 1.895317e+00 1.715687e+00 1.956931e+00 2.215755e+00 3.231476e+00 2.645892e+00 2.912273e+00 3.075756e+00 2.672189e+00 2.606953e+00 2.236886e+00 3.263008e-03 8.577285e-02 2.936470e-01 2.916190e-01 3.616454e-01 4.162619e-01 6.044768e-01 5.236915e-01 5.274406e-01 6.080382e-01 5.247628e-01 4.852967e-01 4.067690e-01 4.484419e-04
<GCONST> 8.777810e+01
<STATE> 3
<MEAN> 39
 -4.363361e-01 8.517546e+00 9.738447e-01 3.701946e+00 1.789813e+00 2.702657e+00 -9.802767e-02 1.129030e+00 7.965084e-02 -1.944043e+00 -5.569287e-01 -2.260903e+00 7.608929e-01 -7.145367e-04 1.327243e-01 -2.774934e-01 3.166794e-01 6.911661e-02 8.466752e-02 2.535847e-01 3.159572e-01 6.988613e-02 3.063069e-01 1.876929e-01 1.092359e-01 -2.218161e-03 1.606535e-02 -3.042244e-01 2.579151e-02 -1.171407e-01 -7.039101e-02 -6.269101e-02 -4.932013e-04 -5.977492e-02 -2.372305e-02 8.053312e-02 -2.201512e-02 1.005658e-01 -8.454604e-03
<VARIANCE> 39
 5.506499e+00 1.306176e+01 1.723438e+01 1.953577e+01 2.469268e+01 3.005155e+01 3.201672e+01 3.772763e+01 3.212812e+01 3.385603e+01 3.195674e+01 2.824957e+01 1.234708e-02 2.387486e-01 1.472966e+00 1.016401e+00 1.615293e+00 1.415359e+00 2.003050e+00 2.283045e+00 2.264186e+00 2.360219e+00 2.153796e+00 2.107090e+00 1.816157e+00 1.077709e-03 4.083629e-02 1.680338e-01 1.880306e-01 2.621882e-01 2.627361e-01 3.685894e-01 4.215164e-01 4.155892e-01 4.320744e-01 4.050319e-01 4.083615e-01 3.293300e-01 1.291143e-04
<GCONST> 7.837933e+01
<STATE> 4
<MEAN> 39
 -7.517159e-01 3.569338e+00 9.470609e-01 1.293594e+00 2.232801e+00 1.481533e+00 1.063254e+00 1.108621e+00 2.627042e-01 4.131224e-01 4.931231e-01 6.060310e-02 5.357481e-01 -9.162380e-03 -2.812137e-01 -2.016362e-02 -1.531512e-01 -5.195521e-02 -1.307946e-01 -1.685990e-02 -9.811506e-02 -4.579554e-02 6.657917e-03 -2.644343e-02 4.170096e-02 -1.048099e-02 2.142134e-03 6.160593e-03 3.302418e-03 -6.311101e-03 -1.583168e-02 5.113955e-04 -1.405389e-02 -1.187030e-02 2.331105e-03 -2.055186e-02 -3.455029e-03 -9.960321e-03 9.586321e-04
<VARIANCE> 39
 4.190048e+00 1.774570e+01 7.986266e+00 1.513339e+01 1.272820e+01 1.681407e+01 1.675637e+01 2.024122e+01 1.827448e+01 1.558847e+01 1.605242e+01 1.366080e+01 2.722872e-02 1.784797e-01 5.780766e-01 6.164911e-01 9.013147e-01 1.056029e+00 1.217968e+00 1.363833e+00 1.592152e+00 1.549582e+00 1.338493e+00 1.356039e+00 1.173902e+00 4.498655e-04 3.158330e-02 9.463668e-02 1.154516e-01 1.683537e-01 2.052782e-01 2.321221e-01 2.638960e-01 3.093078e-01 3.010028e-01 2.653858e-01 2.678335e-01 2.310984e-01 5.937801e-05
<GCONST> 6.072416e+01
<TRANSP> 5
 0.000000e+00 1.000000e+00 0.000000e+00 0.000000e+00 0.000000e+00
 0.000000e+00 8.298182e-01 1.701818e-01 0.000000e+00 0.000000e+00
 0.000000e+00 0.000000e+00 8.185195e-01 1.814805e-01 0.000000e+00
 0.000000e+00 0.000000e+00 0.000000e+00 9.543021e-01 4.569787e-02
 0.000000e+00 0.000000e+00 0.000000e+00 0.000000e+00 0.000000e+00
<ENDHMM>
~h "jiu"
<BEGINHMM>
<NUMSTATES> 5
<STATE> 2
<MEAN> 39
 -2.295430e+00 3.055486e+00 5.934550e-01 1.314178e+00 3.944447e-01 2.300184e+00 -2.957338e-01 9.986094e-01 -2.374313e-02 -4.219547e-01 4.148303e-02 -2.432988e-01 5.905442e-01 4.464003e-02 4.329628e-01 6.092558e-01 -3.267438e-02 7.993197e-02 1.218563e-01 -1.479906e-01 -1.438674e-01 3.685767e-05 -1.951606e-01 -1.362925e-01 -1.246548e-01 2.309488e-02 1.492401e-01 -1.689616e-01 5.948120e-02 -2.188971e-02 -1.305344e-01 -1.586716e-01 -5.652907e-03 -9.920683e-02 -3.978699e-02 7.806791e-04 -2.305257e-02 1.232366e-02 1.442837e-03
<VARIANCE> 39
 9.873764e+00 1.761389e+01 2.460218e+01 1.556806e+01 2.078548e+01 1.858615e+01 1.940705e+01 2.093428e+01 2.227098e+01 2.118147e+01 2.009497e+01 1.777073e+01 3.475272e-02 1.117991e+00 1.705560e+00 3.242059e+00 2.033036e+00 3.021478e+00 2.542650e+00 2.353290e+00 2.865904e+00 2.720858e+00 2.633718e+00 2.619709e+00 2.246848e+00 3.136456e-03 1.431719e-01 3.498270e-01 6.182005e-01 4.063669e-01 6.880012e-01 5.533252e-01 4.865050e-01 5.696576e-01 5.801896e-01 5.428615e-01 5.254980e-01 4.659013e-01 3.155365e-04
<GCONST> 9.063038e+01
<STATE> 3
<MEAN> 39
 4.355701e+00 -1.052492e+00 8.337259e-01 2.885017e+00 -4.186759e+00 -4.145015e+00 -2.322505e+00 -6.469654e-01 -1.383485e-01 -4.183494e-01 -4.962336e-01 1.026588e-01 8.256571e-01 8.446202e-01 -9.256900e-01 -1.443894e+00 2.135372e-01 -1.037821e-01 -1.006363e+00 -3.972555e-01 6.699276e-02 1.503303e-01 3.669097e-01 1.419087e-01 2.990835e-01 -2.051560e-03 -1.243098e-01 1.964537e-01 -2.671007e-01 -1.226145e-01 3.595051e-01 2.605847e-01 -2.941086e-02 4.022683e-02 7.387141e-02 4.196680e-02 3.206561e-02 -1.494725e-02 -5.854911e-03
<VARIANCE> 39
 1.200369e+01 2.073730e+01 5.280579e+01 2.233916e+01 4.142655e+01 5.314064e+01 4.044461e+01 3.537781e+01 3.823763e+01 3.024194e+01 3.630746e+01 2.919344e+01 1.211924e-02 8.565841e-01 2.068175e+00 4.231281e+00 2.694987e+00 5.746044e+00 6.306669e+00 5.350185e+00 5.260561e+00 4.973191e+00 3.754596e+00 3.288214e+00 3.090973e+00 5.966941e-04 7.510012e-02 2.881077e-01 8.110336e-01 5.136288e-01 9.080301e-01 1.190918e+00 1.067212e+00 1.124415e+00 9.947298e-01 8.153463e-01 6.401257e-01 6.006382e-01 6.640457e-05
<GCONST> 1.013578e+02
<STATE> 4
<MEAN> 39
 4.669416e+00 -4.119215e-01 -4.748876e+00 -6.121364e-01 1.365667e+00 -1.296577e+00 -2.108964e+00 -1.388092e+00 -3.342082e-01 7.984077e-01 4.450266e-02 4.860539e-01 6.237308e-01 -3.726328e-01 2.047780e-01 3.834585e-01 -1.506802e-01 1.289767e-01 4.216296e-01 3.601464e-01 -6.177377e-03 -7.991237e-02 -5.218748e-02 2.918403e-02 -6.762879e-02 -1.776663e-02 -5.890536e-02 -1.112414e-02 1.259307e-01 5.198868e-02 -9.068319e-02 -4.042301e-02 5.238805e-02 6.496630e-02 -2.526290e-03 -3.268358e-02 -2.015741e-03 -4.317375e-07 8.044203e-05
<VARIANCE> 39
 2.093334e+01 1.421837e+01 3.631583e+01 2.588790e+01 1.920050e+01 2.996884e+01 3.248885e+01 3.153251e+01 2.846440e+01 1.907948e+01 1.636455e+01 1.405528e+01 4.109494e-02 5.444923e-01 5.811697e-01 1.592003e+00 1.527235e+00 1.538111e+00 2.177941e+00 2.393103e+00 2.360041e+00 2.208656e+00 1.738533e+00 1.561993e+00 1.267446e+00 4.900328e-04 6.638091e-02 9.117074e-02 2.402422e-01 2.360765e-01 2.731839e-01 3.598822e-01 4.342963e-01 4.306706e-01 4.358100e-01 3.451424e-01 3.129712e-01 2.555000e-01 6.143373e-05
<GCONST> 7.704387e+01
<TRANSP> 5
 0.000000e+00 1.000000e+00 0.000000e+00 0.000000e+00 0.000000e+00
 0.000000e+00 9.091010e-01 9.089898e-02 0.000000e+00 0.000000e+00
 0.000000e+00 0.000000e+00 8.753399e-01 1.246601e-01 0.000000e+00
 0.000000e+00 0.000000e+00 0.000000e+00 9.313652e-01 6.863479e-02
 0.000000e+00 0.000000e+00 0.000000e+00 0.000000e+00 0.000000e+00
<ENDHMM>
~h "liu"
<BEGINHMM>
<NUMSTATES> 5
<STATE> 2
<MEAN> 39
 -6.704028e-01 4.188751e+00 4.017958e+00 -6.055852e-01 3.671537e-02 1.708882e+00 -1.478235e+00 -6.793321e-01 -1.466598e-01 -2.074130e+00 -1.010472e+00 -6.927153e-01 7.597595e-01 8.383838e-02 1.816564e-01 2.382201e-01 -2.044291e-01 -3.840505e-01 -2.640901e-01 -3.870058e-01 -3.147904e-01 -2.462469e-01 -1.322941e-01 -2.160483e-01 -2.585547e-02 2.494740e-02 7.927580e-02 -1.620835e-01 -1.070403e-01 5.902677e-02 -1.310202e-01 -1.613131e-01 3.366721e-02 -2.134809e-02 -6.747068e-02 6.032091e-02 -1.588446e-03 4.448185e-03 -6.346901e-04
<VARIANCE> 39
 5.960765e+00 1.915197e+01 2.563954e+01 1.719764e+01 2.793672e+01 3.162182e+01 3.251682e+01 2.853465e+01 3.843577e+01 2.889984e+01 3.645293e+01 3.077632e+01 3.039192e-02 4.967563e-01 1.943183e+00 1.566368e+00 1.521356e+00 2.723997e+00 2.917245e+00 2.552003e+00 2.756740e+00 3.360722e+00 2.547434e+00 2.847413e+00 2.245871e+00 2.125620e-03 7.343959e-02 2.337946e-01 2.901475e-01 3.059455e-01 4.158822e-01 4.806134e-01 4.844159e-01 5.045459e-01 5.726194e-01 4.572338e-01 5.167316e-01 3.978126e-01 3.103177e-04
<GCONST> 8.886289e+01
<STATE> 3
<MEAN> 39
 3.988400e+00 -1.770454e+00 -2.039674e+00 8.224836e-01 -6.458708e+00 -5.087197e+00 -3.256118e+00 -1.555922e+00 -2.280147e+00 -1.236370e+00 -2.546047e+00 -1.590080e+00 8.901992e-01 6.403838e-01 -5.694347e-01 -1.089194e+00 5.368304e-01 3.527707e-01 -3.829183e-01 6.383793e-02 3.790820e-01 3.380995e-01 3.334728e-01 2.079269e-01 9.162485e-02 -6.708473e-03 -6.977436e-02 2.104997e-01 -3.543452e-03 -1.243266e-01 3.373679e-01 2.685283e-01 -2.933876e-02 1.265046e-02 1.298678e-01 -9.347204e-03 4.344229e-02 3.700083e-02 -3.756865e-03
<VARIANCE> 39
 1.357452e+01 2.448574e+01 4.480552e+01 3.119802e+01 5.108197e+01 4.623520e+01 4.614827e+01 4.700631e+01 5.268398e+01 5.079863e+01 6.262660e+01 6.590930e+01 7.085930e-03 7.190570e-01 2.036974e+00 3.447603e+00 2.653838e+00 4.868676e+00 5.872199e+00 5.036958e+00 4.337500e+00 4.672295e+00 3.901364e+00 4.540712e+00 4.662453e+00 4.651297e-04 6.809246e-02 2.286549e-01 4.841488e-01 4.575725e-01 7.721279e-01 9.604458e-01 9.316319e-01 8.632150e-01 8.920590e-01 6.839099e-01 7.483550e-01 6.958494e-01 5.305921e-05
<GCONST> 1.015811e+02
<STATE> 4
<MEAN> 39
 5.008353e+00 -5.147203e-01 -4.445330e+00 6.247465e-01 1.394032e+00 -1.868334e+00 -1.838189e+00 -8.134539e-01 2.863696e-01 1.005368e+00 2.640000e-02 7.061480e-01 6.716437e-01 -4.835661e-01 2.665457e-01 4.947937e-01 -1.980163e-01 2.301996e-01 5.549425e-01 3.722534e-01 -1.267714e-02 -7.079785e-02 -7.716647e-02 5.785592e-02 -7.331774e-04 -2.579734e-02 -9.258472e-02 -2.118071e-02 1.118017e-01 8.710206e-03 -1.268440e-01 -3.637008e-02 4.914108e-02 4.949717e-02 -3.429840e-02 -4.482429e-02 -2.808501e-02 -2.140612e-02 -6.101834e-04
<VARIANCE> 39
 1.857058e+01 1.388639e+01 3.449950e+01 2.608324e+01 2.658916e+01 3.412781e+01 3.272363e+01 3.299577e+01 2.518616e+01 1.863300e+01 1.808630e+01 1.488408e+01 3.846988e-02 6.973825e-01 6.701748e-01 1.697014e+00 1.559301e+00 1.855607e+00 2.503347e+00 2.548789e+00 2.505118e+00 2.061648e+00 1.787065e+00 1.589433e+00 1.383938e+00 6.415684e-04 8.527629e-02 9.893765e-02 2.807191e-01 2.603205e-01 2.977293e-01 4.172383e-01 4.545711e-01 4.635066e-01 4.129184e-01 3.405173e-01 3.085862e-01 2.581006e-01 7.593980e-05
<GCONST> 7.964699e+01
<TRANSP> 5
 0.000000e+00 1.000000e+00 0.000000e+00 0.000000e+00 0.000000e+00
 0.000000e+00 9.109582e-01 8.904175e-02 0.000000e+00 0.000000e+00
 0.000000e+00 0.000000e+00 8.884634e-01 1.115366e-01 0.000000e+00
 0.000000e+00 0.000000e+00 0.000000e+00 9.066067e-01 9.339330e-02
 0.000000e+00 0.000000e+00 0.000000e+00 0.000000e+00 0.000000e+00
<ENDHMM>
~h "san"
<BEGINHMM>
<NUMSTATES> 5
<STATE> 2
<MEAN> 39
 -7.170349e-02 -2.559977e-01 7.914326e-01 3.924248e-01 -3.976658e-01 2.772948e-01 -8.146854e-02 -3.408757e-01 7.298069e-02 9.718251e-02 3.011588e-01 2.037191e-01 4.906682e-01 4.662694e-01 -1.249891e-01 3.257817e-02 -2.103140e-01 -9.488206e-01 -2.692044e-01 -2.059620e-01 -1.881037e-01 6.534975e-02 -5.744139e-02 1.328389e-01 -2.280203e-02 3.554633e-02 8.521976e-02 -1.808670e-01 -1.561938e-01 -1.609422e-01 -2.880076e-01 -2.774222e-02 -7.913943e-03 4.581915e-02 4.123095e-02 -2.988167e-02 -2.442286e-02 -6.460142e-02 1.075369e-02
<VARIANCE> 39
 9.919798e+00 7.882420e+00 8.497144e+00 1.183689e+01 2.254843e+01 1.708333e+01 1.663626e+01 1.663615e+01 1.293357e+01 1.318683e+01 1.308600e+01 1.136111e+01 3.295686e-02 1.448834e+00 1.020725e+00 1.236729e+00 2.113286e+00 4.067250e+00 2.679667e+00 2.634566e+00 2.228909e+00 1.872019e+00 1.908169e+00 1.890909e+00 1.642661e+00 5.191398e-03 2.245114e-01 1.859190e-01 2.786044e-01 3.855513e-01 5.423986e-01 4.585857e-01 4.511499e-01 4.800825e-01 3.907529e-01 4.049358e-01 4.154207e-01 3.466271e-01 4.299921e-04
<GCONST> 8.174730e+01
<STATE> 3
<MEAN> 39
 2.693146e+00 -6.293638e+00 -3.102818e+00 -4.225845e+00 -9.207794e+00 -2.263006e-01 -1.665479e-01 4.529235e-01 9.578215e-01 -1.143954e+00 -4.767379e-01 -2.125031e+00 8.752601e-01 -4.124185e-01 -1.048785e+00 -7.860334e-01 -4.575954e-01 3.244475e-01 5.802365e-01 5.872273e-01 5.065408e-01 -2.505175e-02 -7.132580e-02 -2.717964e-01 -2.423542e-01 1.384270e-02 -1.855589e-01 1.379522e-01 1.644440e-01 2.972787e-01 5.850630e-01 8.849046e-02 9.194310e-02 -4.285071e-02 -7.248127e-02 5.807213e-02 2.393040e-02 1.182025e-01 -1.607022e-02
<VARIANCE> 39
 8.941165e+00 2.120650e+01 2.011825e+01 3.044992e+01 4.020453e+01 5.297076e+01 4.888791e+01 3.176192e+01 2.853026e+01 2.826348e+01 3.674630e+01 3.437796e+01 1.178246e-02 6.841713e-01 2.240600e+00 2.393956e+00 2.773531e+00 4.501583e+00 2.729612e+00 2.820983e+00 3.544929e+00 2.668473e+00 2.714008e+00 3.201807e+00 3.255389e+00 2.120229e-03 1.851009e-01 2.513051e-01 3.829742e-01 4.768424e-01 8.295414e-01 5.498759e-01 6.034968e-01 7.471370e-01 5.200332e-01 5.201538e-01 5.951450e-01 5.494428e-01 1.836947e-04
<GCONST> 9.566615e+01
<STATE> 4
<MEAN> 39
 3.904663e-01 -3.898027e+00 -7.485067e-01 -2.401816e+00 -2.684804e+00 1.690324e+00 6.781043e-01 5.081514e-01 6.644009e-01 -1.074389e-01 -3.557660e-01 -8.902751e-01 6.815434e-01 -8.332279e-02 4.386343e-01 2.818860e-01 1.650148e-01 3.269178e-01 -7.031643e-02 -1.181158e-01 -1.013889e-01 -3.931880e-02 3.120401e-02 -6.970128e-03 7.936953e-02 -1.811286e-02 2.094508e-02 5.471781e-02 6.709798e-03 4.569655e-04 -3.610612e-02 -3.322902e-02 -2.639897e-02 -7.311094e-03 -4.213497e-03 -5.471657e-03 5.780220e-03 -3.755545e-03 -1.601203e-04
<VARIANCE> 39
 6.475786e+00 3.028069e+01 1.604921e+01 1.832056e+01 3.836555e+01 3.040601e+01 3.156626e+01 2.073152e+01 2.116501e+01 1.851631e+01 1.973712e+01 2.247235e+01 4.492592e-02 2.361567e-01 6.867654e-01 6.880322e-01 8.685486e-01 1.481668e+00 1.200798e+00 1.359373e+00 1.413644e+00 1.336177e+00 1.155568e+00 1.102713e+00 9.762273e-01 5.273240e-04 3.813346e-02 9.877489e-02 1.188405e-01 1.512908e-01 2.617368e-01 1.979572e-01 2.414029e-01 2.727177e-01 2.534121e-01 2.238961e-01 2.226984e-01 1.872535e-01 6.950811e-05
<GCONST> 6.610252e+01
<TRANSP> 5
 0.000000e+00 1.000000e+00 0.000000e+00 0.000000e+00 0.000000e+00
 0.000000e+00 8.807479e-01 1.192521e-01 0.000000e+00 0.000000e+00
 0.000000e+00 0.000000e+00 8.308107e-01 1.691893e-01 0.000000e+00
 0.000000e+00 0.000000e+00 0.000000e+00 9.443487e-01 5.565134e-02
 0.000000e+00 0.000000e+00 0.000000e+00 0.000000e+00 0.000000e+00
<ENDHMM>
~h "sil"
<BEGINHMM>
<NUMSTATES> 5
<STATE> 2
<MEAN> 39
 -1.390083e+00 -3.454103e-01 7.294647e-01 -7.128927e-01 1.565086e+00 -3.137361e-01 1.922010e-02 -5.354428e-01 -2.740462e-01 3.153391e-01 2.739081e-01 5.575741e-01 3.165177e-01 -9.155011e-03 5.862992e-04 3.329197e-03 2.221502e-02 1.197158e-03 3.908790e-03 1.010724e-02 6.114592e-03 8.257520e-03 4.217022e-03 -1.304268e-03 1.172626e-02 -8.570896e-04 3.891812e-03 6.865117e-04 1.660557e-03 1.088171e-03 -3.725305e-03 2.312444e-03 1.622148e-03 -3.208940e-04 -2.748023e-03 -3.198908e-03 1.103258e-03 -8.107674e-04 3.067350e-04
<VARIANCE> 39
 2.266491e+00 4.836824e+00 5.395839e+00 7.232288e+00 8.740009e+00 1.165720e+01 1.295161e+01 1.329470e+01 1.425990e+01 1.229750e+01 1.127490e+01 9.732903e+00 7.147232e-03 1.230525e-01 2.744153e-01 5.082933e-01 7.834368e-01 8.784311e-01 1.185257e+00 1.273788e+00 1.420585e+00 1.709187e+00 1.302373e+00 1.294576e+00 1.098876e+00 8.403171e-05 2.555381e-02 5.571472e-02 1.061904e-01 1.669450e-01 1.809893e-01 2.427643e-01 2.455233e-01 2.877553e-01 3.666677e-01 2.652928e-01 2.783799e-01 2.258903e-01 1.288064e-05
<GCONST> 4.780638e+01
<STATE> 3
~s "silst"
<STATE> 4
<MEAN> 39
 -1.521509e+00 -5.205960e-01 6.940324e-01 -8.178789e-01 1.613744e+00 -2.935881e-01 4.845068e-01 -4.407098e-01 -4.773456e-01 4.592367e-02 4.532328e-01 3.266758e-01 3.506152e-01 -1.299670e-02 2.411541e-02 -4.444343e-02 2.149900e-03 -6.276970e-02 5.768807e-02 3.596835e-03 4.432185e-02 6.890601e-03 2.126146e-02 2.248772e-02 -2.093562e-02 7.959566e-03 2.499080e-02 4.259752e-02 1.261849e-02 2.016550e-02 -3.045659e-02 9.832090e-03 -1.211655e-02 2.458081e-02 1.470514e-03 7.120288e-03 -1.070719e-03 -2.044573e-04 3.889432e-03
<VARIANCE> 39
 4.266763e+00 6.949082e+00 6.820165e+00 8.445947e+00 1.241957e+01 1.134996e+01 1.332985e+01 1.361959e+01 1.433496e+01 1.222503e+01 1.110783e+01 1.016985e+01 1.376879e-02 2.345399e-01 4.819966e-01 6.040915e-01 8.724661e-01 1.187887e+00 1.084699e+00 1.396462e+00 1.554412e+00 1.645105e+00 1.363768e+00 1.226905e+00 1.085367e+00 5.136994e-04 5.393747e-02 1.068579e-01 1.225139e-01 1.620451e-01 2.508707e-01 2.148194e-01 2.733845e-01 3.196459e-01 3.281288e-01 2.625902e-01 2.376580e-01 2.084821e-01 1.242805e-04
<GCONST> 5.772379e+01
<TRANSP> 5
 0.000000e+00 1.000000e+00 0.000000e+00 0.000000e+00 0.000000e+00
 0.000000e+00 7.769790e-01 2.302103e-02 2.000000e-01 0.000000e+00
 0.000000e+00 0.000000e+00 9.569204e-01 4.307960e-02 0.000000e+00
 0.000000e+00 2.000000e-01 0.000000e+00 6.184790e-01 1.815210e-01
 0.000000e+00 0.000000e+00 0.000000e+00 0.000000e+00 0.000000e+00
<ENDHMM>
