~o
<STREAMINFO> 1 39
<VECSIZE> 39<NULLD><MFCC_E_D_A_Z><DIAGC>
~s "silst"
<MEAN> 39
 -1.681759e+00 1.818264e-01 1.098648e+00 -3.894785e-01 1.625025e+00 2.047099e-01 5.713693e-01 -7.885792e-01 -4.780196e-01 2.704148e-01 3.122050e-01 4.642921e-01 3.459125e-01 -7.642198e-02 -2.163943e-02 1.347180e-02 -2.823792e-03 2.044289e-02 -3.834299e-02 -8.976356e-02 -3.262466e-02 -5.729528e-02 -2.678225e-02 -9.052825e-03 5.571085e-03 -3.252311e-03 2.232144e-02 5.945275e-03 -2.118267e-02 -4.389075e-03 -1.771573e-02 -4.204850e-03 -1.858231e-02 2.558141e-02 3.443803e-02 1.053629e-02 3.574011e-03 -4.774315e-03 2.374607e-03
<VARIANCE> 39
 2.449544e+00 4.638134e+00 6.412565e+00 8.190483e+00 1.056884e+01 1.074000e+01 1.326010e+01 1.382833e+01 1.482934e+01 1.259611e+01 1.285964e+01 1.005583e+01 4.478364e-03 1.632506e-01 3.881181e-01 7.300121e-01 8.725100e-01 1.217072e+00 1.118758e+00 1.409435e+00 1.541903e+00 1.927835e+00 1.548950e+00 1.714353e+00 1.109867e+00 1.914165e-04 3.586282e-02 8.280492e-02 1.620766e-01 1.887434e-01 2.600397e-01 2.304659e-01 2.773254e-01 3.170648e-01 4.187860e-01 3.329313e-01 3.959968e-01 2.374126e-01 3.550903e-05
<GCONST> 5.461442e+01
~h "ba"
<BEGINHMM>
<NUMSTATES> 5
<STATE> 2
<MEAN> 39
 -2.902080e-01 7.056490e-01 7.277958e-01 -7.077110e-01 1.533175e+00 -5.570114e-01 -5.813373e-02 -3.204327e-01 -2.808788e-01 1.511550e-01 2.905274e-01 3.286048e-01 4.413632e-01 5.037414e-01 -6.412650e-01 -6.381778e-01 -1.410675e-01 -4.047409e-01 -4.941170e-01 5.112372e-02 9.405001e-02 3.239751e-01 1.009535e-01 -2.177951e-02 7.318030e-02 2.705290e-02 2.233026e-01 -3.625103e-01 -3.885655e-01 1.229632e-02 -2.381968e-01 -8.942564e-02 8.615749e-02 5.582676e-02 1.193421e-01 -3.890057e-02 -8.414244e-02 -6.336331e-02 1.950894e-02
<VARIANCE> 39
 9.317536e+00 9.768374e+00 1.244894e+01 9.806852e+00 1.297641e+01 1.587761e+01 1.513105e+01 1.607001e+01 1.445424e+01 1.222093e+01 1.269187e+01 1.071192e+01 3.218770e-02 2.212723e+00 2.101463e+00 3.021988e+00 1.278794e+00 2.536227e+00 2.835896e+00 2.291224e+00 2.238709e+00 2.201430e+00 1.708757e+00 1.677803e+00 1.433693e+00 8.120144e-03 2.496430e-01 2.891410e-01 3.552456e-01 2.474334e-01 3.756472e-01 4.762592e-01 4.448954e-01 4.604548e-01 4.326957e-01 3.414878e-01 3.441017e-01 3.109563e-01 6.026906e-04
<GCONST> 8.242326e+01
<STATE> 3
<MEAN> 39
 4.763103e+00 -9.930902e+00 -9.231812e+00 -7.491348e-01 -4.168133e+00 -3.071259e+00 2.283131e+00 6.447892e-01 3.074717e+00 -8.197540e-01 -1.432834e+00 -1.006416e+00 9.023451e-01 -2.527669e-01 -2.065395e+00 -1.314219e+00 5.108782e-01 -1.397220e-01 4.756454e-01 5.744671e-01 5.493482e-02 2.774610e-01 -5.185937e-01 -3.882146e-01 -3.554318e-01 5.740463e-02 -5.031689e-01 4.539530e-01 6.422695e-01 1.941355e-01 4.609954e-01 3.055163e-01 -1.348530e-01 -6.936574e-02 -2.384975e-01 -4.045634e-03 9.807502e-02 7.051313e-02 -2.851201e-02
<VARIANCE> 39
 1.233467e+01 1.811166e+01 1.879641e+01 1.480107e+01 2.034596e+01 5.693245e+01 3.360072e+01 3.688099e+01 2.258275e+01 2.239770e+01 2.313891e+01 2.758073e+01 5.839332e-03 1.733922e+00 1.759486e+00 3.140791e+00 1.600891e+00 2.886765e+00 3.777727e+00 3.803995e+00 3.381521e+00 2.584269e+00 2.442413e+00 2.441094e+00 2.762109e+00 3.203907e-03 3.010836e-01 2.253386e-01 2.487880e-01 2.160077e-01 4.682259e-01 8.265974e-01 7.278915e-01 5.599871e-01 4.414672e-01 4.707613e-01 4.045518e-01 4.381007e-01 1.838665e-04
<GCONST> 9.075129e+01
<STATE> 4
<MEAN> 39
 2.160321e+00 -1.257869e+01 -8.233216e+00 2.567348e+00 -2.331747e+00 -8.005785e-01 2.626646e+00 1.496362e+00 2.497487e+00 -1.523438e+00 -1.319826e+00 -7.796423e-01 8.757111e-01 -2.518392e-02 2.119499e-01 2.477828e-01 -7.828724e-02 -6.461118e-02 6.065914e-02 -3.367748e-02 -9.697298e-03 -7.394088e-02 6.223468e-02 5.452619e-02 1.254136e-02 -1.021322e-02 3.146210e-02 1.266627e-01 4.935825e-02 -9.562932e-02 -4.204755e-02 -2.228188e-02 -2.707343e-02 -1.897081e-02 -1.363910e-02 2.793428e-02 7.557019e-03 1.593764e-03 -2.122422e-03
<VARIANCE> 39
 1.034032e+01 9.977797e+00 3.185617e+01 1.953943e+01 1.603533e+01 2.962006e+01 2.144429e+01 2.368959e+01 1.992904e+01 2.064441e+01 2.224865e+01 2.355379e+01 1.158907e-02 1.452770e-01 3.950121e-01 4.445298e-01 6.220096e-01 5.785795e-01 6.199978e-01 6.157629e-01 6.351278e-01 6.201156e-01 6.699411e-01 6.135082e-01 5.550098e-01 2.055732e-04 2.497222e-02 4.613785e-02 6.123342e-02 7.202835e-02 9.307449e-02 1.091624e-01 1.198511e-01 1.154129e-01 1.108372e-01 1.167026e-01 1.098769e-01 1.021712e-01 1.561090e-05
<GCONST> 4.544678e+01
<TRANSP> 5
 0.000000e+00 1.000000e+00 0.000000e+00 0.000000e+00 0.000000e+00
 0.000000e+00 8.608428e-01 1.391572e-01 0.000000e+00 0.000000e+00
 0.000000e+00 0.000000e+00 7.672659e-01 2.327340e-01 0.000000e+00
 0.000000e+00 0.000000e+00 0.000000e+00 9.426954e-01 5.730456e-02
 0.000000e+00 0.000000e+00 0.000000e+00 0.000000e+00 0.000000e+00
<ENDHMM>
~h "er"
<BEGINHMM>
<NUMSTATES> 5
<STATE> 2
<MEAN> 39
 1.906018e+00 -1.759630e+00 -1.379136e+00 -8.535020e-01 -3.175426e+00 -3.082919e+00 -1.591266e-01 5.844440e-01 6.579524e-01 1.966568e-01 2.345178e-01 3.899078e-01 5.873991e-01 5.584009e-01 -9.072375e-01 -4.717155e-01 -1.126492e-01 -1.116948e+00 -7.427159e-01 -2.223225e-02 7.463773e-02 8.107236e-02 -2.439310e-03 -1.463796e-02 6.109048e-02 3.846289e-02 1.536928e-02 -5.024890e-02 -1.578936e-02 2.795101e-02 -3.135870e-02 2.035421e-02 -2.634514e-02 -3.841959e-02 -4.499115e-02 -2.460308e-02 -4.465464e-02 -2.918667e-02 6.211575e-03
<VARIANCE> 39
 1.235256e+01 2.503867e+01 2.354047e+01 1.814179e+01 4.177406e+01 4.470875e+01 3.716955e+01 3.173413e+01 2.540554e+01 1.975238e+01 2.016347e+01 1.656515e+01 4.036170e-02 1.140889e+00 1.600205e+00 2.007844e+00 1.953400e+00 3.728556e+00 4.071568e+00 3.813845e+00 3.958908e+00 3.151255e+00 2.598319e+00 2.671722e+00 2.261941e+00 4.027144e-03 1.991155e-01 2.718703e-01 3.130656e-01 2.864217e-01 6.965469e-01 6.899976e-01 6.771449e-01 7.262034e-01 5.977029e-01 4.854991e-01 4.895482e-01 4.275585e-01 4.755919e-04
<GCONST> 9.546091e+01
<STATE> 3
<MEAN> 39
 3.608032e+00 -8.001522e+00 -1.076362e+00 -4.960356e+00 -1.041693e+01 -1.926510e+00 -3.514914e-01 -6.934041e-01 -6.996613e-01 -1.622859e+00 -4.121704e+00 -3.463827e+00 9.114730e-01 8.511368e-03 2.335251e-01 4.370708e-01 8.764870e-03 1.791286e-01 1.088123e-01 -2.716244e-01 -5.400709e-02 1.318678e-01 8.617104e-02 1.113106e-01 -6.562872e-03 5.448833e-03 -3.437594e-02 1.430490e-01 5.425574e-02 5.913269e-02 1.764481e-01 5.439474e-02 2.949323e-02 5.789917e-02 6.516454e-02 5.694609e-02 9.869103e-02 9.996787e-02 -6.626890e-03
<VARIANCE> 39
 7.144603e+00 1.764590e+01 3.484708e+01 4.535825e+01 2.535914e+01 3.526257e+01 3.562693e+01 4.045428e+01 4.184930e+01 5.263590e+01 7.393139e+01 8.431423e+01 5.649211e-03 2.036948e-01 6.380176e-01 7.472079e-01 8.527753e-01 1.207068e+00 1.274841e+00 1.534705e+00 1.943872e+00 2.478230e+00 3.437895e+00 4.562491e+00 5.095649e+00 6.225083e-04 4.307965e-02 7.351228e-02 1.060591e-01 1.285826e-01 2.023001e-01 2.252652e-01 2.691621e-01 3.175980e-01 3.879173e-01 5.357034e-01 6.981272e-01 6.952463e-01 6.116620e-05
<GCONST> 7.855382e+01
<STATE> 4
<MEAN> 39
 4.948408e+00 -3.883585e+00 -3.852380e-01 1.010210e+00 -6.599210e+00 -6.212482e+00 -2.303884e+00 2.319753e-01 4.843197e-01 -2.005152e-01 6.788284e-01 1.214175e+00 8.361369e-01 -1.599871e-01 2.979381e-01 2.987304e-01 9.286417e-02 2.864366e-01 2.939127e-01 7.152259e-02 -1.119642e-01 -1.446837e-01 -5.910812e-02 -6.286209e-02 -4.738300e-02 -1.368271e-02 -4.717662e-02 2.144347e-02 -4.825417e-03 -1.121730e-02 6.236338e-02 5.262780e-02 2.828341e-02 -8.607516e-03 -3.884003e-03 2.427533e-03 -2.253478e-02 -3.996180e-02 -3.234178e-03
<VARIANCE> 39
 6.327569e+00 1.275238e+01 4.134658e+01 3.292214e+01 3.172677e+01 5.069726e+01 3.515925e+01 2.179950e+01 2.754520e+01 2.627213e+01 1.938202e+01 1.702239e+01 1.782332e-02 2.177079e-01 3.618505e-01 6.443012e-01 6.469156e-01 9.847656e-01 1.094361e+00 1.133720e+00 1.011074e+00 1.093057e+00 1.060389e+00 9.484926e-01 1.053797e+00 4.726687e-04 2.837494e-02 4.643302e-02 7.962800e-02 9.130660e-02 1.267442e-01 1.611581e-01 1.685094e-01 1.729717e-01 1.841545e-01 1.829547e-01 1.623409e-01 1.750607e-01 2.880648e-05
<GCONST> 5.856152e+01
<TRANSP> 5
 0.000000e+00 1.000000e+00 0.000000e+00 0.000000e+00 0.000000e+00
 0.000000e+00 8.674022e-01 1.325978e-01 0.000000e+00 0.000000e+00
 0.000000e+00 0.000000e+00 8.465900e-01 1.534100e-01 0.000000e+00
 0.000000e+00 0.000000e+00 0.000000e+00 9.298497e-01 7.015029e-02
 0.000000e+00 0.000000e+00 0.000000e+00 0.000000e+00 0.000000e+00
<ENDHMM>
~h "qi"
<BEGINHMM>
<NUMSTATES> 5
<STATE> 2
<MEAN> 39
 -1.360168e+00 -4.482771e-01 8.766568e-02 2.441233e-01 6.727057e-01 4.008191e-01 2.330801e-01 3.367000e-01 4.928905e-03 6.251213e-01 2.740451e-01 6.626909e-01 4.294144e-01 -2.462917e-01 -2.042846e-02 -3.416339e-01 1.450636e-01 -1.226452e-01 -6.509790e-03 -1.281608e-01 8.528136e-02 -1.113311e-02 1.857996e-02 -1.219149e-02 3.688911e-02 -4.892443e-03 2.444403e-02 4.821577e-02 -2.833357e-02 6.817868e-02 -6.259661e-02 2.349845e-02 -1.164317e-02 1.387084e-02 2.095319e-02 -2.676203e-02 -6.526552e-03 -2.920282e-02 6.970780e-03
<VARIANCE> 39
 4.021493e+00 6.728711e+00 9.018315e+00 1.044079e+01 1.459873e+01 1.253462e+01 1.471037e+01 1.400255e+01 1.376974e+01 1.300604e+01 1.256426e+01 1.178464e+01 1.547759e-02 3.610739e-01 7.495813e-01 1.003110e+00 1.379798e+00 1.776888e+00 1.512719e+00 1.747925e+00 1.708882e+00 1.739551e+00 1.551739e+00 1.538754e+00 1.415464e+00 1.980684e-03 6.033033e-02 1.277923e-01 1.779127e-01 2.581387e-01 3.285697e-01 2.993814e-01 3.397458e-01 3.509373e-01 3.570752e-01 3.142663e-01 3.036922e-01 2.768384e-01 1.904823e-04
<GCONST> 6.710184e+01
<STATE> 3
<MEAN> 39
 -2.558926e+00 2.044117e+00 -2.373015e+00 2.793203e+00 -1.216418e+00 2.071776e+00 -9.683451e-01 1.375031e+00 4.459178e-01 -3.386886e-01 6.001556e-01 -1.477335e-01 6.232197e-01 3.421238e-02 6.254050e-01 1.526827e-01 4.364901e-02 1.456341e-01 1.319969e-01 -4.985934e-02 -1.414287e-02 -3.178275e-02 -1.825674e-01 1.452959e-03 -1.376589e-01 2.333082e-02 -3.845228e-03 1.426997e-02 3.557039e-02 -5.684990e-02 4.025678e-02 -3.469309e-02 -5.099608e-04 -2.954662e-02 -4.282167e-02 -2.815620e-04 -1.571987e-02 -2.010386e-03 -1.937648e-03
<VARIANCE> 39
 7.279480e+00 1.221994e+01 1.066238e+01 9.343388e+00 1.394956e+01 1.936333e+01 1.750036e+01 2.045846e+01 2.023153e+01 1.928931e+01 1.915428e+01 1.731479e+01 1.419319e-02 5.559691e-01 7.841746e-01 1.149010e+00 1.020382e+00 1.524506e+00 1.734522e+00 1.776165e+00 2.253453e+00 1.883923e+00 2.076793e+00 1.958348e+00 1.905482e+00 7.431206e-04 1.001532e-01 1.427171e-01 2.053486e-01 1.868458e-01 2.903678e-01 3.066906e-01 3.370327e-01 3.878897e-01 3.623870e-01 3.795928e-01 3.489922e-01 3.455581e-01 1.211824e-04
<GCONST> 7.184784e+01
<STATE> 4
<MEAN> 39
 -2.108431e+00 6.394970e+00 -1.459166e-01 2.429959e+00 1.250502e+00 2.272776e+00 -6.612645e-01 1.296114e+00 -4.438148e-01 -4.027588e-01 2.667885e-01 -6.309885e-01 7.072718e-01 3.831186e-02 -1.520209e-01 6.326198e-02 -6.888095e-02 7.226209e-02 -6.825222e-02 8.103728e-02 -3.731202e-02 -1.863759e-02 6.471556e-02 9.868173e-03 4.763553e-02 -8.430033e-03 1.511241e-02 -8.737076e-02 1.856176e-02 -2.757272e-02 4.390074e-04 -1.384309e-02 1.056062e-02 -7.610071e-03 1.532851e-02 1.107635e-02 9.966851e-03 2.155473e-02 -3.240447e-03
<VARIANCE> 39
 5.200746e+00 6.907338e+00 1.222350e+01 9.999616e+00 1.658409e+01 2.989643e+01 2.082621e+01 3.900731e+01 2.331522e+01 3.190557e+01 3.747100e+01 2.729425e+01 1.348730e-02 1.249663e-01 3.789934e-01 4.119080e-01 5.782607e-01 7.160058e-01 8.924167e-01 9.793137e-01 1.144678e+00 1.145697e+00 1.117024e+00 1.131682e+00 9.852983e-01 3.181858e-04 2.422220e-02 5.975188e-02 8.595423e-02 1.131635e-01 1.451644e-01 1.825003e-01 1.917656e-01 2.266552e-01 2.265588e-01 2.169345e-01 2.317830e-01 1.974403e-01 2.898539e-05
<GCONST> 5.520765e+01
<TRANSP> 5
 0.000000e+00 1.000000e+00 0.000000e+00 0.000000e+00 0.000000e+00
 0.000000e+00 8.961704e-01 1.038296e-01 0.000000e+00 0.000000e+00
 0.000000e+00 0.000000e+00 9.010115e-01 9.898858e-02 0.000000e+00
 0.000000e+00 0.000000e+00 0.000000e+00 9.368741e-01 6.312589e-02
 0.000000e+00 0.000000e+00 0.000000e+00 0.000000e+00 0.000000e+00
<ENDHMM>
~h "si"
<BEGINHMM>
<NUMSTATES> 5
<STATE> 2
<MEAN> 39
 -1.376528e+00 -1.316489e+00 -5.341236e-01 5.031780e-04 1.428287e-01 8.239032e-01 -2.990449e-01 7.002530e-01 2.848705e-01 2.884975e-02 2.327861e-01 2.833110e-01 4.658723e-01 3.211947e-03 2.897715e-02 1.617651e-01 8.519537e-02 -5.034704e-02 9.358490e-02 6.746427e-02 -1.464113e-02 1.251139e-02 -7.706802e-03 4.040885e-02 -4.365637e-03 5.828921e-03 6.706413e-02 3.271597e-02 9.473944e-02 6.842118e-02 -6.627192e-02 1.789373e-02 2.109830e-02 -5.354315e-02 -1.541831e-02 -3.377370e-02 -3.470694e-02 -3.528379e-02 6.493681e-03
<VARIANCE> 39
 6.068375e+00 7.488019e+00 8.238867e+00 9.196859e+00 1.287515e+01 1.509407e+01 1.641917e+01 1.412816e+01 1.386835e+01 1.350051e+01 1.241147e+01 1.110771e+01 1.353182e-02 5.307373e-01 6.895737e-01 1.070447e+00 1.303484e+00 1.348064e+00 1.638403e+00 2.351586e+00 1.805169e+00 1.760869e+00 1.670112e+00 1.566306e+00 1.423403e+00 1.514602e-03 7.399929e-02 1.093208e-01 1.803057e-01 2.387496e-01 2.819398e-01 3.118577e-01 4.504077e-01 3.690794e-01 3.619545e-01 3.478061e-01 3.292008e-01 2.963452e-01 1.263955e-04
<GCONST> 6.778341e+01
<STATE> 3
<MEAN> 39
 5.031196e-01 6.397143e-01 3.030264e+00 -8.798549e-03 -2.933275e+00 3.955877e-01 -4.433782e+00 -1.282595e+00 -3.921395e+00 -3.812105e+00 -2.429099e+00 -2.347587e+00 7.407333e-01 1.715714e-01 2.980088e-01 4.615377e-01 3.225135e-01 -1.821274e-01 2.023387e-01 6.560235e-02 -1.239756e-01 7.921816e-03 -8.763476e-02 -2.468941e-01 -3.990903e-01 2.190496e-02 -6.166953e-02 2.837540e-03 -7.503421e-02 -7.233479e-03 1.290013e-01 7.237109e-02 1.085677e-01 1.223785e-01 1.702561e-01 1.719384e-01 1.356667e-01 1.349117e-01 -6.981387e-03
<VARIANCE> 39
 4.607178e+00 9.810853e+00 9.479458e+00 3.681511e+01 2.195544e+01 2.482942e+01 8.042398e+01 2.437839e+01 4.170329e+01 3.728145e+01 4.996984e+01 5.396474e+01 1.274494e-02 2.943557e-01 4.485900e-01 7.641678e-01 1.505631e+00 1.854037e+00 1.680455e+00 3.515013e+00 2.073507e+00 2.831261e+00 2.776231e+00 3.314622e+00 3.228606e+00 1.136647e-03 5.253018e-02 7.721268e-02 1.240508e-01 2.195770e-01 2.455812e-01 2.576348e-01 4.373202e-01 3.181275e-01 3.681497e-01 3.793600e-01 4.874945e-01 4.901161e-01 5.825058e-05
<GCONST> 7.800821e+01
<STATE> 4
<MEAN> 39
 4.594837e-01 2.174601e+00 6.059281e+00 4.060221e+00 -1.422047e+00 5.598993e+00 3.398715e+00 -9.625038e-01 3.509533e+00 8.777229e-01 3.546212e-01 -2.384342e-01 6.939169e-01 -7.235221e-02 2.535595e-02 -1.677141e-01 -2.077022e-01 2.125098e-01 -6.531081e-02 -9.397746e-02 7.673550e-02 -1.316115e-03 5.657492e-02 9.673485e-02 2.115942e-01 -1.414932e-02 -2.977524e-02 -5.677829e-02 -1.143820e-01 -8.533672e-02 -2.287679e-03 -1.335942e-01 -1.009445e-01 -3.029880e-02 -1.178625e-01 -6.714296e-02 -4.013636e-02 -3.185778e-02 -4.221804e-03
<VARIANCE> 39
 3.812402e+00 8.092771e+00 6.745744e+00 1.528631e+01 2.701121e+01 2.799573e+01 4.728149e+01 3.704280e+01 2.830078e+01 1.996319e+01 1.713627e+01 1.480963e+01 1.886043e-02 1.913043e-01 3.674561e-01 6.286558e-01 8.744150e-01 1.269073e+00 1.694040e+00 1.928640e+00 1.793304e+00 1.753124e+00 1.532475e+00 1.411669e+00 1.332995e+00 6.928020e-04 3.060177e-02 5.548339e-02 9.847616e-02 1.511452e-01 2.224545e-01 2.678446e-01 3.073162e-01 3.077460e-01 2.876972e-01 2.708732e-01 2.498492e-01 2.314795e-01 5.068393e-05
<GCONST> 6.378339e+01
<TRANSP> 5
 0.000000e+00 1.000000e+00 0.000000e+00 0.000000e+00 0.000000e+00
 0.000000e+00 9.131766e-01 8.682339e-02 0.000000e+00 0.000000e+00
 0.000000e+00 0.000000e+00 8.565698e-01 1.434301e-01 0.000000e+00
 0.000000e+00 0.000000e+00 0.000000e+00 9.148259e-01 8.517413e-02
 0.000000e+00 0.000000e+00 0.000000e+00 0.000000e+00 0.000000e+00
<ENDHMM>
~h "sp"
<BEGINHMM>
<NUMSTATES> 3
<STATE> 2
~s "silst"
<TRANSP> 3
 0.000000e+00 4.314914e-01 5.685086e-01
 0.000000e+00 9.222095e-01 7.779052e-02
 0.000000e+00 0.000000e+00 0.000000e+00
<ENDHMM>
~h "wu"
<BEGINHMM>
<NUMSTATES> 5
<STATE> 2
<MEAN> 39
 3.671780e+00 1.570224e+00 -1.492418e+00 -2.012889e+00 -7.266731e-01 -1.505189e+00 -6.348169e-01 -9.871309e-01 -1.898832e+00 -2.232614e+00 -2.619138e+00 -2.185433e+00 6.460251e-01 4.291492e-01 5.566816e-01 2.531718e-01 -2.577849e-01 6.449918e-02 1.416400e-01 3.114811e-01 2.961980e-01 1.917900e-01 8.145462e-02 -1.999412e-02 -8.966566e-02 7.252438e-03 2.252666e-02 4.228907e-02 3.609841e-02 3.110226e-02 -1.364945e-02 5.325595e-02 8.432499e-02 1.238774e-01 1.283696e-01 1.113268e-01 9.283425e-02 7.925406e-02 1.789298e-03
<VARIANCE> 39
 1.874270e+01 2.648261e+01 2.637938e+01 2.453662e+01 2.690363e+01 2.512309e+01 2.761061e+01 2.682594e+01 3.063605e+01 3.889811e+01 4.768905e+01 5.090404e+01 4.220443e-02 1.278368e+00 1.740281e+00 1.739351e+00 1.955113e+00 2.657214e+00 2.564805e+00 2.948597e+00 3.092615e+00 3.233845e+00 3.332399e+00 3.376894e+00 3.175972e+00 2.513597e-03 1.780185e-01 2.322323e-01 2.711821e-01 3.589037e-01 4.606177e-01 4.656688e-01 5.329529e-01 5.540864e-01 5.924664e-01 5.967954e-01 5.831419e-01 5.551370e-01 2.246070e-04
<GCONST> 9.526695e+01
<STATE> 3
<MEAN> 39
 6.139469e+00 4.406534e+00 1.644519e-01 -6.325173e-01 2.372310e+00 2.959280e+00 4.861938e+00 4.387275e+00 2.911222e+00 1.565655e+00 3.995046e-01 1.042594e-01 7.220566e-01 -1.025588e-01 4.698698e-02 2.466265e-01 1.128548e-01 -8.933672e-02 -3.051494e-02 1.406903e-01 3.100137e-01 3.822594e-01 3.228185e-01 2.453154e-01 1.901896e-01 -3.097042e-03 -1.185633e-01 -8.597446e-02 -2.314671e-02 -1.178256e-02 -6.101544e-02 -1.137049e-01 -1.875595e-01 -1.783590e-01 -1.190384e-01 -5.168985e-02 -3.309430e-02 -3.002463e-02 -3.637354e-03
<VARIANCE> 39
 1.085444e+01 1.339937e+01 1.829568e+01 3.150056e+01 3.151369e+01 3.003756e+01 2.876894e+01 2.529447e+01 2.168469e+01 1.946975e+01 1.663582e+01 1.513944e+01 1.537846e-02 7.491649e-01 1.112752e+00 1.885573e+00 2.907988e+00 3.215653e+00 3.114959e+00 3.264201e+00 3.034155e+00 2.581732e+00 2.119452e+00 1.793835e+00 1.702639e+00 8.686045e-04 8.445363e-02 1.839105e-01 3.290145e-01 5.797755e-01 6.032614e-01 6.216944e-01 6.298568e-01 5.681386e-01 4.859039e-01 4.154695e-01 3.479706e-01 3.324912e-01 8.299589e-05
<GCONST> 8.475684e+01
<STATE> 4
<MEAN> 39
 4.144361e+00 5.123082e+00 2.030016e+00 -1.959234e+00 -6.333995e-01 -3.445042e-01 2.164495e+00 3.067438e+00 3.239594e+00 2.986717e+00 1.510850e+00 7.131006e-01 6.287461e-01 -2.107168e-01 -1.884607e-01 -2.479544e-02 5.040329e-02 9.676993e-02 3.130146e-02 -7.498413e-02 -1.577260e-01 -1.410763e-01 -8.594461e-02 -1.431573e-02 2.881975e-02 -9.519719e-03 -2.112641e-02 -4.927534e-02 -5.008034e-02 6.941106e-03 4.968343e-02 3.915130e-02 -7.420260e-03 -5.123014e-02 -6.530888e-02 -6.234435e-02 -3.382550e-02 -1.635625e-02 -1.164524e-03
<VARIANCE> 39
 9.225072e+00 7.659042e+00 8.635399e+00 1.136080e+01 1.497970e+01 1.763402e+01 1.999876e+01 1.987157e+01 1.684857e+01 1.700071e+01 1.623011e+01 1.305681e+01 1.659560e-02 2.828549e-01 3.977055e-01 5.810845e-01 8.704029e-01 1.166569e+00 1.307771e+00 1.530614e+00 1.618079e+00 1.723631e+00 1.572643e+00 1.484710e+00 1.227124e+00 3.912246e-04 3.763852e-02 6.406645e-02 1.100513e-01 1.656676e-01 2.199229e-01 2.358020e-01 3.040203e-01 3.134827e-01 3.444549e-01 2.984344e-01 2.954603e-01 2.424075e-01 3.170762e-05
<GCONST> 6.059887e+01
<TRANSP> 5
 0.000000e+00 1.000000e+00 0.000000e+00 0.000000e+00 0.000000e+00
 0.000000e+00 8.575739e-01 1.424260e-01 0.000000e+00 0.000000e+00
 0.000000e+00 0.000000e+00 8.439426e-01 1.560574e-01 0.000000e+00
 0.000000e+00 0.000000e+00 0.000000e+00 9.298592e-01 7.014087e-02
 0.000000e+00 0.000000e+00 0.000000e+00 0.000000e+00 0.000000e+00
<ENDHMM>
~h "yi"
<BEGINHMM>
<NUMSTATES> 5
<STATE> 2
<MEAN> 39
 -5.300837e-01 2.400394e+00 9.989306e-01 1.077254e+00 9.059461e-01 1.535888e+00 5.474992e-01 6.946889e-01 1.441662e-01 4.085909e-01 5.697386e-01 1.110419e-01 5.534705e-01 -3.730360e-01 8.215317e-01 -1.801079e-01 3.384253e-01 1.098917e-01 3.779520e-01 -2.518707e-01 2.426471e-01 -9.382102e-02 8.423437e-02 -3.202331e-02 -3.674425e-03 7.299216e-03 2.411490e-02 -6.283127e-02 -1.326598e-01 1.578060e-02 -9.482058e-02 -7.679930e-02 -8.378568e-02 7.091422e-03 -5.540216e-02 -4.794705e-02 -6.711817e-02 -2.742922e-02 3.863100e-03
<VARIANCE> 39
 5.706721e+00 2.071406e+01 1.334378e+01 2.089333e+01 2.587720e+01 2.146512e+01 2.170846e+01 2.307808e+01 2.171189e+01 1.967587e+01 1.847824e+01 1.560493e+01 2.902460e-02 5.343652e-01 1.875296e+00 1.680275e+00 2.272243e+00 3.027853e+00 2.792833e+00 2.824865e+00 3.126524e+00 2.897812e+00 2.548004e+00 2.249177e+00 1.882629e+00 2.577789e-03 7.922281e-02 3.171925e-01 2.853673e-01 4.114356e-01 5.137106e-01 4.923456e-01 5.350634e-01 5.645382e-01 5.536974e-01 4.684812e-01 4.296293e-01 3.340654e-01 1.934547e-04
<GCONST> 8.569643e+01
<STATE> 3
<MEAN> 39
 -2.312876e+00 6.110435e+00 -2.727304e+00 3.352457e+00 -2.172113e+00 2.580798e+00 -3.541908e+00 1.048219e+00 -2.185728e+00 -1.177482e+00 -3.129968e-01 -1.228550e+00 7.219763e-01 -2.109326e-02 1.679474e-02 -4.823563e-02 -2.436373e-02 -1.742160e-02 -2.356990e-02 -3.434115e-02 -2.434327e-03 -4.370927e-02 2.539433e-03 -5.015664e-02 -1.435758e-02 4.498417e-03 3.297577e-02 -6.313019e-02 8.413575e-02 -4.362803e-02 7.212705e-02 -2.980871e-02 8.713268e-02 -7.104573e-03 5.186516e-02 3.044913e-02 2.133084e-02 3.931936e-02 -3.176747e-03
<VARIANCE> 39
 5.239497e+00 6.019240e+00 1.057731e+01 1.027358e+01 1.672839e+01 2.744956e+01 2.152623e+01 4.090428e+01 2.551136e+01 3.932426e+01 3.461251e+01 3.746253e+01 1.003403e-02 1.312771e-01 3.118049e-01 5.069786e-01 6.134778e-01 8.188671e-01 9.004484e-01 1.204140e+00 1.212607e+00 1.244666e+00 1.302988e+00 1.274089e+00 1.358038e+00 2.963732e-04 2.448796e-02 6.056088e-02 9.971823e-02 1.237529e-01 1.581731e-01 1.845519e-01 2.295856e-01 2.518951e-01 2.373291e-01 2.582207e-01 2.514697e-01 2.593204e-01 3.047296e-05
<GCONST> 5.760769e+01
<STATE> 4
<MEAN> 39
 -1.651946e+00 4.533989e+00 1.749536e-01 2.168389e+00 1.742697e+00 2.395088e+00 2.627130e-01 2.346576e+00 -8.869118e-01 1.618052e+00 -3.871394e-01 2.861149e-01 6.129529e-01 2.889501e-02 -1.709589e-01 6.966063e-02 -1.058865e-01 6.920842e-02 -8.522989e-02 9.587529e-02 -8.026521e-02 7.749236e-02 7.168692e-03 5.216643e-02 2.054431e-02 -8.676635e-03 -2.784963e-03 -3.000313e-02 6.359174e-03 -2.452073e-02 -1.442345e-02 -1.851581e-02 -1.939447e-02 -3.081115e-02 2.674363e-03 -2.703937e-02 1.429857e-02 -4.354676e-03 -1.722744e-03
<VARIANCE> 39
 3.482415e+00 7.700571e+00 6.465256e+00 9.908043e+00 1.222527e+01 1.427601e+01 1.799770e+01 2.136954e+01 1.921268e+01 1.938896e+01 1.446690e+01 1.523096e+01 1.174628e-02 1.428090e-01 4.293736e-01 4.987946e-01 7.299703e-01 9.235089e-01 1.031715e+00 1.260620e+00 1.414968e+00 1.447136e+00 1.315331e+00 1.196057e+00 1.162001e+00 4.699573e-04 2.584874e-02 7.264289e-02 9.939525e-02 1.413285e-01 1.834845e-01 1.933686e-01 2.412290e-01 2.654412e-01 2.911376e-01 2.479901e-01 2.344444e-01 2.320412e-01 3.807817e-05
<GCONST> 5.480416e+01
<TRANSP> 5
 0.000000e+00 1.000000e+00 0.000000e+00 0.000000e+00 0.000000e+00
 0.000000e+00 8.343604e-01 1.656397e-01 0.000000e+00 0.000000e+00
 0.000000e+00 0.000000e+00 8.894390e-01 1.105609e-01 0.000000e+00
 0.000000e+00 0.000000e+00 0.000000e+00 9.216246e-01 7.837538e-02
 0.000000e+00 0.000000e+00 0.000000e+00 0.000000e+00 0.000000e+00
<ENDHMM>
~h "ling"
<BEGINHMM>
<NUMSTATES> 5
<STATE> 2
<MEAN> 39
 -8.253480e-02 1.766282e+00 3.046952e+00 7.585181e-01 3.883042e-01 2.163688e+00 1.384046e-01 -5.566749e-02 4.163057e-01 -4.181057e-01 -1.482409e-01 5.281861e-02 6.056717e-01 -2.081096e-01 1.119144e+00 2.180187e-01 1.800969e-03 4.213531e-01 3.943940e-01 -2.716628e-01 1.639406e-01 8.942103e-02 -2.849914e-01 -5.409048e-02 -2.107118e-01 2.256982e-02 2.052947e-02 1.991240e-01 -1.707047e-01 1.277781e-01 3.640652e-02 -9.300391e-02 -2.343537e-02 6.110920e-02 -2.530527e-02 -3.140171e-02 7.469685e-03 -7.107510e-02 6.632906e-03
<VARIANCE> 39
 5.912943e+00 1.743158e+01 1.661156e+01 1.587910e+01 2.402686e+01 2.570686e+01 2.495775e+01 2.100503e+01 2.590110e+01 2.051204e+01 1.949224e+01 1.734558e+01 2.569046e-02 6.230219e-01 1.991413e+00 1.926261e+00 2.137836e+00 2.451966e+00 3.575212e+00 2.897951e+00 2.914505e+00 3.110042e+00 2.536326e+00 2.462941e+00 1.990902e+00 3.402070e-03 9.194148e-02 2.783970e-01 3.378921e-01 3.932533e-01 4.682873e-01 6.213163e-01 6.116603e-01 5.256993e-01 6.227034e-01 5.074608e-01 4.423145e-01 3.636470e-01 4.089868e-04
<GCONST> 8.808623e+01
<STATE> 3
<MEAN> 39
 -6.424212e-01 9.514388e+00 2.013563e-01 4.394602e+00 1.604275e+00 3.148096e+00 -2.561775e-02 1.737432e+00 1.634564e-01 -1.560335e+00 -3.997089e-01 -2.292614e+00 7.792380e-01 1.051082e-02 8.279780e-03 -3.156464e-01 2.828396e-01 -5.976932e-02 3.480631e-02 1.930115e-01 1.847969e-01 6.464881e-03 2.235991e-01 9.454402e-02 5.657084e-02 -6.704195e-03 3.095478e-02 -3.160656e-01 7.367421e-02 -1.513746e-01 -3.389376e-02 -5.572446e-02 2.131665e-03 -6.679765e-02 -1.094247e-03 6.038229e-02 -7.198189e-03 1.097082e-01 -8.365039e-03
<VARIANCE> 39
 6.156416e+00 7.606771e+00 1.615544e+01 1.832172e+01 2.432823e+01 2.898786e+01 3.189130e+01 3.837482e+01 3.247919e+01 3.375099e+01 3.392245e+01 2.917211e+01 7.739154e-03 1.968011e-01 1.037455e+00 8.360921e-01 1.343208e+00 1.260261e+00 1.728237e+00 1.982440e+00 2.127654e+00 2.112493e+00 1.996469e+00 1.884811e+00 1.662988e+00 6.680537e-04 3.369492e-02 1.195885e-01 1.543228e-01 2.135199e-01 2.389376e-01 3.340993e-01 3.583823e-01 3.844863e-01 3.763511e-01 3.692406e-01 3.723850e-01 2.967496e-01 9.065281e-05
<GCONST> 7.301192e+01
<STATE> 4
<MEAN> 39
 -3.302593e-01 3.935163e+00 1.049217e+00 1.495433e+00 2.356870e+00 1.525575e+00 1.251480e+00 1.401612e+00 3.098448e-01 5.214918e-01 4.821924e-01 1.530776e-01 5.845086e-01 1.910608e-03 -5.089064e-01 3.020290e-02 -3.097788e-01 -1.096307e-02 -2.571948e-01 2.267480e-02 -2.108013e-01 -6.573266e-02 1.333425e-02 -5.224637e-02 9.106112e-02 -1.724000e-02 -1.532881e-02 3.447781e-02 -9.696324e-03 1.349903e-02 -1.418918e-02 1.172294e-02 -2.310490e-02 -6.639046e-03 6.156021e-03 -2.753620e-02 -3.537793e-03 -2.578916e-02 6.709076e-04
<VARIANCE> 39
 4.369912e+00 1.306463e+01 8.380590e+00 1.364568e+01 1.327649e+01 1.726962e+01 1.768275e+01 2.011410e+01 1.902024e+01 1.752707e+01 1.730076e+01 1.488043e+01 1.213398e-02 1.965050e-01 5.666651e-01 6.635700e-01 9.202068e-01 1.085826e+00 1.271923e+00 1.416709e+00 1.573984e+00 1.539616e+00 1.355262e+00 1.388203e+00 1.233669e+00 3.600616e-04 3.180769e-02 9.217288e-02 1.142176e-01 1.649984e-01 2.008056e-01 2.375281e-01 2.688463e-01 2.990792e-01 2.904860e-01 2.612046e-01 2.654184e-01 2.318363e-01 4.787974e-05
<GCONST> 5.981845e+01
<TRANSP> 5
 0.000000e+00 1.000000e+00 0.000000e+00 0.000000e+00 0.000000e+00
 0.000000e+00 8.461960e-01 1.538040e-01 0.000000e+00 0.000000e+00
 0.000000e+00 0.000000e+00 8.734069e-01 1.265930e-01 0.000000e+00
 0.000000e+00 0.000000e+00 0.000000e+00 9.197876e-01 8.021235e-02
 0.000000e+00 0.000000e+00 0.000000e+00 0.000000e+00 0.000000e+00
<ENDHMM>
~h "jiu"
<BEGINHMM>
<NUMSTATES> 5
<STATE> 2
<MEAN> 39
 -2.383452e+00 2.886668e+00 7.020018e-01 1.242436e+00 5.625992e-01 2.372916e+00 -1.133215e-01 1.123451e+00 5.540668e-02 -2.454968e-01 3.818451e-02 -4.489625e-02 5.717935e-01 4.397286e-02 4.156373e-01 5.624239e-01 -1.460749e-02 5.460387e-02 1.154831e-01 -1.679892e-01 -1.165068e-01 -4.515091e-02 -1.816097e-01 -1.713010e-01 -1.201009e-01 2.276885e-02 1.409024e-01 -1.442685e-01 3.867876e-02 -8.576948e-04 -1.430734e-01 -1.784177e-01 -3.047227e-02 -1.161712e-01 -6.697857e-02 -3.284748e-02 -3.212001e-02 -9.740074e-03 2.452760e-03
<VARIANCE> 39
 8.371810e+00 1.710041e+01 2.466810e+01 1.426614e+01 1.911231e+01 1.773325e+01 1.722133e+01 1.865428e+01 1.953491e+01 1.767101e+01 1.694679e+01 1.517382e+01 3.323186e-02 1.100572e+00 1.591825e+00 3.191038e+00 1.972442e+00 2.734644e+00 2.365599e+00 2.149490e+00 2.775501e+00 2.577486e+00 2.470191e+00 2.423729e+00 2.044366e+00 3.067637e-03 1.365419e-01 3.360988e-01 6.206142e-01 3.846980e-01 6.600757e-01 5.486108e-01 4.341846e-01 5.259833e-01 5.351682e-01 4.798765e-01 4.704116e-01 4.172909e-01 3.025248e-04
<GCONST> 8.771299e+01
<STATE> 3
<MEAN> 39
 4.430638e+00 -1.527892e+00 9.014127e-01 2.983203e+00 -5.416121e+00 -4.748597e+00 -2.056570e+00 -3.341653e-01 -4.280874e-01 -8.118901e-01 -5.938671e-01 -5.329889e-02 8.473518e-01 1.024760e+00 -1.162729e+00 -1.912325e+00 3.720080e-01 -1.192714e-01 -1.369746e+00 -6.149488e-01 2.019366e-01 3.335091e-01 3.986685e-01 2.060691e-01 3.697694e-01 2.144743e-04 -1.255344e-01 2.481202e-01 -2.859493e-01 -1.719953e-01 4.865906e-01 3.698193e-01 -6.907856e-02 2.537424e-02 1.572099e-01 1.291193e-01 3.269906e-02 -1.320932e-02 -6.413020e-03
<VARIANCE> 39
 9.706141e+00 2.198620e+01 4.778996e+01 2.074245e+01 3.560508e+01 4.993020e+01 3.888231e+01 3.727218e+01 3.889702e+01 3.125127e+01 4.055181e+01 3.256160e+01 9.125713e-03 4.440443e-01 1.741802e+00 2.664568e+00 2.379359e+00 6.231004e+00 5.392163e+00 5.256670e+00 5.150010e+00 4.951777e+00 3.745279e+00 3.331495e+00 3.186321e+00 4.003996e-04 5.823995e-02 2.709708e-01 7.029743e-01 4.994660e-01 7.762987e-01 1.114388e+00 1.051899e+00 1.171200e+00 9.864640e-01 8.635133e-01 6.829980e-01 6.350634e-01 5.928923e-05
<GCONST> 9.829513e+01
<STATE> 4
<MEAN> 39
 6.812119e+00 -5.137315e-01 -6.745642e+00 -6.767055e-01 1.511671e+00 -1.957386e+00 -3.421867e+00 -1.965758e+00 -3.938696e-01 8.952478e-01 -8.338004e-02 4.685794e-01 7.087360e-01 -4.364400e-01 2.911362e-01 5.663536e-01 -2.284840e-01 1.003843e-01 5.858710e-01 5.528936e-01 -6.821097e-02 -1.809103e-01 -9.269661e-02 3.587875e-02 -1.139080e-01 -2.193004e-02 -1.277803e-01 -2.781964e-02 2.281110e-01 8.402853e-02 -1.425509e-01 -4.669046e-02 1.395309e-01 1.080107e-01 -1.858256e-02 -5.280362e-02 1.396732e-02 1.613726e-02 -1.722851e-03
<VARIANCE> 39
 1.015562e+01 1.549416e+01 2.987366e+01 3.182319e+01 2.082303e+01 3.510413e+01 3.544193e+01 3.528029e+01 3.346240e+01 2.291597e+01 1.828648e+01 1.603188e+01 2.283776e-02 5.634436e-01 5.971153e-01 1.791377e+00 1.764467e+00 1.635375e+00 2.481362e+00 2.636342e+00 2.733795e+00 2.306033e+00 1.985927e+00 1.609877e+00 1.348012e+00 3.792545e-04 5.787587e-02 8.536211e-02 2.480744e-01 2.403964e-01 2.847386e-01 3.958380e-01 5.049109e-01 4.630554e-01 4.600786e-01 3.885318e-01 3.149915e-01 2.688928e-01 4.542594e-05
<GCONST> 7.776263e+01
<TRANSP> 5
 0.000000e+00 1.000000e+00 0.000000e+00 0.000000e+00 0.000000e+00
 0.000000e+00 9.181759e-01 8.182407e-02 0.000000e+00 0.000000e+00
 0.000000e+00 0.000000e+00 8.594749e-01 1.405251e-01 0.000000e+00
 0.000000e+00 0.000000e+00 0.000000e+00 9.143669e-01 8.563310e-02
 0.000000e+00 0.000000e+00 0.000000e+00 0.000000e+00 0.000000e+00
<ENDHMM>
~h "liu"
<BEGINHMM>
<NUMSTATES> 5
<STATE> 2
<MEAN> 39
 -7.574543e-01 4.178336e+00 4.023565e+00 -2.648836e-01 6.507072e-01 2.124198e+00 -8.341751e-01 -1.200473e-01 2.809692e-01 -1.568105e+00 -4.525869e-01 -5.444325e-01 7.339957e-01 2.726492e-02 2.706191e-01 2.536745e-01 -2.492290e-01 -2.840270e-01 -1.737543e-01 -4.037749e-01 -2.491478e-01 -1.555517e-01 -1.340407e-01 -1.708785e-01 8.575614e-03 2.455579e-02 7.951310e-02 -1.400696e-01 -8.306309e-02 3.435297e-02 -1.620110e-01 -1.674176e-01 2.770291e-03 -5.707190e-02 -7.921375e-02 4.708879e-02 -2.000818e-02 6.858856e-03 6.363944e-04
<VARIANCE> 39
 5.619456e+00 1.953537e+01 2.328094e+01 1.589451e+01 2.439598e+01 2.820531e+01 2.914082e+01 2.592822e+01 3.227967e+01 2.540518e+01 2.957639e+01 2.472509e+01 3.123865e-02 4.622455e-01 1.806602e+00 1.468743e+00 1.444231e+00 2.548419e+00 2.660276e+00 2.375156e+00 2.630344e+00 3.117680e+00 2.413645e+00 2.682765e+00 2.092728e+00 2.149530e-03 7.273039e-02 2.411933e-01 2.760653e-01 2.938632e-01 3.777629e-01 4.502593e-01 4.602964e-01 4.564195e-01 5.229529e-01 4.342933e-01 4.723075e-01 3.656551e-01 3.178495e-04
<GCONST> 8.602869e+01
<STATE> 3
<MEAN> 39
 3.573624e+00 -2.010895e+00 -1.684070e+00 4.298292e-01 -7.566255e+00 -5.562628e+00 -3.206861e+00 -1.753643e+00 -2.504182e+00 -1.569733e+00 -2.643598e+00 -1.591787e+00 9.046963e-01 7.953883e-01 -7.745197e-01 -1.309560e+00 7.354683e-01 2.746187e-01 -7.012529e-01 -5.661037e-02 4.186221e-01 3.241569e-01 3.221548e-01 1.286295e-01 7.342206e-02 -3.462914e-03 -4.304762e-02 2.410576e-01 -4.871813e-02 -1.153444e-01 4.318049e-01 3.077068e-01 -7.365005e-02 1.409766e-02 1.742021e-01 4.722837e-03 4.857939e-02 2.045309e-02 -3.616785e-03
<VARIANCE> 39
 1.216895e+01 2.534577e+01 4.290076e+01 3.100498e+01 3.857248e+01 4.261941e+01 4.602463e+01 4.684119e+01 5.450492e+01 5.116993e+01 6.511063e+01 6.946755e+01 4.569414e-03 4.604771e-01 1.721108e+00 2.715089e+00 2.155545e+00 4.846167e+00 5.243454e+00 4.689907e+00 4.001330e+00 4.576504e+00 3.656253e+00 4.240312e+00 4.596304e+00 2.999767e-04 5.607577e-02 1.988387e-01 3.981105e-01 4.308822e-01 6.403300e-01 9.014608e-01 8.377352e-01 8.374986e-01 8.375645e-01 6.278206e-01 7.221350e-01 6.897208e-01 4.166926e-05
<GCONST> 9.743289e+01
<STATE> 4
<MEAN> 39
 6.438008e+00 -4.952582e-01 -5.621575e+00 7.817646e-01 1.773287e+00 -2.273810e+00 -2.678544e+00 -1.308762e+00 9.815878e-02 9.424691e-01 -3.927347e-01 4.930147e-01 7.253207e-01 -5.678336e-01 3.418537e-01 6.842149e-01 -3.070041e-01 2.470049e-01 7.865826e-01 5.759971e-01 -5.987630e-02 -1.164800e-01 -6.199486e-02 1.169382e-01 -3.242943e-02 -3.105101e-02 -1.579585e-01 -4.516203e-02 1.850958e-01 1.095327e-02 -1.788136e-01 -4.566336e-02 1.235635e-01 8.477197e-02 -5.518934e-02 -5.972099e-02 -5.883867e-03 -4.420059e-03 -2.522595e-03
<VARIANCE> 39
 1.193052e+01 1.372898e+01 3.290055e+01 2.980049e+01 2.768018e+01 3.661246e+01 3.575347e+01 3.604620e+01 2.834907e+01 2.132826e+01 2.061233e+01 1.705747e+01 2.463977e-02 7.371135e-01 7.171923e-01 1.828306e+00 1.746697e+00 2.012982e+00 2.825319e+00 2.780041e+00 2.842049e+00 2.260680e+00 2.028422e+00 1.852242e+00 1.569953e+00 5.476035e-04 8.328538e-02 9.638572e-02 3.288092e-01 2.837689e-01 3.345587e-01 4.664601e-01 5.215420e-01 5.152043e-01 4.721889e-01 3.964736e-01 3.467916e-01 2.884660e-01 7.124311e-05
<GCONST> 8.182385e+01
<TRANSP> 5
 0.000000e+00 1.000000e+00 0.000000e+00 0.000000e+00 0.000000e+00
 0.000000e+00 9.190508e-01 8.094924e-02 0.000000e+00 0.000000e+00
 0.000000e+00 0.000000e+00 8.834209e-01 1.165792e-01 0.000000e+00
 0.000000e+00 0.000000e+00 0.000000e+00 8.940057e-01 1.059943e-01
 0.000000e+00 0.000000e+00 0.000000e+00 0.000000e+00 0.000000e+00
<ENDHMM>
~h "san"
<BEGINHMM>
<NUMSTATES> 5
<STATE> 2
<MEAN> 39
 -1.961619e-01 -3.284881e-01 6.806746e-01 4.280978e-01 -1.510119e-02 4.745997e-01 -1.323675e-02 -1.157536e-01 2.025740e-01 1.109496e-01 2.415852e-01 2.364101e-01 4.888991e-01 4.924079e-01 -5.660383e-02 1.286565e-01 -1.182088e-01 -8.447727e-01 -2.657750e-01 -1.980264e-01 -2.111916e-01 3.755924e-02 -3.319603e-02 1.533079e-01 5.648986e-03 3.348419e-02 1.327344e-01 -1.606515e-01 -1.233068e-01 -1.544940e-01 -3.724510e-01 -6.049610e-02 -3.797432e-02 5.157224e-03 4.297204e-02 -3.527198e-02 -7.933669e-03 -6.510868e-02 1.351085e-02
<VARIANCE> 39
 8.799985e+00 8.403352e+00 9.045238e+00 1.083855e+01 1.801209e+01 1.644743e+01 1.568868e+01 1.562882e+01 1.326046e+01 1.321909e+01 1.294686e+01 1.128164e+01 2.805392e-02 1.492793e+00 1.018215e+00 1.160846e+00 1.969520e+00 3.930688e+00 2.603347e+00 2.580818e+00 2.185299e+00 1.830641e+00 1.829264e+00 1.813402e+00 1.595611e+00 5.450052e-03 1.967666e-01 1.864560e-01 2.660728e-01 3.820542e-01 4.754275e-01 4.464208e-01 4.335797e-01 4.412516e-01 3.914710e-01 3.962679e-01 3.978549e-01 3.442353e-01 3.832481e-04
<GCONST> 8.018232e+01
<STATE> 3
<MEAN> 39
 3.160593e+00 -5.467671e+00 -2.778384e+00 -4.426516e+00 -9.912758e+00 -5.494685e-01 -7.297088e-01 4.856180e-01 1.120710e+00 -9.806120e-01 8.687386e-02 -1.666700e+00 8.888702e-01 -3.522150e-01 -1.517173e+00 -1.180573e+00 -8.085321e-01 -1.235649e-01 6.367667e-01 6.784899e-01 7.110012e-01 7.596916e-02 -1.343424e-01 -3.051172e-01 -3.804637e-01 3.271011e-02 -2.896808e-01 6.242445e-02 1.089410e-01 3.228268e-01 7.729197e-01 1.783462e-01 1.716323e-01 1.125921e-02 -9.432410e-02 6.605465e-02 -1.264327e-02 1.149779e-01 -2.046171e-02
<VARIANCE> 39
 9.068270e+00 2.092705e+01 2.080670e+01 3.264854e+01 3.471903e+01 5.388896e+01 4.874461e+01 3.591310e+01 3.053410e+01 3.094063e+01 3.836517e+01 3.570755e+01 6.090811e-03 8.439286e-01 1.380731e+00 1.892155e+00 2.876293e+00 5.408429e+00 2.913260e+00 3.122586e+00 3.600875e+00 2.966567e+00 3.087148e+00 3.692341e+00 3.651226e+00 2.066972e-03 2.088175e-01 2.925786e-01 4.577303e-01 5.385405e-01 6.757576e-01 5.711979e-01 6.402078e-01 8.535417e-01 5.534071e-01 5.702356e-01 6.758810e-01 6.104403e-01 1.310183e-04
<GCONST> 9.634621e+01
<STATE> 4
<MEAN> 39
 1.017750e+00 -5.668172e+00 -1.476274e+00 -3.184537e+00 -4.324500e+00 2.030583e+00 6.286383e-01 6.871132e-01 8.170135e-01 -3.605135e-01 -5.725206e-01 -1.424556e+00 7.777790e-01 -8.719885e-02 5.717353e-01 4.339658e-01 2.614301e-01 4.327494e-01 -8.794733e-02 -1.010826e-01 -1.762631e-01 -4.398349e-02 5.245380e-02 -3.788006e-03 1.157187e-01 -2.308448e-02 9.811846e-03 8.733699e-02 1.188944e-02 -1.901462e-04 -2.174550e-02 -5.463373e-02 -4.060056e-02 -8.821736e-03 -5.191640e-03 -7.634047e-03 1.038057e-02 6.020197e-03 -2.114793e-03
<VARIANCE> 39
 6.636297e+00 2.725396e+01 1.767307e+01 1.923426e+01 3.919068e+01 3.632446e+01 3.881505e+01 2.287752e+01 2.405603e+01 2.156707e+01 2.432320e+01 2.809575e+01 2.179506e-02 2.793323e-01 7.072968e-01 6.975795e-01 8.941778e-01 1.629010e+00 1.289929e+00 1.448923e+00 1.415704e+00 1.303263e+00 1.146162e+00 1.093281e+00 1.038116e+00 4.831318e-04 4.116546e-02 1.010072e-01 1.274677e-01 1.469448e-01 2.824775e-01 1.909447e-01 2.479095e-01 2.704755e-01 2.399923e-01 2.193880e-01 2.095601e-01 1.915392e-01 5.419135e-05
<GCONST> 6.690118e+01
<TRANSP> 5
 0.000000e+00 1.000000e+00 0.000000e+00 0.000000e+00 0.000000e+00
 0.000000e+00 8.687552e-01 1.312448e-01 0.000000e+00 0.000000e+00
 0.000000e+00 0.000000e+00 8.036316e-01 1.963684e-01 0.000000e+00
 0.000000e+00 0.000000e+00 0.000000e+00 9.324201e-01 6.757982e-02
 0.000000e+00 0.000000e+00 0.000000e+00 0.000000e+00 0.000000e+00
<ENDHMM>
~h "sil"
<BEGINHMM>
<NUMSTATES> 5
<STATE> 2
<MEAN> 39
 -1.389350e+00 -3.524595e-01 7.650546e-01 -7.811723e-01 1.499805e+00 -4.422151e-01 -1.320437e-01 -6.260402e-01 -2.877554e-01 3.746743e-01 3.616358e-01 4.910968e-01 3.026844e-01 2.261428e-02 9.106823e-03 -3.930071e-03 5.244198e-02 9.402324e-03 5.129758e-02 5.629281e-02 2.603873e-02 3.083495e-02 1.562844e-02 -9.969186e-03 3.388777e-02 -8.417820e-04 -4.950487e-03 -6.817063e-03 -1.150341e-03 -8.439543e-03 2.561061e-04 1.405641e-03 1.188382e-02 -1.376066e-02 -2.723242e-02 -2.201147e-02 -1.071245e-02 1.975804e-04 1.672040e-04
<VARIANCE> 39
 2.075563e+00 4.133952e+00 4.876811e+00 7.185300e+00 8.344501e+00 1.111837e+01 1.174481e+01 1.305566e+01 1.372515e+01 1.185931e+01 1.142217e+01 1.038272e+01 6.785069e-03 1.061816e-01 2.246503e-01 4.374495e-01 7.851374e-01 8.287617e-01 1.144057e+00 1.160620e+00 1.399103e+00 1.607144e+00 1.254931e+00 1.252748e+00 1.200524e+00 4.722241e-05 2.198689e-02 4.518681e-02 8.959286e-02 1.659009e-01 1.665873e-01 2.343541e-01 2.329228e-01 2.913082e-01 3.442906e-01 2.538213e-01 2.646388e-01 2.492693e-01 7.487380e-06
<GCONST> 4.458212e+01
<STATE> 3
~s "silst"
<STATE> 4
<MEAN> 39
 -1.534866e+00 -9.043373e-01 6.874443e-01 -1.421658e+00 1.798026e+00 -8.919755e-01 5.055889e-01 -6.897778e-01 -8.661669e-01 -5.100358e-01 3.391264e-01 2.021517e-01 3.344164e-01 -3.669480e-02 2.704772e-02 -5.915580e-02 -1.384908e-01 -1.136717e-01 -7.447033e-02 -3.968795e-02 6.413300e-03 4.307621e-02 4.415220e-02 9.383690e-02 -9.975119e-02 5.697058e-03 3.512465e-02 5.819321e-02 4.961660e-02 9.192313e-02 -1.836876e-02 5.330821e-02 7.086373e-03 4.589388e-02 4.564335e-02 5.931730e-02 2.671734e-02 -5.617784e-03 1.239713e-03
<VARIANCE> 39
 3.859830e+00 6.245342e+00 5.547558e+00 8.254580e+00 1.189163e+01 1.091053e+01 1.473483e+01 1.274577e+01 1.477752e+01 1.241773e+01 9.855501e+00 9.337314e+00 1.290649e-02 2.398647e-01 5.606180e-01 5.626099e-01 9.608062e-01 1.305751e+00 1.117156e+00 1.515288e+00 1.572247e+00 1.721055e+00 1.454665e+00 1.117351e+00 9.615636e-01 4.768833e-04 5.139313e-02 1.192835e-01 1.184089e-01 1.777651e-01 2.896532e-01 2.306364e-01 3.043677e-01 3.276547e-01 3.491898e-01 2.942488e-01 2.176329e-01 1.878628e-01 1.037749e-04
<GCONST> 5.752195e+01
<TRANSP> 5
 0.000000e+00 1.000000e+00 0.000000e+00 0.000000e+00 0.000000e+00
 0.000000e+00 9.351074e-01 3.092101e-02 3.397161e-02 0.000000e+00
 0.000000e+00 0.000000e+00 9.033638e-01 9.663620e-02 0.000000e+00
 0.000000e+00 1.307411e-01 0.000000e+00 7.731550e-01 9.610391e-02
 0.000000e+00 0.000000e+00 0.000000e+00 0.000000e+00 0.000000e+00
<ENDHMM>
