~o
<STREAMINFO> 1 39
<VECSIZE> 39<NULLD><MFCC_E_D_A_Z><DIAGC>
~h "ba"
<BEGINHMM>
<NUMSTATES> 5
<STATE> 2
<MEAN> 39
 5.552872e-01 -1.727168e+00 -1.278749e+00 1.702206e-01 -4.534191e-01 -1.877515e-01 4.445747e-01 2.038937e-01 3.630687e-01 -2.754013e-01 -2.561149e-01 -2.306334e-01 5.929963e-01 2.242275e-03 -2.670355e-02 -1.369631e-02 3.900872e-03 -6.218422e-03 -6.175858e-04 4.813046e-03 4.789183e-03 9.594267e-03 2.586642e-04 -3.566870e-03 1.602778e-03 7.703657e-04 -4.613541e-04 1.423908e-03 1.183728e-03 -5.378728e-05 2.359951e-04 2.623637e-04 -2.631841e-04 -2.757000e-05 -5.138998e-04 1.009349e-04 4.929557e-05 1.573664e-04 -4.734825e-05
<VARIANCE> 39
 1.246944e+01 4.650354e+01 3.445530e+01 1.776041e+01 2.442197e+01 2.714149e+01 2.415176e+01 2.246411e+01 2.236013e+01 1.968655e+01 2.022267e+01 1.901622e+01 6.467737e-02 6.046857e-01 1.242939e+00 1.452808e+00 1.192803e+00 1.680505e+00 1.779520e+00 1.813999e+00 1.806580e+00 1.821225e+00 1.585454e+00 1.581294e+00 1.437329e+00 1.809582e-03 1.007061e-01 1.572436e-01 2.249827e-01 2.141842e-01 3.150588e-01 3.297815e-01 3.443846e-01 3.525074e-01 3.580336e-01 3.069499e-01 3.074504e-01 2.729024e-01 2.129132e-04
<GCONST> 7.997176e+01
<STATE> 3
<MEAN> 39
 5.587866e-01 -1.853619e+00 -1.332940e+00 1.933623e-01 -4.855772e-01 -1.851522e-01 4.686922e-01 2.292616e-01 4.066009e-01 -2.705407e-01 -2.737681e-01 -2.216810e-01 5.964325e-01 -7.071856e-04 -1.638233e-02 -5.556427e-03 3.260415e-03 -4.657344e-03 1.003634e-03 2.990586e-03 3.924956e-03 6.045198e-03 1.188629e-03 -2.368925e-03 1.962780e-03 4.506855e-04 -5.150270e-04 1.934908e-03 1.460192e-03 -1.599675e-04 3.305221e-04 2.808873e-04 -3.390601e-04 -1.817522e-04 -6.333155e-04 1.684000e-04 2.118423e-04 3.984703e-05 -5.784484e-05
<VARIANCE> 39
 1.251218e+01 4.724301e+01 3.481184e+01 1.786302e+01 2.433831e+01 2.720510e+01 2.410312e+01 2.240758e+01 2.222167e+01 1.964954e+01 2.016316e+01 1.892027e+01 6.412899e-02 5.998829e-01 1.254722e+00 1.448769e+00 1.193750e+00 1.674867e+00 1.780557e+00 1.808048e+00 1.798097e+00 1.805136e+00 1.579721e+00 1.573524e+00 1.424952e+00 1.792360e-03 9.980724e-02 1.576425e-01 2.235670e-01 2.136963e-01 3.139710e-01 3.298976e-01 3.428290e-01 3.505039e-01 3.547329e-01 3.058012e-01 3.061123e-01 2.703942e-01 2.101414e-04
<GCONST> 7.986179e+01
<STATE> 4
<MEAN> 39
 5.284111e-01 -1.759172e+00 -1.220780e+00 2.442718e-01 -4.886283e-01 -1.086037e-01 4.633962e-01 2.946801e-01 4.040279e-01 -1.925532e-01 -2.701204e-01 -1.827571e-01 5.897658e-01 -7.590978e-03 1.390952e-02 1.456943e-02 4.482041e-04 2.868596e-03 3.530885e-03 -3.858265e-03 5.414383e-05 -1.781296e-03 5.154055e-03 2.582805e-03 2.763977e-03 -4.465987e-04 -3.560135e-04 1.651554e-03 1.041187e-03 -2.269869e-04 4.250419e-04 1.235804e-04 -3.558552e-04 -1.971122e-04 -3.684111e-04 1.946610e-04 1.952586e-04 6.509977e-05 -4.615826e-05
<VARIANCE> 39
 1.231199e+01 4.638312e+01 3.409918e+01 1.762349e+01 2.383939e+01 2.622109e+01 2.370200e+01 2.218235e+01 2.116427e+01 1.924043e+01 1.921060e+01 1.801972e+01 6.140717e-02 5.440750e-01 1.177865e+00 1.352612e+00 1.150695e+00 1.605834e+00 1.722466e+00 1.748671e+00 1.763564e+00 1.746114e+00 1.547210e+00 1.535082e+00 1.361204e+00 1.574788e-03 8.891253e-02 1.481702e-01 2.084874e-01 2.066087e-01 3.004255e-01 3.179705e-01 3.304664e-01 3.433361e-01 3.455147e-01 3.006507e-01 3.020231e-01 2.587563e-01 1.805473e-04
<GCONST> 7.817809e+01
<TRANSP> 5
 0.000000e+00 1.000000e+00 0.000000e+00 0.000000e+00 0.000000e+00
 0.000000e+00 8.272257e-01 1.727743e-01 0.000000e+00 0.000000e+00
 0.000000e+00 0.000000e+00 8.272237e-01 1.727763e-01 0.000000e+00
 0.000000e+00 0.000000e+00 0.000000e+00 9.654576e-01 3.454245e-02
 0.000000e+00 0.000000e+00 0.000000e+00 0.000000e+00 0.000000e+00
<ENDHMM>
~h "er"
<BEGINHMM>
<NUMSTATES> 5
<STATE> 2
<MEAN> 39
 9.363035e-01 -8.180546e-01 -3.198995e-01 -4.658701e-02 -1.406998e+00 -8.586769e-01 -2.897228e-01 1.240992e-01 -3.941283e-02 -1.562504e-01 -1.629950e-01 -1.661587e-01 5.953723e-01 3.056923e-03 -6.815680e-03 5.937491e-03 -1.025710e-03 -1.224264e-02 -3.570377e-03 -2.636210e-03 -2.617451e-03 4.949274e-03 3.280787e-03 -4.742512e-04 1.452381e-03 6.074220e-04 -7.150346e-04 7.357405e-04 4.126593e-04 9.535164e-05 1.167479e-03 8.844945e-04 1.506020e-04 -1.530683e-04 -1.189700e-04 7.849141e-06 1.477602e-05 2.538356e-04 -4.250574e-05
<VARIANCE> 39
 1.421792e+01 2.757234e+01 2.513028e+01 2.175533e+01 3.725087e+01 3.626152e+01 2.783416e+01 2.461827e+01 2.423123e+01 2.275657e+01 2.398677e+01 2.305849e+01 6.378030e-02 4.812315e-01 8.696750e-01 1.167226e+00 1.171540e+00 1.825724e+00 1.910117e+00 1.858909e+00 1.937789e+00 1.992572e+00 1.796067e+00 1.858585e+00 1.738383e+00 1.350284e-03 7.017135e-02 1.213713e-01 1.838455e-01 2.065054e-01 3.160832e-01 3.319699e-01 3.427512e-01 3.695337e-01 3.835887e-01 3.395847e-01 3.521144e-01 3.139433e-01 1.409731e-04
<GCONST> 7.991427e+01
<STATE> 3
<MEAN> 39
 9.417750e-01 -8.423538e-01 -2.783455e-01 -5.060846e-02 -1.453428e+00 -8.635587e-01 -2.992780e-01 1.069495e-01 -1.286526e-02 -1.381328e-01 -1.671735e-01 -1.539243e-01 5.980110e-01 -1.436793e-03 -1.677270e-03 8.051217e-03 -3.249848e-04 -3.979096e-03 1.603912e-03 -1.110936e-03 -3.100198e-03 4.172917e-03 3.134521e-03 -5.517842e-04 2.242408e-03 3.157604e-04 -7.798659e-04 9.060705e-04 3.497980e-04 1.280471e-04 1.452909e-03 9.113022e-04 2.910076e-04 -4.998017e-05 -1.385304e-04 -4.336337e-05 -2.550198e-05 1.192280e-04 -5.090738e-05
<VARIANCE> 39
 1.428002e+01 2.742072e+01 2.517554e+01 2.188284e+01 3.750661e+01 3.640828e+01 2.776798e+01 2.453650e+01 2.422640e+01 2.279554e+01 2.408394e+01 2.317176e+01 6.271967e-02 4.823340e-01 8.678120e-01 1.167111e+00 1.165088e+00 1.828467e+00 1.913144e+00 1.860050e+00 1.930020e+00 1.992642e+00 1.795076e+00 1.863948e+00 1.743971e+00 1.359461e-03 7.012448e-02 1.211969e-01 1.835820e-01 2.049242e-01 3.161282e-01 3.321900e-01 3.425010e-01 3.674819e-01 3.833288e-01 3.385075e-01 3.523499e-01 3.141319e-01 1.416721e-04
<GCONST> 7.991183e+01
<STATE> 4
<MEAN> 39
 8.601124e-01 -7.098252e-01 -1.906306e-01 -5.106947e-02 -1.303295e+00 -7.089897e-01 -2.219734e-01 9.497122e-02 1.315004e-01 -8.851606e-02 -1.761305e-01 -1.141779e-01 5.898122e-01 -1.263892e-02 1.002317e-02 8.081331e-03 5.340966e-04 1.647981e-02 1.212371e-02 3.825644e-03 -2.969748e-03 4.374958e-03 3.650181e-03 8.717505e-04 2.537832e-03 -5.203957e-04 -5.449451e-04 5.763656e-04 -7.281688e-06 6.237562e-05 1.012583e-03 5.102342e-04 2.093235e-04 2.034461e-05 -2.154418e-05 -4.307754e-06 5.601246e-05 3.012855e-05 -4.038909e-05
<VARIANCE> 39
 1.416114e+01 2.711064e+01 2.483347e+01 2.155592e+01 3.557276e+01 3.513986e+01 2.717436e+01 2.368702e+01 2.335053e+01 2.187185e+01 2.263480e+01 2.174814e+01 5.947030e-02 4.661796e-01 8.417701e-01 1.132292e+00 1.122046e+00 1.734720e+00 1.844974e+00 1.811281e+00 1.863078e+00 1.928790e+00 1.719792e+00 1.786130e+00 1.663012e+00 1.284277e-03 6.771681e-02 1.178054e-01 1.782256e-01 1.981291e-01 3.036278e-01 3.222890e-01 3.326626e-01 3.552102e-01 3.735907e-01 3.247321e-01 3.396358e-01 3.010678e-01 1.322723e-04
<GCONST> 7.847998e+01
<TRANSP> 5
 0.000000e+00 1.000000e+00 0.000000e+00 0.000000e+00 0.000000e+00
 0.000000e+00 8.274217e-01 1.725783e-01 0.000000e+00 0.000000e+00
 0.000000e+00 0.000000e+00 8.274220e-01 1.725779e-01 0.000000e+00
 0.000000e+00 0.000000e+00 0.000000e+00 9.655208e-01 3.447924e-02
 0.000000e+00 0.000000e+00 0.000000e+00 0.000000e+00 0.000000e+00
<ENDHMM>
~h "qi"
<BEGINHMM>
<NUMSTATES> 5
<STATE> 2
<MEAN> 39
 -4.232198e-01 7.655137e-01 -1.982718e-01 4.841096e-01 1.047111e-01 5.311725e-01 -1.280554e-01 3.587021e-01 1.437581e-02 -2.757928e-02 5.867642e-02 -5.877188e-02 5.587413e-01 -7.152823e-03 1.074520e-02 -4.515877e-03 4.714896e-03 -5.471796e-04 3.676942e-03 -6.968268e-04 2.218890e-03 3.918168e-03 4.197333e-04 1.627211e-03 2.853543e-03 6.009383e-04 4.825040e-04 -6.507800e-04 1.645360e-04 -5.051792e-04 -6.043661e-05 -6.591372e-04 9.884946e-05 -4.128397e-04 -1.527699e-04 7.009073e-05 -5.706231e-05 2.453603e-05 -2.009733e-05
<VARIANCE> 39
 1.128112e+01 2.537789e+01 1.847205e+01 1.658061e+01 2.355185e+01 2.573744e+01 2.256030e+01 2.415641e+01 2.156949e+01 2.068882e+01 2.170247e+01 1.984713e+01 5.051475e-02 3.989614e-01 8.521132e-01 1.091373e+00 1.133631e+00 1.558875e+00 1.648967e+00 1.732430e+00 1.863613e+00 1.858181e+00 1.662251e+00 1.650294e+00 1.538284e+00 1.179744e-03 6.164299e-02 1.242163e-01 1.860544e-01 2.124124e-01 2.882779e-01 3.055820e-01 3.283453e-01 3.602753e-01 3.700237e-01 3.201877e-01 3.211748e-01 2.898620e-01 1.315347e-04
<GCONST> 7.540411e+01
<STATE> 3
<MEAN> 39
 -4.551184e-01 8.139837e-01 -2.200084e-01 5.025253e-01 1.013844e-01 5.405097e-01 -1.299792e-01 3.636724e-01 3.342251e-02 -2.342017e-02 6.693869e-02 -4.254019e-02 5.618346e-01 -3.968850e-03 5.886454e-03 -3.500913e-03 1.503615e-03 -1.215078e-03 -3.076922e-04 -3.434245e-04 -1.456214e-04 3.324188e-03 8.066982e-04 1.359832e-03 3.109385e-03 4.800907e-04 5.528798e-04 -8.988698e-04 1.975950e-04 -5.709312e-04 -1.315839e-04 -7.035650e-04 4.402140e-05 -4.184434e-04 -1.116548e-04 7.585250e-05 -7.392146e-05 3.917643e-05 -2.263480e-05
<VARIANCE> 39
 1.119277e+01 2.556796e+01 1.855742e+01 1.649137e+01 2.349991e+01 2.597573e+01 2.257126e+01 2.437508e+01 2.163881e+01 2.083637e+01 2.190576e+01 1.991590e+01 4.986588e-02 3.945490e-01 8.527787e-01 1.084088e+00 1.125004e+00 1.547899e+00 1.642957e+00 1.725207e+00 1.862242e+00 1.856176e+00 1.658085e+00 1.651838e+00 1.535019e+00 1.175659e-03 6.111278e-02 1.240251e-01 1.844438e-01 2.108433e-01 2.864701e-01 3.036169e-01 3.261564e-01 3.588642e-01 3.693282e-01 3.192122e-01 3.216464e-01 2.891706e-01 1.311762e-04
<GCONST> 7.532278e+01
<STATE> 4
<MEAN> 39
 -3.698090e-01 8.179957e-01 -2.662037e-01 4.898759e-01 3.073884e-02 4.713990e-01 -9.719311e-02 3.375736e-01 9.789836e-02 -1.683921e-02 5.836271e-02 -3.437844e-02 5.645010e-01 2.821886e-03 -7.709079e-03 4.932795e-04 -5.938576e-03 -1.126976e-03 -7.435350e-03 9.450944e-04 -6.167197e-03 3.119643e-03 5.250383e-04 -4.489927e-05 2.944791e-03 3.457059e-05 3.402849e-04 -7.176236e-04 2.100009e-04 -3.759007e-04 -2.038762e-05 -3.672584e-04 3.043861e-05 -2.291490e-04 -2.631290e-07 1.080205e-05 -8.053525e-05 1.107290e-05 -2.412581e-05
<VARIANCE> 39
 1.126536e+01 2.641488e+01 1.906609e+01 1.632860e+01 2.305750e+01 2.585501e+01 2.277067e+01 2.466276e+01 2.198042e+01 2.095693e+01 2.246847e+01 1.988248e+01 4.947037e-02 3.813432e-01 8.327855e-01 1.047188e+00 1.084401e+00 1.494061e+00 1.603477e+00 1.697450e+00 1.822552e+00 1.833213e+00 1.632761e+00 1.643804e+00 1.492924e+00 1.126398e-03 5.915701e-02 1.203028e-01 1.764369e-01 2.031657e-01 2.783283e-01 2.949303e-01 3.188653e-01 3.484509e-01 3.646790e-01 3.153757e-01 3.200294e-01 2.816691e-01 1.244095e-04
<GCONST> 7.471957e+01
<TRANSP> 5
 0.000000e+00 1.000000e+00 0.000000e+00 0.000000e+00 0.000000e+00
 0.000000e+00 8.271408e-01 1.728592e-01 0.000000e+00 0.000000e+00
 0.000000e+00 0.000000e+00 8.271384e-01 1.728615e-01 0.000000e+00
 0.000000e+00 0.000000e+00 0.000000e+00 9.655811e-01 3.441894e-02
 0.000000e+00 0.000000e+00 0.000000e+00 0.000000e+00 0.000000e+00
<ENDHMM>
~h "si"
<BEGINHMM>
<NUMSTATES> 5
<STATE> 2
<MEAN> 39
 1.010594e-02 6.196024e-02 4.100586e-01 4.125431e-01 -3.025865e-01 5.368356e-01 1.019042e-01 3.551481e-03 8.934444e-02 -1.029693e-01 -5.003356e-02 -1.575518e-01 5.496629e-01 -3.951358e-03 2.882356e-03 7.308966e-03 8.464578e-03 -2.915864e-03 4.097971e-03 2.973214e-03 1.592355e-03 6.117728e-03 2.421768e-03 2.245076e-03 1.827856e-03 4.616858e-04 1.696850e-04 -1.464550e-05 -3.558422e-04 -3.438981e-04 1.298537e-04 -4.646118e-04 -1.679281e-04 -1.368284e-04 -1.948105e-04 -3.365315e-06 -3.316892e-05 6.033238e-05 -9.838535e-06
<VARIANCE> 39
 9.996915e+00 2.062425e+01 1.990925e+01 1.933465e+01 2.433705e+01 2.698610e+01 3.131220e+01 2.302431e+01 2.451122e+01 2.104565e+01 2.144354e+01 1.968615e+01 5.241292e-02 3.908362e-01 7.343373e-01 1.054571e+00 1.201076e+00 1.594577e+00 1.720042e+00 2.019305e+00 1.879748e+00 1.956643e+00 1.728415e+00 1.766974e+00 1.596698e+00 1.123632e-03 5.974497e-02 1.085254e-01 1.762150e-01 2.161433e-01 2.942964e-01 3.128001e-01 3.629278e-01 3.630143e-01 3.762439e-01 3.302845e-01 3.391121e-01 2.985210e-01 1.190018e-04
<GCONST> 7.603429e+01
<STATE> 3
<MEAN> 39
 -9.330004e-03 7.989430e-02 4.477941e-01 4.519856e-01 -3.143839e-01 5.582568e-01 1.120487e-01 1.028262e-02 1.203963e-01 -9.005246e-02 -4.045535e-02 -1.462336e-01 5.520774e-01 -2.942231e-03 2.755687e-03 5.020973e-03 5.707289e-03 -1.527613e-03 1.953405e-03 1.506512e-03 8.754951e-04 5.061151e-03 2.326741e-03 1.818111e-03 2.340145e-03 3.853278e-04 1.577182e-04 -2.807386e-05 -4.204349e-04 -5.388765e-04 2.559017e-04 -3.669056e-04 -3.080876e-04 -1.138692e-04 -1.978237e-04 -2.098767e-05 -9.027556e-05 5.855696e-05 -1.512081e-05
<VARIANCE> 39
 9.899185e+00 2.048650e+01 1.995543e+01 1.939860e+01 2.435536e+01 2.713241e+01 3.175906e+01 2.316084e+01 2.470354e+01 2.107789e+01 2.143602e+01 1.964582e+01 5.176741e-02 3.878169e-01 7.306349e-01 1.048776e+00 1.196538e+00 1.593019e+00 1.725758e+00 2.029534e+00 1.886236e+00 1.959924e+00 1.724025e+00 1.769375e+00 1.597940e+00 1.125031e-03 5.944511e-02 1.080163e-01 1.747461e-01 2.148474e-01 2.937770e-01 3.130852e-01 3.632171e-01 3.631088e-01 3.759152e-01 3.288822e-01 3.398133e-01 2.983034e-01 1.192175e-04
<GCONST> 7.600955e+01
<STATE> 4
<MEAN> 39
 1.728416e-02 1.511866e-01 4.609345e-01 4.615255e-01 -3.369305e-01 6.187669e-01 1.136066e-01 6.048759e-02 2.273282e-01 -3.985476e-02 -5.249921e-02 -1.090491e-01 5.521635e-01 -1.653664e-03 5.464328e-04 -1.884035e-03 -3.603611e-03 3.902906e-03 -3.801961e-03 -5.935304e-04 1.030473e-03 2.735851e-03 3.268195e-03 5.657105e-04 3.772800e-03 -2.595126e-05 1.100634e-05 -1.276946e-04 -3.821694e-04 -4.912167e-04 2.533294e-04 -3.948463e-04 -1.220456e-04 -2.314829e-05 -1.467208e-04 8.361258e-05 -3.963248e-05 6.349067e-05 -2.274709e-05
<VARIANCE> 39
 9.877866e+00 2.107425e+01 2.066480e+01 1.875767e+01 2.420119e+01 2.727601e+01 3.154543e+01 2.360902e+01 2.513731e+01 2.079424e+01 2.079102e+01 1.906178e+01 5.078324e-02 3.707956e-01 7.241638e-01 1.026276e+00 1.140254e+00 1.548704e+00 1.706224e+00 1.973522e+00 1.862324e+00 1.925859e+00 1.673641e+00 1.710800e+00 1.545325e+00 1.075609e-03 5.690823e-02 1.070148e-01 1.683196e-01 2.051960e-01 2.850849e-01 3.080339e-01 3.528773e-01 3.566681e-01 3.693554e-01 3.192197e-01 3.311269e-01 2.881351e-01 1.135598e-04
<GCONST> 7.522299e+01
<TRANSP> 5
 0.000000e+00 1.000000e+00 0.000000e+00 0.000000e+00 0.000000e+00
 0.000000e+00 8.273080e-01 1.726920e-01 0.000000e+00 0.000000e+00
 0.000000e+00 0.000000e+00 8.273067e-01 1.726933e-01 0.000000e+00
 0.000000e+00 0.000000e+00 0.000000e+00 9.656145e-01 3.438545e-02
 0.000000e+00 0.000000e+00 0.000000e+00 0.000000e+00 0.000000e+00
<ENDHMM>
~h "wu"
<BEGINHMM>
<NUMSTATES> 5
<STATE> 2
<MEAN> 39
 1.012766e+00 7.500535e-01 -9.471335e-02 -2.854214e-01 -1.061920e-01 -4.371798e-02 4.261200e-01 4.403513e-01 2.415580e-01 8.427242e-02 -6.886028e-02 -1.461680e-01 5.701609e-01 9.169961e-03 9.151869e-03 2.967026e-03 -8.962417e-04 1.798060e-03 3.596336e-03 5.617289e-03 9.263857e-03 9.132279e-03 6.318693e-03 4.454525e-04 8.399652e-04 5.452544e-04 -8.489808e-04 -7.236759e-04 9.816979e-07 4.212342e-04 4.187430e-05 2.644534e-05 -3.856022e-04 -2.978928e-04 -2.912170e-04 -1.051607e-04 1.065704e-04 1.851325e-04 -2.563153e-05
<VARIANCE> 39
 1.722584e+01 2.686996e+01 2.156454e+01 1.890870e+01 2.501054e+01 2.617978e+01 2.704983e+01 2.472196e+01 2.416492e+01 2.285123e+01 2.309291e+01 2.123896e+01 5.331008e-02 5.165349e-01 8.978580e-01 1.138323e+00 1.305411e+00 1.776231e+00 1.855300e+00 2.007467e+00 2.032332e+00 2.064906e+00 1.838735e+00 1.834051e+00 1.672721e+00 1.072169e-03 7.378449e-02 1.293334e-01 1.900000e-01 2.450918e-01 3.328065e-01 3.457812e-01 3.781204e-01 3.984929e-01 4.044910e-01 3.543187e-01 3.537937e-01 3.158887e-01 1.163728e-04
<GCONST> 7.926961e+01
<STATE> 3
<MEAN> 39
 1.046229e+00 7.892901e-01 -7.615046e-02 -2.826276e-01 -9.348517e-02 -2.083959e-02 4.509661e-01 4.867777e-01 2.877762e-01 1.186377e-01 -6.232364e-02 -1.353791e-01 5.726755e-01 3.515912e-03 4.668592e-03 3.192614e-03 1.438937e-03 2.062583e-03 3.812977e-03 3.285759e-03 6.853148e-03 6.951189e-03 5.428421e-03 1.151250e-03 1.993156e-03 3.770941e-04 -1.002740e-03 -7.625538e-04 3.358276e-05 3.877087e-04 5.733567e-05 4.093510e-05 -4.227146e-04 -4.531297e-04 -3.858333e-04 -1.520731e-04 1.295521e-04 2.130441e-04 -2.884481e-05
<VARIANCE> 39
 1.736009e+01 2.683502e+01 2.145482e+01 1.895759e+01 2.503257e+01 2.620149e+01 2.710246e+01 2.472131e+01 2.410005e+01 2.289250e+01 2.298239e+01 2.115723e+01 5.226292e-02 5.218109e-01 9.004103e-01 1.139272e+00 1.310773e+00 1.785555e+00 1.860579e+00 2.014835e+00 2.034937e+00 2.064998e+00 1.841830e+00 1.830523e+00 1.664994e+00 1.077331e-03 7.447107e-02 1.299090e-01 1.904007e-01 2.463211e-01 3.348930e-01 3.468004e-01 3.791872e-01 3.989581e-01 4.049130e-01 3.551887e-01 3.537563e-01 3.148204e-01 1.175051e-04
<GCONST> 7.932239e+01
<STATE> 4
<MEAN> 39
 9.485893e-01 7.643681e-01 -6.371775e-02 -1.859420e-01 -1.067105e-01 3.560021e-02 4.230928e-01 5.507020e-01 3.803301e-01 2.133751e-01 -1.258416e-02 -7.649633e-02 5.695294e-01 -1.217406e-02 -6.966613e-03 3.480397e-03 4.415168e-03 2.628832e-03 3.291549e-03 -2.703955e-03 -1.727757e-03 2.030042e-03 2.872854e-03 2.363510e-03 3.417958e-03 -1.643615e-04 -7.263049e-04 -5.267248e-04 6.985825e-06 1.356836e-04 4.578606e-05 -3.919162e-05 -3.247797e-04 -4.653432e-04 -2.476707e-04 -9.739453e-05 3.808383e-05 5.863730e-05 -2.362866e-05
<VARIANCE> 39
 1.699734e+01 2.655914e+01 2.129493e+01 1.834768e+01 2.430046e+01 2.576489e+01 2.661968e+01 2.459424e+01 2.356257e+01 2.238973e+01 2.201675e+01 2.035557e+01 5.076716e-02 4.989901e-01 8.700458e-01 1.103506e+00 1.250954e+00 1.712998e+00 1.803024e+00 1.962550e+00 1.985506e+00 2.014400e+00 1.793138e+00 1.769389e+00 1.582879e+00 1.053339e-03 7.155410e-02 1.258911e-01 1.836476e-01 2.356808e-01 3.217763e-01 3.351916e-01 3.682999e-01 3.876010e-01 3.976444e-01 3.470862e-01 3.451332e-01 2.995950e-01 1.138472e-04
<GCONST> 7.815503e+01
<TRANSP> 5
 0.000000e+00 1.000000e+00 0.000000e+00 0.000000e+00 0.000000e+00
 0.000000e+00 8.269864e-01 1.730136e-01 0.000000e+00 0.000000e+00
 0.000000e+00 0.000000e+00 8.269883e-01 1.730117e-01 0.000000e+00
 0.000000e+00 0.000000e+00 0.000000e+00 9.652419e-01 3.475814e-02
 0.000000e+00 0.000000e+00 0.000000e+00 0.000000e+00 0.000000e+00
<ENDHMM>
~h "yi"
<BEGINHMM>
<NUMSTATES> 5
<STATE> 2
<MEAN> 39
 -2.361616e-01 9.002255e-01 -2.038107e-01 5.466117e-01 -4.255792e-02 4.101615e-01 -1.896012e-01 3.074642e-01 -2.448213e-01 -5.618056e-03 -1.087923e-01 -6.680363e-02 5.627206e-01 -8.193515e-03 1.273040e-02 -1.596945e-03 4.728794e-03 -1.513080e-03 4.159480e-03 -3.104983e-03 7.062714e-04 2.036391e-03 5.500191e-03 7.139919e-06 1.918597e-03 3.934876e-04 4.436302e-04 -9.577011e-04 1.065224e-04 -3.850434e-04 -1.559766e-04 -3.569287e-04 2.033080e-04 -3.850781e-04 2.426739e-04 -6.983172e-05 -4.882078e-05 -5.549620e-05 -2.342455e-05
<VARIANCE> 39
 1.100891e+01 2.649086e+01 1.850286e+01 1.803942e+01 2.521687e+01 2.619821e+01 2.484694e+01 2.522704e+01 2.288275e+01 2.274871e+01 2.111558e+01 2.032736e+01 5.177539e-02 3.818281e-01 8.948983e-01 1.066834e+00 1.181072e+00 1.623788e+00 1.679801e+00 1.817322e+00 1.908299e+00 1.917910e+00 1.707144e+00 1.674374e+00 1.530586e+00 1.063826e-03 5.710755e-02 1.305452e-01 1.824161e-01 2.192676e-01 3.030638e-01 3.093523e-01 3.436306e-01 3.669078e-01 3.802346e-01 3.266937e-01 3.257586e-01 2.867662e-01 1.155189e-04
<GCONST> 7.606052e+01
<STATE> 3
<MEAN> 39
 -2.746423e-01 9.507244e-01 -2.107125e-01 5.656126e-01 -5.161115e-02 4.263899e-01 -2.029538e-01 3.033602e-01 -2.298132e-01 2.039471e-02 -1.105112e-01 -5.799133e-02 5.642219e-01 -5.549998e-03 6.166293e-03 -8.411616e-04 2.176616e-03 -2.110594e-03 1.652743e-03 -1.742387e-03 -1.590129e-03 3.087892e-03 4.265256e-03 -1.940771e-04 1.464652e-03 2.231095e-04 4.714137e-04 -1.169477e-03 1.489404e-04 -4.409193e-04 -8.284157e-05 -4.254698e-04 2.576610e-04 -3.669211e-04 1.893405e-04 -2.149984e-04 -3.911910e-05 -8.897104e-05 -2.995012e-05
<VARIANCE> 39
 1.094402e+01 2.634557e+01 1.830011e+01 1.794401e+01 2.509984e+01 2.621620e+01 2.470115e+01 2.523039e+01 2.284867e+01 2.283422e+01 2.119577e+01 2.046197e+01 5.071141e-02 3.795264e-01 8.918560e-01 1.057584e+00 1.175582e+00 1.615866e+00 1.672827e+00 1.808930e+00 1.903653e+00 1.912287e+00 1.709035e+00 1.676901e+00 1.534141e+00 1.061788e-03 5.683113e-02 1.305467e-01 1.810142e-01 2.183361e-01 3.014961e-01 3.076665e-01 3.418416e-01 3.656981e-01 3.795908e-01 3.271524e-01 3.268765e-01 2.874167e-01 1.155794e-04
<GCONST> 7.594601e+01
<STATE> 4
<MEAN> 39
 -2.617413e-01 8.524735e-01 -2.046772e-01 5.069675e-01 -1.089910e-01 4.034838e-01 -1.885353e-01 2.818231e-01 -1.475628e-01 3.985275e-02 -1.285773e-01 -5.486301e-02 5.551891e-01 -1.168418e-03 -8.815737e-03 2.383282e-03 -5.526206e-03 -7.684391e-04 -3.940758e-03 6.806441e-04 -4.933684e-03 4.681303e-03 1.147063e-03 1.622250e-03 2.241144e-03 -2.954410e-04 2.428718e-04 -7.388108e-04 1.748543e-04 -3.847854e-04 7.272684e-05 -2.776863e-04 1.491078e-04 -1.394471e-04 8.908136e-05 -7.266453e-05 8.455593e-05 4.965136e-05 -2.271767e-05
<VARIANCE> 39
 1.088793e+01 2.548679e+01 1.824029e+01 1.740147e+01 2.411552e+01 2.573391e+01 2.394950e+01 2.442137e+01 2.244535e+01 2.224189e+01 2.098719e+01 2.003414e+01 4.923470e-02 3.691482e-01 8.383361e-01 1.018344e+00 1.127090e+00 1.553879e+00 1.622982e+00 1.756162e+00 1.853060e+00 1.885465e+00 1.685125e+00 1.660291e+00 1.503896e+00 1.018409e-03 5.585632e-02 1.234127e-01 1.735290e-01 2.099733e-01 2.910528e-01 2.980979e-01 3.315260e-01 3.561797e-01 3.769839e-01 3.253923e-01 3.262240e-01 2.836501e-01 1.095484e-04
<GCONST> 7.489206e+01
<TRANSP> 5
 0.000000e+00 1.000000e+00 0.000000e+00 0.000000e+00 0.000000e+00
 0.000000e+00 8.266034e-01 1.733966e-01 0.000000e+00 0.000000e+00
 0.000000e+00 0.000000e+00 8.266031e-01 1.733969e-01 0.000000e+00
 0.000000e+00 0.000000e+00 0.000000e+00 9.647951e-01 3.520498e-02
 0.000000e+00 0.000000e+00 0.000000e+00 0.000000e+00 0.000000e+00
<ENDHMM>
~h "ling"
<BEGINHMM>
<NUMSTATES> 5
<STATE> 2
<MEAN> 39
 6.797852e-02 1.066867e+00 2.405082e-01 4.173523e-01 2.723098e-01 3.516752e-01 1.779543e-02 1.660317e-01 -1.967609e-02 -1.404568e-01 -2.382880e-02 -1.778702e-01 5.688623e-01 -2.077956e-03 1.283778e-02 4.948399e-04 2.325966e-03 3.815534e-03 5.537704e-03 2.629371e-03 4.956127e-03 3.865138e-03 1.261836e-03 -6.365156e-04 2.829772e-04 4.776116e-04 -1.614879e-05 -1.008394e-03 -3.323454e-04 -4.426267e-04 -3.108807e-04 -1.786433e-04 3.255202e-05 1.722239e-05 7.006417e-05 2.229533e-04 1.683726e-04 2.294361e-04 -2.571003e-05
<VARIANCE> 39
 1.011891e+01 2.950176e+01 1.866571e+01 1.918562e+01 2.542526e+01 2.600971e+01 2.511845e+01 2.443589e+01 2.377530e+01 2.203226e+01 2.239505e+01 2.095091e+01 5.255960e-02 3.714231e-01 1.004444e+00 1.126320e+00 1.248701e+00 1.632762e+00 1.803342e+00 1.891373e+00 1.970406e+00 2.049926e+00 1.800155e+00 1.766620e+00 1.581873e+00 1.134151e-03 5.628383e-02 1.389435e-01 1.903607e-01 2.278516e-01 3.027735e-01 3.327297e-01 3.574647e-01 3.778271e-01 4.008123e-01 3.456500e-01 3.395795e-01 2.958093e-01 1.322096e-04
<GCONST> 7.744723e+01
<STATE> 3
<MEAN> 39
 5.428091e-02 1.122268e+00 2.373327e-01 4.237221e-01 2.866313e-01 3.799232e-01 3.524968e-02 1.957359e-01 6.296307e-03 -1.287517e-01 -2.234721e-02 -1.705696e-01 5.711525e-01 -2.227990e-03 6.433104e-03 -1.325567e-03 -2.631698e-04 1.264800e-03 4.092721e-03 3.007144e-03 4.820230e-03 4.410145e-03 2.403264e-03 2.868973e-04 1.605056e-03 3.342974e-04 -3.184103e-05 -1.098571e-03 -2.860393e-04 -4.342671e-04 -4.409816e-04 -2.676384e-04 6.761566e-05 -2.219679e-05 1.201990e-04 2.240236e-04 1.907860e-04 2.468416e-04 -2.405780e-05
<VARIANCE> 39
 1.007601e+01 2.952923e+01 1.852377e+01 1.914396e+01 2.536679e+01 2.595441e+01 2.505902e+01 2.439137e+01 2.371473e+01 2.196852e+01 2.234452e+01 2.091991e+01 5.135275e-02 3.704299e-01 1.006800e+00 1.121612e+00 1.243402e+00 1.630589e+00 1.800996e+00 1.888471e+00 1.968233e+00 2.041202e+00 1.796626e+00 1.771342e+00 1.577027e+00 1.133411e-03 5.605806e-02 1.388374e-01 1.894252e-01 2.265854e-01 3.020844e-01 3.320252e-01 3.562309e-01 3.772264e-01 3.991077e-01 3.450223e-01 3.410242e-01 2.948374e-01 1.315897e-04
<GCONST> 7.733717e+01
<STATE> 4
<MEAN> 39
 5.381026e-02 1.062776e+00 1.550551e-01 4.436255e-01 2.010965e-01 4.235784e-01 9.192079e-02 2.608998e-01 1.214104e-01 -5.593407e-02 -7.520934e-03 -1.226749e-01 5.698413e-01 -2.580160e-03 -9.786815e-03 -3.416940e-03 -3.898120e-03 -3.908327e-03 -3.137012e-04 3.059974e-03 3.900580e-04 5.132846e-03 4.662131e-03 1.019335e-03 4.082205e-03 -1.229728e-04 -3.948512e-06 -7.995017e-04 -8.923974e-05 -2.228994e-04 -2.306141e-04 -2.578655e-04 -3.737874e-05 -2.072181e-04 1.994892e-06 1.066736e-04 3.550498e-05 1.147128e-04 -2.176394e-05
<VARIANCE> 39
 1.019797e+01 2.968508e+01 1.851284e+01 1.874977e+01 2.502199e+01 2.538647e+01 2.465312e+01 2.395753e+01 2.306883e+01 2.148855e+01 2.168858e+01 2.056545e+01 4.936380e-02 3.644097e-01 9.658437e-01 1.091488e+00 1.195871e+00 1.592057e+00 1.745514e+00 1.842450e+00 1.922425e+00 1.968749e+00 1.753968e+00 1.742477e+00 1.545979e+00 1.095378e-03 5.481168e-02 1.329260e-01 1.828866e-01 2.177655e-01 2.942102e-01 3.218212e-01 3.451721e-01 3.685828e-01 3.854726e-01 3.374805e-01 3.377331e-01 2.888146e-01 1.242067e-04
<GCONST> 7.637062e+01
<TRANSP> 5
 0.000000e+00 1.000000e+00 0.000000e+00 0.000000e+00 0.000000e+00
 0.000000e+00 8.265631e-01 1.734370e-01 0.000000e+00 0.000000e+00
 0.000000e+00 0.000000e+00 8.265638e-01 1.734362e-01 0.000000e+00
 0.000000e+00 0.000000e+00 0.000000e+00 9.645650e-01 3.543501e-02
 0.000000e+00 0.000000e+00 0.000000e+00 0.000000e+00 0.000000e+00
<ENDHMM>
~h "jiu"
<BEGINHMM>
<NUMSTATES> 5
<STATE> 2
<MEAN> 39
 5.608553e-01 3.415405e-01 -2.954943e-01 2.263134e-01 -1.376394e-01 -2.029636e-01 -3.480740e-01 -1.012685e-01 -1.001907e-01 -1.015048e-01 -7.675537e-02 -3.893658e-02 5.714099e-01 7.747530e-03 3.146663e-03 -7.243951e-03 4.046053e-03 1.109766e-03 -7.095104e-04 -3.426843e-03 1.096827e-03 3.389985e-03 4.389993e-03 -4.699586e-04 1.905185e-03 5.076974e-04 -1.963669e-04 -3.098625e-04 7.689971e-05 -7.385645e-05 4.343066e-05 8.340771e-05 2.396861e-04 2.660665e-05 5.337744e-05 1.489684e-04 -8.701592e-05 1.936283e-05 -1.895678e-05
<VARIANCE> 39
 1.644433e+01 2.222922e+01 2.727122e+01 1.947342e+01 2.676862e+01 2.968514e+01 2.709645e+01 2.470621e+01 2.493753e+01 2.158112e+01 2.292390e+01 2.036932e+01 5.592798e-02 6.129138e-01 1.055689e+00 1.872583e+00 1.446466e+00 2.074287e+00 2.286885e+00 2.274659e+00 2.323038e+00 2.327655e+00 1.988601e+00 1.964808e+00 1.775513e+00 1.316507e-03 7.826649e-02 1.591551e-01 3.020228e-01 2.683955e-01 3.965598e-01 4.164095e-01 4.329723e-01 4.617794e-01 4.632109e-01 3.922419e-01 3.832224e-01 3.398947e-01 1.366798e-04
<GCONST> 8.356976e+01
<STATE> 3
<MEAN> 39
 6.033556e-01 3.506584e-01 -3.366044e-01 2.467337e-01 -1.315495e-01 -2.061605e-01 -3.629862e-01 -9.501264e-02 -7.808375e-02 -7.348236e-02 -7.966743e-02 -2.718740e-02 5.739802e-01 6.141111e-03 1.131484e-03 -6.104940e-03 3.202756e-03 1.317671e-03 -8.211189e-05 -1.580292e-03 1.445031e-03 3.695364e-03 4.915016e-03 -5.672591e-04 1.982589e-03 3.670760e-04 -3.084382e-04 -3.531452e-04 2.361798e-04 -1.618376e-04 2.822751e-05 1.114506e-04 3.341139e-04 4.984723e-05 6.309523e-05 8.129504e-05 3.442748e-07 7.909753e-06 -2.489569e-05
<VARIANCE> 39
 1.673249e+01 2.218281e+01 2.771889e+01 1.949475e+01 2.672021e+01 2.984528e+01 2.724410e+01 2.475835e+01 2.485865e+01 2.145391e+01 2.265521e+01 2.008107e+01 5.509693e-02 6.188433e-01 1.057933e+00 1.888156e+00 1.448434e+00 2.079414e+00 2.304015e+00 2.290681e+00 2.333802e+00 2.330701e+00 1.988804e+00 1.959963e+00 1.767945e+00 1.301097e-03 7.853206e-02 1.594300e-01 3.023797e-01 2.687952e-01 3.971943e-01 4.190656e-01 4.356231e-01 4.632432e-01 4.645547e-01 3.930008e-01 3.833844e-01 3.390761e-01 1.346840e-04
<GCONST> 8.360242e+01
<STATE> 4
<MEAN> 39
 6.711339e-01 3.160485e-01 -4.404297e-01 2.751779e-01 -1.545055e-01 -1.122365e-01 -3.205994e-01 -1.298508e-02 1.867008e-02 2.000961e-02 -7.949925e-02 -3.272653e-02 5.737305e-01 -3.553387e-03 -3.270347e-03 8.690390e-04 -1.317360e-03 3.049915e-03 2.861205e-03 3.466574e-03 2.321336e-03 3.768275e-03 5.026353e-03 1.102597e-03 1.450873e-03 -2.027373e-04 -5.388217e-04 -1.747788e-04 4.080446e-04 -1.930987e-04 7.947242e-05 1.425473e-04 2.624736e-04 3.214986e-05 -2.007562e-05 1.651761e-05 6.590778e-05 -6.228820e-06 -2.922169e-05
<VARIANCE> 39
 1.714214e+01 2.248210e+01 2.807985e+01 1.910651e+01 2.608901e+01 2.920911e+01 2.708046e+01 2.444339e+01 2.412761e+01 2.077653e+01 2.143742e+01 1.889574e+01 5.312484e-02 5.886444e-01 1.004284e+00 1.767363e+00 1.376989e+00 1.975812e+00 2.219131e+00 2.205829e+00 2.240694e+00 2.246949e+00 1.912606e+00 1.867345e+00 1.668104e+00 1.202209e-03 7.412791e-02 1.495719e-01 2.757334e-01 2.541496e-01 3.744796e-01 4.033175e-01 4.156745e-01 4.394929e-01 4.492185e-01 3.784933e-01 3.684813e-01 3.208246e-01 1.230826e-04
<GCONST> 8.198419e+01
<TRANSP> 5
 0.000000e+00 1.000000e+00 0.000000e+00 0.000000e+00 0.000000e+00
 0.000000e+00 8.280297e-01 1.719703e-01 0.000000e+00 0.000000e+00
 0.000000e+00 0.000000e+00 8.280314e-01 1.719686e-01 0.000000e+00
 0.000000e+00 0.000000e+00 0.000000e+00 9.664463e-01 3.355374e-02
 0.000000e+00 0.000000e+00 0.000000e+00 0.000000e+00 0.000000e+00
<ENDHMM>
~h "liu"
<BEGINHMM>
<NUMSTATES> 5
<STATE> 2
<MEAN> 39
 6.865852e-01 2.747233e-01 -1.009970e-01 1.066637e-01 -4.400019e-01 -2.318795e-01 -4.235003e-01 -1.043600e-01 -1.048454e-01 -1.858749e-01 -2.099358e-01 -1.480695e-01 6.000310e-01 3.182492e-03 2.066355e-04 -5.627682e-03 1.885534e-03 -7.224833e-04 -4.256425e-03 -5.075047e-03 -1.958958e-03 1.543826e-03 1.768080e-03 -1.013632e-03 1.608007e-03 4.195544e-04 -3.953585e-04 -3.565034e-04 -1.182952e-04 -7.074132e-05 2.243093e-04 -3.119920e-06 2.925011e-04 -3.449358e-05 -8.340435e-05 -1.406938e-05 -5.623386e-06 -3.784935e-05 -4.889541e-05
<VARIANCE> 39
 1.452984e+01 2.509266e+01 2.743036e+01 1.887914e+01 3.085008e+01 3.202281e+01 2.834010e+01 2.636564e+01 2.673869e+01 2.322552e+01 2.436302e+01 2.282770e+01 6.026002e-02 5.314596e-01 1.051034e+00 1.552804e+00 1.374810e+00 2.079818e+00 2.317666e+00 2.230552e+00 2.264645e+00 2.333122e+00 1.943327e+00 1.999712e+00 1.830145e+00 1.227709e-03 6.951067e-02 1.459180e-01 2.365485e-01 2.493569e-01 3.710707e-01 4.058601e-01 4.186802e-01 4.365797e-01 4.514448e-01 3.706321e-01 3.789095e-01 3.319656e-01 1.365911e-04
<GCONST> 8.298229e+01
<STATE> 3
<MEAN> 39
 7.001854e-01 2.705343e-01 -1.352847e-01 1.171179e-01 -4.395469e-01 -2.564029e-01 -4.464845e-01 -1.158161e-01 -9.782390e-02 -1.765257e-01 -2.171958e-01 -1.405102e-01 6.015702e-01 7.880160e-04 -1.733341e-03 -5.585691e-03 1.892830e-03 1.027049e-03 -3.639403e-03 -2.997159e-03 -1.961271e-03 1.273819e-03 1.519214e-03 -8.833809e-04 1.578604e-03 1.280037e-04 -4.027987e-04 -3.248058e-04 6.480185e-05 4.024643e-06 2.956244e-04 9.126365e-05 3.460714e-04 -2.774333e-05 -6.322163e-05 -7.008147e-05 1.179414e-05 -1.892545e-06 -4.960899e-05
<VARIANCE> 39
 1.471223e+01 2.482667e+01 2.759400e+01 1.892794e+01 3.092580e+01 3.219036e+01 2.851962e+01 2.640271e+01 2.681067e+01 2.332037e+01 2.442979e+01 2.284158e+01 5.937532e-02 5.353791e-01 1.047295e+00 1.566733e+00 1.379342e+00 2.080014e+00 2.334400e+00 2.244395e+00 2.271776e+00 2.342044e+00 1.952822e+00 2.005347e+00 1.837117e+00 1.222826e-03 6.955481e-02 1.451444e-01 2.379898e-01 2.498070e-01 3.706532e-01 4.086649e-01 4.202470e-01 4.373862e-01 4.530634e-01 3.723188e-01 3.795488e-01 3.328354e-01 1.353191e-04
<GCONST> 8.306494e+01
<STATE> 4
<MEAN> 39
 7.341807e-01 2.349364e-01 -2.649860e-01 1.486734e-01 -4.321978e-01 -2.302373e-01 -3.935833e-01 -6.139917e-02 -3.234337e-02 -1.272482e-01 -2.447057e-01 -1.462756e-01 5.935485e-01 -6.398734e-03 -3.957000e-03 -2.372661e-03 2.010813e-03 5.648023e-03 1.418603e-03 4.035481e-03 1.385216e-03 3.217658e-03 4.205459e-03 1.921785e-03 1.963321e-03 -5.368214e-04 -4.465990e-04 -1.062716e-04 2.574471e-04 -1.663360e-05 2.581126e-04 2.456889e-04 3.323754e-04 1.093175e-04 7.814437e-05 9.465525e-05 1.422119e-04 5.670627e-05 -3.583806e-05
<VARIANCE> 39
 1.492602e+01 2.442991e+01 2.739125e+01 1.864857e+01 2.993848e+01 3.131491e+01 2.800010e+01 2.532334e+01 2.565378e+01 2.220667e+01 2.340774e+01 2.149577e+01 5.739902e-02 5.236095e-01 9.943916e-01 1.505961e+00 1.328140e+00 1.968908e+00 2.247937e+00 2.166159e+00 2.184057e+00 2.243985e+00 1.865007e+00 1.915129e+00 1.727864e+00 1.176644e-03 6.759258e-02 1.371112e-01 2.275578e-01 2.398957e-01 3.513663e-01 3.951482e-01 4.018063e-01 4.202937e-01 4.360945e-01 3.569960e-01 3.654540e-01 3.147071e-01 1.271493e-04
<GCONST> 8.155795e+01
<TRANSP> 5
 0.000000e+00 1.000000e+00 0.000000e+00 0.000000e+00 0.000000e+00
 0.000000e+00 8.271373e-01 1.728627e-01 0.000000e+00 0.000000e+00
 0.000000e+00 0.000000e+00 8.271353e-01 1.728647e-01 0.000000e+00
 0.000000e+00 0.000000e+00 0.000000e+00 9.653707e-01 3.462927e-02
 0.000000e+00 0.000000e+00 0.000000e+00 0.000000e+00 0.000000e+00
<ENDHMM>
~h "san"
<BEGINHMM>
<NUMSTATES> 5
<STATE> 2
<MEAN> 39
 3.176223e-01 -6.660329e-01 -2.257553e-01 -3.950828e-01 -8.384352e-01 2.868586e-01 1.092707e-01 1.110514e-01 1.150617e-01 -1.029236e-01 -6.747546e-02 -2.385103e-01 5.717989e-01 1.403174e-04 -5.969676e-03 1.157782e-03 -7.077373e-03 -7.246827e-03 9.159296e-04 -1.810798e-04 1.477975e-03 4.556888e-03 2.984469e-03 -1.084792e-03 -1.384762e-03 5.524958e-04 -4.390148e-04 6.513532e-04 3.076713e-04 2.217339e-04 8.984980e-04 -5.911547e-05 -2.082327e-04 4.151297e-05 -2.141015e-04 -8.405245e-05 -1.927678e-04 2.677084e-05 -3.470759e-05
<VARIANCE> 39
 1.085891e+01 2.760247e+01 1.857432e+01 1.940387e+01 3.345384e+01 2.738057e+01 2.556144e+01 2.246948e+01 2.186860e+01 1.978621e+01 2.118480e+01 2.045259e+01 5.780823e-02 5.200139e-01 9.910621e-01 1.179506e+00 1.317728e+00 2.074078e+00 1.825902e+00 1.911155e+00 1.980445e+00 1.902865e+00 1.712070e+00 1.734993e+00 1.565341e+00 1.564980e-03 8.275485e-02 1.350635e-01 2.006429e-01 2.440778e-01 3.722637e-01 3.309502e-01 3.548529e-01 3.923441e-01 3.774511e-01 3.344298e-01 3.403950e-01 2.937233e-01 1.663797e-04
<GCONST> 7.924280e+01
<STATE> 3
<MEAN> 39
 3.119416e-01 -6.897923e-01 -2.137512e-01 -4.329297e-01 -8.623972e-01 2.917155e-01 1.021758e-01 1.204329e-01 1.364982e-01 -8.657073e-02 -7.694200e-02 -2.443831e-01 5.744467e-01 -1.784732e-03 -1.983211e-03 2.928927e-03 -5.374632e-03 -1.592485e-03 -6.054966e-05 -1.378060e-03 1.100815e-03 3.240695e-03 2.788845e-03 -1.829816e-03 -7.108618e-04 3.534660e-04 -2.958656e-04 6.405865e-04 2.484678e-04 2.759999e-04 9.509627e-04 -1.785858e-04 -1.858561e-04 -5.154825e-05 -2.226509e-04 -1.788564e-05 -1.077950e-04 1.402859e-04 -3.229143e-05
<VARIANCE> 39
 1.082699e+01 2.773912e+01 1.850307e+01 1.944798e+01 3.356428e+01 2.739404e+01 2.565096e+01 2.237562e+01 2.187268e+01 1.987377e+01 2.132284e+01 2.063219e+01 5.698291e-02 5.165591e-01 9.969890e-01 1.174289e+00 1.315497e+00 2.078641e+00 1.827454e+00 1.908941e+00 1.976992e+00 1.903398e+00 1.710650e+00 1.740014e+00 1.566009e+00 1.559334e-03 8.217474e-02 1.352104e-01 1.995559e-01 2.432171e-01 3.728766e-01 3.308437e-01 3.536878e-01 3.912218e-01 3.774580e-01 3.342052e-01 3.415669e-01 2.937603e-01 1.653584e-04
<GCONST> 7.922124e+01
<STATE> 4
<MEAN> 39
 2.949570e-01 -6.068121e-01 -1.791122e-01 -4.151420e-01 -7.880863e-01 2.994822e-01 7.988734e-02 1.531735e-01 1.621062e-01 -6.422506e-02 -1.220773e-01 -2.445136e-01 5.725989e-01 -5.099176e-03 7.880995e-03 5.634862e-03 1.602199e-03 1.199485e-02 -3.856646e-03 -1.289185e-03 -5.433393e-04 5.199253e-04 3.362573e-03 -3.061625e-04 3.027119e-03 -2.877352e-04 -1.288237e-04 4.430703e-04 9.722298e-05 3.416087e-04 6.050680e-04 -2.310061e-04 2.026302e-05 -9.392865e-05 -1.194017e-04 5.585292e-05 7.802346e-05 2.052984e-04 -3.098211e-05
<VARIANCE> 39
 1.078717e+01 2.796081e+01 1.863879e+01 1.911452e+01 3.179435e+01 2.715102e+01 2.575918e+01 2.230787e+01 2.186337e+01 1.995663e+01 2.109095e+01 2.050640e+01 5.456661e-02 4.787722e-01 9.663025e-01 1.127274e+00 1.260743e+00 1.979169e+00 1.790086e+00 1.871645e+00 1.925560e+00 1.889812e+00 1.680234e+00 1.715051e+00 1.528515e+00 1.430111e-03 7.537727e-02 1.303262e-01 1.886670e-01 2.322532e-01 3.581691e-01 3.243722e-01 3.455246e-01 3.791107e-01 3.752472e-01 3.282240e-01 3.385870e-01 2.871763e-01 1.504269e-04
<GCONST> 7.815015e+01
<TRANSP> 5
 0.000000e+00 1.000000e+00 0.000000e+00 0.000000e+00 0.000000e+00
 0.000000e+00 8.265872e-01 1.734128e-01 0.000000e+00 0.000000e+00
 0.000000e+00 0.000000e+00 8.265889e-01 1.734111e-01 0.000000e+00
 0.000000e+00 0.000000e+00 0.000000e+00 9.648668e-01 3.513317e-02
 0.000000e+00 0.000000e+00 0.000000e+00 0.000000e+00 0.000000e+00
<ENDHMM>
~h "sil"
<BEGINHMM>
<NUMSTATES> 5
<STATE> 2
<MEAN> 39
 -1.289232e+00 -5.077510e-01 7.866349e-01 -7.278184e-01 1.469085e+00 -2.663913e-01 1.005941e-01 -6.317106e-01 -4.807760e-01 1.911436e-01 3.532338e-01 4.512388e-01 3.440467e-01 -9.589865e-03 5.868938e-03 9.482928e-03 5.627371e-03 1.748929e-03 7.238190e-03 1.119713e-02 -1.590634e-02 3.100742e-03 8.672593e-03 8.801817e-03 -5.509438e-03 -6.440555e-04 1.360812e-03 1.474444e-03 2.101632e-03 2.137317e-04 -3.859412e-03 -3.417716e-03 -3.211580e-03 -5.068463e-04 -2.517577e-03 -5.438207e-03 -2.031592e-03 2.638851e-03 1.984288e-04
<VARIANCE> 39
 4.109581e+00 8.552138e+00 8.441825e+00 9.561934e+00 1.230013e+01 1.360024e+01 1.443189e+01 1.451125e+01 1.578831e+01 1.348145e+01 1.246360e+01 1.091093e+01 2.141242e-02 1.809472e-01 4.031201e-01 6.545278e-01 8.962686e-01 1.116057e+00 1.255280e+00 1.391735e+00 1.520246e+00 1.789849e+00 1.495234e+00 1.421339e+00 1.146451e+00 2.690078e-04 3.167517e-02 6.930113e-02 1.224726e-01 1.719594e-01 2.116887e-01 2.377066e-01 2.528518e-01 2.900068e-01 3.522878e-01 2.904504e-01 2.885076e-01 2.173277e-01 2.991680e-05
<GCONST> 5.665806e+01
<STATE> 3
<MEAN> 39
 -1.337139e+00 -4.582204e-01 8.461027e-01 -7.250946e-01 1.467066e+00 -2.732417e-01 1.058234e-01 -6.996889e-01 -4.732609e-01 1.878457e-01 3.997427e-01 4.451704e-01 3.442074e-01 -6.058120e-03 9.942363e-03 9.121983e-03 6.663837e-04 -2.115679e-03 -1.966815e-03 -1.336780e-03 -9.484804e-03 2.027830e-03 -7.471594e-04 6.956564e-03 -3.980680e-04 3.213426e-04 6.846322e-04 6.566711e-04 -3.933864e-04 -7.172461e-04 -7.134328e-04 -1.137802e-03 -1.858797e-03 1.914199e-03 2.679896e-04 -1.399080e-03 -1.020658e-04 5.432754e-04 1.667968e-04
<VARIANCE> 39
 4.015749e+00 8.216263e+00 8.238516e+00 9.455198e+00 1.213236e+01 1.340460e+01 1.432968e+01 1.461328e+01 1.570977e+01 1.359701e+01 1.246956e+01 1.103889e+01 2.044004e-02 1.869941e-01 4.042686e-01 6.643323e-01 9.157012e-01 1.117049e+00 1.247775e+00 1.366643e+00 1.515080e+00 1.802071e+00 1.496750e+00 1.435634e+00 1.140883e+00 3.066542e-04 3.501749e-02 7.528735e-02 1.350125e-01 1.894356e-01 2.296081e-01 2.527680e-01 2.696020e-01 3.153996e-01 3.870483e-01 3.146574e-01 3.133516e-01 2.358956e-01 3.574055e-05
<GCONST> 5.787425e+01
<STATE> 4
<MEAN> 39
 -1.080889e+00 -2.499485e-01 6.398185e-01 -5.292615e-01 9.900112e-01 -2.897698e-01 -8.450930e-04 -5.547538e-01 -3.117183e-01 1.409131e-01 3.105593e-01 3.562071e-01 3.852351e-01 6.353529e-03 8.927941e-03 -5.588718e-03 5.083810e-03 -1.601785e-02 -1.873528e-03 -6.497881e-03 8.084374e-03 6.132147e-03 -2.266597e-04 -3.399331e-03 -1.153057e-04 1.696701e-03 9.179640e-04 1.046060e-05 -8.704349e-04 -1.068763e-04 -1.174320e-03 1.350712e-04 -5.068215e-04 2.065462e-03 -1.406968e-04 -1.059459e-03 -3.672457e-04 -4.157833e-04 7.933997e-05
<VARIANCE> 39
 6.254953e+00 1.169879e+01 1.090551e+01 1.104553e+01 1.551714e+01 1.566637e+01 1.668006e+01 1.679012e+01 1.745660e+01 1.558710e+01 1.499879e+01 1.364344e+01 3.504976e-02 2.424010e-01 4.993625e-01 7.549209e-01 9.393212e-01 1.218211e+00 1.315591e+00 1.471631e+00 1.599342e+00 1.866820e+00 1.552223e+00 1.543678e+00 1.264808e+00 5.312756e-04 4.208163e-02 8.509511e-02 1.439885e-01 1.871451e-01 2.403904e-01 2.556863e-01 2.808679e-01 3.198836e-01 3.893309e-01 3.134861e-01 3.220635e-01 2.506677e-01 5.950165e-05
<GCONST> 6.373685e+01
<TRANSP> 5
 0.000000e+00 1.000000e+00 0.000000e+00 0.000000e+00 0.000000e+00
 0.000000e+00 8.274590e-01 1.725410e-01 0.000000e+00 0.000000e+00
 0.000000e+00 0.000000e+00 8.274568e-01 1.725432e-01 0.000000e+00
 0.000000e+00 0.000000e+00 0.000000e+00 9.654478e-01 3.455222e-02
 0.000000e+00 0.000000e+00 0.000000e+00 0.000000e+00 0.000000e+00
<ENDHMM>
