~o
<STREAMINFO> 1 39
<VECSIZE> 39<NULLD><MFCC_E_D_A_Z><DIAGC>
~h "sil"
<BEGINHMM>
<NUMSTATES> 5
<STATE> 2
<MEAN> 39
 -7.717775e-10 -4.878070e-09 1.454085e-09 3.003475e-09 6.513429e-09 1.696043e-10 3.186694e-09 4.892074e-09 3.955360e-09 -4.734917e-09 -8.591472e-09 6.740605e-09 5.260785e-01 -2.284302e-03 1.846268e-03 1.052633e-03 8.540568e-04 -8.509048e-04 4.207340e-04 -2.992790e-04 3.261901e-04 3.719700e-03 2.738534e-03 5.525586e-04 1.653323e-03 2.299624e-04 5.918112e-05 2.562031e-05 4.502249e-05 -1.349452e-04 -1.537967e-04 -1.614598e-04 -2.538188e-04 2.954649e-04 -1.598845e-04 -3.863637e-04 -1.037186e-04 9.627762e-05 2.793309e-06
<VARIANCE> 39
 1.171756e+01 2.431344e+01 2.031924e+01 1.696832e+01 2.466031e+01 2.513740e+01 2.388647e+01 2.226850e+01 2.192716e+01 1.983414e+01 2.001110e+01 1.854249e+01 5.624346e-02 4.084927e-01 8.226188e-01 1.112763e+00 1.150285e+00 1.607826e+00 1.716474e+00 1.807491e+00 1.867579e+00 1.951201e+00 1.692418e+00 1.692390e+00 1.496745e+00 1.044550e-03 6.146747e-02 1.190712e-01 1.852075e-01 2.140591e-01 2.994472e-01 3.155871e-01 3.382671e-01 3.638546e-01 3.884356e-01 3.298851e-01 3.339251e-01 2.832749e-01 1.135669e-04
<GCONST> 7.554456e+01
<STATE> 3
<MEAN> 39
 -7.717775e-10 -4.878070e-09 1.454085e-09 3.003475e-09 6.513429e-09 1.696043e-10 3.186694e-09 4.892074e-09 3.955360e-09 -4.734917e-09 -8.591472e-09 6.740605e-09 5.260785e-01 -2.284302e-03 1.846268e-03 1.052633e-03 8.540568e-04 -8.509048e-04 4.207340e-04 -2.992790e-04 3.261901e-04 3.719700e-03 2.738534e-03 5.525586e-04 1.653323e-03 2.299624e-04 5.918112e-05 2.562031e-05 4.502249e-05 -1.349452e-04 -1.537967e-04 -1.614598e-04 -2.538188e-04 2.954649e-04 -1.598845e-04 -3.863637e-04 -1.037186e-04 9.627762e-05 2.793309e-06
<VARIANCE> 39
 1.171756e+01 2.431344e+01 2.031924e+01 1.696832e+01 2.466031e+01 2.513740e+01 2.388647e+01 2.226850e+01 2.192716e+01 1.983414e+01 2.001110e+01 1.854249e+01 5.624346e-02 4.084927e-01 8.226188e-01 1.112763e+00 1.150285e+00 1.607826e+00 1.716474e+00 1.807491e+00 1.867579e+00 1.951201e+00 1.692418e+00 1.692390e+00 1.496745e+00 1.044550e-03 6.146747e-02 1.190712e-01 1.852075e-01 2.140591e-01 2.994472e-01 3.155871e-01 3.382671e-01 3.638546e-01 3.884356e-01 3.298851e-01 3.339251e-01 2.832749e-01 1.135669e-04
<GCONST> 7.554456e+01
<STATE> 4
<MEAN> 39
 -7.717775e-10 -4.878070e-09 1.454085e-09 3.003475e-09 6.513429e-09 1.696043e-10 3.186694e-09 4.892074e-09 3.955360e-09 -4.734917e-09 -8.591472e-09 6.740605e-09 5.260785e-01 -2.284302e-03 1.846268e-03 1.052633e-03 8.540568e-04 -8.509048e-04 4.207340e-04 -2.992790e-04 3.261901e-04 3.719700e-03 2.738534e-03 5.525586e-04 1.653323e-03 2.299624e-04 5.918112e-05 2.562031e-05 4.502249e-05 -1.349452e-04 -1.537967e-04 -1.614598e-04 -2.538188e-04 2.954649e-04 -1.598845e-04 -3.863637e-04 -1.037186e-04 9.627762e-05 2.793309e-06
<VARIANCE> 39
 1.171756e+01 2.431344e+01 2.031924e+01 1.696832e+01 2.466031e+01 2.513740e+01 2.388647e+01 2.226850e+01 2.192716e+01 1.983414e+01 2.001110e+01 1.854249e+01 5.624346e-02 4.084927e-01 8.226188e-01 1.112763e+00 1.150285e+00 1.607826e+00 1.716474e+00 1.807491e+00 1.867579e+00 1.951201e+00 1.692418e+00 1.692390e+00 1.496745e+00 1.044550e-03 6.146747e-02 1.190712e-01 1.852075e-01 2.140591e-01 2.994472e-01 3.155871e-01 3.382671e-01 3.638546e-01 3.884356e-01 3.298851e-01 3.339251e-01 2.832749e-01 1.135669e-04
<GCONST> 7.554456e+01
<TRANSP> 5
 0.000000e+00 1.000000e+00 0.000000e+00 0.000000e+00 0.000000e+00
 0.000000e+00 6.000000e-01 4.000000e-01 0.000000e+00 0.000000e+00
 0.000000e+00 0.000000e+00 6.000000e-01 4.000000e-01 0.000000e+00
 0.000000e+00 0.000000e+00 0.000000e+00 7.000000e-01 3.000000e-01
 0.000000e+00 0.000000e+00 0.000000e+00 0.000000e+00 0.000000e+00
<ENDHMM>
~h "ling"
<BEGINHMM>
<NUMSTATES> 5
<STATE> 2
<MEAN> 39
 -7.717775e-10 -4.878070e-09 1.454085e-09 3.003475e-09 6.513429e-09 1.696043e-10 3.186694e-09 4.892074e-09 3.955360e-09 -4.734917e-09 -8.591472e-09 6.740605e-09 5.260785e-01 -2.284302e-03 1.846268e-03 1.052633e-03 8.540568e-04 -8.509048e-04 4.207340e-04 -2.992790e-04 3.261901e-04 3.719700e-03 2.738534e-03 5.525586e-04 1.653323e-03 2.299624e-04 5.918112e-05 2.562031e-05 4.502249e-05 -1.349452e-04 -1.537967e-04 -1.614598e-04 -2.538188e-04 2.954649e-04 -1.598845e-04 -3.863637e-04 -1.037186e-04 9.627762e-05 2.793309e-06
<VARIANCE> 39
 1.171756e+01 2.431344e+01 2.031924e+01 1.696832e+01 2.466031e+01 2.513740e+01 2.388647e+01 2.226850e+01 2.192716e+01 1.983414e+01 2.001110e+01 1.854249e+01 5.624346e-02 4.084927e-01 8.226188e-01 1.112763e+00 1.150285e+00 1.607826e+00 1.716474e+00 1.807491e+00 1.867579e+00 1.951201e+00 1.692418e+00 1.692390e+00 1.496745e+00 1.044550e-03 6.146747e-02 1.190712e-01 1.852075e-01 2.140591e-01 2.994472e-01 3.155871e-01 3.382671e-01 3.638546e-01 3.884356e-01 3.298851e-01 3.339251e-01 2.832749e-01 1.135669e-04
<GCONST> 7.554456e+01
<STATE> 3
<MEAN> 39
 -7.717775e-10 -4.878070e-09 1.454085e-09 3.003475e-09 6.513429e-09 1.696043e-10 3.186694e-09 4.892074e-09 3.955360e-09 -4.734917e-09 -8.591472e-09 6.740605e-09 5.260785e-01 -2.284302e-03 1.846268e-03 1.052633e-03 8.540568e-04 -8.509048e-04 4.207340e-04 -2.992790e-04 3.261901e-04 3.719700e-03 2.738534e-03 5.525586e-04 1.653323e-03 2.299624e-04 5.918112e-05 2.562031e-05 4.502249e-05 -1.349452e-04 -1.537967e-04 -1.614598e-04 -2.538188e-04 2.954649e-04 -1.598845e-04 -3.863637e-04 -1.037186e-04 9.627762e-05 2.793309e-06
<VARIANCE> 39
 1.171756e+01 2.431344e+01 2.031924e+01 1.696832e+01 2.466031e+01 2.513740e+01 2.388647e+01 2.226850e+01 2.192716e+01 1.983414e+01 2.001110e+01 1.854249e+01 5.624346e-02 4.084927e-01 8.226188e-01 1.112763e+00 1.150285e+00 1.607826e+00 1.716474e+00 1.807491e+00 1.867579e+00 1.951201e+00 1.692418e+00 1.692390e+00 1.496745e+00 1.044550e-03 6.146747e-02 1.190712e-01 1.852075e-01 2.140591e-01 2.994472e-01 3.155871e-01 3.382671e-01 3.638546e-01 3.884356e-01 3.298851e-01 3.339251e-01 2.832749e-01 1.135669e-04
<GCONST> 7.554456e+01
<STATE> 4
<MEAN> 39
 -7.717775e-10 -4.878070e-09 1.454085e-09 3.003475e-09 6.513429e-09 1.696043e-10 3.186694e-09 4.892074e-09 3.955360e-09 -4.734917e-09 -8.591472e-09 6.740605e-09 5.260785e-01 -2.284302e-03 1.846268e-03 1.052633e-03 8.540568e-04 -8.509048e-04 4.207340e-04 -2.992790e-04 3.261901e-04 3.719700e-03 2.738534e-03 5.525586e-04 1.653323e-03 2.299624e-04 5.918112e-05 2.562031e-05 4.502249e-05 -1.349452e-04 -1.537967e-04 -1.614598e-04 -2.538188e-04 2.954649e-04 -1.598845e-04 -3.863637e-04 -1.037186e-04 9.627762e-05 2.793309e-06
<VARIANCE> 39
 1.171756e+01 2.431344e+01 2.031924e+01 1.696832e+01 2.466031e+01 2.513740e+01 2.388647e+01 2.226850e+01 2.192716e+01 1.983414e+01 2.001110e+01 1.854249e+01 5.624346e-02 4.084927e-01 8.226188e-01 1.112763e+00 1.150285e+00 1.607826e+00 1.716474e+00 1.807491e+00 1.867579e+00 1.951201e+00 1.692418e+00 1.692390e+00 1.496745e+00 1.044550e-03 6.146747e-02 1.190712e-01 1.852075e-01 2.140591e-01 2.994472e-01 3.155871e-01 3.382671e-01 3.638546e-01 3.884356e-01 3.298851e-01 3.339251e-01 2.832749e-01 1.135669e-04
<GCONST> 7.554456e+01
<TRANSP> 5
 0.000000e+00 1.000000e+00 0.000000e+00 0.000000e+00 0.000000e+00
 0.000000e+00 6.000000e-01 4.000000e-01 0.000000e+00 0.000000e+00
 0.000000e+00 0.000000e+00 6.000000e-01 4.000000e-01 0.000000e+00
 0.000000e+00 0.000000e+00 0.000000e+00 7.000000e-01 3.000000e-01
 0.000000e+00 0.000000e+00 0.000000e+00 0.000000e+00 0.000000e+00
<ENDHMM>
~h "yi"
<BEGINHMM>
<NUMSTATES> 5
<STATE> 2
<MEAN> 39
 -7.717775e-10 -4.878070e-09 1.454085e-09 3.003475e-09 6.513429e-09 1.696043e-10 3.186694e-09 4.892074e-09 3.955360e-09 -4.734917e-09 -8.591472e-09 6.740605e-09 5.260785e-01 -2.284302e-03 1.846268e-03 1.052633e-03 8.540568e-04 -8.509048e-04 4.207340e-04 -2.992790e-04 3.261901e-04 3.719700e-03 2.738534e-03 5.525586e-04 1.653323e-03 2.299624e-04 5.918112e-05 2.562031e-05 4.502249e-05 -1.349452e-04 -1.537967e-04 -1.614598e-04 -2.538188e-04 2.954649e-04 -1.598845e-04 -3.863637e-04 -1.037186e-04 9.627762e-05 2.793309e-06
<VARIANCE> 39
 1.171756e+01 2.431344e+01 2.031924e+01 1.696832e+01 2.466031e+01 2.513740e+01 2.388647e+01 2.226850e+01 2.192716e+01 1.983414e+01 2.001110e+01 1.854249e+01 5.624346e-02 4.084927e-01 8.226188e-01 1.112763e+00 1.150285e+00 1.607826e+00 1.716474e+00 1.807491e+00 1.867579e+00 1.951201e+00 1.692418e+00 1.692390e+00 1.496745e+00 1.044550e-03 6.146747e-02 1.190712e-01 1.852075e-01 2.140591e-01 2.994472e-01 3.155871e-01 3.382671e-01 3.638546e-01 3.884356e-01 3.298851e-01 3.339251e-01 2.832749e-01 1.135669e-04
<GCONST> 7.554456e+01
<STATE> 3
<MEAN> 39
 -7.717775e-10 -4.878070e-09 1.454085e-09 3.003475e-09 6.513429e-09 1.696043e-10 3.186694e-09 4.892074e-09 3.955360e-09 -4.734917e-09 -8.591472e-09 6.740605e-09 5.260785e-01 -2.284302e-03 1.846268e-03 1.052633e-03 8.540568e-04 -8.509048e-04 4.207340e-04 -2.992790e-04 3.261901e-04 3.719700e-03 2.738534e-03 5.525586e-04 1.653323e-03 2.299624e-04 5.918112e-05 2.562031e-05 4.502249e-05 -1.349452e-04 -1.537967e-04 -1.614598e-04 -2.538188e-04 2.954649e-04 -1.598845e-04 -3.863637e-04 -1.037186e-04 9.627762e-05 2.793309e-06
<VARIANCE> 39
 1.171756e+01 2.431344e+01 2.031924e+01 1.696832e+01 2.466031e+01 2.513740e+01 2.388647e+01 2.226850e+01 2.192716e+01 1.983414e+01 2.001110e+01 1.854249e+01 5.624346e-02 4.084927e-01 8.226188e-01 1.112763e+00 1.150285e+00 1.607826e+00 1.716474e+00 1.807491e+00 1.867579e+00 1.951201e+00 1.692418e+00 1.692390e+00 1.496745e+00 1.044550e-03 6.146747e-02 1.190712e-01 1.852075e-01 2.140591e-01 2.994472e-01 3.155871e-01 3.382671e-01 3.638546e-01 3.884356e-01 3.298851e-01 3.339251e-01 2.832749e-01 1.135669e-04
<GCONST> 7.554456e+01
<STATE> 4
<MEAN> 39
 -7.717775e-10 -4.878070e-09 1.454085e-09 3.003475e-09 6.513429e-09 1.696043e-10 3.186694e-09 4.892074e-09 3.955360e-09 -4.734917e-09 -8.591472e-09 6.740605e-09 5.260785e-01 -2.284302e-03 1.846268e-03 1.052633e-03 8.540568e-04 -8.509048e-04 4.207340e-04 -2.992790e-04 3.261901e-04 3.719700e-03 2.738534e-03 5.525586e-04 1.653323e-03 2.299624e-04 5.918112e-05 2.562031e-05 4.502249e-05 -1.349452e-04 -1.537967e-04 -1.614598e-04 -2.538188e-04 2.954649e-04 -1.598845e-04 -3.863637e-04 -1.037186e-04 9.627762e-05 2.793309e-06
<VARIANCE> 39
 1.171756e+01 2.431344e+01 2.031924e+01 1.696832e+01 2.466031e+01 2.513740e+01 2.388647e+01 2.226850e+01 2.192716e+01 1.983414e+01 2.001110e+01 1.854249e+01 5.624346e-02 4.084927e-01 8.226188e-01 1.112763e+00 1.150285e+00 1.607826e+00 1.716474e+00 1.807491e+00 1.867579e+00 1.951201e+00 1.692418e+00 1.692390e+00 1.496745e+00 1.044550e-03 6.146747e-02 1.190712e-01 1.852075e-01 2.140591e-01 2.994472e-01 3.155871e-01 3.382671e-01 3.638546e-01 3.884356e-01 3.298851e-01 3.339251e-01 2.832749e-01 1.135669e-04
<GCONST> 7.554456e+01
<TRANSP> 5
 0.000000e+00 1.000000e+00 0.000000e+00 0.000000e+00 0.000000e+00
 0.000000e+00 6.000000e-01 4.000000e-01 0.000000e+00 0.000000e+00
 0.000000e+00 0.000000e+00 6.000000e-01 4.000000e-01 0.000000e+00
 0.000000e+00 0.000000e+00 0.000000e+00 7.000000e-01 3.000000e-01
 0.000000e+00 0.000000e+00 0.000000e+00 0.000000e+00 0.000000e+00
<ENDHMM>
~h "si"
<BEGINHMM>
<NUMSTATES> 5
<STATE> 2
<MEAN> 39
 -7.717775e-10 -4.878070e-09 1.454085e-09 3.003475e-09 6.513429e-09 1.696043e-10 3.186694e-09 4.892074e-09 3.955360e-09 -4.734917e-09 -8.591472e-09 6.740605e-09 5.260785e-01 -2.284302e-03 1.846268e-03 1.052633e-03 8.540568e-04 -8.509048e-04 4.207340e-04 -2.992790e-04 3.261901e-04 3.719700e-03 2.738534e-03 5.525586e-04 1.653323e-03 2.299624e-04 5.918112e-05 2.562031e-05 4.502249e-05 -1.349452e-04 -1.537967e-04 -1.614598e-04 -2.538188e-04 2.954649e-04 -1.598845e-04 -3.863637e-04 -1.037186e-04 9.627762e-05 2.793309e-06
<VARIANCE> 39
 1.171756e+01 2.431344e+01 2.031924e+01 1.696832e+01 2.466031e+01 2.513740e+01 2.388647e+01 2.226850e+01 2.192716e+01 1.983414e+01 2.001110e+01 1.854249e+01 5.624346e-02 4.084927e-01 8.226188e-01 1.112763e+00 1.150285e+00 1.607826e+00 1.716474e+00 1.807491e+00 1.867579e+00 1.951201e+00 1.692418e+00 1.692390e+00 1.496745e+00 1.044550e-03 6.146747e-02 1.190712e-01 1.852075e-01 2.140591e-01 2.994472e-01 3.155871e-01 3.382671e-01 3.638546e-01 3.884356e-01 3.298851e-01 3.339251e-01 2.832749e-01 1.135669e-04
<GCONST> 7.554456e+01
<STATE> 3
<MEAN> 39
 -7.717775e-10 -4.878070e-09 1.454085e-09 3.003475e-09 6.513429e-09 1.696043e-10 3.186694e-09 4.892074e-09 3.955360e-09 -4.734917e-09 -8.591472e-09 6.740605e-09 5.260785e-01 -2.284302e-03 1.846268e-03 1.052633e-03 8.540568e-04 -8.509048e-04 4.207340e-04 -2.992790e-04 3.261901e-04 3.719700e-03 2.738534e-03 5.525586e-04 1.653323e-03 2.299624e-04 5.918112e-05 2.562031e-05 4.502249e-05 -1.349452e-04 -1.537967e-04 -1.614598e-04 -2.538188e-04 2.954649e-04 -1.598845e-04 -3.863637e-04 -1.037186e-04 9.627762e-05 2.793309e-06
<VARIANCE> 39
 1.171756e+01 2.431344e+01 2.031924e+01 1.696832e+01 2.466031e+01 2.513740e+01 2.388647e+01 2.226850e+01 2.192716e+01 1.983414e+01 2.001110e+01 1.854249e+01 5.624346e-02 4.084927e-01 8.226188e-01 1.112763e+00 1.150285e+00 1.607826e+00 1.716474e+00 1.807491e+00 1.867579e+00 1.951201e+00 1.692418e+00 1.692390e+00 1.496745e+00 1.044550e-03 6.146747e-02 1.190712e-01 1.852075e-01 2.140591e-01 2.994472e-01 3.155871e-01 3.382671e-01 3.638546e-01 3.884356e-01 3.298851e-01 3.339251e-01 2.832749e-01 1.135669e-04
<GCONST> 7.554456e+01
<STATE> 4
<MEAN> 39
 -7.717775e-10 -4.878070e-09 1.454085e-09 3.003475e-09 6.513429e-09 1.696043e-10 3.186694e-09 4.892074e-09 3.955360e-09 -4.734917e-09 -8.591472e-09 6.740605e-09 5.260785e-01 -2.284302e-03 1.846268e-03 1.052633e-03 8.540568e-04 -8.509048e-04 4.207340e-04 -2.992790e-04 3.261901e-04 3.719700e-03 2.738534e-03 5.525586e-04 1.653323e-03 2.299624e-04 5.918112e-05 2.562031e-05 4.502249e-05 -1.349452e-04 -1.537967e-04 -1.614598e-04 -2.538188e-04 2.954649e-04 -1.598845e-04 -3.863637e-04 -1.037186e-04 9.627762e-05 2.793309e-06
<VARIANCE> 39
 1.171756e+01 2.431344e+01 2.031924e+01 1.696832e+01 2.466031e+01 2.513740e+01 2.388647e+01 2.226850e+01 2.192716e+01 1.983414e+01 2.001110e+01 1.854249e+01 5.624346e-02 4.084927e-01 8.226188e-01 1.112763e+00 1.150285e+00 1.607826e+00 1.716474e+00 1.807491e+00 1.867579e+00 1.951201e+00 1.692418e+00 1.692390e+00 1.496745e+00 1.044550e-03 6.146747e-02 1.190712e-01 1.852075e-01 2.140591e-01 2.994472e-01 3.155871e-01 3.382671e-01 3.638546e-01 3.884356e-01 3.298851e-01 3.339251e-01 2.832749e-01 1.135669e-04
<GCONST> 7.554456e+01
<TRANSP> 5
 0.000000e+00 1.000000e+00 0.000000e+00 0.000000e+00 0.000000e+00
 0.000000e+00 6.000000e-01 4.000000e-01 0.000000e+00 0.000000e+00
 0.000000e+00 0.000000e+00 6.000000e-01 4.000000e-01 0.000000e+00
 0.000000e+00 0.000000e+00 0.000000e+00 7.000000e-01 3.000000e-01
 0.000000e+00 0.000000e+00 0.000000e+00 0.000000e+00 0.000000e+00
<ENDHMM>
~h "wu"
<BEGINHMM>
<NUMSTATES> 5
<STATE> 2
<MEAN> 39
 -7.717775e-10 -4.878070e-09 1.454085e-09 3.003475e-09 6.513429e-09 1.696043e-10 3.186694e-09 4.892074e-09 3.955360e-09 -4.734917e-09 -8.591472e-09 6.740605e-09 5.260785e-01 -2.284302e-03 1.846268e-03 1.052633e-03 8.540568e-04 -8.509048e-04 4.207340e-04 -2.992790e-04 3.261901e-04 3.719700e-03 2.738534e-03 5.525586e-04 1.653323e-03 2.299624e-04 5.918112e-05 2.562031e-05 4.502249e-05 -1.349452e-04 -1.537967e-04 -1.614598e-04 -2.538188e-04 2.954649e-04 -1.598845e-04 -3.863637e-04 -1.037186e-04 9.627762e-05 2.793309e-06
<VARIANCE> 39
 1.171756e+01 2.431344e+01 2.031924e+01 1.696832e+01 2.466031e+01 2.513740e+01 2.388647e+01 2.226850e+01 2.192716e+01 1.983414e+01 2.001110e+01 1.854249e+01 5.624346e-02 4.084927e-01 8.226188e-01 1.112763e+00 1.150285e+00 1.607826e+00 1.716474e+00 1.807491e+00 1.867579e+00 1.951201e+00 1.692418e+00 1.692390e+00 1.496745e+00 1.044550e-03 6.146747e-02 1.190712e-01 1.852075e-01 2.140591e-01 2.994472e-01 3.155871e-01 3.382671e-01 3.638546e-01 3.884356e-01 3.298851e-01 3.339251e-01 2.832749e-01 1.135669e-04
<GCONST> 7.554456e+01
<STATE> 3
<MEAN> 39
 -7.717775e-10 -4.878070e-09 1.454085e-09 3.003475e-09 6.513429e-09 1.696043e-10 3.186694e-09 4.892074e-09 3.955360e-09 -4.734917e-09 -8.591472e-09 6.740605e-09 5.260785e-01 -2.284302e-03 1.846268e-03 1.052633e-03 8.540568e-04 -8.509048e-04 4.207340e-04 -2.992790e-04 3.261901e-04 3.719700e-03 2.738534e-03 5.525586e-04 1.653323e-03 2.299624e-04 5.918112e-05 2.562031e-05 4.502249e-05 -1.349452e-04 -1.537967e-04 -1.614598e-04 -2.538188e-04 2.954649e-04 -1.598845e-04 -3.863637e-04 -1.037186e-04 9.627762e-05 2.793309e-06
<VARIANCE> 39
 1.171756e+01 2.431344e+01 2.031924e+01 1.696832e+01 2.466031e+01 2.513740e+01 2.388647e+01 2.226850e+01 2.192716e+01 1.983414e+01 2.001110e+01 1.854249e+01 5.624346e-02 4.084927e-01 8.226188e-01 1.112763e+00 1.150285e+00 1.607826e+00 1.716474e+00 1.807491e+00 1.867579e+00 1.951201e+00 1.692418e+00 1.692390e+00 1.496745e+00 1.044550e-03 6.146747e-02 1.190712e-01 1.852075e-01 2.140591e-01 2.994472e-01 3.155871e-01 3.382671e-01 3.638546e-01 3.884356e-01 3.298851e-01 3.339251e-01 2.832749e-01 1.135669e-04
<GCONST> 7.554456e+01
<STATE> 4
<MEAN> 39
 -7.717775e-10 -4.878070e-09 1.454085e-09 3.003475e-09 6.513429e-09 1.696043e-10 3.186694e-09 4.892074e-09 3.955360e-09 -4.734917e-09 -8.591472e-09 6.740605e-09 5.260785e-01 -2.284302e-03 1.846268e-03 1.052633e-03 8.540568e-04 -8.509048e-04 4.207340e-04 -2.992790e-04 3.261901e-04 3.719700e-03 2.738534e-03 5.525586e-04 1.653323e-03 2.299624e-04 5.918112e-05 2.562031e-05 4.502249e-05 -1.349452e-04 -1.537967e-04 -1.614598e-04 -2.538188e-04 2.954649e-04 -1.598845e-04 -3.863637e-04 -1.037186e-04 9.627762e-05 2.793309e-06
<VARIANCE> 39
 1.171756e+01 2.431344e+01 2.031924e+01 1.696832e+01 2.466031e+01 2.513740e+01 2.388647e+01 2.226850e+01 2.192716e+01 1.983414e+01 2.001110e+01 1.854249e+01 5.624346e-02 4.084927e-01 8.226188e-01 1.112763e+00 1.150285e+00 1.607826e+00 1.716474e+00 1.807491e+00 1.867579e+00 1.951201e+00 1.692418e+00 1.692390e+00 1.496745e+00 1.044550e-03 6.146747e-02 1.190712e-01 1.852075e-01 2.140591e-01 2.994472e-01 3.155871e-01 3.382671e-01 3.638546e-01 3.884356e-01 3.298851e-01 3.339251e-01 2.832749e-01 1.135669e-04
<GCONST> 7.554456e+01
<TRANSP> 5
 0.000000e+00 1.000000e+00 0.000000e+00 0.000000e+00 0.000000e+00
 0.000000e+00 6.000000e-01 4.000000e-01 0.000000e+00 0.000000e+00
 0.000000e+00 0.000000e+00 6.000000e-01 4.000000e-01 0.000000e+00
 0.000000e+00 0.000000e+00 0.000000e+00 7.000000e-01 3.000000e-01
 0.000000e+00 0.000000e+00 0.000000e+00 0.000000e+00 0.000000e+00
<ENDHMM>
~h "qi"
<BEGINHMM>
<NUMSTATES> 5
<STATE> 2
<MEAN> 39
 -7.717775e-10 -4.878070e-09 1.454085e-09 3.003475e-09 6.513429e-09 1.696043e-10 3.186694e-09 4.892074e-09 3.955360e-09 -4.734917e-09 -8.591472e-09 6.740605e-09 5.260785e-01 -2.284302e-03 1.846268e-03 1.052633e-03 8.540568e-04 -8.509048e-04 4.207340e-04 -2.992790e-04 3.261901e-04 3.719700e-03 2.738534e-03 5.525586e-04 1.653323e-03 2.299624e-04 5.918112e-05 2.562031e-05 4.502249e-05 -1.349452e-04 -1.537967e-04 -1.614598e-04 -2.538188e-04 2.954649e-04 -1.598845e-04 -3.863637e-04 -1.037186e-04 9.627762e-05 2.793309e-06
<VARIANCE> 39
 1.171756e+01 2.431344e+01 2.031924e+01 1.696832e+01 2.466031e+01 2.513740e+01 2.388647e+01 2.226850e+01 2.192716e+01 1.983414e+01 2.001110e+01 1.854249e+01 5.624346e-02 4.084927e-01 8.226188e-01 1.112763e+00 1.150285e+00 1.607826e+00 1.716474e+00 1.807491e+00 1.867579e+00 1.951201e+00 1.692418e+00 1.692390e+00 1.496745e+00 1.044550e-03 6.146747e-02 1.190712e-01 1.852075e-01 2.140591e-01 2.994472e-01 3.155871e-01 3.382671e-01 3.638546e-01 3.884356e-01 3.298851e-01 3.339251e-01 2.832749e-01 1.135669e-04
<GCONST> 7.554456e+01
<STATE> 3
<MEAN> 39
 -7.717775e-10 -4.878070e-09 1.454085e-09 3.003475e-09 6.513429e-09 1.696043e-10 3.186694e-09 4.892074e-09 3.955360e-09 -4.734917e-09 -8.591472e-09 6.740605e-09 5.260785e-01 -2.284302e-03 1.846268e-03 1.052633e-03 8.540568e-04 -8.509048e-04 4.207340e-04 -2.992790e-04 3.261901e-04 3.719700e-03 2.738534e-03 5.525586e-04 1.653323e-03 2.299624e-04 5.918112e-05 2.562031e-05 4.502249e-05 -1.349452e-04 -1.537967e-04 -1.614598e-04 -2.538188e-04 2.954649e-04 -1.598845e-04 -3.863637e-04 -1.037186e-04 9.627762e-05 2.793309e-06
<VARIANCE> 39
 1.171756e+01 2.431344e+01 2.031924e+01 1.696832e+01 2.466031e+01 2.513740e+01 2.388647e+01 2.226850e+01 2.192716e+01 1.983414e+01 2.001110e+01 1.854249e+01 5.624346e-02 4.084927e-01 8.226188e-01 1.112763e+00 1.150285e+00 1.607826e+00 1.716474e+00 1.807491e+00 1.867579e+00 1.951201e+00 1.692418e+00 1.692390e+00 1.496745e+00 1.044550e-03 6.146747e-02 1.190712e-01 1.852075e-01 2.140591e-01 2.994472e-01 3.155871e-01 3.382671e-01 3.638546e-01 3.884356e-01 3.298851e-01 3.339251e-01 2.832749e-01 1.135669e-04
<GCONST> 7.554456e+01
<STATE> 4
<MEAN> 39
 -7.717775e-10 -4.878070e-09 1.454085e-09 3.003475e-09 6.513429e-09 1.696043e-10 3.186694e-09 4.892074e-09 3.955360e-09 -4.734917e-09 -8.591472e-09 6.740605e-09 5.260785e-01 -2.284302e-03 1.846268e-03 1.052633e-03 8.540568e-04 -8.509048e-04 4.207340e-04 -2.992790e-04 3.261901e-04 3.719700e-03 2.738534e-03 5.525586e-04 1.653323e-03 2.299624e-04 5.918112e-05 2.562031e-05 4.502249e-05 -1.349452e-04 -1.537967e-04 -1.614598e-04 -2.538188e-04 2.954649e-04 -1.598845e-04 -3.863637e-04 -1.037186e-04 9.627762e-05 2.793309e-06
<VARIANCE> 39
 1.171756e+01 2.431344e+01 2.031924e+01 1.696832e+01 2.466031e+01 2.513740e+01 2.388647e+01 2.226850e+01 2.192716e+01 1.983414e+01 2.001110e+01 1.854249e+01 5.624346e-02 4.084927e-01 8.226188e-01 1.112763e+00 1.150285e+00 1.607826e+00 1.716474e+00 1.807491e+00 1.867579e+00 1.951201e+00 1.692418e+00 1.692390e+00 1.496745e+00 1.044550e-03 6.146747e-02 1.190712e-01 1.852075e-01 2.140591e-01 2.994472e-01 3.155871e-01 3.382671e-01 3.638546e-01 3.884356e-01 3.298851e-01 3.339251e-01 2.832749e-01 1.135669e-04
<GCONST> 7.554456e+01
<TRANSP> 5
 0.000000e+00 1.000000e+00 0.000000e+00 0.000000e+00 0.000000e+00
 0.000000e+00 6.000000e-01 4.000000e-01 0.000000e+00 0.000000e+00
 0.000000e+00 0.000000e+00 6.000000e-01 4.000000e-01 0.000000e+00
 0.000000e+00 0.000000e+00 0.000000e+00 7.000000e-01 3.000000e-01
 0.000000e+00 0.000000e+00 0.000000e+00 0.000000e+00 0.000000e+00
<ENDHMM>
~h "er"
<BEGINHMM>
<NUMSTATES> 5
<STATE> 2
<MEAN> 39
 -7.717775e-10 -4.878070e-09 1.454085e-09 3.003475e-09 6.513429e-09 1.696043e-10 3.186694e-09 4.892074e-09 3.955360e-09 -4.734917e-09 -8.591472e-09 6.740605e-09 5.260785e-01 -2.284302e-03 1.846268e-03 1.052633e-03 8.540568e-04 -8.509048e-04 4.207340e-04 -2.992790e-04 3.261901e-04 3.719700e-03 2.738534e-03 5.525586e-04 1.653323e-03 2.299624e-04 5.918112e-05 2.562031e-05 4.502249e-05 -1.349452e-04 -1.537967e-04 -1.614598e-04 -2.538188e-04 2.954649e-04 -1.598845e-04 -3.863637e-04 -1.037186e-04 9.627762e-05 2.793309e-06
<VARIANCE> 39
 1.171756e+01 2.431344e+01 2.031924e+01 1.696832e+01 2.466031e+01 2.513740e+01 2.388647e+01 2.226850e+01 2.192716e+01 1.983414e+01 2.001110e+01 1.854249e+01 5.624346e-02 4.084927e-01 8.226188e-01 1.112763e+00 1.150285e+00 1.607826e+00 1.716474e+00 1.807491e+00 1.867579e+00 1.951201e+00 1.692418e+00 1.692390e+00 1.496745e+00 1.044550e-03 6.146747e-02 1.190712e-01 1.852075e-01 2.140591e-01 2.994472e-01 3.155871e-01 3.382671e-01 3.638546e-01 3.884356e-01 3.298851e-01 3.339251e-01 2.832749e-01 1.135669e-04
<GCONST> 7.554456e+01
<STATE> 3
<MEAN> 39
 -7.717775e-10 -4.878070e-09 1.454085e-09 3.003475e-09 6.513429e-09 1.696043e-10 3.186694e-09 4.892074e-09 3.955360e-09 -4.734917e-09 -8.591472e-09 6.740605e-09 5.260785e-01 -2.284302e-03 1.846268e-03 1.052633e-03 8.540568e-04 -8.509048e-04 4.207340e-04 -2.992790e-04 3.261901e-04 3.719700e-03 2.738534e-03 5.525586e-04 1.653323e-03 2.299624e-04 5.918112e-05 2.562031e-05 4.502249e-05 -1.349452e-04 -1.537967e-04 -1.614598e-04 -2.538188e-04 2.954649e-04 -1.598845e-04 -3.863637e-04 -1.037186e-04 9.627762e-05 2.793309e-06
<VARIANCE> 39
 1.171756e+01 2.431344e+01 2.031924e+01 1.696832e+01 2.466031e+01 2.513740e+01 2.388647e+01 2.226850e+01 2.192716e+01 1.983414e+01 2.001110e+01 1.854249e+01 5.624346e-02 4.084927e-01 8.226188e-01 1.112763e+00 1.150285e+00 1.607826e+00 1.716474e+00 1.807491e+00 1.867579e+00 1.951201e+00 1.692418e+00 1.692390e+00 1.496745e+00 1.044550e-03 6.146747e-02 1.190712e-01 1.852075e-01 2.140591e-01 2.994472e-01 3.155871e-01 3.382671e-01 3.638546e-01 3.884356e-01 3.298851e-01 3.339251e-01 2.832749e-01 1.135669e-04
<GCONST> 7.554456e+01
<STATE> 4
<MEAN> 39
 -7.717775e-10 -4.878070e-09 1.454085e-09 3.003475e-09 6.513429e-09 1.696043e-10 3.186694e-09 4.892074e-09 3.955360e-09 -4.734917e-09 -8.591472e-09 6.740605e-09 5.260785e-01 -2.284302e-03 1.846268e-03 1.052633e-03 8.540568e-04 -8.509048e-04 4.207340e-04 -2.992790e-04 3.261901e-04 3.719700e-03 2.738534e-03 5.525586e-04 1.653323e-03 2.299624e-04 5.918112e-05 2.562031e-05 4.502249e-05 -1.349452e-04 -1.537967e-04 -1.614598e-04 -2.538188e-04 2.954649e-04 -1.598845e-04 -3.863637e-04 -1.037186e-04 9.627762e-05 2.793309e-06
<VARIANCE> 39
 1.171756e+01 2.431344e+01 2.031924e+01 1.696832e+01 2.466031e+01 2.513740e+01 2.388647e+01 2.226850e+01 2.192716e+01 1.983414e+01 2.001110e+01 1.854249e+01 5.624346e-02 4.084927e-01 8.226188e-01 1.112763e+00 1.150285e+00 1.607826e+00 1.716474e+00 1.807491e+00 1.867579e+00 1.951201e+00 1.692418e+00 1.692390e+00 1.496745e+00 1.044550e-03 6.146747e-02 1.190712e-01 1.852075e-01 2.140591e-01 2.994472e-01 3.155871e-01 3.382671e-01 3.638546e-01 3.884356e-01 3.298851e-01 3.339251e-01 2.832749e-01 1.135669e-04
<GCONST> 7.554456e+01
<TRANSP> 5
 0.000000e+00 1.000000e+00 0.000000e+00 0.000000e+00 0.000000e+00
 0.000000e+00 6.000000e-01 4.000000e-01 0.000000e+00 0.000000e+00
 0.000000e+00 0.000000e+00 6.000000e-01 4.000000e-01 0.000000e+00
 0.000000e+00 0.000000e+00 0.000000e+00 7.000000e-01 3.000000e-01
 0.000000e+00 0.000000e+00 0.000000e+00 0.000000e+00 0.000000e+00
<ENDHMM>
~h "liu"
<BEGINHMM>
<NUMSTATES> 5
<STATE> 2
<MEAN> 39
 -7.717775e-10 -4.878070e-09 1.454085e-09 3.003475e-09 6.513429e-09 1.696043e-10 3.186694e-09 4.892074e-09 3.955360e-09 -4.734917e-09 -8.591472e-09 6.740605e-09 5.260785e-01 -2.284302e-03 1.846268e-03 1.052633e-03 8.540568e-04 -8.509048e-04 4.207340e-04 -2.992790e-04 3.261901e-04 3.719700e-03 2.738534e-03 5.525586e-04 1.653323e-03 2.299624e-04 5.918112e-05 2.562031e-05 4.502249e-05 -1.349452e-04 -1.537967e-04 -1.614598e-04 -2.538188e-04 2.954649e-04 -1.598845e-04 -3.863637e-04 -1.037186e-04 9.627762e-05 2.793309e-06
<VARIANCE> 39
 1.171756e+01 2.431344e+01 2.031924e+01 1.696832e+01 2.466031e+01 2.513740e+01 2.388647e+01 2.226850e+01 2.192716e+01 1.983414e+01 2.001110e+01 1.854249e+01 5.624346e-02 4.084927e-01 8.226188e-01 1.112763e+00 1.150285e+00 1.607826e+00 1.716474e+00 1.807491e+00 1.867579e+00 1.951201e+00 1.692418e+00 1.692390e+00 1.496745e+00 1.044550e-03 6.146747e-02 1.190712e-01 1.852075e-01 2.140591e-01 2.994472e-01 3.155871e-01 3.382671e-01 3.638546e-01 3.884356e-01 3.298851e-01 3.339251e-01 2.832749e-01 1.135669e-04
<GCONST> 7.554456e+01
<STATE> 3
<MEAN> 39
 -7.717775e-10 -4.878070e-09 1.454085e-09 3.003475e-09 6.513429e-09 1.696043e-10 3.186694e-09 4.892074e-09 3.955360e-09 -4.734917e-09 -8.591472e-09 6.740605e-09 5.260785e-01 -2.284302e-03 1.846268e-03 1.052633e-03 8.540568e-04 -8.509048e-04 4.207340e-04 -2.992790e-04 3.261901e-04 3.719700e-03 2.738534e-03 5.525586e-04 1.653323e-03 2.299624e-04 5.918112e-05 2.562031e-05 4.502249e-05 -1.349452e-04 -1.537967e-04 -1.614598e-04 -2.538188e-04 2.954649e-04 -1.598845e-04 -3.863637e-04 -1.037186e-04 9.627762e-05 2.793309e-06
<VARIANCE> 39
 1.171756e+01 2.431344e+01 2.031924e+01 1.696832e+01 2.466031e+01 2.513740e+01 2.388647e+01 2.226850e+01 2.192716e+01 1.983414e+01 2.001110e+01 1.854249e+01 5.624346e-02 4.084927e-01 8.226188e-01 1.112763e+00 1.150285e+00 1.607826e+00 1.716474e+00 1.807491e+00 1.867579e+00 1.951201e+00 1.692418e+00 1.692390e+00 1.496745e+00 1.044550e-03 6.146747e-02 1.190712e-01 1.852075e-01 2.140591e-01 2.994472e-01 3.155871e-01 3.382671e-01 3.638546e-01 3.884356e-01 3.298851e-01 3.339251e-01 2.832749e-01 1.135669e-04
<GCONST> 7.554456e+01
<STATE> 4
<MEAN> 39
 -7.717775e-10 -4.878070e-09 1.454085e-09 3.003475e-09 6.513429e-09 1.696043e-10 3.186694e-09 4.892074e-09 3.955360e-09 -4.734917e-09 -8.591472e-09 6.740605e-09 5.260785e-01 -2.284302e-03 1.846268e-03 1.052633e-03 8.540568e-04 -8.509048e-04 4.207340e-04 -2.992790e-04 3.261901e-04 3.719700e-03 2.738534e-03 5.525586e-04 1.653323e-03 2.299624e-04 5.918112e-05 2.562031e-05 4.502249e-05 -1.349452e-04 -1.537967e-04 -1.614598e-04 -2.538188e-04 2.954649e-04 -1.598845e-04 -3.863637e-04 -1.037186e-04 9.627762e-05 2.793309e-06
<VARIANCE> 39
 1.171756e+01 2.431344e+01 2.031924e+01 1.696832e+01 2.466031e+01 2.513740e+01 2.388647e+01 2.226850e+01 2.192716e+01 1.983414e+01 2.001110e+01 1.854249e+01 5.624346e-02 4.084927e-01 8.226188e-01 1.112763e+00 1.150285e+00 1.607826e+00 1.716474e+00 1.807491e+00 1.867579e+00 1.951201e+00 1.692418e+00 1.692390e+00 1.496745e+00 1.044550e-03 6.146747e-02 1.190712e-01 1.852075e-01 2.140591e-01 2.994472e-01 3.155871e-01 3.382671e-01 3.638546e-01 3.884356e-01 3.298851e-01 3.339251e-01 2.832749e-01 1.135669e-04
<GCONST> 7.554456e+01
<TRANSP> 5
 0.000000e+00 1.000000e+00 0.000000e+00 0.000000e+00 0.000000e+00
 0.000000e+00 6.000000e-01 4.000000e-01 0.000000e+00 0.000000e+00
 0.000000e+00 0.000000e+00 6.000000e-01 4.000000e-01 0.000000e+00
 0.000000e+00 0.000000e+00 0.000000e+00 7.000000e-01 3.000000e-01
 0.000000e+00 0.000000e+00 0.000000e+00 0.000000e+00 0.000000e+00
<ENDHMM>
~h "ba"
<BEGINHMM>
<NUMSTATES> 5
<STATE> 2
<MEAN> 39
 -7.717775e-10 -4.878070e-09 1.454085e-09 3.003475e-09 6.513429e-09 1.696043e-10 3.186694e-09 4.892074e-09 3.955360e-09 -4.734917e-09 -8.591472e-09 6.740605e-09 5.260785e-01 -2.284302e-03 1.846268e-03 1.052633e-03 8.540568e-04 -8.509048e-04 4.207340e-04 -2.992790e-04 3.261901e-04 3.719700e-03 2.738534e-03 5.525586e-04 1.653323e-03 2.299624e-04 5.918112e-05 2.562031e-05 4.502249e-05 -1.349452e-04 -1.537967e-04 -1.614598e-04 -2.538188e-04 2.954649e-04 -1.598845e-04 -3.863637e-04 -1.037186e-04 9.627762e-05 2.793309e-06
<VARIANCE> 39
 1.171756e+01 2.431344e+01 2.031924e+01 1.696832e+01 2.466031e+01 2.513740e+01 2.388647e+01 2.226850e+01 2.192716e+01 1.983414e+01 2.001110e+01 1.854249e+01 5.624346e-02 4.084927e-01 8.226188e-01 1.112763e+00 1.150285e+00 1.607826e+00 1.716474e+00 1.807491e+00 1.867579e+00 1.951201e+00 1.692418e+00 1.692390e+00 1.496745e+00 1.044550e-03 6.146747e-02 1.190712e-01 1.852075e-01 2.140591e-01 2.994472e-01 3.155871e-01 3.382671e-01 3.638546e-01 3.884356e-01 3.298851e-01 3.339251e-01 2.832749e-01 1.135669e-04
<GCONST> 7.554456e+01
<STATE> 3
<MEAN> 39
 -7.717775e-10 -4.878070e-09 1.454085e-09 3.003475e-09 6.513429e-09 1.696043e-10 3.186694e-09 4.892074e-09 3.955360e-09 -4.734917e-09 -8.591472e-09 6.740605e-09 5.260785e-01 -2.284302e-03 1.846268e-03 1.052633e-03 8.540568e-04 -8.509048e-04 4.207340e-04 -2.992790e-04 3.261901e-04 3.719700e-03 2.738534e-03 5.525586e-04 1.653323e-03 2.299624e-04 5.918112e-05 2.562031e-05 4.502249e-05 -1.349452e-04 -1.537967e-04 -1.614598e-04 -2.538188e-04 2.954649e-04 -1.598845e-04 -3.863637e-04 -1.037186e-04 9.627762e-05 2.793309e-06
<VARIANCE> 39
 1.171756e+01 2.431344e+01 2.031924e+01 1.696832e+01 2.466031e+01 2.513740e+01 2.388647e+01 2.226850e+01 2.192716e+01 1.983414e+01 2.001110e+01 1.854249e+01 5.624346e-02 4.084927e-01 8.226188e-01 1.112763e+00 1.150285e+00 1.607826e+00 1.716474e+00 1.807491e+00 1.867579e+00 1.951201e+00 1.692418e+00 1.692390e+00 1.496745e+00 1.044550e-03 6.146747e-02 1.190712e-01 1.852075e-01 2.140591e-01 2.994472e-01 3.155871e-01 3.382671e-01 3.638546e-01 3.884356e-01 3.298851e-01 3.339251e-01 2.832749e-01 1.135669e-04
<GCONST> 7.554456e+01
<STATE> 4
<MEAN> 39
 -7.717775e-10 -4.878070e-09 1.454085e-09 3.003475e-09 6.513429e-09 1.696043e-10 3.186694e-09 4.892074e-09 3.955360e-09 -4.734917e-09 -8.591472e-09 6.740605e-09 5.260785e-01 -2.284302e-03 1.846268e-03 1.052633e-03 8.540568e-04 -8.509048e-04 4.207340e-04 -2.992790e-04 3.261901e-04 3.719700e-03 2.738534e-03 5.525586e-04 1.653323e-03 2.299624e-04 5.918112e-05 2.562031e-05 4.502249e-05 -1.349452e-04 -1.537967e-04 -1.614598e-04 -2.538188e-04 2.954649e-04 -1.598845e-04 -3.863637e-04 -1.037186e-04 9.627762e-05 2.793309e-06
<VARIANCE> 39
 1.171756e+01 2.431344e+01 2.031924e+01 1.696832e+01 2.466031e+01 2.513740e+01 2.388647e+01 2.226850e+01 2.192716e+01 1.983414e+01 2.001110e+01 1.854249e+01 5.624346e-02 4.084927e-01 8.226188e-01 1.112763e+00 1.150285e+00 1.607826e+00 1.716474e+00 1.807491e+00 1.867579e+00 1.951201e+00 1.692418e+00 1.692390e+00 1.496745e+00 1.044550e-03 6.146747e-02 1.190712e-01 1.852075e-01 2.140591e-01 2.994472e-01 3.155871e-01 3.382671e-01 3.638546e-01 3.884356e-01 3.298851e-01 3.339251e-01 2.832749e-01 1.135669e-04
<GCONST> 7.554456e+01
<TRANSP> 5
 0.000000e+00 1.000000e+00 0.000000e+00 0.000000e+00 0.000000e+00
 0.000000e+00 6.000000e-01 4.000000e-01 0.000000e+00 0.000000e+00
 0.000000e+00 0.000000e+00 6.000000e-01 4.000000e-01 0.000000e+00
 0.000000e+00 0.000000e+00 0.000000e+00 7.000000e-01 3.000000e-01
 0.000000e+00 0.000000e+00 0.000000e+00 0.000000e+00 0.000000e+00
<ENDHMM>
~h "jiu"
<BEGINHMM>
<NUMSTATES> 5
<STATE> 2
<MEAN> 39
 -7.717775e-10 -4.878070e-09 1.454085e-09 3.003475e-09 6.513429e-09 1.696043e-10 3.186694e-09 4.892074e-09 3.955360e-09 -4.734917e-09 -8.591472e-09 6.740605e-09 5.260785e-01 -2.284302e-03 1.846268e-03 1.052633e-03 8.540568e-04 -8.509048e-04 4.207340e-04 -2.992790e-04 3.261901e-04 3.719700e-03 2.738534e-03 5.525586e-04 1.653323e-03 2.299624e-04 5.918112e-05 2.562031e-05 4.502249e-05 -1.349452e-04 -1.537967e-04 -1.614598e-04 -2.538188e-04 2.954649e-04 -1.598845e-04 -3.863637e-04 -1.037186e-04 9.627762e-05 2.793309e-06
<VARIANCE> 39
 1.171756e+01 2.431344e+01 2.031924e+01 1.696832e+01 2.466031e+01 2.513740e+01 2.388647e+01 2.226850e+01 2.192716e+01 1.983414e+01 2.001110e+01 1.854249e+01 5.624346e-02 4.084927e-01 8.226188e-01 1.112763e+00 1.150285e+00 1.607826e+00 1.716474e+00 1.807491e+00 1.867579e+00 1.951201e+00 1.692418e+00 1.692390e+00 1.496745e+00 1.044550e-03 6.146747e-02 1.190712e-01 1.852075e-01 2.140591e-01 2.994472e-01 3.155871e-01 3.382671e-01 3.638546e-01 3.884356e-01 3.298851e-01 3.339251e-01 2.832749e-01 1.135669e-04
<GCONST> 7.554456e+01
<STATE> 3
<MEAN> 39
 -7.717775e-10 -4.878070e-09 1.454085e-09 3.003475e-09 6.513429e-09 1.696043e-10 3.186694e-09 4.892074e-09 3.955360e-09 -4.734917e-09 -8.591472e-09 6.740605e-09 5.260785e-01 -2.284302e-03 1.846268e-03 1.052633e-03 8.540568e-04 -8.509048e-04 4.207340e-04 -2.992790e-04 3.261901e-04 3.719700e-03 2.738534e-03 5.525586e-04 1.653323e-03 2.299624e-04 5.918112e-05 2.562031e-05 4.502249e-05 -1.349452e-04 -1.537967e-04 -1.614598e-04 -2.538188e-04 2.954649e-04 -1.598845e-04 -3.863637e-04 -1.037186e-04 9.627762e-05 2.793309e-06
<VARIANCE> 39
 1.171756e+01 2.431344e+01 2.031924e+01 1.696832e+01 2.466031e+01 2.513740e+01 2.388647e+01 2.226850e+01 2.192716e+01 1.983414e+01 2.001110e+01 1.854249e+01 5.624346e-02 4.084927e-01 8.226188e-01 1.112763e+00 1.150285e+00 1.607826e+00 1.716474e+00 1.807491e+00 1.867579e+00 1.951201e+00 1.692418e+00 1.692390e+00 1.496745e+00 1.044550e-03 6.146747e-02 1.190712e-01 1.852075e-01 2.140591e-01 2.994472e-01 3.155871e-01 3.382671e-01 3.638546e-01 3.884356e-01 3.298851e-01 3.339251e-01 2.832749e-01 1.135669e-04
<GCONST> 7.554456e+01
<STATE> 4
<MEAN> 39
 -7.717775e-10 -4.878070e-09 1.454085e-09 3.003475e-09 6.513429e-09 1.696043e-10 3.186694e-09 4.892074e-09 3.955360e-09 -4.734917e-09 -8.591472e-09 6.740605e-09 5.260785e-01 -2.284302e-03 1.846268e-03 1.052633e-03 8.540568e-04 -8.509048e-04 4.207340e-04 -2.992790e-04 3.261901e-04 3.719700e-03 2.738534e-03 5.525586e-04 1.653323e-03 2.299624e-04 5.918112e-05 2.562031e-05 4.502249e-05 -1.349452e-04 -1.537967e-04 -1.614598e-04 -2.538188e-04 2.954649e-04 -1.598845e-04 -3.863637e-04 -1.037186e-04 9.627762e-05 2.793309e-06
<VARIANCE> 39
 1.171756e+01 2.431344e+01 2.031924e+01 1.696832e+01 2.466031e+01 2.513740e+01 2.388647e+01 2.226850e+01 2.192716e+01 1.983414e+01 2.001110e+01 1.854249e+01 5.624346e-02 4.084927e-01 8.226188e-01 1.112763e+00 1.150285e+00 1.607826e+00 1.716474e+00 1.807491e+00 1.867579e+00 1.951201e+00 1.692418e+00 1.692390e+00 1.496745e+00 1.044550e-03 6.146747e-02 1.190712e-01 1.852075e-01 2.140591e-01 2.994472e-01 3.155871e-01 3.382671e-01 3.638546e-01 3.884356e-01 3.298851e-01 3.339251e-01 2.832749e-01 1.135669e-04
<GCONST> 7.554456e+01
<TRANSP> 5
 0.000000e+00 1.000000e+00 0.000000e+00 0.000000e+00 0.000000e+00
 0.000000e+00 6.000000e-01 4.000000e-01 0.000000e+00 0.000000e+00
 0.000000e+00 0.000000e+00 6.000000e-01 4.000000e-01 0.000000e+00
 0.000000e+00 0.000000e+00 0.000000e+00 7.000000e-01 3.000000e-01
 0.000000e+00 0.000000e+00 0.000000e+00 0.000000e+00 0.000000e+00
<ENDHMM>
~h "san"
<BEGINHMM>
<NUMSTATES> 5
<STATE> 2
<MEAN> 39
 -7.717775e-10 -4.878070e-09 1.454085e-09 3.003475e-09 6.513429e-09 1.696043e-10 3.186694e-09 4.892074e-09 3.955360e-09 -4.734917e-09 -8.591472e-09 6.740605e-09 5.260785e-01 -2.284302e-03 1.846268e-03 1.052633e-03 8.540568e-04 -8.509048e-04 4.207340e-04 -2.992790e-04 3.261901e-04 3.719700e-03 2.738534e-03 5.525586e-04 1.653323e-03 2.299624e-04 5.918112e-05 2.562031e-05 4.502249e-05 -1.349452e-04 -1.537967e-04 -1.614598e-04 -2.538188e-04 2.954649e-04 -1.598845e-04 -3.863637e-04 -1.037186e-04 9.627762e-05 2.793309e-06
<VARIANCE> 39
 1.171756e+01 2.431344e+01 2.031924e+01 1.696832e+01 2.466031e+01 2.513740e+01 2.388647e+01 2.226850e+01 2.192716e+01 1.983414e+01 2.001110e+01 1.854249e+01 5.624346e-02 4.084927e-01 8.226188e-01 1.112763e+00 1.150285e+00 1.607826e+00 1.716474e+00 1.807491e+00 1.867579e+00 1.951201e+00 1.692418e+00 1.692390e+00 1.496745e+00 1.044550e-03 6.146747e-02 1.190712e-01 1.852075e-01 2.140591e-01 2.994472e-01 3.155871e-01 3.382671e-01 3.638546e-01 3.884356e-01 3.298851e-01 3.339251e-01 2.832749e-01 1.135669e-04
<GCONST> 7.554456e+01
<STATE> 3
<MEAN> 39
 -7.717775e-10 -4.878070e-09 1.454085e-09 3.003475e-09 6.513429e-09 1.696043e-10 3.186694e-09 4.892074e-09 3.955360e-09 -4.734917e-09 -8.591472e-09 6.740605e-09 5.260785e-01 -2.284302e-03 1.846268e-03 1.052633e-03 8.540568e-04 -8.509048e-04 4.207340e-04 -2.992790e-04 3.261901e-04 3.719700e-03 2.738534e-03 5.525586e-04 1.653323e-03 2.299624e-04 5.918112e-05 2.562031e-05 4.502249e-05 -1.349452e-04 -1.537967e-04 -1.614598e-04 -2.538188e-04 2.954649e-04 -1.598845e-04 -3.863637e-04 -1.037186e-04 9.627762e-05 2.793309e-06
<VARIANCE> 39
 1.171756e+01 2.431344e+01 2.031924e+01 1.696832e+01 2.466031e+01 2.513740e+01 2.388647e+01 2.226850e+01 2.192716e+01 1.983414e+01 2.001110e+01 1.854249e+01 5.624346e-02 4.084927e-01 8.226188e-01 1.112763e+00 1.150285e+00 1.607826e+00 1.716474e+00 1.807491e+00 1.867579e+00 1.951201e+00 1.692418e+00 1.692390e+00 1.496745e+00 1.044550e-03 6.146747e-02 1.190712e-01 1.852075e-01 2.140591e-01 2.994472e-01 3.155871e-01 3.382671e-01 3.638546e-01 3.884356e-01 3.298851e-01 3.339251e-01 2.832749e-01 1.135669e-04
<GCONST> 7.554456e+01
<STATE> 4
<MEAN> 39
 -7.717775e-10 -4.878070e-09 1.454085e-09 3.003475e-09 6.513429e-09 1.696043e-10 3.186694e-09 4.892074e-09 3.955360e-09 -4.734917e-09 -8.591472e-09 6.740605e-09 5.260785e-01 -2.284302e-03 1.846268e-03 1.052633e-03 8.540568e-04 -8.509048e-04 4.207340e-04 -2.992790e-04 3.261901e-04 3.719700e-03 2.738534e-03 5.525586e-04 1.653323e-03 2.299624e-04 5.918112e-05 2.562031e-05 4.502249e-05 -1.349452e-04 -1.537967e-04 -1.614598e-04 -2.538188e-04 2.954649e-04 -1.598845e-04 -3.863637e-04 -1.037186e-04 9.627762e-05 2.793309e-06
<VARIANCE> 39
 1.171756e+01 2.431344e+01 2.031924e+01 1.696832e+01 2.466031e+01 2.513740e+01 2.388647e+01 2.226850e+01 2.192716e+01 1.983414e+01 2.001110e+01 1.854249e+01 5.624346e-02 4.084927e-01 8.226188e-01 1.112763e+00 1.150285e+00 1.607826e+00 1.716474e+00 1.807491e+00 1.867579e+00 1.951201e+00 1.692418e+00 1.692390e+00 1.496745e+00 1.044550e-03 6.146747e-02 1.190712e-01 1.852075e-01 2.140591e-01 2.994472e-01 3.155871e-01 3.382671e-01 3.638546e-01 3.884356e-01 3.298851e-01 3.339251e-01 2.832749e-01 1.135669e-04
<GCONST> 7.554456e+01
<TRANSP> 5
 0.000000e+00 1.000000e+00 0.000000e+00 0.000000e+00 0.000000e+00
 0.000000e+00 6.000000e-01 4.000000e-01 0.000000e+00 0.000000e+00
 0.000000e+00 0.000000e+00 6.000000e-01 4.000000e-01 0.000000e+00
 0.000000e+00 0.000000e+00 0.000000e+00 7.000000e-01 3.000000e-01
 0.000000e+00 0.000000e+00 0.000000e+00 0.000000e+00 0.000000e+00
<ENDHMM>
