~o
<STREAMINFO> 1 39
<VECSIZE> 39<NULLD><MFCC_E_D_A_Z><DIAGC>
~h "ba"
<BEGINHMM>
<NUMSTATES> 5
<STATE> 2
<MEAN> 39
 1.260669e+00 -2.158296e+00 -2.071069e+00 -4.250230e-01 -2.700258e-01 -9.770182e-01 5.586594e-01 -3.245462e-02 5.491378e-01 -2.967160e-01 -4.418726e-01 -3.234030e-01 5.914322e-01 2.778232e-01 -8.206192e-01 -6.598533e-01 -9.904256e-03 -3.378997e-01 -2.185382e-01 1.500859e-01 5.924578e-02 2.614037e-01 -6.579180e-02 -1.136496e-01 -4.027487e-02 2.917813e-02 2.540830e-02 -1.486812e-01 -1.192012e-01 3.425897e-02 -4.625510e-02 -9.097211e-04 2.575397e-02 1.827793e-02 1.860297e-02 -3.114733e-02 -3.569186e-02 -2.502973e-02 5.956423e-03
<VARIANCE> 39
 1.682973e+01 4.043757e+01 3.549930e+01 1.386450e+01 2.351789e+01 2.670552e+01 2.148867e+01 2.111883e+01 1.966390e+01 1.661126e+01 1.889496e+01 1.960397e+01 6.919891e-02 2.037450e+00 2.501934e+00 3.094281e+00 1.403700e+00 2.556729e+00 2.876514e+00 2.523285e+00 2.406080e+00 2.258781e+00 1.921081e+00 1.882089e+00 1.918653e+00 6.748677e-03 3.615198e-01 3.501921e-01 4.772336e-01 2.458823e-01 4.831140e-01 5.348365e-01 4.862627e-01 4.523616e-01 4.398843e-01 3.664701e-01 3.541214e-01 3.477299e-01 8.785448e-04
<GCONST> 9.260790e+01
<STATE> 3
<MEAN> 39
 2.429828e+00 -8.018958e+00 -6.410417e+00 2.304181e-01 -2.423812e+00 -1.523910e+00 1.577508e+00 5.071312e-01 1.868119e+00 -1.305279e+00 -1.475866e+00 -1.012445e+00 7.921489e-01 -2.601410e-03 -5.854337e-01 -3.594620e-01 1.833787e-01 -4.589994e-02 1.048928e-01 1.755063e-01 1.119153e-01 1.113297e-01 -9.329121e-02 -6.042108e-02 -1.669267e-02 1.967445e-02 -8.730044e-02 1.296967e-01 1.452200e-01 4.009617e-02 8.809981e-02 5.772838e-02 -2.795942e-02 -5.834120e-03 -5.117786e-02 1.787150e-02 3.541696e-02 2.070892e-02 -6.466560e-03
<VARIANCE> 39
 1.585151e+01 4.642274e+01 4.193774e+01 1.944937e+01 2.333265e+01 3.819985e+01 2.706403e+01 2.705719e+01 2.314760e+01 2.078977e+01 2.299956e+01 2.640093e+01 5.049637e-02 1.429485e+00 2.867146e+00 2.771685e+00 1.518406e+00 2.194646e+00 2.756057e+00 2.560612e+00 2.057860e+00 1.860663e+00 1.813432e+00 1.635170e+00 1.618057e+00 4.041214e-03 2.622686e-01 3.255121e-01 3.945037e-01 2.388976e-01 4.226676e-01 5.250704e-01 4.777147e-01 3.895130e-01 3.475140e-01 3.377611e-01 2.955567e-01 2.924809e-01 5.231756e-04
<GCONST> 9.080208e+01
<STATE> 4
<MEAN> 39
 1.832009e+00 -9.763830e+00 -6.249704e+00 1.614898e+00 -2.036139e+00 -4.660517e-01 2.430251e+00 1.410394e+00 2.093473e+00 -8.671980e-01 -7.642956e-01 -3.898904e-01 7.949085e-01 -8.569905e-02 4.303232e-01 3.479938e-01 -9.254920e-02 2.648952e-02 6.010016e-02 -1.003309e-01 -4.345874e-02 -9.740972e-02 5.613495e-02 5.150684e-02 9.202474e-03 -1.335051e-02 1.225438e-02 6.883100e-02 2.863320e-02 -2.960705e-02 -8.807263e-03 -1.450947e-02 -2.471855e-02 -1.516417e-02 -1.375629e-02 6.190197e-03 3.305398e-03 1.325121e-03 -8.642178e-04
<VARIANCE> 39
 1.034368e+01 3.666806e+01 3.959916e+01 2.093867e+01 1.886348e+01 2.936245e+01 2.140013e+01 2.211718e+01 1.878662e+01 1.907280e+01 1.791090e+01 1.807412e+01 3.519265e-02 3.183129e-01 9.334002e-01 8.278754e-01 9.053621e-01 1.036251e+00 1.042835e+00 1.026128e+00 9.972428e-01 9.219451e-01 9.225037e-01 8.347515e-01 7.153607e-01 7.232889e-04 4.872167e-02 1.098068e-01 1.240220e-01 1.409180e-01 1.794598e-01 1.854199e-01 1.884972e-01 1.812833e-01 1.723080e-01 1.732378e-01 1.574224e-01 1.331926e-01 8.422207e-05
<GCONST> 6.300113e+01
<TRANSP> 5
 0.000000e+00 1.000000e+00 0.000000e+00 0.000000e+00 0.000000e+00
 0.000000e+00 8.831301e-01 1.168699e-01 0.000000e+00 0.000000e+00
 0.000000e+00 0.000000e+00 8.654339e-01 1.345661e-01 0.000000e+00
 0.000000e+00 0.000000e+00 0.000000e+00 9.485022e-01 5.149773e-02
 0.000000e+00 0.000000e+00 0.000000e+00 0.000000e+00 0.000000e+00
<ENDHMM>
~h "er"
<BEGINHMM>
<NUMSTATES> 5
<STATE> 2
<MEAN> 39
 2.894876e+00 -3.672784e+00 -2.028133e+00 -1.130307e+00 -5.763926e+00 -3.711035e+00 -1.180787e+00 5.351565e-01 -1.785580e-01 -6.360945e-01 -6.299958e-01 -4.048238e-01 7.276761e-01 3.436316e-01 -5.051230e-01 -1.359644e-01 -7.560737e-02 -7.492117e-01 -4.308566e-01 -8.639190e-02 2.618798e-02 5.881078e-03 -6.246141e-02 -1.008297e-01 -5.239412e-02 2.699253e-02 -4.564334e-03 1.567927e-02 1.664245e-02 2.206109e-02 3.307892e-02 4.439404e-02 6.106315e-03 -1.607101e-02 -1.154992e-02 3.098815e-03 -7.710165e-03 -4.293678e-03 6.228835e-04
<VARIANCE> 39
 1.279434e+01 3.215953e+01 3.031963e+01 2.962371e+01 4.616325e+01 4.741936e+01 4.180676e+01 3.747749e+01 3.150220e+01 3.031808e+01 4.196799e+01 4.158280e+01 5.198039e-02 7.690904e-01 1.256627e+00 1.516702e+00 1.487501e+00 2.851117e+00 3.011558e+00 2.702736e+00 2.982840e+00 2.634269e+00 2.537078e+00 2.953657e+00 2.919848e+00 2.593224e-03 1.228587e-01 1.777391e-01 2.067363e-01 2.205626e-01 4.727684e-01 4.747022e-01 4.714180e-01 5.306345e-01 4.708844e-01 4.516868e-01 5.082023e-01 4.802488e-01 3.228959e-04
<GCONST> 9.324261e+01
<STATE> 3
<MEAN> 39
 3.963941e+00 -5.474205e+00 -1.256537e+00 -1.754314e+00 -8.331568e+00 -4.087618e+00 -1.470105e+00 1.025018e-02 -4.023114e-01 -1.163525e+00 -1.761814e+00 -1.385566e+00 8.417957e-01 6.961402e-02 2.278208e-02 1.833603e-01 5.142881e-02 1.385198e-02 1.012361e-02 -4.447965e-02 -4.442830e-02 6.345119e-02 4.128710e-02 3.005178e-02 1.639978e-02 6.162756e-03 -4.439978e-02 6.884048e-02 2.541026e-02 1.612094e-02 1.131579e-01 6.269357e-02 1.680701e-02 4.520459e-03 1.768258e-02 2.733938e-02 3.708365e-02 3.821724e-02 -3.793484e-03
<VARIANCE> 39
 9.529590e+00 2.371620e+01 3.481048e+01 4.439773e+01 3.934933e+01 4.987285e+01 3.872039e+01 3.400437e+01 3.488505e+01 3.903645e+01 5.690042e+01 5.992728e+01 2.841928e-02 4.969070e-01 9.622256e-01 1.148060e+00 1.064125e+00 2.130159e+00 2.022040e+00 1.903764e+00 2.026634e+00 2.232421e+00 2.646660e+00 3.248481e+00 3.420703e+00 1.813802e-03 7.153287e-02 1.066198e-01 1.481657e-01 1.559023e-01 3.002639e-01 3.100101e-01 3.181954e-01 3.473563e-01 3.755682e-01 4.346994e-01 5.255176e-01 5.021937e-01 1.566264e-04
<GCONST> 8.601398e+01
<STATE> 4
<MEAN> 39
 3.374475e+00 -2.894892e+00 4.222012e-01 4.090858e-03 -4.817365e+00 -3.833376e+00 -1.219555e+00 -1.693296e-01 5.465624e-01 3.374580e-02 1.253991e-01 6.572865e-01 7.342591e-01 -1.821678e-01 2.553746e-01 1.569645e-01 5.795015e-02 3.214416e-01 2.530521e-01 4.868343e-02 -4.798613e-02 -3.567786e-02 6.784922e-03 1.148546e-02 1.642779e-02 -1.403980e-02 -2.253442e-02 1.091144e-02 -1.871265e-02 -4.129131e-04 2.751864e-02 2.292365e-02 8.333089e-03 5.202338e-03 -8.358189e-03 -7.287908e-03 -1.198809e-02 -1.672535e-02 -1.235377e-03
<VARIANCE> 39
 1.156575e+01 1.651958e+01 3.386404e+01 3.174163e+01 3.597997e+01 4.937622e+01 3.089842e+01 1.988002e+01 2.534914e+01 2.398510e+01 1.921934e+01 1.786341e+01 4.598811e-02 3.302088e-01 4.805664e-01 7.834118e-01 7.881111e-01 1.244570e+00 1.415319e+00 1.298292e+00 1.276928e+00 1.358038e+00 1.267968e+00 1.253294e+00 1.272278e+00 8.060267e-04 4.425370e-02 6.649549e-02 1.068847e-01 1.212830e-01 1.840923e-01 2.154151e-01 2.161747e-01 2.331314e-01 2.377878e-01 2.249429e-01 2.198125e-01 2.131613e-01 7.270642e-05
<GCONST> 6.770990e+01
<TRANSP> 5
 0.000000e+00 1.000000e+00 0.000000e+00 0.000000e+00 0.000000e+00
 0.000000e+00 8.571706e-01 1.428294e-01 0.000000e+00 0.000000e+00
 0.000000e+00 0.000000e+00 8.821405e-01 1.178596e-01 0.000000e+00
 0.000000e+00 0.000000e+00 0.000000e+00 9.359519e-01 6.404808e-02
 0.000000e+00 0.000000e+00 0.000000e+00 0.000000e+00 0.000000e+00
<ENDHMM>
~h "qi"
<BEGINHMM>
<NUMSTATES> 5
<STATE> 2
<MEAN> 39
 -1.613881e+00 6.198341e-01 -5.019034e-01 1.027729e+00 3.812889e-01 1.196102e+00 -1.797454e-01 7.748864e-01 -9.051115e-04 2.629342e-01 3.973544e-01 3.064430e-01 4.877592e-01 -1.610478e-01 8.764914e-02 -2.134062e-01 1.464831e-01 -9.311473e-02 4.357748e-02 -5.294694e-02 6.760280e-02 6.519789e-03 7.748239e-03 4.420768e-02 1.539937e-02 3.662794e-03 3.534592e-02 3.575249e-02 2.177609e-02 3.519735e-03 -1.832246e-02 1.152099e-02 -3.223163e-03 -1.007536e-02 1.315899e-02 -5.751670e-03 -8.777641e-03 -1.581966e-02 4.277487e-03
<VARIANCE> 39
 5.427953e+00 1.061881e+01 1.143368e+01 1.201032e+01 1.494276e+01 1.574373e+01 1.575065e+01 1.736043e+01 1.574036e+01 1.555140e+01 1.471641e+01 1.380518e+01 2.568249e-02 4.013313e-01 7.502016e-01 9.663464e-01 1.187221e+00 1.460979e+00 1.492321e+00 1.598487e+00 1.807150e+00 1.693693e+00 1.626253e+00 1.570853e+00 1.472283e+00 1.597351e-03 7.193387e-02 1.265235e-01 1.734695e-01 2.328087e-01 2.890033e-01 2.895928e-01 3.210675e-01 3.604493e-01 3.457050e-01 3.273280e-01 3.124760e-01 2.897642e-01 1.911154e-04
<GCONST> 6.937811e+01
<STATE> 3
<MEAN> 39
 -2.152951e+00 1.830689e+00 -1.041892e+00 1.709445e+00 4.366348e-02 1.720861e+00 -5.180652e-01 1.159906e+00 1.176600e-01 1.632887e-01 6.486862e-01 2.571327e-01 5.545341e-01 -7.073136e-02 2.650425e-01 -4.339349e-02 6.869612e-02 -1.333818e-02 6.554051e-02 -6.636516e-02 3.209547e-02 5.453154e-03 -2.864625e-02 3.319680e-02 -6.701738e-03 1.208866e-02 1.039981e-02 1.149657e-02 1.582723e-02 -1.887422e-02 3.401568e-03 -7.019634e-03 -3.527267e-03 -9.331319e-03 -6.583630e-03 -5.980232e-03 -1.232404e-02 -6.109454e-03 5.410357e-04
<VARIANCE> 39
 5.623380e+00 1.381711e+01 1.137936e+01 1.165443e+01 1.497106e+01 1.998420e+01 1.698615e+01 2.151325e+01 1.860698e+01 1.865637e+01 1.872244e+01 1.718844e+01 2.845978e-02 3.942453e-01 7.664230e-01 9.814709e-01 1.022342e+00 1.389127e+00 1.510292e+00 1.549940e+00 1.942511e+00 1.721133e+00 1.788955e+00 1.722025e+00 1.606312e+00 1.035145e-03 7.033502e-02 1.234912e-01 1.761991e-01 1.977054e-01 2.673237e-01 2.835047e-01 3.054632e-01 3.672638e-01 3.447478e-01 3.387068e-01 3.283898e-01 3.034576e-01 1.398930e-04
<GCONST> 7.030382e+01
<STATE> 4
<MEAN> 39
 -2.089809e+00 3.702055e+00 -2.918968e-01 1.643825e+00 8.194506e-01 1.800305e+00 -4.731182e-01 1.149115e+00 -2.011512e-01 -1.248105e-01 3.913231e-01 -2.558202e-01 5.987760e-01 1.500500e-02 -3.111183e-03 4.141841e-02 -3.447731e-02 3.234877e-02 -2.326901e-02 1.507682e-02 -2.978541e-02 -8.784377e-03 -1.461302e-02 -1.856643e-02 -6.802893e-03 -1.442630e-03 8.386010e-03 -1.426124e-02 7.543743e-03 -8.450574e-03 -3.966272e-03 -5.168207e-03 1.918240e-03 -5.159765e-03 1.015662e-03 -2.205352e-03 -1.945212e-03 1.291960e-03 -2.546677e-04
<VARIANCE> 39
 5.024559e+00 1.604478e+01 1.090095e+01 1.063883e+01 1.477063e+01 2.338325e+01 1.797318e+01 2.795028e+01 1.991680e+01 2.303519e+01 2.627238e+01 1.999998e+01 3.145128e-02 2.292107e-01 6.274447e-01 6.572574e-01 7.603562e-01 1.014462e+00 1.160108e+00 1.255865e+00 1.508717e+00 1.385943e+00 1.397437e+00 1.408486e+00 1.250497e+00 7.413588e-04 4.182110e-02 9.392440e-02 1.244236e-01 1.462021e-01 1.987738e-01 2.196259e-01 2.440317e-01 2.864809e-01 2.699593e-01 2.640207e-01 2.747844e-01 2.430736e-01 8.416962e-05
<GCONST> 6.393846e+01
<TRANSP> 5
 0.000000e+00 1.000000e+00 0.000000e+00 0.000000e+00 0.000000e+00
 0.000000e+00 8.188710e-01 1.811291e-01 0.000000e+00 0.000000e+00
 0.000000e+00 0.000000e+00 8.183702e-01 1.816297e-01 0.000000e+00
 0.000000e+00 0.000000e+00 0.000000e+00 9.641456e-01 3.585436e-02
 0.000000e+00 0.000000e+00 0.000000e+00 0.000000e+00 0.000000e+00
<ENDHMM>
~h "si"
<BEGINHMM>
<NUMSTATES> 5
<STATE> 2
<MEAN> 39
 -7.820877e-01 -5.288430e-01 6.696171e-01 2.276563e-02 -9.965689e-02 8.234226e-01 -5.063906e-01 2.529569e-01 -2.955791e-01 -3.046339e-01 3.159063e-02 6.744312e-02 5.113582e-01 -1.181737e-02 3.235926e-02 1.255060e-01 8.197447e-02 -8.754829e-02 3.573307e-02 -1.263532e-02 -7.388899e-02 -1.471061e-02 -3.483161e-02 1.751433e-02 -9.798639e-03 4.295627e-03 3.530597e-02 6.274080e-03 7.640917e-03 2.282275e-02 -3.649092e-02 9.368789e-04 3.898033e-03 -1.202935e-02 3.541289e-03 -9.690891e-03 -9.285536e-03 -1.416908e-02 3.041802e-03
<VARIANCE> 39
 5.939353e+00 7.953982e+00 9.933026e+00 1.751234e+01 1.735295e+01 1.752950e+01 3.110147e+01 1.811288e+01 2.182333e+01 2.090609e+01 2.096561e+01 2.122911e+01 2.824896e-02 3.977514e-01 5.080714e-01 8.856187e-01 1.398868e+00 1.521613e+00 1.533445e+00 2.550859e+00 1.828635e+00 1.994620e+00 1.889407e+00 1.925570e+00 1.825373e+00 1.373707e-03 6.367843e-02 8.837082e-02 1.668653e-01 2.419981e-01 2.811740e-01 2.895337e-01 4.398616e-01 3.569417e-01 3.731917e-01 3.538583e-01 3.599542e-01 3.279406e-01 1.264871e-04
<GCONST> 7.250739e+01
<STATE> 3
<MEAN> 39
 -5.086350e-01 -1.247820e-01 1.722791e+00 6.993771e-01 -1.131158e+00 1.121585e+00 -7.850703e-01 -3.074647e-01 -6.642380e-01 -8.558759e-01 -1.852950e-01 -3.972376e-01 5.843170e-01 4.549454e-02 9.948026e-02 1.883836e-01 1.266390e-01 -1.198703e-01 8.450212e-02 3.168412e-02 -1.020348e-01 1.056367e-02 -6.582458e-02 -7.496036e-02 -1.168818e-01 9.557793e-03 2.055760e-03 9.418919e-03 -5.462504e-03 -1.740227e-03 1.354905e-02 1.114949e-02 5.613497e-03 1.211704e-02 1.588940e-02 1.046520e-02 3.577133e-03 5.893604e-03 -3.842126e-04
<VARIANCE> 39
 5.560705e+00 8.160780e+00 1.186384e+01 2.727193e+01 2.203028e+01 2.212368e+01 5.701160e+01 2.136328e+01 3.184781e+01 2.819499e+01 2.989928e+01 3.035143e+01 3.848386e-02 3.288420e-01 4.596964e-01 8.607016e-01 1.417424e+00 1.585264e+00 1.609948e+00 2.853509e+00 1.916041e+00 2.229207e+00 2.142641e+00 2.327659e+00 2.207102e+00 1.254887e-03 5.439237e-02 7.776832e-02 1.491661e-01 2.341343e-01 2.758495e-01 2.929328e-01 4.664663e-01 3.613686e-01 3.825825e-01 3.750774e-01 4.037186e-01 3.781165e-01 1.220123e-04
<GCONST> 7.643497e+01
<STATE> 4
<MEAN> 39
 -4.690457e-01 9.847103e-01 3.034504e+00 1.568834e+00 -6.061451e-01 2.667844e+00 7.792653e-01 -5.737001e-01 8.644871e-01 -1.876392e-01 -1.544926e-01 -2.792789e-01 5.624595e-01 -9.711925e-03 4.617684e-02 -2.529087e-03 -1.893398e-02 5.109150e-02 7.188250e-04 -3.682662e-02 2.227068e-02 -1.264204e-02 4.586186e-03 -5.082649e-03 8.422072e-03 -1.632572e-03 1.863834e-03 -2.004396e-03 -1.409945e-02 -5.278755e-03 4.449019e-03 -1.579357e-02 -5.496494e-03 3.517412e-03 -8.656933e-03 -5.847965e-04 -9.505792e-05 6.719248e-04 -9.412783e-05
<VARIANCE> 39
 4.643748e+00 8.819081e+00 1.413171e+01 1.874998e+01 2.002227e+01 2.826780e+01 4.317661e+01 2.417917e+01 2.978782e+01 2.031273e+01 1.879451e+01 1.727799e+01 3.801050e-02 2.201057e-01 4.131218e-01 7.438340e-01 9.754004e-01 1.260965e+00 1.546643e+00 1.987000e+00 1.700190e+00 1.821552e+00 1.528158e+00 1.578998e+00 1.461399e+00 8.686325e-04 3.694842e-02 6.995036e-02 1.242539e-01 1.689385e-01 2.287283e-01 2.698551e-01 3.380429e-01 3.163816e-01 3.357025e-01 2.824234e-01 2.990830e-01 2.675449e-01 8.407719e-05
<GCONST> 6.804775e+01
<TRANSP> 5
 0.000000e+00 1.000000e+00 0.000000e+00 0.000000e+00 0.000000e+00
 0.000000e+00 8.172168e-01 1.827832e-01 0.000000e+00 0.000000e+00
 0.000000e+00 0.000000e+00 8.270614e-01 1.729386e-01 0.000000e+00
 0.000000e+00 0.000000e+00 0.000000e+00 9.574413e-01 4.255873e-02
 0.000000e+00 0.000000e+00 0.000000e+00 0.000000e+00 0.000000e+00
<ENDHMM>
~h "wu"
<BEGINHMM>
<NUMSTATES> 5
<STATE> 2
<MEAN> 39
 3.975974e+00 2.703961e+00 -7.675457e-01 -1.783324e+00 4.312957e-02 -9.822466e-02 7.779562e-01 2.349178e-01 -4.871204e-01 -8.184098e-01 -1.328338e+00 -1.075450e+00 6.549170e-01 3.211500e-01 3.285421e-01 1.887333e-01 -1.946853e-01 7.321821e-03 1.489403e-01 3.194732e-01 2.871659e-01 1.589466e-01 6.783056e-02 -3.285907e-02 -8.154771e-02 5.623859e-03 6.787648e-03 -1.235312e-02 -1.422232e-02 2.508412e-02 -2.685662e-02 -8.051189e-03 6.018920e-03 3.923889e-02 3.975252e-02 1.903701e-02 2.203455e-02 1.413073e-02 8.517390e-04
<VARIANCE> 39
 1.928096e+01 1.923129e+01 2.301379e+01 2.479227e+01 2.790255e+01 2.713675e+01 3.284920e+01 3.118500e+01 3.134598e+01 3.448726e+01 3.806100e+01 3.868784e+01 4.004272e-02 9.160755e-01 1.292216e+00 1.509831e+00 1.847143e+00 2.326797e+00 2.462948e+00 2.681050e+00 2.696535e+00 2.693254e+00 2.685587e+00 2.706502e+00 2.557212e+00 1.655487e-03 1.289802e-01 1.828994e-01 2.311620e-01 3.419489e-01 4.112302e-01 4.465596e-01 4.970056e-01 5.112824e-01 4.904377e-01 4.922604e-01 4.766920e-01 4.612291e-01 1.573746e-04
<GCONST> 8.994922e+01
<STATE> 3
<MEAN> 39
 5.205304e+00 3.804503e+00 -6.444798e-02 -1.801316e+00 7.226646e-01 9.884070e-01 2.717723e+00 2.289124e+00 1.289600e+00 4.447821e-01 -5.659428e-01 -7.937467e-01 6.802853e-01 1.979376e-02 1.161985e-01 1.620613e-01 2.913502e-02 -1.603446e-02 2.916590e-02 1.441017e-01 2.142152e-01 2.282414e-01 1.777853e-01 1.261077e-01 8.485463e-02 4.197271e-05 -5.984741e-02 -3.774685e-02 -3.229281e-03 2.292526e-02 -2.301334e-02 -4.075889e-02 -5.373633e-02 -3.700561e-02 -1.304683e-02 9.291788e-04 1.353723e-02 1.885810e-02 -1.138706e-03
<VARIANCE> 39
 1.524350e+01 1.583928e+01 1.768211e+01 2.599784e+01 2.952262e+01 2.908791e+01 3.093254e+01 2.903259e+01 2.886925e+01 2.976312e+01 3.065935e+01 2.931123e+01 2.817342e-02 9.517834e-01 1.174216e+00 1.454636e+00 2.321335e+00 2.715323e+00 2.612529e+00 2.964744e+00 2.796452e+00 2.632509e+00 2.532852e+00 2.414227e+00 2.226446e+00 1.330776e-03 1.206939e-01 1.792564e-01 2.484491e-01 4.381663e-01 5.226759e-01 5.024864e-01 5.595621e-01 5.391037e-01 5.066032e-01 4.851069e-01 4.524633e-01 4.149731e-01 1.388945e-04
<GCONST> 8.865288e+01
<STATE> 4
<MEAN> 39
 3.008835e+00 3.784643e+00 1.297107e+00 -1.440959e+00 3.270745e-01 3.273398e-01 2.026779e+00 2.374110e+00 2.100960e+00 1.944700e+00 8.733319e-01 4.550120e-01 5.766734e-01 -1.870992e-01 -1.260807e-01 3.507979e-03 7.626259e-02 4.003373e-02 -1.656553e-02 -9.498753e-02 -9.161649e-02 -6.997274e-02 -3.489958e-02 6.804689e-03 1.601115e-02 -6.270958e-03 -4.364494e-03 -1.900640e-02 -2.188194e-02 3.569107e-03 4.010920e-03 1.244733e-03 -1.487191e-02 -1.968359e-02 -2.084981e-02 -1.848216e-02 -1.043752e-02 -7.782984e-03 7.910955e-05
<VARIANCE> 39
 1.573701e+01 1.293704e+01 1.070943e+01 1.350036e+01 1.778790e+01 1.957510e+01 2.246288e+01 2.320579e+01 2.061781e+01 1.869554e+01 1.666960e+01 1.375925e+01 3.102853e-02 3.979922e-01 5.527400e-01 7.185898e-01 1.104509e+00 1.444953e+00 1.511481e+00 1.863277e+00 1.908929e+00 1.918457e+00 1.626476e+00 1.526553e+00 1.298533e+00 5.697451e-04 5.695201e-02 9.066658e-02 1.362854e-01 2.209917e-01 2.792252e-01 2.892255e-01 3.714060e-01 3.757862e-01 3.854059e-01 3.191189e-01 3.107204e-01 2.629770e-01 6.447800e-05
<GCONST> 6.914613e+01
<TRANSP> 5
 0.000000e+00 1.000000e+00 0.000000e+00 0.000000e+00 0.000000e+00
 0.000000e+00 8.126412e-01 1.873589e-01 0.000000e+00 0.000000e+00
 0.000000e+00 0.000000e+00 8.405157e-01 1.594843e-01 0.000000e+00
 0.000000e+00 0.000000e+00 0.000000e+00 9.425377e-01 5.746227e-02
 0.000000e+00 0.000000e+00 0.000000e+00 0.000000e+00 0.000000e+00
<ENDHMM>
~h "yi"
<BEGINHMM>
<NUMSTATES> 5
<STATE> 2
<MEAN> 39
 -1.016392e+00 3.793060e+00 2.065985e-01 1.609186e+00 8.634595e-01 1.829001e+00 -5.699898e-01 1.051384e+00 -7.527937e-01 -3.590789e-02 1.229427e-01 -3.523715e-01 5.811161e-01 -1.476349e-01 3.312458e-01 -2.007507e-01 2.969942e-01 -5.196933e-03 1.648614e-01 -1.308391e-01 1.948501e-01 -1.239452e-01 1.022246e-01 -1.516142e-02 2.668805e-02 8.384622e-03 2.599039e-02 -5.099183e-02 -1.597798e-02 -2.504713e-02 -6.696431e-02 -3.235964e-02 -7.359224e-03 -2.975567e-02 1.084463e-02 7.682542e-03 -2.644273e-02 -2.517201e-04 2.568170e-03
<VARIANCE> 39
 5.184785e+00 1.512323e+01 1.271621e+01 1.624256e+01 1.939442e+01 2.162708e+01 2.270825e+01 2.821694e+01 2.338581e+01 2.639673e+01 2.271263e+01 2.203610e+01 3.091200e-02 2.744128e-01 1.105398e+00 9.334631e-01 1.388501e+00 1.762948e+00 1.620522e+00 1.983360e+00 2.194090e+00 2.123670e+00 2.018125e+00 1.810168e+00 1.612444e+00 1.604704e-03 4.920130e-02 1.894163e-01 1.730210e-01 2.561898e-01 3.140158e-01 3.048582e-01 3.672041e-01 4.064467e-01 4.154003e-01 3.731086e-01 3.478420e-01 2.944958e-01 1.486982e-04
<GCONST> 7.571738e+01
<STATE> 3
<MEAN> 39
 -1.477367e+00 4.751471e+00 -6.271253e-01 2.345519e+00 4.022428e-01 2.265594e+00 -1.119856e+00 1.581529e+00 -1.054860e+00 3.530841e-01 -4.493720e-02 -2.770895e-01 6.277749e-01 -8.581178e-02 8.851434e-02 -1.367517e-01 6.702522e-02 -6.749748e-02 1.672937e-02 -9.665900e-02 2.867121e-02 -8.223152e-02 3.064173e-02 -6.075591e-02 2.459022e-03 5.496485e-03 1.885574e-02 -5.120014e-02 2.229747e-02 -4.793406e-02 -8.960952e-03 -3.255835e-02 1.477542e-02 -3.210671e-02 1.655056e-02 -1.388129e-02 -2.715085e-03 -1.881658e-04 -8.373974e-04
<VARIANCE> 39
 5.197334e+00 1.276103e+01 1.263427e+01 1.390509e+01 2.010429e+01 2.266171e+01 2.392599e+01 3.227415e+01 2.558805e+01 3.301496e+01 2.457745e+01 2.622429e+01 2.605957e-02 2.147903e-01 7.639518e-01 7.538237e-01 1.053095e+00 1.299135e+00 1.306889e+00 1.622707e+00 1.765711e+00 1.761941e+00 1.703878e+00 1.607835e+00 1.540301e+00 1.011139e-03 3.661812e-02 1.275760e-01 1.378459e-01 1.971771e-01 2.478361e-01 2.458479e-01 3.028385e-01 3.263070e-01 3.419031e-01 3.143146e-01 3.010232e-01 2.771632e-01 9.515534e-05
<GCONST> 6.996643e+01
<STATE> 4
<MEAN> 39
 -1.651885e+00 3.648584e+00 -3.872683e-01 1.634244e+00 5.564854e-01 1.584782e+00 -6.998026e-01 1.036684e+00 -1.079952e+00 2.402982e-01 -2.262832e-01 -2.169031e-01 5.653952e-01 -2.012950e-03 -6.515902e-02 2.039701e-02 -4.474147e-02 9.930047e-03 -4.295093e-02 2.216820e-02 -3.638894e-02 2.824651e-02 -6.448577e-03 1.928012e-02 9.623499e-03 -3.092082e-03 7.540692e-03 -6.977627e-03 9.914842e-03 -7.908979e-03 -1.563612e-03 -5.936932e-03 3.421896e-03 -5.206150e-03 7.545787e-03 -3.563739e-03 2.380134e-03 2.437476e-03 -2.169236e-05
<VARIANCE> 39
 4.453799e+00 1.256744e+01 9.868753e+00 1.209825e+01 1.587999e+01 1.770553e+01 1.983058e+01 2.553834e+01 1.897240e+01 2.324073e+01 1.931960e+01 2.021241e+01 3.042996e-02 1.716256e-01 5.006410e-01 5.883909e-01 7.866555e-01 1.021244e+00 1.077840e+00 1.305560e+00 1.502385e+00 1.493136e+00 1.397276e+00 1.313012e+00 1.260681e+00 5.928993e-04 3.094948e-02 8.422652e-02 1.164024e-01 1.529578e-01 2.029701e-01 2.066043e-01 2.560046e-01 2.924769e-01 2.996944e-01 2.704860e-01 2.638849e-01 2.480063e-01 6.283247e-05
<GCONST> 6.161312e+01
<TRANSP> 5
 0.000000e+00 1.000000e+00 0.000000e+00 0.000000e+00 0.000000e+00
 0.000000e+00 7.414474e-01 2.585526e-01 0.000000e+00 0.000000e+00
 0.000000e+00 0.000000e+00 7.632897e-01 2.367103e-01 0.000000e+00
 0.000000e+00 0.000000e+00 0.000000e+00 9.591933e-01 4.080668e-02
 0.000000e+00 0.000000e+00 0.000000e+00 0.000000e+00 0.000000e+00
<ENDHMM>
~h "ling"
<BEGINHMM>
<NUMSTATES> 5
<STATE> 2
<MEAN> 39
 -3.711447e-01 4.068165e+00 1.749430e+00 1.146880e+00 1.241766e+00 1.563837e+00 -4.430807e-01 1.216704e-02 -3.724204e-01 -1.053325e+00 -5.627763e-01 -8.356084e-01 6.290094e-01 -5.271823e-02 6.030608e-01 -4.150983e-02 2.176796e-01 2.098661e-01 1.184327e-01 5.069857e-05 1.545156e-01 1.209926e-02 -1.142804e-01 -2.454494e-02 -1.233486e-01 1.387246e-02 1.596865e-02 -4.014861e-03 -2.767921e-02 3.309535e-02 -3.590572e-02 -8.560081e-03 1.045746e-02 1.402071e-02 3.167681e-03 1.163857e-02 8.808593e-03 -1.089298e-02 1.710981e-03
<VARIANCE> 39
 4.935148e+00 2.324385e+01 1.438798e+01 1.865785e+01 1.895721e+01 2.616208e+01 2.463393e+01 2.833510e+01 2.753885e+01 2.750273e+01 3.011528e+01 2.680270e+01 3.470604e-02 3.196957e-01 1.647930e+00 1.209159e+00 1.619614e+00 1.682215e+00 2.484488e+00 2.241752e+00 2.536575e+00 2.610967e+00 2.379220e+00 2.280653e+00 1.982656e+00 2.282033e-03 5.587962e-02 2.626793e-01 2.157281e-01 3.009464e-01 3.162744e-01 4.675831e-01 4.256643e-01 4.649368e-01 5.024106e-01 4.481824e-01 4.233682e-01 3.665026e-01 3.274798e-04
<GCONST> 8.331635e+01
<STATE> 3
<MEAN> 39
 -4.684369e-01 6.210446e+00 1.396780e+00 2.334711e+00 1.891971e+00 2.110188e+00 7.971983e-02 8.695447e-01 -3.725317e-02 -1.054082e+00 -3.797469e-01 -1.237005e+00 6.789981e-01 -1.788027e-02 2.688325e-01 -1.245838e-01 1.828700e-01 7.725885e-02 6.442029e-02 1.114116e-01 1.769529e-01 5.910800e-02 8.369227e-02 8.705201e-02 7.625297e-04 4.963474e-03 8.447527e-03 -1.078271e-01 -8.515090e-03 -2.679417e-02 -3.894053e-02 -2.080691e-02 9.561541e-03 -1.558553e-02 -4.768175e-03 3.561246e-02 3.971701e-03 2.780881e-02 -3.063395e-03
<VARIANCE> 39
 5.015681e+00 2.154460e+01 1.375279e+01 1.952238e+01 1.954071e+01 2.634834e+01 2.563001e+01 3.152295e+01 2.823797e+01 2.798212e+01 2.839868e+01 2.405744e+01 2.755599e-02 2.608267e-01 1.631236e+00 1.018249e+00 1.517607e+00 1.453623e+00 2.107516e+00 2.137131e+00 2.409299e+00 2.383232e+00 2.146283e+00 2.132705e+00 1.782622e+00 1.708530e-03 4.350564e-02 2.212363e-01 1.859933e-01 2.644397e-01 2.685072e-01 3.895053e-01 3.947221e-01 4.311354e-01 4.507104e-01 3.993556e-01 3.995532e-01 3.235280e-01 2.200672e-04
<GCONST> 7.956663e+01
<STATE> 4
<MEAN> 39
 -6.270840e-01 4.034289e+00 9.030151e-01 1.470186e+00 2.007255e+00 1.582622e+00 8.856147e-01 1.126613e+00 3.037617e-01 1.595321e-01 3.534353e-01 -2.082543e-01 5.598423e-01 -1.644277e-03 -2.153736e-01 -2.276876e-02 -1.193323e-01 -4.956109e-02 -9.079039e-02 -1.523942e-02 -5.066554e-02 -3.017562e-02 2.238015e-02 -3.024242e-03 4.153566e-02 -7.485540e-03 3.715775e-03 -1.280956e-02 3.977842e-03 -1.284404e-02 -1.573656e-02 -7.961740e-03 -1.094882e-02 -1.423044e-02 -3.587062e-03 -1.163371e-02 -8.008539e-03 -3.711349e-03 4.385831e-04
<VARIANCE> 39
 4.697223e+00 1.980242e+01 9.656181e+00 1.665625e+01 1.488784e+01 1.812968e+01 1.926494e+01 2.194785e+01 2.011489e+01 1.830326e+01 1.827635e+01 1.644587e+01 3.128028e-02 2.069619e-01 7.730445e-01 6.944276e-01 1.005613e+00 1.131623e+00 1.334235e+00 1.497771e+00 1.710094e+00 1.666140e+00 1.470427e+00 1.464547e+00 1.285536e+00 6.844613e-04 3.523670e-02 1.163137e-01 1.285912e-01 1.813109e-01 2.153768e-01 2.500490e-01 2.876389e-01 3.254305e-01 3.234594e-01 2.866273e-01 2.850008e-01 2.483629e-01 8.162924e-05
<GCONST> 6.550198e+01
<TRANSP> 5
 0.000000e+00 1.000000e+00 0.000000e+00 0.000000e+00 0.000000e+00
 0.000000e+00 8.061601e-01 1.938399e-01 0.000000e+00 0.000000e+00
 0.000000e+00 0.000000e+00 8.097848e-01 1.902152e-01 0.000000e+00
 0.000000e+00 0.000000e+00 0.000000e+00 9.477230e-01 5.227693e-02
 0.000000e+00 0.000000e+00 0.000000e+00 0.000000e+00 0.000000e+00
<ENDHMM>
~h "jiu"
<BEGINHMM>
<NUMSTATES> 5
<STATE> 2
<MEAN> 39
 -4.661965e-01 1.872342e+00 3.568181e-01 1.417697e+00 -6.324157e-01 6.734282e-01 -7.102063e-01 2.268833e-01 -2.070394e-01 -3.898986e-01 -7.744250e-02 -1.462815e-01 6.479416e-01 1.070791e-01 1.088599e-01 1.361312e-01 7.109901e-02 -7.539488e-02 -9.778238e-02 -1.308389e-01 -7.953378e-02 2.402140e-02 -4.564925e-02 -6.965361e-03 -3.109586e-02 1.529876e-02 6.878304e-02 -7.114986e-02 -8.060950e-03 -2.489043e-02 -6.138680e-03 -7.437579e-02 -8.005661e-04 -1.516714e-02 3.514854e-03 7.516901e-03 4.459965e-04 9.487784e-03 -2.017597e-04
<VARIANCE> 39
 1.756897e+01 2.015571e+01 3.011466e+01 2.061387e+01 3.029760e+01 3.148934e+01 2.698865e+01 2.787596e+01 2.999520e+01 2.797123e+01 2.897516e+01 2.429392e+01 4.218563e-02 1.139826e+00 2.105093e+00 3.541974e+00 2.292525e+00 3.661742e+00 3.607697e+00 3.181915e+00 3.475538e+00 3.395570e+00 3.085855e+00 2.923593e+00 2.680907e+00 2.790855e-03 1.371103e-01 3.326420e-01 6.311747e-01 4.436805e-01 7.394169e-01 6.780737e-01 6.461192e-01 7.135632e-01 6.796632e-01 6.162144e-01 5.578597e-01 5.177101e-01 2.717472e-04
<GCONST> 9.791753e+01
<STATE> 3
<MEAN> 39
 2.676363e+00 5.946261e-01 -3.642710e-01 1.825473e+00 -1.184667e+00 -1.806136e+00 -1.954563e+00 -5.218372e-01 -7.444651e-02 -1.816199e-01 -2.333654e-01 1.520811e-01 7.360561e-01 3.678386e-01 -2.392016e-01 -3.413055e-01 -6.084906e-02 2.065975e-02 -2.388229e-01 -1.065822e-01 -6.593400e-02 2.393056e-02 8.255682e-02 2.306161e-02 7.390026e-02 2.616402e-03 -2.866143e-02 2.190189e-02 -6.115279e-02 -3.515783e-02 5.899925e-02 5.959898e-02 1.641946e-02 7.215631e-03 2.138961e-03 5.215819e-03 3.012609e-03 -1.551289e-03 -2.505544e-03
<VARIANCE> 39
 2.398037e+01 2.214944e+01 4.931403e+01 2.357243e+01 3.781762e+01 4.856233e+01 3.588436e+01 3.147479e+01 3.230257e+01 2.498210e+01 2.723676e+01 2.234612e+01 3.034033e-02 1.220261e+00 2.073947e+00 4.943824e+00 2.481591e+00 4.153718e+00 5.130195e+00 4.199414e+00 4.111728e+00 3.865416e+00 3.115872e+00 2.817785e+00 2.522090e+00 1.575454e-03 1.269918e-01 3.151614e-01 7.412598e-01 4.667179e-01 8.218330e-01 9.211118e-01 8.124917e-01 8.527303e-01 7.964895e-01 6.542940e-01 5.585160e-01 4.993205e-01 1.634994e-04
<GCONST> 1.009323e+02
<STATE> 4
<MEAN> 39
 4.134465e+00 -1.300636e-01 -3.732717e+00 -2.695513e-01 7.635126e-01 -1.128318e+00 -1.773551e+00 -9.237118e-01 -1.530481e-01 5.398543e-01 -8.538948e-02 3.537455e-01 6.379082e-01 -2.901223e-01 1.468741e-01 2.146711e-01 -1.023125e-01 1.388279e-01 2.652571e-01 1.939569e-01 4.258439e-02 -2.362508e-02 -4.025850e-02 -3.303984e-03 -5.267095e-02 -1.329239e-02 -3.565166e-02 2.139984e-03 7.581329e-02 3.021461e-02 -4.659316e-02 -2.242150e-02 1.186528e-02 2.094712e-02 -3.659194e-03 -1.124834e-02 -4.779200e-03 -4.450142e-03 4.583800e-04
<VARIANCE> 39
 2.257942e+01 1.703781e+01 4.252169e+01 2.529486e+01 2.232388e+01 3.309015e+01 3.188097e+01 3.073545e+01 2.827257e+01 1.962639e+01 1.661153e+01 1.443751e+01 3.922938e-02 7.073361e-01 8.120039e-01 2.164131e+00 1.579664e+00 1.843644e+00 2.529368e+00 2.595661e+00 2.490124e+00 2.369992e+00 1.891531e+00 1.660174e+00 1.376169e+00 9.128343e-04 8.004772e-02 1.213612e-01 2.897234e-01 2.608166e-01 3.299894e-01 4.470100e-01 4.648868e-01 4.577261e-01 4.730214e-01 3.791808e-01 3.368493e-01 2.779922e-01 9.772126e-05
<GCONST> 8.207291e+01
<TRANSP> 5
 0.000000e+00 1.000000e+00 0.000000e+00 0.000000e+00 0.000000e+00
 0.000000e+00 8.967420e-01 1.032580e-01 0.000000e+00 0.000000e+00
 0.000000e+00 0.000000e+00 9.202104e-01 7.978963e-02 0.000000e+00
 0.000000e+00 0.000000e+00 0.000000e+00 9.227679e-01 7.723208e-02
 0.000000e+00 0.000000e+00 0.000000e+00 0.000000e+00 0.000000e+00
<ENDHMM>
~h "liu"
<BEGINHMM>
<NUMSTATES> 5
<STATE> 2
<MEAN> 39
 4.366347e-01 2.494069e+00 2.308212e+00 -4.777381e-01 -1.550179e+00 6.580329e-02 -1.935192e+00 -1.095157e+00 -8.101523e-01 -1.834819e+00 -1.189746e+00 -7.333071e-01 7.658809e-01 1.584628e-01 -4.356271e-03 -2.341235e-02 2.896451e-03 -2.499691e-01 -2.529424e-01 -2.501762e-01 -1.448448e-01 -1.126848e-01 -8.953253e-02 -1.299820e-01 -4.022004e-02 1.859020e-02 3.225275e-02 -5.413972e-02 -7.655628e-02 2.332694e-02 -5.215533e-03 -6.141388e-02 9.367559e-03 1.559722e-02 -4.814990e-03 3.043574e-02 1.369960e-03 6.483242e-03 -7.270981e-04
<VARIANCE> 39
 1.085106e+01 2.427131e+01 3.371477e+01 2.257494e+01 4.001785e+01 4.345186e+01 3.859622e+01 3.491137e+01 4.458921e+01 3.641650e+01 4.477639e+01 4.071252e+01 3.310342e-02 6.112378e-01 2.014561e+00 2.182833e+00 1.944041e+00 3.108042e+00 3.627270e+00 3.158750e+00 3.254832e+00 3.702410e+00 2.877675e+00 3.242671e+00 2.894459e+00 2.111038e-03 7.625525e-02 2.533831e-01 3.214614e-01 3.465427e-01 5.395334e-01 6.100980e-01 5.816506e-01 6.035919e-01 6.595569e-01 5.061979e-01 5.675752e-01 4.845574e-01 2.753232e-04
<GCONST> 9.601145e+01
<STATE> 3
<MEAN> 39
 3.128670e+00 2.523889e-02 -1.080962e+00 3.952011e-01 -3.239678e+00 -2.683433e+00 -2.906662e+00 -1.243803e+00 -1.284680e+00 -1.248077e+00 -1.837979e+00 -1.098362e+00 8.299075e-01 2.679342e-01 -1.941222e-01 -4.076001e-01 1.207700e-01 1.242461e-01 -9.057390e-02 4.999909e-02 7.033069e-02 7.346629e-02 1.504594e-01 6.098478e-02 4.424004e-02 -3.822294e-03 -3.330970e-02 4.490205e-02 6.792868e-03 -3.036477e-02 6.417125e-02 7.111458e-02 2.844522e-02 1.271654e-02 2.351582e-02 7.118531e-03 2.638119e-02 1.458551e-02 -2.447208e-03
<VARIANCE> 39
 1.797382e+01 2.857299e+01 5.053181e+01 2.864109e+01 5.360521e+01 4.922243e+01 4.321711e+01 4.286361e+01 4.868370e+01 4.398078e+01 5.209309e+01 5.172987e+01 2.128623e-02 8.675200e-01 1.929832e+00 3.152025e+00 2.464410e+00 4.030643e+00 4.746685e+00 4.224275e+00 3.947407e+00 4.266219e+00 3.480461e+00 3.888604e+00 3.687560e+00 1.195669e-03 8.876906e-02 2.423864e-01 4.312191e-01 4.219685e-01 6.702288e-01 8.075505e-01 7.718678e-01 7.300439e-01 7.833477e-01 6.198549e-01 6.546652e-01 5.833209e-01 1.324529e-04
<GCONST> 1.019344e+02
<STATE> 4
<MEAN> 39
 4.301538e+00 -2.122756e-01 -3.305057e+00 4.558409e-01 4.454846e-01 -1.555796e+00 -1.483376e+00 -5.377215e-01 2.300541e-01 6.332719e-01 -4.230504e-02 4.757024e-01 6.906043e-01 -3.238463e-01 1.499951e-01 2.435938e-01 -1.210634e-01 1.698484e-01 2.880929e-01 2.179414e-01 6.793754e-02 6.726447e-03 -8.384296e-03 6.183388e-02 4.374313e-02 -1.879436e-02 -4.561167e-02 -1.214190e-02 6.181147e-02 1.507854e-02 -6.236234e-02 -3.033278e-02 8.309323e-03 1.705228e-02 -1.577749e-02 -1.826505e-02 -1.780977e-02 -1.273842e-02 3.959091e-05
<VARIANCE> 39
 1.930864e+01 1.839577e+01 3.867963e+01 2.475236e+01 3.200835e+01 3.623783e+01 3.258903e+01 2.997037e+01 2.663589e+01 2.101311e+01 2.089787e+01 1.831133e+01 3.675083e-02 7.633272e-01 9.149455e-01 1.880699e+00 1.604283e+00 2.127386e+00 2.710624e+00 2.686528e+00 2.481990e+00 2.290055e+00 1.894907e+00 1.776747e+00 1.524273e+00 9.549017e-04 8.609863e-02 1.249392e-01 2.608557e-01 2.730803e-01 3.399434e-01 4.505427e-01 4.745837e-01 4.618714e-01 4.398343e-01 3.589216e-01 3.418253e-01 2.737880e-01 1.029153e-04
<GCONST> 8.326575e+01
<TRANSP> 5
 0.000000e+00 1.000000e+00 0.000000e+00 0.000000e+00 0.000000e+00
 0.000000e+00 8.826700e-01 1.173300e-01 0.000000e+00 0.000000e+00
 0.000000e+00 0.000000e+00 9.159971e-01 8.400293e-02 0.000000e+00
 0.000000e+00 0.000000e+00 0.000000e+00 8.874109e-01 1.125891e-01
 0.000000e+00 0.000000e+00 0.000000e+00 0.000000e+00 0.000000e+00
<ENDHMM>
~h "san"
<BEGINHMM>
<NUMSTATES> 5
<STATE> 2
<MEAN> 39
 4.610703e-01 -1.687407e+00 -1.889393e-01 -5.876750e-01 -2.455085e+00 1.111725e-01 -1.050323e-02 -1.913725e-01 3.843184e-01 -1.075793e-01 2.388042e-01 -2.161318e-01 5.718470e-01 1.920918e-01 -3.459775e-01 -1.576463e-01 -2.690427e-01 -6.118107e-01 -2.914303e-02 -3.898740e-02 -8.492254e-03 5.243282e-02 -6.535998e-02 5.086498e-03 -9.927431e-02 2.600326e-02 3.025790e-02 -7.835527e-02 -5.489027e-02 -3.925242e-02 -6.848458e-02 5.700079e-03 1.527324e-02 1.529548e-02 2.057643e-04 -1.629702e-02 -1.995396e-02 -2.992462e-02 4.500704e-03
<VARIANCE> 39
 1.042235e+01 1.752568e+01 1.396465e+01 1.888168e+01 4.397631e+01 2.468343e+01 2.444168e+01 2.029427e+01 1.636970e+01 1.647495e+01 1.692327e+01 1.616310e+01 5.663780e-02 1.226762e+00 1.324782e+00 1.573065e+00 2.145075e+00 4.007065e+00 2.504067e+00 2.601856e+00 2.549557e+00 1.960571e+00 2.018492e+00 2.104703e+00 1.888649e+00 4.219519e-03 2.103090e-01 1.970724e-01 2.935432e-01 4.177980e-01 7.450355e-01 4.500755e-01 4.800364e-01 5.309463e-01 4.040523e-01 4.111754e-01 4.273761e-01 3.660624e-01 4.924903e-04
<GCONST> 8.817360e+01
<STATE> 3
<MEAN> 39
 1.364514e+00 -4.716264e+00 -1.690121e+00 -2.652016e+00 -5.951182e+00 6.156701e-01 3.836311e-01 3.824129e-03 6.650380e-01 -5.924835e-01 -2.786388e-01 -1.349935e+00 7.468850e-01 -3.169686e-02 -4.317985e-01 -2.190398e-01 -2.036074e-01 -7.473561e-02 2.070823e-01 1.436295e-01 9.720536e-02 1.597687e-02 -3.219249e-02 -8.310466e-02 -1.089136e-01 1.563100e-02 -5.311028e-02 4.806511e-02 3.584041e-02 6.983064e-02 1.618680e-01 8.875487e-03 1.365648e-02 4.590679e-04 -8.576497e-03 2.177565e-02 9.624165e-03 3.449060e-02 -5.021125e-03
<VARIANCE> 39
 9.639677e+00 2.659320e+01 1.839067e+01 2.539133e+01 4.993067e+01 3.825429e+01 3.706387e+01 2.519912e+01 2.145854e+01 2.108963e+01 2.529242e+01 2.593830e+01 5.036663e-02 9.469851e-01 1.853593e+00 1.796288e+00 2.182990e+00 4.474239e+00 2.499650e+00 2.605511e+00 2.802668e+00 2.045136e+00 2.008128e+00 2.309846e+00 2.229074e+00 3.195358e-03 1.676283e-01 2.239518e-01 3.080280e-01 4.111057e-01 7.876551e-01 4.259803e-01 4.704003e-01 5.630500e-01 4.108295e-01 4.001008e-01 4.549807e-01 4.160845e-01 3.410023e-04
<GCONST> 9.179116e+01
<STATE> 4
<MEAN> 39
 2.882309e-01 -3.349756e+00 -5.105907e-01 -2.215524e+00 -2.367115e+00 1.630618e+00 4.997083e-01 3.678375e-01 5.898927e-01 -1.574774e-01 -3.569688e-01 -9.300178e-01 6.552795e-01 -6.374416e-02 3.679767e-01 1.942239e-01 1.237168e-01 2.832431e-01 -6.844522e-02 -6.414250e-02 -3.560268e-02 -3.116820e-02 2.654547e-02 3.980125e-04 7.590853e-02 -1.359237e-02 1.941783e-02 3.586413e-02 1.057198e-03 5.067262e-03 -2.635939e-02 -2.757314e-02 -1.376723e-02 -5.138610e-03 -5.328224e-03 -6.485153e-03 4.627418e-03 5.557038e-04 4.411722e-04
<VARIANCE> 39
 6.574672e+00 3.001725e+01 1.511973e+01 1.912699e+01 3.656615e+01 2.897821e+01 2.988725e+01 2.063811e+01 2.066756e+01 1.842925e+01 1.973683e+01 2.178221e+01 4.721001e-02 3.175997e-01 8.793300e-01 8.088747e-01 9.994932e-01 1.824499e+00 1.362635e+00 1.510061e+00 1.611247e+00 1.466950e+00 1.271513e+00 1.279080e+00 1.117853e+00 9.622942e-04 4.902085e-02 1.145902e-01 1.356642e-01 1.742913e-01 3.102343e-01 2.317561e-01 2.616991e-01 3.075756e-01 2.797407e-01 2.462429e-01 2.539745e-01 2.104404e-01 1.048614e-04
<GCONST> 7.047306e+01
<TRANSP> 5
 0.000000e+00 1.000000e+00 0.000000e+00 0.000000e+00 0.000000e+00
 0.000000e+00 8.704603e-01 1.295397e-01 0.000000e+00 0.000000e+00
 0.000000e+00 0.000000e+00 8.610595e-01 1.389405e-01 0.000000e+00
 0.000000e+00 0.000000e+00 0.000000e+00 9.355309e-01 6.446912e-02
 0.000000e+00 0.000000e+00 0.000000e+00 0.000000e+00 0.000000e+00
<ENDHMM>
~h "sil"
<BEGINHMM>
<NUMSTATES> 5
<STATE> 2
<MEAN> 39
 -1.427818e+00 -2.386737e-01 8.323986e-01 -6.788229e-01 1.599152e+00 -2.644190e-01 1.070445e-01 -5.775566e-01 -3.247045e-01 3.040874e-01 3.170378e-01 5.170908e-01 3.248127e-01 -1.345524e-02 -3.028494e-03 5.626316e-03 1.152677e-02 4.459443e-03 -4.196869e-03 2.413439e-03 -4.318214e-03 2.504961e-03 1.939914e-03 2.480501e-03 9.302589e-03 -1.114897e-03 3.562077e-03 4.153448e-04 -8.752978e-04 5.688422e-04 -3.325146e-03 1.651380e-03 -3.606280e-04 1.604261e-03 8.835435e-04 -1.003151e-03 3.900925e-04 -6.223100e-04 2.839903e-04
<VARIANCE> 39
 2.452291e+00 5.201135e+00 5.636510e+00 7.658247e+00 9.212155e+00 1.159767e+01 1.300290e+01 1.342902e+01 1.443469e+01 1.247693e+01 1.151232e+01 9.833177e+00 8.939544e-03 1.296705e-01 3.012271e-01 5.279294e-01 7.995839e-01 9.380816e-01 1.150523e+00 1.274379e+00 1.416947e+00 1.704288e+00 1.345725e+00 1.332446e+00 1.084599e+00 1.157873e-04 2.644442e-02 6.009930e-02 1.106189e-01 1.681759e-01 1.944376e-01 2.347344e-01 2.461650e-01 2.877707e-01 3.651142e-01 2.760034e-01 2.886842e-01 2.225739e-01 1.623651e-05
<GCONST> 4.949298e+01
<STATE> 3
<MEAN> 39
 -1.649616e+00 -2.242432e-01 1.089707e+00 -7.785657e-01 1.627617e+00 -3.447121e-01 3.052747e-01 -9.499315e-01 -5.824272e-01 1.900304e-01 5.351977e-01 3.804844e-01 3.210731e-01 -5.223620e-03 4.296064e-03 -1.347458e-03 -9.846729e-03 -5.734680e-03 -1.790851e-03 -1.309678e-02 1.991881e-03 -1.153663e-03 -8.900385e-04 6.087294e-03 -2.235980e-03 5.350582e-04 7.194629e-04 1.141349e-04 -4.116757e-03 1.842572e-03 -3.964266e-03 1.990777e-03 -2.025001e-03 5.477376e-03 5.802293e-03 1.089412e-03 -6.932801e-04 -8.285111e-04 2.420753e-04
<VARIANCE> 39
 2.437083e+00 4.537243e+00 5.568869e+00 8.411976e+00 1.010115e+01 1.042911e+01 1.256429e+01 1.317045e+01 1.475907e+01 1.256354e+01 1.194385e+01 1.062387e+01 7.249867e-03 1.490792e-01 3.476883e-01 5.965935e-01 9.251267e-01 1.154531e+00 1.078089e+00 1.318317e+00 1.493662e+00 1.860349e+00 1.520944e+00 1.536342e+00 1.185361e+00 1.533870e-04 3.154525e-02 7.438610e-02 1.340061e-01 1.935369e-01 2.476380e-01 2.236631e-01 2.674187e-01 3.186336e-01 4.068822e-01 3.266769e-01 3.463442e-01 2.530196e-01 2.620827e-05
<GCONST> 5.296677e+01
<STATE> 4
<MEAN> 39
 -1.328389e+00 7.444713e-02 7.118486e-01 -3.087586e-01 1.122344e+00 1.550856e-01 3.644713e-01 -3.034858e-01 -1.238641e-01 2.417717e-01 2.816179e-01 3.862969e-01 3.852841e-01 -8.697598e-03 1.672898e-02 -2.924951e-02 2.142006e-02 -3.862177e-02 3.104139e-02 -2.481554e-03 3.410312e-02 1.682793e-03 8.264570e-03 -9.380178e-03 -1.893807e-02 5.390240e-03 1.382441e-02 2.167666e-02 3.208722e-03 9.120339e-03 -1.357698e-02 8.534271e-03 -1.176717e-03 1.996735e-02 5.401210e-03 3.459621e-03 1.391634e-03 -3.941736e-04 2.297014e-03
<VARIANCE> 39
 4.497336e+00 8.696951e+00 8.399858e+00 9.427253e+00 1.283607e+01 1.310409e+01 1.570042e+01 1.697364e+01 1.733737e+01 1.439759e+01 1.294282e+01 1.139703e+01 2.015463e-02 2.167730e-01 4.756305e-01 6.525262e-01 8.424699e-01 1.152914e+00 1.127877e+00 1.461067e+00 1.580156e+00 1.708697e+00 1.433287e+00 1.388029e+00 1.183953e+00 4.989270e-04 4.399491e-02 9.311115e-02 1.236784e-01 1.585024e-01 2.308248e-01 2.161326e-01 2.757690e-01 3.067886e-01 3.308320e-01 2.717395e-01 2.719071e-01 2.291196e-01 8.723293e-05
<GCONST> 5.962466e+01
<TRANSP> 5
 0.000000e+00 1.000000e+00 0.000000e+00 0.000000e+00 0.000000e+00
 0.000000e+00 9.756951e-01 2.430494e-02 0.000000e+00 0.000000e+00
 0.000000e+00 0.000000e+00 9.502168e-01 4.978321e-02 0.000000e+00
 0.000000e+00 0.000000e+00 0.000000e+00 7.873021e-01 2.126979e-01
 0.000000e+00 0.000000e+00 0.000000e+00 0.000000e+00 0.000000e+00
<ENDHMM>
